{"learner":{"attributes":{"scikit_learn":"{\"_estimator_type\": \"classifier\"}"},"feature_names":[],"feature_types":[],"gradient_booster":{"model":{"gbtree_model_param":{"num_parallel_tree":"1","num_trees":"100"},"iteration_indptr":[0,1,2,3,4,5,6,7,8,9,10,11,12,13,14,15,16,17,18,19,20,21,22,23,24,25,26,27,28,29,30,31,32,33,34,35,36,37,38,39,40,41,42,43,44,45,46,47,48,49,50,51,52,53,54,55,56,57,58,59,60,61,62,63,64,65,66,67,68,69,70,71,72,73,74,75,76,77,78,79,80,81,82,83,84,85,86,87,88,89,90,91,92,93,94,95,96,97,98,99,100],"tree_info":[0,0,0,0,0,0,0,0,0,0,0,0,0,0,0,0,0,0,0,0,0,0,0,0,0,0,0,0,0,0,0,0,0,0,0,0,0,0,0,0,0,0,0,0,0,0,0,0,0,0,0,0,0,0,0,0,0,0,0,0,0,0,0,0,0,0,0,0,0,0,0,0,0,0,0,0,0,0,0,0,0,0,0,0,0,0,0,0,0,0,0,0,0,0,0,0,0,0,0,0],"trees":[{"base_weights":[-9.386679E-3,-1.2155212E0,1.9791024E0,-1.8390983E0,1.776829E0,2.0015089E-1,5.1981604E-1,-1.8539387E0,-1.3649734E0,1.9365822E0,-6.643269E-1,-1.3911138E-1,1.8355356E-1,-1.5649952E0,-1.8675025E0,-7.741282E-1,-1.7852557E0,1.9990556E-1,-1.8073548E-1,-1.1741428E0,1.7354155E-1,-1.259288E0,1.7916232E-1,-1.7583681E0,1.7596869E-1,-1.7952245E0,-1.8965192E0,7.628291E-1,-1.803521E-1,-1.827032E-1,-9.454748E-1,-7.2237784E-1,-1.5470332E0,-1.4792613E0,-1.3157353E-1,-1.322662E-1,-1.9237494E-1,-1.8713155E-1,1.8879797E-1,-1.9455169E-1,-1.8453561E-1,1.7003344E-1,-1.6344021E-1,-1.3829553E-1,1.439954E-4,-1.06920145E-1,5.900712E-2,-1.6341114E-1,-2.2088911E-2,-1.7051534E-1,-5.864007E-2,2.235557E-2,-3.985604E-2],"categories":[],"categories_nodes":[],"categories_segments":[],"categories_sizes":[],"default_left":[0,0,0,0,0,0,0,0,0,0,0,0,0,0,0,0,0,0,0,0,0,0,0,0,0,0,0,0,0,0,0,0,0,0,0,0,0,0,0,0,0,0,0,0,0,0,0,0,0,0,0,0,0],"id":0,"left_children":[1,3,5,7,9,-1,11,13,15,17,19,21,-1,23,25,27,29,-1,-1,31,-1,33,-1,35,-1,37,39,41,-1,-1,43,45,47,49,51,-1,-1,-1,-1,-1,-1,-1,-1,-1,-1,-1,-1,-1,-1,-1,-1,-1,-1],"loss_changes":[1.445026E4,7.0010767E3,7.333789E1,1.9311523E1,2.5370215E2,0E0,3.1249256E1,8.861328E0,2.2953491E1,1.4576392E2,5.1586346E1,5.5784496E1,0E0,9.374347E1,2.6083984E0,6.8616325E1,2.5476074E-1,0E0,0E0,4.610054E0,0E0,3.8364544E0,0E0,7.093292E0,0E0,2.3894922E2,1.4941406E0,4.2670616E1,0E0,0E0,1.9697089E0,8.482895E0,1.6887779E0,1.7229099E0,4.4465572E-1,0E0,0E0,0E0,0E0,0E0,0E0,0E0,0E0,0E0,0E0,0E0,0E0,0E0,0E0,0E0,0E0,0E0,0E0],"parents":[2147483647,0,0,1,1,2,2,3,3,4,4,6,6,7,7,8,8,9,9,10,10,11,11,13,13,14,14,15,15,16,16,19,19,21,21,23,23,25,25,26,26,27,27,30,30,31,31,32,32,33,33,34,34],"right_children":[2,4,6,8,10,-1,12,14,16,18,20,22,-1,24,26,28,30,-1,-1,32,-1,34,-1,36,-1,38,40,42,-1,-1,44,46,48,50,52,-1,-1,-1,-1,-1,-1,-1,-1,-1,-1,-1,-1,-1,-1,-1,-1,-1,-1],"split_conditions":[1E0,1E0,1E0,1E0,1E0,2.0015089E-1,2E0,1E1,1E0,1E0,2E0,1E0,1.8355356E-1,1E1,1.2E1,1E0,1E0,1.9990556E-1,-1.8073548E-1,1.3E1,1.7354155E-1,3E0,1.7916232E-1,9E0,1.7596869E-1,1.2E1,1.3E1,1E0,-1.803521E-1,-1.827032E-1,1E0,1.2E1,3E0,1E0,1.3E1,-1.322662E-1,-1.9237494E-1,-1.8713155E-1,1.8879797E-1,-1.9455169E-1,-1.8453561E-1,1.7003344E-1,-1.6344021E-1,-1.3829553E-1,1.439954E-4,-1.06920145E-1,5.900712E-2,-1.6341114E-1,-2.2088911E-2,-1.7051534E-1,-5.864007E-2,2.235557E-2,-3.985604E-2],"split_indices":[39,38,19,36,18,0,39,20,16,19,38,38,0,0,20,17,9,0,0,20,0,22,0,20,0,0,0,18,0,0,23,0,3,6,0,0,0,0,0,0,0,0,0,0,0,0,0,0,0,0,0,0,0],"split_type":[0,0,0,0,0,0,0,0,0,0,0,0,0,0,0,0,0,0,0,0,0,0,0,0,0,0,0,0,0,0,0,0,0,0,0,0,0,0,0,0,0,0,0,0,0,0,0,0,0,0,0,0,0],"sum_hessian":[6.022991E3,3.7492446E3,2.2737468E3,3.1029956E3,6.462491E2,2.2389968E3,3.474995E1,3.0059956E3,9.699986E1,6.0674915E2,3.9499943E1,2.3749966E1,1.0999985E1,1.399998E2,2.8659958E3,4.149994E1,5.549992E1,5.9724915E2,9.499987E0,3.2999954E1,6.4999905E0,1.5249978E1,8.499988E0,1.3274982E2,7.2499895E0,8.389988E2,2.0269971E3,1.6749975E1,2.4749964E1,5.1749928E1,3.7499948E0,1.6249977E1,1.6749975E1,1.2499982E1,2.7499962E0,3.8999943E1,9.374986E1,8.2249884E2,1.6499977E1,1.01649854E3,1.01049854E3,1.2249983E1,4.4999933E0,2.2499967E0,1.4999979E0,1.2999981E1,3.2499952E0,1.5499978E1,1.2499982E0,9.249987E0,3.2499952E0,1.2499982E0,1.4999979E0],"tree_param":{"num_deleted":"0","num_feature":"40","num_nodes":"53","size_leaf_vector":"1"}},{"base_weights":[5.2113063E-3,-1.1027818E0,1.7994593E0,-1.6680306E0,1.6231707E0,1.8002518E-1,7.65897E-1,-1.8081194E0,7.1769637E-1,1.6398349E0,1.5426269E-1,1.8322807E-2,1.0070403E-1,-1.8243054E-1,-1.339275E0,1.3894324E0,-1.4642296E0,1.690264E-1,1.483556E0,-1.273767E-1,9.039706E-1,-8.154834E-1,-1.732712E-1,1.489979E0,-3.4524533E-1,-1.5997905E-1,1.2455493E-1,-1.4376539E-1,1.5573788E0,1.173382E-1,1.577832E-2,7.806241E-2,-1.7681402E-1,1.8731302E-1,1.3349912E-1,-1.3035205E-1,3.2806862E-2,1.6680115E-1,1.3701008E-1],"categories":[],"categories_nodes":[],"categories_segments":[],"categories_sizes":[],"default_left":[0,0,0,0,0,0,0,0,0,0,0,0,0,0,0,0,0,0,0,0,0,0,0,0,0,0,0,0,0,0,0,0,0,0,0,0,0,0,0],"id":1,"left_children":[1,3,5,7,9,-1,11,13,15,17,19,-1,-1,-1,21,23,25,-1,27,-1,29,31,-1,33,35,-1,-1,-1,37,-1,-1,-1,-1,-1,-1,-1,-1,-1,-1],"loss_changes":[1.18148E4,5.663981E3,4.790039E-1,1.0185166E3,1.5205688E1,0E0,3.0423188E-1,1.9375E1,2.5050134E2,2.4127197E0,9.91744E0,0E0,0E0,0E0,1.9134186E1,2.3211426E1,1.6830124E1,0E0,3.6849335E1,0E0,1.0118065E0,6.9282936E1,0E0,4.8148804E0,5.5516033E0,0E0,0E0,0E0,9.678955E-1,0E0,0E0,0E0,0E0,0E0,0E0,0E0,0E0,0E0,0E0],"parents":[2147483647,0,0,1,1,2,2,3,3,4,4,6,6,7,7,8,8,9,9,10,10,14,14,15,15,16,16,18,18,20,20,21,21,23,23,24,24,28,28],"right_children":[2,4,6,8,10,-1,12,14,16,18,20,-1,-1,-1,22,24,26,-1,28,-1,30,32,-1,34,36,-1,-1,-1,38,-1,-1,-1,-1,-1,-1,-1,-1,-1,-1],"split_conditions":[1E0,1E0,1.7E1,1E0,1.6E1,1.8002518E-1,1E0,1E0,1E0,1.3E1,1.6E1,1.8322807E-2,1.0070403E-1,-1.8243054E-1,1E0,1.5E1,2E0,1.690264E-1,1.3E1,-1.273767E-1,2E0,1E0,-1.732712E-1,1.1E1,1.5E1,-1.5997905E-1,1.2455493E-1,-1.4376539E-1,1.4E1,1.173382E-1,1.577832E-2,7.806241E-2,-1.7681402E-1,1.8731302E-1,1.3349912E-1,-1.3035205E-1,3.2806862E-2,1.6680115E-1,1.3701008E-1],"split_indices":[39,38,20,37,20,0,2,36,17,20,0,0,0,0,16,20,37,0,0,0,21,17,0,20,0,0,0,0,20,0,0,0,0,0,0,0,0,0,0],"split_type":[0,0,0,0,0,0,0,0,0,0,0,0,0,0,0,0,0,0,0,0,0,0,0,0,0,0,0,0,0,0,0,0,0,0,0,0,0,0,0],"sum_hessian":[5.9410166E3,3.6731438E3,2.2678728E3,3.0426194E3,6.3052435E2,2.2653943E3,2.4784818E0,2.874096E3,1.6852347E2,6.233364E2,7.1878858E0,1.2406231E0,1.2378588E0,2.7753904E3,9.8705574E1,1.291317E2,3.939177E1,4.6384448E2,1.5949196E2,2.2338576E0,4.954028E0,4.3656876E1,5.5048702E1,1.22190285E2,6.9414144E0,3.7905132E1,1.4866383E0,3.4758563E0,1.560161E2,3.2192223E0,1.7348055E0,1.6385218E1,2.727166E1,3.199893E1,9.019136E1,2.4782863E0,4.463128E0,9.3107254E1,6.2908848E1],"tree_param":{"num_deleted":"0","num_feature":"40","num_nodes":"39","size_leaf_vector":"1"}},{"base_weights":[-3.7495713E-6,4.3794346E-1,-3.2912633E-1,6.625578E-1,1.6273707E-1,-1.7879087E-1,-6.7591757E-1,9.955891E-1,4.6096507E-1,7.325319E-1,-1.670867E-1,1.5604603E-1,-5.290392E-1,-4.912923E-1,-9.93866E-1,1.2309409E0,7.058252E-1,9.7813636E-1,3.1250358E-1,8.964703E-1,1.4378288E-1,8.634675E-2,-4.7512862E-1,4.4231454E-1,-1.7078672E-1,-3.1654298E-1,-8.278992E-1,-2.42676E-1,-7.926995E-1,-9.386313E-1,-1.4906453E-1,1.3454256E0,9.183602E-1,1.1480108E0,4.9372223E-1,1.2021703E0,7.958443E-1,7.934146E-1,3.0136172E-2,1.1808048E0,7.633337E-1,8.9249E-1,-1.0726554E-1,3.1057322E-1,-5.9916437E-1,-2.1596168E-1,-7.564967E-1,8.568735E-1,2.2030735E-1,1.2667915E-1,-5.1143616E-1,1.3973247E-2,-5.4986185E-1,-6.927613E-1,-1.180367E0,3.4294873E-2,-8.3428115E-1,-7.062379E-1,-1.3036644E0,-7.393392E-1,-1.1131549E0,1.5272307E-1,1.1775565E-1,1.2577216E-1,5.007493E-2,1.1686452E-1,1.6275365E-2,7.4444674E-2,-7.847733E-3,1.3234131E-1,6.9484524E-2,1.1029005E-1,4.944187E-2,1.1012448E-1,5.2426454E-2,2.1452457E-2,-6.735849E-2,1.2496153E-1,5.6487408E-2,8.656006E-2,1.3665224E-2,1.04594246E-1,6.6056214E-3,7.7982442E-3,-9.331202E-2,7.8007355E-2,-2.508772E-3,-3.25707E-2,-1.1391987E-1,6.8725618E-3,-5.7345957E-2,-5.639539E-2,-1.1211332E-1,1.2187642E-1,6.3960634E-2,5.4545224E-2,-1.3504329E-2,8.17581E-2,-3.115423E-3,-2.3505108E-2,-1.08205914E-1,4.0867586E-2,-3.539079E-2,-3.631864E-2,-9.379726E-2,-4.8704684E-2,-9.7392775E-2,-1.05763845E-1,-1.484432E-1,3.901416E-2,-2.3057975E-2,-4.9933E-2,-1.0762942E-1,-5.5328734E-2,-9.551261E-2,-1.3556075E-1,-6.4948924E-2,-4.9553994E-2,-1.0169401E-1,-9.457235E-2,-1.228894E-1],"categories":[],"categories_nodes":[],"categories_segments":[],"categories_sizes":[],"default_left":[0,0,0,0,0,0,0,0,0,0,0,0,0,0,0,0,0,0,0,0,0,0,0,0,0,0,0,0,0,0,0,0,0,0,0,0,0,0,0,0,0,0,0,0,0,0,0,0,0,0,0,0,0,0,0,0,0,0,0,0,0,0,0,0,0,0,0,0,0,0,0,0,0,0,0,0,0,0,0,0,0,0,0,0,0,0,0,0,0,0,0,0,0,0,0,0,0,0,0,0,0,0,0,0,0,0,0,0,0,0,0,0,0,0,0,0,0,0,0,0,0],"id":2,"left_children":[1,3,5,7,9,11,13,15,17,19,21,23,25,27,29,31,33,35,37,39,41,43,45,47,49,51,53,55,57,59,-1,61,63,65,67,69,71,73,75,77,79,81,83,85,87,89,91,93,95,97,99,101,103,105,107,109,111,113,115,117,119,-1,-1,-1,-1,-1,-1,-1,-1,-1,-1,-1,-1,-1,-1,-1,-1,-1,-1,-1,-1,-1,-1,-1,-1,-1,-1,-1,-1,-1,-1,-1,-1,-1,-1,-1,-1,-1,-1,-1,-1,-1,-1,-1,-1,-1,-1,-1,-1,-1,-1,-1,-1,-1,-1,-1,-1,-1,-1,-1,-1],"loss_changes":[8.333779E2,1.5324136E2,1.7197836E2,9.122339E1,2.0988358E2,2.703018E2,5.8089844E1,3.418918E1,6.515199E1,3.938559E1,5.5294357E1,1.1036195E2,7.127023E1,4.7263046E1,8.632965E0,8.867676E0,2.1262245E1,6.7896576E0,9.01236E1,1.1213776E1,1.7079859E1,6.0001152E1,2.3143364E1,5.766906E1,5.5908966E1,5.0898224E1,2.1447815E1,5.712922E1,1.1706146E1,1.0714905E1,0E0,4.442566E0,1.0542686E1,1.328392E0,2.2876587E1,4.1941986E0,9.408089E0,1.9766922E1,5.4553185E1,3.5423431E0,1.4032669E1,2.8220406E0,1.0561927E1,4.6334244E1,1.3843529E1,1.7114288E1,1.0098633E1,1.643193E1,4.7531853E1,3.219453E1,4.029377E1,3.9938656E1,2.7688225E1,1.9209778E1,3.211563E0,2.2552355E1,8.47364E0,8.860184E0,4.8490143E-1,1.0179291E1,2.2266388E0,0E0,0E0,0E0,0E0,0E0,0E0,0E0,0E0,0E0,0E0,0E0,0E0,0E0,0E0,0E0,0E0,0E0,0E0,0E0,0E0,0E0,0E0,0E0,0E0,0E0,0E0,0E0,0E0,0E0,0E0,0E0,0E0,0E0,0E0,0E0,0E0,0E0,0E0,0E0,0E0,0E0,0E0,0E0,0E0,0E0,0E0,0E0,0E0,0E0,0E0,0E0,0E0,0E0,0E0,0E0,0E0,0E0,0E0,0E0,0E0],"parents":[2147483647,0,0,1,1,2,2,3,3,4,4,5,5,6,6,7,7,8,8,9,9,10,10,11,11,12,12,13,13,14,14,15,15,16,16,17,17,18,18,19,19,20,20,21,21,22,22,23,23,24,24,25,25,26,26,27,27,28,28,29,29,31,31,32,32,33,33,34,34,35,35,36,36,37,37,38,38,39,39,40,40,41,41,42,42,43,43,44,44,45,45,46,46,47,47,48,48,49,49,50,50,51,51,52,52,53,53,54,54,55,55,56,56,57,57,58,58,59,59,60,60],"right_children":[2,4,6,8,10,12,14,16,18,20,22,24,26,28,30,32,34,36,38,40,42,44,46,48,50,52,54,56,58,60,-1,62,64,66,68,70,72,74,76,78,80,82,84,86,88,90,92,94,96,98,100,102,104,106,108,110,112,114,116,118,120,-1,-1,-1,-1,-1,-1,-1,-1,-1,-1,-1,-1,-1,-1,-1,-1,-1,-1,-1,-1,-1,-1,-1,-1,-1,-1,-1,-1,-1,-1,-1,-1,-1,-1,-1,-1,-1,-1,-1,-1,-1,-1,-1,-1,-1,-1,-1,-1,-1,-1,-1,-1,-1,-1,-1,-1,-1,-1,-1,-1],"split_conditions":[1.2E1,6E0,1.4E1,1.1E1,1E1,4E0,3E0,4E0,2E0,9E0,7E0,3E0,2E0,1.5E1,5E0,3E0,1E1,5E0,4E0,9E0,8E0,3E0,2E0,1.3E1,1.3E1,5E0,1.3E1,3E0,3E0,1E0,-1.4906453E-1,3E0,5E0,1E0,5E0,4E0,2E0,4E0,4E0,5E0,4E0,4E0,2E0,1.1E1,1.1E1,1.1E1,1.1E1,2E0,2E0,2E0,3E0,1.3E1,1.3E1,5E0,5E0,2E0,1E0,2E0,1E0,2E0,1E0,1.5272307E-1,1.1775565E-1,1.2577216E-1,5.007493E-2,1.1686452E-1,1.6275365E-2,7.4444674E-2,-7.847733E-3,1.3234131E-1,6.9484524E-2,1.1029005E-1,4.944187E-2,1.1012448E-1,5.2426454E-2,2.1452457E-2,-6.735849E-2,1.2496153E-1,5.6487408E-2,8.656006E-2,1.3665224E-2,1.04594246E-1,6.6056214E-3,7.7982442E-3,-9.331202E-2,7.8007355E-2,-2.508772E-3,-3.25707E-2,-1.1391987E-1,6.8725618E-3,-5.7345957E-2,-5.639539E-2,-1.1211332E-1,1.2187642E-1,6.3960634E-2,5.4545224E-2,-1.3504329E-2,8.17581E-2,-3.115423E-3,-2.3505108E-2,-1.08205914E-1,4.0867586E-2,-3.539079E-2,-3.631864E-2,-9.379726E-2,-4.8704684E-2,-9.7392775E-2,-1.05763845E-1,-1.484432E-1,3.901416E-2,-2.3057975E-2,-4.9933E-2,-1.0762942E-1,-5.5328734E-2,-9.551261E-2,-1.3556075E-1,-6.4948924E-2,-4.9553994E-2,-1.0169401E-1,-9.457235E-2,-1.228894E-1],"split_indices":[20,21,20,20,20,21,21,22,22,21,21,22,22,20,21,23,20,21,21,20,20,22,2,20,20,21,20,22,22,23,0,22,21,15,21,23,23,22,2,22,22,2,23,20,20,20,20,23,23,21,21,20,20,21,21,21,23,21,30,2,22,0,0,0,0,0,0,0,0,0,0,0,0,0,0,0,0,0,0,0,0,0,0,0,0,0,0,0,0,0,0,0,0,0,0,0,0,0,0,0,0,0,0,0,0,0,0,0,0,0,0,0,0,0,0,0,0,0,0,0,0],"split_type":[0,0,0,0,0,0,0,0,0,0,0,0,0,0,0,0,0,0,0,0,0,0,0,0,0,0,0,0,0,0,0,0,0,0,0,0,0,0,0,0,0,0,0,0,0,0,0,0,0,0,0,0,0,0,0,0,0,0,0,0,0,0,0,0,0,0,0,0,0,0,0,0,0,0,0,0,0,0,0,0,0,0,0,0,0,0,0,0,0,0,0,0,0,0,0,0,0,0,0,0,0,0,0,0,0,0,0,0,0,0,0,0,0,0,0,0,0,0,0,0,0],"sum_hessian":[5.7797935E3,2.4797634E3,3.3000298E3,1.364608E3,1.1151554E3,2.3031294E3,9.969006E2,5.130729E2,8.515352E2,4.0839755E2,7.067578E2,1.1777533E3,1.125376E3,6.322898E2,3.6461078E2,2.813262E2,2.3174667E2,1.8867838E2,6.628569E2,3.190381E2,8.935947E1,3.8814297E2,3.1861484E2,6.2764984E2,5.501035E2,6.589247E2,4.664513E2,3.474775E2,2.848123E2,3.3072803E2,3.3882763E1,2.0349178E2,7.783441E1,7.3695694E1,1.5805098E2,8.213772E1,1.0654065E2,2.4454788E2,4.1830896E2,9.923557E1,2.1980252E2,2.179744E1,6.756203E1,2.9288806E2,9.525493E1,1.6677066E2,1.5184418E2,2.179002E2,4.097496E2,2.9400082E2,2.5610272E2,2.730566E2,3.8586807E2,3.3931985E2,1.2713144E2,2.3731577E2,1.10161736E2,2.4563069E2,3.9181602E1,1.5685188E2,1.7387613E2,9.380338E1,1.096884E2,4.183031E1,3.6004097E1,7.200162E1,1.6940714E0,1.0968746E2,4.836351E1,6.4996056E1,1.7141665E1,5.1460228E1,5.5080425E1,1.1263467E2,1.3191322E2,3.320109E2,8.6298065E1,8.833784E1,1.08977375E1,1.8863783E2,3.1164677E1,1.8159897E1,3.6375418E0,5.5923393E1,1.16386385E1,1.2154916E2,1.713389E2,6.4298965E1,3.0955965E1,9.3289185E1,7.3481476E1,1.0103842E2,5.0805767E1,8.0014565E1,1.3788565E2,2.136894E2,1.960602E2,5.3895958E1,2.4010486E2,1.7348569E2,8.261703E1,1.3167287E2,1.4138374E2,2.6185535E2,1.2401272E2,1.9752995E2,1.417899E2,9.376415E1,3.3367287E1,1.01065735E2,1.3625003E2,4.7493286E1,6.2668453E1,1.5413335E2,9.1497345E1,3.5305984E1,3.8756182E0,8.4993004E1,7.185889E1,7.481613E1,9.905999E1],"tree_param":{"num_deleted":"0","num_feature":"40","num_nodes":"121","size_leaf_vector":"1"}},{"base_weights":[6.297926E-3,-9.944678E-1,1.6447706E0,-1.5209037E0,1.4724177E0,1.6651697E-1,3.6895332E-1,-1.6512805E0,6.426964E-1,1.5155451E-1,-1.6780719E-1,-3.3982506E-1,1.5745421E-1,-1.6662645E-1,-1.1939801E0,1.2391418E0,-1.2962055E0,-1.4135896E0,1.5150529E-1,-6.4775074E-1,-1.5748058E-1,1.3050897E0,-1.3339804E-1,-1.4454387E0,1.2576655E-1,-1.8352105E-1,9.2617825E-2,7.72613E-2,-1.6024266E-1,7.8508146E-2,1.3920315E-1,-1.5430884E-1,8.378495E-2],"categories":[],"categories_nodes":[],"categories_segments":[],"categories_sizes":[],"default_left":[0,0,0,0,0,0,0,0,0,0,0,0,0,0,0,0,0,0,0,0,0,0,0,0,0,0,0,0,0,0,0,0,0],"id":3,"left_children":[1,3,5,7,9,-1,11,13,15,-1,-1,17,-1,-1,19,21,23,25,-1,27,-1,29,-1,31,-1,-1,-1,-1,-1,-1,-1,-1,-1],"loss_changes":[9.415891E3,4.6318594E3,5.6054688E1,8.299507E2,8.7799194E1,0E0,3.091379E1,1.700293E1,1.9557184E2,0E0,0E0,4.837195E1,0E0,0E0,1.8006485E1,2.3593704E1,1.704235E1,1.6712673E1,0E0,5.449044E1,0E0,4.606659E0,0E0,9.811447E0,0E0,0E0,0E0,0E0,0E0,0E0,0E0,0E0,0E0],"parents":[2147483647,0,0,1,1,2,2,3,3,4,4,6,6,7,7,8,8,11,11,14,14,15,15,16,16,17,17,19,19,21,21,23,23],"right_children":[2,4,6,8,10,-1,12,14,16,-1,-1,18,-1,-1,20,22,24,26,-1,28,-1,30,-1,32,-1,-1,-1,-1,-1,-1,-1,-1,-1],"split_conditions":[1E0,1E0,1E0,1E0,1E0,1.6651697E-1,2E0,1E0,1E0,1.5155451E-1,-1.6780719E-1,1E0,1.5745421E-1,-1.6662645E-1,1E0,1E0,2E0,1E0,1.5150529E-1,1E0,-1.5748058E-1,1E0,-1.3339804E-1,1E0,1.2576655E-1,-1.8352105E-1,9.2617825E-2,7.72613E-2,-1.6024266E-1,7.8508146E-2,1.3920315E-1,-1.5430884E-1,8.378495E-2],"split_indices":[39,38,19,37,19,0,39,36,17,0,0,38,0,0,16,19,37,37,0,17,0,22,0,35,0,0,0,0,0,0,0,0,0],"split_type":[0,0,0,0,0,0,0,0,0,0,0,0,0,0,0,0,0,0,0,0,0,0,0,0,0,0,0,0,0,0,0,0,0],"sum_hessian":[5.740354E3,3.5639287E3,2.1764255E3,2.937456E3,6.2647266E2,2.1418738E3,3.4551662E1,2.7707307E3,1.6672519E2,6.185246E2,7.9480743E0,2.2211443E1,1.2340218E1,2.680265E3,9.046587E1,1.2777877E2,3.8946423E1,1.4218466E1,7.9929767E0,3.8272053E1,5.219382E1,1.2506618E2,2.7125912E0,3.7206326E1,1.7400987E0,1.22302475E1,1.9882182E0,1.5460569E1,2.2811483E1,1.9351665E1,1.0571451E2,3.5991264E1,1.2150611E0],"tree_param":{"num_deleted":"0","num_feature":"40","num_nodes":"33","size_leaf_vector":"1"}},{"base_weights":[-4.6405043E-3,-9.4520664E-1,1.5445374E-1,-1.4320027E0,1.3825439E0,-1.5533075E0,5.4124135E-1,1.531791E-1,-8.636492E-1,-1.5654439E-1,-1.1873474E0,9.00927E-1,-1.8948166E-1,-1.276888E0,1.4816935E-1,-7.8504086E-1,-1.4913264E-1,9.8020065E-1,-3.9978626E-1,-1.854913E-1,1.373006E-1,1.9543493E-4,-9.658524E-2,1.13029234E-1,6.4803E-2,1.1674597E-2,-1.1547791E-1],"categories":[],"categories_nodes":[],"categories_segments":[],"categories_sizes":[],"default_left":[0,0,0,0,0,0,0,0,0,0,0,0,0,0,0,0,0,0,0,0,0,0,0,0,0,0,0],"id":4,"left_children":[1,3,-1,5,7,9,11,-1,13,-1,15,17,-1,19,-1,21,-1,23,25,-1,-1,-1,-1,-1,-1,-1,-1],"loss_changes":[8.0808735E3,3.9121658E3,0E0,6.840835E2,2.0157422E2,1.0086426E1,1.4720564E2,0E0,3.858206E1,0E0,9.892502E0,1.5381073E1,0E0,5.2668404E1,0E0,5.842783E0,0E0,6.1131287E0,3.6683984E0,0E0,0E0,0E0,0E0,0E0,0E0,0E0,0E0],"parents":[2147483647,0,0,1,1,3,3,4,4,5,5,6,6,8,8,10,10,11,11,13,13,15,15,17,17,18,18],"right_children":[2,4,-1,6,8,10,12,-1,14,-1,16,18,-1,20,-1,22,-1,24,26,-1,-1,-1,-1,-1,-1,-1,-1],"split_conditions":[1E0,1E0,1.5445374E-1,1E0,1E0,1E0,1E0,1.531791E-1,1E0,-1.5654439E-1,1E0,1.5E1,-1.8948166E-1,2E0,1.4816935E-1,1.1E1,-1.4913264E-1,1.3E1,3E0,-1.854913E-1,1.373006E-1,1.9543493E-4,-9.658524E-2,1.13029234E-1,6.4803E-2,1.1674597E-2,-1.1547791E-1],"split_indices":[39,38,0,37,18,36,18,0,37,0,16,20,0,38,0,20,0,20,1,0,0,0,0,0,0,0,0],"split_type":[0,0,0,0,0,0,0,0,0,0,0,0,0,0,0,0,0,0,0,0,0,0,0,0,0,0,0],"sum_hessian":[5.543843E3,3.4497532E3,2.0940894E3,2.8534119E3,5.963414E2,2.6883584E3,1.6505347E2,5.5948474E2,3.6856594E1,2.598893E3,8.946536E1,1.4436766E2,2.0685816E1,3.1722754E1,5.133841E0,4.004699E1,4.9418373E1,1.3630669E2,8.060977E0,2.6288427E1,5.434325E0,7.666626E0,3.2380363E1,9.222981E1,4.4076866E1,5.2883162E0,2.7726607E0],"tree_param":{"num_deleted":"0","num_feature":"40","num_nodes":"27","size_leaf_vector":"1"}},{"base_weights":[-2.9824825E-3,-1.7149092E-1,1.3051107E0,1.942961E-1,-4.3039098E-1,1.4340991E0,4.8549343E-2,2.0664395E-3,1.4792164E-1,-1.4863138E-1,-3.0994642E-1,1.494646E-1,-3.5256118E-1,-1.2479554E-1,1.3237637E-1,3.622166E-1,-5.263924E-1,2.5868613E-1,-5.593846E-1,-2.7535189E-2,-7.264208E-1,-3.1846476E-1,1.3863067E-1,5.2602746E-2,1.4743067E-1,-1.4958483E-1,-1.9982578E-1,-1.621841E-1,1.5030496E-1,-1.4774671E-1,-3.5080263E-1,-5.811016E-1,6.2243223E-1,-8.5649943E-1,5.60256E-3,-3.69838E-2,-6.621737E-1,5.5735815E-2,-4.830733E-2,2.0613844E-2,-5.349501E-2,3.3480372E-2,-5.2237112E-2,1.6112357E-2,-6.955648E-2,2.575828E-2,-1.1040348E-1,-1.6872387E-2,9.351405E-2,-3.5405315E-2,-1.0199576E-1,-3.959076E-2,7.966963E-2,-1.11321725E-1,-1.6886767E-2],"categories":[],"categories_nodes":[],"categories_segments":[],"categories_sizes":[],"default_left":[0,0,0,0,0,0,0,0,0,0,0,0,0,0,0,0,0,0,0,0,0,0,0,0,0,0,0,0,0,0,0,0,0,0,0,0,0,0,0,0,0,0,0,0,0,0,0,0,0,0,0,0,0,0,0],"id":5,"left_children":[1,3,5,7,9,11,13,15,-1,-1,17,-1,19,21,-1,23,25,27,29,31,33,35,-1,37,-1,-1,39,41,-1,-1,43,45,47,49,-1,51,53,-1,-1,-1,-1,-1,-1,-1,-1,-1,-1,-1,-1,-1,-1,-1,-1,-1,-1],"loss_changes":[1.1650725E3,4.4351553E2,9.76958E1,4.7949496E2,3.4827856E2,5.969934E1,1.2806917E1,3.217744E2,0E0,0E0,3.4943634E2,0E0,2.2569742E0,1.5442678E1,0E0,3.4611365E2,2.1663654E2,3.9384497E2,3.273302E2,4.3422527E0,9.309373E-1,4.4499927E0,0E0,2.1320177E2,0E0,0E0,7.0000534E1,1.0086904E2,0E0,0E0,2.465666E2,3.1315563E0,1.5361452E0,2.5483942E-1,0E0,8.240577E0,4.431986E0,0E0,0E0,0E0,0E0,0E0,0E0,0E0,0E0,0E0,0E0,0E0,0E0,0E0,0E0,0E0,0E0,0E0,0E0],"parents":[2147483647,0,0,1,1,2,2,3,3,4,4,5,5,6,6,7,7,10,10,12,12,13,13,15,15,16,16,17,17,18,18,19,19,20,20,21,21,23,23,26,26,27,27,30,30,31,31,32,32,33,33,35,35,36,36],"right_children":[2,4,6,8,10,12,14,16,-1,-1,18,-1,20,22,-1,24,26,28,30,32,34,36,-1,38,-1,-1,40,42,-1,-1,44,46,48,50,-1,52,54,-1,-1,-1,-1,-1,-1,-1,-1,-1,-1,-1,-1,-1,-1,-1,-1,-1,-1],"split_conditions":[1E0,1.2E1,1E0,1.2E1,1.2E1,1E0,2E0,1.1E1,1.4792164E-1,-1.4863138E-1,1.3E1,1.494646E-1,1.3E1,1E0,1.3237637E-1,1.1E1,1.1E1,1.3E1,1.3E1,1.2E1,1E0,1.3E1,1.3863067E-1,1E1,1.4743067E-1,-1.4958483E-1,5E0,4E0,1.5030496E-1,-1.4774671E-1,1.4E1,1.1E1,1E0,1E0,5.60256E-3,1.2E1,1.4E1,5.5735815E-2,-4.830733E-2,2.0613844E-2,-5.349501E-2,3.3480372E-2,-5.2237112E-2,1.6112357E-2,-6.955648E-2,2.575828E-2,-1.1040348E-1,-1.6872387E-2,9.351405E-2,-3.5405315E-2,-1.0199576E-1,-3.959076E-2,7.966963E-2,-1.11321725E-1,-1.6886767E-2],"split_indices":[38,20,18,0,0,19,38,20,0,0,20,0,20,37,0,0,0,0,0,0,11,20,0,20,0,0,21,21,0,0,20,20,3,22,0,0,0,0,0,0,0,0,0,0,0,0,0,0,0,0,0,0,0,0,0],"split_type":[0,0,0,0,0,0,0,0,0,0,0,0,0,0,0,0,0,0,0,0,0,0,0,0,0,0,0,0,0,0,0,0,0,0,0,0,0,0,0,0,0,0,0,0,0,0,0,0,0,0,0,0,0,0,0],"sum_hessian":[5.2835635E3,4.681378E3,6.021857E2,1.9402892E3,2.7410886E3,5.459968E2,5.618891E1,1.6886599E3,2.5162927E2,2.7949036E2,2.4615984E3,5.282585E2,1.7738373E1,5.025913E1,5.929783E0,1.00443896E3,6.8422095E2,7.5055536E2,1.711043E3,1.0063244E1,7.6751285E0,4.524907E1,5.0100603E0,7.865149E2,2.1792409E2,1.7150507E2,5.127159E2,5.6151025E2,1.8904507E2,3.156431E2,1.3953999E3,5.491866E0,4.5713778E0,6.4999027E0,1.175226E0,2.548538E1,1.9763689E1,4.0492383E2,3.8159103E2,2.32027E2,2.8068887E2,2.3597763E2,3.2553265E2,5.6177344E2,8.3362646E2,2.304046E0,3.18782E0,1.4254395E0,3.1459382E0,2.3726726E0,4.12723E0,1.818242E1,7.302959E0,9.6676445E0,1.0096045E1],"tree_param":{"num_deleted":"0","num_feature":"40","num_nodes":"55","size_leaf_vector":"1"}},{"base_weights":[2.463688E-3,-8.829583E-1,1.4434624E0,-1.319539E0,1.2127641E0,1.4653814E-1,1.0844808E-1,-1.4371252E0,5.079246E-1,1.3653066E0,-8.362003E-1,-5.307808E-1,1.3795263E-1,-1.452819E-1,-9.677384E-1,8.390472E-1,-1.6740961E-1,1.4259121E-1,-1.6472013E-1,-1.182754E0,1.314895E-1,-1.3517315E0,1.3103692E-1,-4.7401938E-1,-1.3691638E-1,8.9361155E-1,-1.2981786E-1,-1.6239072E-1,1.2288614E-1,-1.7522702E-1,8.417003E-2,-3.0306328E-2,-1.4724551E-1,1.0179812E-1,2.1754986E-2],"categories":[],"categories_nodes":[],"categories_segments":[],"categories_sizes":[],"default_left":[0,0,0,0,0,0,0,0,0,0,0,0,0,0,0,0,0,0,0,0,0,0,0,0,0,0,0,0,0,0,0,0,0,0,0],"id":6,"left_children":[1,3,5,7,9,-1,11,13,15,17,19,21,-1,-1,23,25,-1,-1,-1,27,-1,29,-1,31,-1,33,-1,-1,-1,-1,-1,-1,-1,-1,-1],"loss_changes":[6.5816646E3,2.9250508E3,5.7291504E1,5.690581E2,1.734801E2,0E0,2.7377264E1,1.6900879E1,1.1746121E2,9.6111755E1,3.0498688E1,3.5843723E1,0E0,0E0,1.58797455E1,1.7501595E1,0E0,0E0,0E0,3.8130775E1,0E0,1.56045E1,0E0,6.198518E0,0E0,1.1317413E1,0E0,0E0,0E0,0E0,0E0,0E0,0E0,0E0,0E0],"parents":[2147483647,0,0,1,1,2,2,3,3,4,4,6,6,7,7,8,8,9,9,10,10,11,11,14,14,15,15,19,19,21,21,23,23,25,25],"right_children":[2,4,6,8,10,-1,12,14,16,18,20,22,-1,-1,24,26,-1,-1,-1,28,-1,30,-1,32,-1,34,-1,-1,-1,-1,-1,-1,-1,-1,-1],"split_conditions":[1E0,1E0,1E0,1E0,1E0,1.4653814E-1,2E0,1E0,1E0,1E0,1E0,1E0,1.3795263E-1,-1.452819E-1,1E0,1E0,-1.6740961E-1,1.4259121E-1,-1.6472013E-1,2E0,1.314895E-1,1E0,1.3103692E-1,1E0,-1.3691638E-1,1.4E1,-1.2981786E-1,-1.6239072E-1,1.2288614E-1,-1.7522702E-1,8.417003E-2,-3.0306328E-2,-1.4724551E-1,1.0179812E-1,2.1754986E-2],"split_indices":[39,38,19,37,18,0,39,36,18,19,37,38,0,0,16,19,0,0,0,38,0,37,0,18,0,20,0,0,0,0,0,0,0,0,0],"split_type":[0,0,0,0,0,0,0,0,0,0,0,0,0,0,0,0,0,0,0,0,0,0,0,0,0,0,0,0,0,0,0,0,0,0,0],"sum_hessian":[5.1564824E3,3.1941953E3,1.9622869E3,2.6438079E3,5.5038745E2,1.9304933E3,3.1793491E1,2.4841797E3,1.5962831E2,5.1256165E2,3.7825825E1,2.1542248E1,1.0251242E1,2.4017817E3,8.239793E1,1.3913066E2,2.0497662E1,5.029696E2,9.592017E0,3.296512E1,4.8607073E0,1.5082799E1,6.4594493E0,3.7929146E1,4.4468777E1,1.362344E2,2.8962445E0,2.8143501E1,4.8216176E0,1.2923915E1,2.1588843E0,3.3497166E1,4.4319787E0,1.1463938E2,2.1595026E1],"tree_param":{"num_deleted":"0","num_feature":"40","num_nodes":"35","size_leaf_vector":"1"}},{"base_weights":[-5.040166E-3,-8.491967E-1,1.3811266E0,-1.2589425E0,1.16339E0,1.4016864E-1,1.83157E-1,-1.3754811E0,4.6207702E-1,1.3095846E0,-7.996117E-1,-3.2122627E-1,1.2993354E-1,-1.39175E-1,-9.2287695E-1,7.6568866E-1,-1.5585779E-1,1.3695355E-1,-1.5313898E-1,-1.1374034E0,1.1756539E-1,-1.1281011E0,1.2724866E-1,-4.707998E-1,-1.2933113E-1,8.192475E-1,-1.2393401E-1,-1.547865E0,1.2208678E-1,-1.5589808E-1,1.1182296E-1,-5.7379484E-2,1.1458949E-1,1.00945234E-1,4.4561524E-2,-6.725861E-2,-1.599274E-1],"categories":[],"categories_nodes":[],"categories_segments":[],"categories_sizes":[],"default_left":[0,0,0,0,0,0,0,0,0,0,0,0,0,0,0,0,0,0,0,0,0,0,0,0,0,0,0,0,0,0,0,0,0,0,0,0,0],"id":7,"left_children":[1,3,5,7,9,-1,11,13,15,17,19,21,-1,-1,23,25,-1,-1,-1,27,-1,29,-1,31,-1,33,-1,35,-1,-1,-1,-1,-1,-1,-1,-1,-1],"loss_changes":[5.713868E3,2.5041604E3,4.526367E1,5.064585E2,1.4851959E2,0E0,1.8620792E1,1.6109375E1,9.977816E1,8.3618286E1,2.5517E1,3.110453E1,0E0,0E0,1.3614685E1,1.6089607E1,0E0,0E0,0E0,3.2337723E1,0E0,1.7081856E1,0E0,7.2887287E0,0E0,9.30928E0,0E0,1.4974976E-1,0E0,0E0,0E0,0E0,0E0,0E0,0E0,0E0,0E0],"parents":[2147483647,0,0,1,1,2,2,3,3,4,4,6,6,7,7,8,8,9,9,10,10,11,11,14,14,15,15,19,19,21,21,23,23,25,25,27,27],"right_children":[2,4,6,8,10,-1,12,14,16,18,20,22,-1,-1,24,26,-1,-1,-1,28,-1,30,-1,32,-1,34,-1,36,-1,-1,-1,-1,-1,-1,-1,-1,-1],"split_conditions":[1E0,1E0,1E0,1E0,1E0,1.4016864E-1,2E0,1E0,1E0,1E0,2E0,1E0,1.2993354E-1,-1.39175E-1,1E0,1E0,-1.5585779E-1,1.3695355E-1,-1.5313898E-1,1E0,1.1756539E-1,1E0,1.2724866E-1,1E0,-1.2933113E-1,1.3E1,-1.2393401E-1,1E1,1.2208678E-1,-1.5589808E-1,1.1182296E-1,-5.7379484E-2,1.1458949E-1,1.00945234E-1,4.4561524E-2,-6.725861E-2,-1.599274E-1],"split_indices":[39,38,19,37,18,0,39,36,18,19,38,38,0,0,16,19,0,0,0,37,0,37,0,15,0,20,0,20,0,0,0,0,0,0,0,0,0],"split_type":[0,0,0,0,0,0,0,0,0,0,0,0,0,0,0,0,0,0,0,0,0,0,0,0,0,0,0,0,0,0,0,0,0,0,0,0,0],"sum_hessian":[4.881054E3,3.0338616E3,1.8471925E3,2.5209846E3,5.1287683E2,1.8158586E3,3.1333931E1,2.3612908E3,1.5969385E2,4.7763766E2,3.5239174E1,2.2072105E1,9.261825E0,2.2773562E3,8.3934654E1,1.3937347E2,2.0320364E1,4.68274E2,9.363689E0,3.0455187E1,4.783988E0,1.4847285E1,7.22482E0,3.8824394E1,4.511026E1,1.3632338E2,3.0501003E0,2.6232939E1,4.2222486E0,1.2714452E1,2.1328332E0,3.7105583E1,1.7188107E0,8.920837E1,4.7115013E1,2.2365704E0,2.3996368E1],"tree_param":{"num_deleted":"0","num_feature":"40","num_nodes":"37","size_leaf_vector":"1"}},{"base_weights":[-1.0867926E-2,-1.5488817E-1,1.1414722E0,1.5149343E-1,-3.6967668E-1,1.2681737E0,-4.620283E-3,-1.7816225E-2,1.3139737E-1,-1.3157913E-1,-2.6845473E-1,1.3220279E-1,-3.5861558E-1,-1.8414335E-1,1.17823415E-1,2.9945713E-1,-4.798508E-1,2.1266094E-1,-4.7833705E-1,-4.9208438E-1,1.4485806E-1,-3.4230754E-1,1.1627855E-1,3.312611E-2,1.3106939E-1,-1.3244824E-1,-1.9975032E-1,-1.4379892E-1,1.33197E-1,-1.3127917E-1,-3.0304474E-1,3.0213699E-2,-6.432524E-1,-6.52456E-3,3.7276648E-2,3.4907424E-1,-4.4592375E-1,4.5955636E-2,-4.052756E-2,1.4070469E-2,-4.7657676E-2,2.6310453E-2,-4.438586E-2,9.858985E-3,-5.764218E-2,-7.602568E-2,4.818674E-3,7.514274E-2,-1.2914158E-2,-5.0659414E-2,8.2772985E-2],"categories":[],"categories_nodes":[],"categories_segments":[],"categories_sizes":[],"default_left":[0,0,0,0,0,0,0,0,0,0,0,0,0,0,0,0,0,0,0,0,0,0,0,0,0,0,0,0,0,0,0,0,0,0,0,0,0,0,0,0,0,0,0,0,0,0,0,0,0,0,0],"id":8,"left_children":[1,3,5,7,9,11,13,15,-1,-1,17,-1,19,21,-1,23,25,27,29,31,33,35,-1,37,-1,-1,39,41,-1,-1,43,-1,45,-1,-1,47,49,-1,-1,-1,-1,-1,-1,-1,-1,-1,-1,-1,-1,-1,-1],"loss_changes":[7.604367E2,2.6808417E2,7.392529E1,3.3053674E2,2.2897687E2,4.0632202E1,1.1189048E1,2.1516025E2,0E0,0E0,2.1866519E2,0E0,1.111153E0,1.013933E1,0E0,2.3433151E2,1.4110266E2,2.6277594E2,2.2008725E2,1.6902466E0,2.1658868E-1,3.1425142E0,0E0,1.2915129E2,0E0,0E0,4.246955E1,6.117211E1,0E0,0E0,1.369715E2,0E0,9.093013E-1,0E0,0E0,1.2505561E0,3.2551236E0,0E0,0E0,0E0,0E0,0E0,0E0,0E0,0E0,0E0,0E0,0E0,0E0,0E0,0E0],"parents":[2147483647,0,0,1,1,2,2,3,3,4,4,5,5,6,6,7,7,10,10,12,12,13,13,15,15,16,16,17,17,18,18,19,19,20,20,21,21,23,23,26,26,27,27,30,30,32,32,35,35,36,36],"right_children":[2,4,6,8,10,12,14,16,-1,-1,18,-1,20,22,-1,24,26,28,30,32,34,36,-1,38,-1,-1,40,42,-1,-1,44,-1,46,-1,-1,48,50,-1,-1,-1,-1,-1,-1,-1,-1,-1,-1,-1,-1,-1,-1],"split_conditions":[1E0,1.2E1,1E0,1.2E1,1.2E1,1E0,2E0,1.1E1,1.3139737E-1,-1.3157913E-1,1.3E1,1.3220279E-1,2E0,1E0,1.17823415E-1,1.1E1,1.1E1,1.3E1,1.3E1,1.1E1,1.3E1,1E0,1.1627855E-1,1E1,1.3106939E-1,-1.3244824E-1,5E0,4E0,1.33197E-1,-1.3127917E-1,1.4E1,3.0213699E-2,1E0,-6.52456E-3,3.7276648E-2,1.4E1,1E0,4.5955636E-2,-4.052756E-2,1.4070469E-2,-4.7657676E-2,2.6310453E-2,-4.438586E-2,9.858985E-3,-5.764218E-2,-7.602568E-2,4.818674E-3,7.514274E-2,-1.2914158E-2,-5.0659414E-2,8.2772985E-2],"split_indices":[38,20,18,0,0,19,38,20,0,0,20,0,3,37,0,0,0,0,0,20,0,22,0,20,0,0,21,21,0,0,20,0,26,0,0,20,31,0,0,0,0,0,0,0,0,0,0,0,0,0,0],"split_type":[0,0,0,0,0,0,0,0,0,0,0,0,0,0,0,0,0,0,0,0,0,0,0,0,0,0,0,0,0,0,0,0,0,0,0,0,0,0,0,0,0,0,0,0,0,0,0,0,0,0,0],"sum_hessian":[4.579974E3,4.0719275E3,5.0804663E2,1.6782745E3,2.3936528E3,4.5737674E2,5.0669895E1,1.465776E3,2.1249855E2,2.3017975E2,2.1634731E3,4.42902E2,1.4474721E1,4.4726093E1,5.943804E0,8.6923505E2,5.9654095E2,6.5712494E2,1.5063483E3,1.1459481E1,3.01524E0,4.069349E1,4.032604E0,6.8884546E2,1.8038957E2,1.4763252E2,4.4890842E2,4.990628E2,1.5806212E2,2.6037592E2,1.2459723E3,1.672684E0,9.786798E0,1.9402692E0,1.0749707E0,4.9950404E0,3.569845E1,3.4916595E2,3.396795E2,2.0153828E2,2.4737015E2,2.1187184E2,2.8719098E2,5.0487283E2,7.410995E2,8.28525E0,1.5015476E0,2.4024193E0,2.592621E0,3.4650143E1,1.0483049E0],"tree_param":{"num_deleted":"0","num_feature":"40","num_nodes":"51","size_leaf_vector":"1"}},{"base_weights":[2.0557933E-3,-1.276609E-1,1.0870229E0,-1.5746276E-1,3.1204047E-2,1.2297106E0,-7.9884E-2,-2.1956633E-1,-1.2844142E-1,5.63217E-2,-1.2843859E-1,1.2812798E-1,-1.2829573E-1,-1.936877E-1,1.0641807E-1,-1.253266E-1,-3.0869502E-1,-2.5939485E-1,-1.0825324E-1,7.324463E-2,-1.6578032E-1,-4.602493E-2,-6.156828E-1,1.2900244E-1,-4.1307434E-1,3.823488E-1,-2.630969E-1,-1.808747E-1,1.2773613E-2,-4.4643492E-1,-2.827507E-1,-3.8237423E-1,-2.0940982E-1,-1.0064207E-1,-3.531357E-1,8.171718E-2,-1.4709929E-1,-2.1710117E-1,6.732139E-2,-2.868135E-1,6.402745E-2,-6.628244E-2,-2.050524E-2,3.5271558E-1,-3.641612E-1,-6.6391364E-2,-3.0106625E-2,6.8415254E-2,4.913142E-2,-3.274681E-1,2.1186128E-1,-2.1677295E-2,-5.5240314E-3,5.055617E-3,-6.481284E-2,-4.7268126E-2,2.9041722E-2,-2.691611E-2,-5.544418E-2,-2.5940761E-2,-6.46262E-2,-1.7584702E-2,-4.4899534E-2,-1.0643876E-2,1.5276412E-2,-2.5971128E-2,-6.941652E-2,4.7647255E-3,1.3963168E-2,-3.423217E-2,9.992066E-3,-2.8654555E-2,3.465009E-2,-4.087921E-2,1.648668E-2,-2.2448948E-2,2.936931E-2,4.9442112E-2,-4.6248934E-3,-6.5173775E-2,1.4588256E-2,1.2470566E-2,-2.4312176E-2,-1.5439391E-2,2.5352532E-2,-3.6877546E-2,3.7672833E-2,6.6187344E-2,-7.309504E-2],"categories":[],"categories_nodes":[],"categories_segments":[],"categories_sizes":[],"default_left":[0,0,0,0,0,0,0,0,0,0,0,0,0,0,0,0,0,0,0,0,0,0,0,0,0,0,0,0,0,0,0,0,0,0,0,0,0,0,0,0,0,0,0,0,0,0,0,0,0,0,0,0,0,0,0,0,0,0,0,0,0,0,0,0,0,0,0,0,0,0,0,0,0,0,0,0,0,0,0,0,0,0,0,0,0,0,0,0,0],"id":9,"left_children":[1,3,5,7,9,11,13,15,17,19,21,-1,23,25,-1,27,29,31,33,35,37,39,41,43,45,47,49,51,53,55,57,59,61,63,65,67,69,71,-1,73,75,-1,-1,77,79,-1,81,-1,83,85,87,-1,-1,-1,-1,-1,-1,-1,-1,-1,-1,-1,-1,-1,-1,-1,-1,-1,-1,-1,-1,-1,-1,-1,-1,-1,-1,-1,-1,-1,-1,-1,-1,-1,-1,-1,-1,-1,-1],"loss_changes":[6.273641E2,1.8855873E1,7.93598E1,6.0147705E0,2.5325387E0,2.9873657E1,7.0813723E0,8.918549E0,6.0192986E0,2.0600414E0,3.4218745E0,0E0,1.2571163E0,2.0546982E0,0E0,3.9915257E0,1.8298798E0,1.7937126E0,3.6616478E0,9.584749E-1,1.8203341E0,1.9944609E0,1.0314703E-1,1.1647643E0,7.519977E-1,5.359343E-1,1.4210653E0,1.6609001E0,3.780933E0,1.7817993E0,1.5615273E0,2.6515598E0,1.6815968E0,2.8442822E0,1.7121081E0,9.579046E-1,9.566866E-1,1.5629654E0,0E0,1.3662249E0,3.5113974E0,0E0,0E0,4.1690987E-1,5.971954E-1,0E0,1.6974568E-1,0E0,1.9593038E-1,1.2828908E0,2.9802115E0,0E0,0E0,0E0,0E0,0E0,0E0,0E0,0E0,0E0,0E0,0E0,0E0,0E0,0E0,0E0,0E0,0E0,0E0,0E0,0E0,0E0,0E0,0E0,0E0,0E0,0E0,0E0,0E0,0E0,0E0,0E0,0E0,0E0,0E0,0E0,0E0,0E0,0E0],"parents":[2147483647,0,0,1,1,2,2,3,3,4,4,5,5,6,6,7,7,8,8,9,9,10,10,12,12,13,13,15,15,16,16,17,17,18,18,19,19,20,20,21,21,22,22,23,23,24,24,25,25,26,26,27,27,28,28,29,29,30,30,31,31,32,32,33,33,34,34,35,35,36,36,37,37,39,39,40,40,43,43,44,44,46,46,48,48,49,49,50,50],"right_children":[2,4,6,8,10,12,14,16,18,20,22,-1,24,26,-1,28,30,32,34,36,38,40,42,44,46,48,50,52,54,56,58,60,62,64,66,68,70,72,-1,74,76,-1,-1,78,80,-1,82,-1,84,86,88,-1,-1,-1,-1,-1,-1,-1,-1,-1,-1,-1,-1,-1,-1,-1,-1,-1,-1,-1,-1,-1,-1,-1,-1,-1,-1,-1,-1,-1,-1,-1,-1,-1,-1,-1,-1,-1,-1],"split_conditions":[1E0,1.4E1,1E0,4E0,4E0,1E0,2E0,3E0,1E1,1E0,1E0,1.2812798E-1,5E0,2E0,1.0641807E-1,3E0,3E0,9E0,1E0,4E0,4E0,1E0,5E0,1E0,1.2E1,1.5E1,1E0,1E0,2E0,1E0,2E0,1E0,5E0,1E0,1E0,1.5E1,1E0,1E0,6.732139E-2,1E0,4E0,-6.628244E-2,-2.050524E-2,1E0,4E0,-6.6391364E-2,2E0,6.8415254E-2,1E0,1E0,3E0,-2.1677295E-2,-5.5240314E-3,5.055617E-3,-6.481284E-2,-4.7268126E-2,2.9041722E-2,-2.691611E-2,-5.544418E-2,-2.5940761E-2,-6.46262E-2,-1.7584702E-2,-4.4899534E-2,-1.0643876E-2,1.5276412E-2,-2.5971128E-2,-6.941652E-2,4.7647255E-3,1.3963168E-2,-3.423217E-2,9.992066E-3,-2.8654555E-2,3.465009E-2,-4.087921E-2,1.648668E-2,-2.2448948E-2,2.936931E-2,4.9442112E-2,-4.6248934E-3,-6.5173775E-2,1.4588256E-2,1.2470566E-2,-2.4312176E-2,-1.5439391E-2,2.5352532E-2,-3.6877546E-2,3.7672833E-2,6.6187344E-2,-7.309504E-2],"split_indices":[38,0,18,1,21,19,38,21,0,14,29,0,21,21,0,1,1,0,17,2,1,2,21,25,0,0,27,27,26,36,6,5,22,36,6,0,4,28,0,7,1,0,0,5,1,0,2,0,4,9,2,0,0,0,0,0,0,0,0,0,0,0,0,0,0,0,0,0,0,0,0,0,0,0,0,0,0,0,0,0,0,0,0,0,0,0,0,0,0],"split_type":[0,0,0,0,0,0,0,0,0,0,0,0,0,0,0,0,0,0,0,0,0,0,0,0,0,0,0,0,0,0,0,0,0,0,0,0,0,0,0,0,0,0,0,0,0,0,0,0,0,0,0,0,0,0,0,0,0,0,0,0,0,0,0,0,0,0,0,0,0,0,0,0,0,0,0,0,0,0,0,0,0,0,0,0,0,0,0,0,0],"sum_hessian":[4.455677E3,3.980641E3,4.750359E2,3.3518655E3,6.2877563E2,4.232301E2,5.1805805E1,1.0654065E3,2.286459E3,5.4385455E2,8.4921104E1,4.0780075E2,1.5429359E1,4.7874302E1,3.9315047E0,5.1902466E2,5.4638184E2,3.0382272E2,1.9826362E3,5.059725E2,3.7882042E1,7.35715E1,1.1349602E1,8.393143E0,7.036217E0,4.663408E0,4.321089E1,3.6992133E2,1.4910333E2,8.403383E1,4.62348E2,8.588009E1,2.1794263E2,1.92424E3,5.839618E1,4.8784332E2,1.8129164E1,3.63969E1,1.4851428E0,2.2574211E1,5.099729E1,9.629896E0,1.7197062E0,5.9698415E0,2.4233012E0,3.8082545E0,3.2279625E0,1.8944147E0,2.7689931E0,3.832696E1,4.8839307E0,2.8714758E2,8.277376E1,1.4191388E2,7.189452E0,8.1489716E1,2.5441146E0,4.422195E2,2.0128471E1,5.99347E1,2.5945385E1,1.9268408E2,2.525855E1,1.8817742E3,4.2465862E1,4.7221485E1,1.1174692E1,3.082996E2,1.7954373E2,9.910772E0,8.218391E0,3.284186E1,3.5550368E0,1.784896E1,4.725251E0,2.261269E1,2.8384602E1,4.2286386E0,1.741203E0,1.3719505E0,1.0513506E0,2.1094522E0,1.1185104E0,1.5100178E0,1.2589754E0,3.665324E1,1.6737201E0,3.507669E0,1.3762617E0],"tree_param":{"num_deleted":"0","num_feature":"40","num_nodes":"89","size_leaf_vector":"1"}},{"base_weights":[-1.6370789E-3,-8.364246E-1,1.3245888E0,-9.242389E-1,5.3867835E-1,1.3455597E-1,1.976732E-1,-8.1566143E-1,-1.0721127E0,1.1125011E0,-1.1113453E0,-3.1967562E-1,1.2645207E-1,-6.942107E-1,-8.9779925E-1,-9.4902813E-1,-1.1047504E0,1.5344021E0,-9.5931643E-1,-1.2078836E0,1.0027938E-1,2.2143254E-1,-7.7716506E-1,-1.4978218E-1,-7.557637E-1,-7.5358206E-1,-1.0081598E0,-7.9391307E-1,-1.1303436E-1,-1.0608666E0,-1.1599846E-1,1.6104731E-1,-1.0970652E-1,6.056543E-2,-1.0775162E0,-1.2760943E0,-3.4361207E-1,6.6747653E-1,-3.2359242E-1,3.412826E-2,-9.6924566E-2,2.1163428E-2,-3.639851E-2,-5.6721486E-2,-8.9321785E-2,-5.5507816E-2,-9.165078E-2,-9.704946E-2,-1.1631091E-1,-5.8824744E-2,-9.678101E-2,-9.3541324E-2,-1.1103439E-1,-2.8572893E-2,3.843324E-2,-6.0309123E-2,-1.1926699E-1,-1.3163885E-1,-4.7492343E-3,-9.474309E-2,2.5944525E-2,8.362057E-2,1.759228E-2,2.9723883E-2,-7.9326846E-2],"categories":[],"categories_nodes":[],"categories_segments":[],"categories_sizes":[],"default_left":[0,0,0,0,0,0,0,0,0,0,0,0,0,0,0,0,0,0,0,0,0,0,0,0,0,0,0,0,0,0,0,0,0,0,0,0,0,0,0,0,0,0,0,0,0,0,0,0,0,0,0,0,0,0,0,0,0,0,0,0,0,0,0,0,0],"id":10,"left_children":[1,3,5,7,9,-1,11,13,15,17,19,21,-1,23,25,27,29,31,33,35,-1,37,39,41,43,45,47,49,-1,51,-1,-1,-1,53,55,57,59,61,63,-1,-1,-1,-1,-1,-1,-1,-1,-1,-1,-1,-1,-1,-1,-1,-1,-1,-1,-1,-1,-1,-1,-1,-1,-1,-1],"loss_changes":[4.8987607E3,3.2840674E2,4.0128174E1,4.0114014E1,1.5617023E2,0E0,1.8286379E1,1.4102966E1,3.2807617E0,1.0803575E2,9.930923E0,5.770912E0,0E0,1.9993073E1,1.3202087E1,5.6546326E0,8.1933594E-1,2.2119171E1,2.6258698E0,1.996933E0,0E0,2.924119E0,3.0112615E0,4.8916645E0,1.3457306E1,1.1918121E1,1.7542114E0,4.041176E0,0E0,1.9592896E0,0E0,0E0,0E0,4.63309E-1,3.2353783E-1,1.8147736E0,1.8445162E0,3.880725E-1,1.894084E0,0E0,0E0,0E0,0E0,0E0,0E0,0E0,0E0,0E0,0E0,0E0,0E0,0E0,0E0,0E0,0E0,0E0,0E0,0E0,0E0,0E0,0E0,0E0,0E0,0E0,0E0],"parents":[2147483647,0,0,1,1,2,2,3,3,4,4,6,6,7,7,8,8,9,9,10,10,11,11,13,13,14,14,15,15,16,16,17,17,18,18,19,19,21,21,22,22,23,23,24,24,25,25,26,26,27,27,29,29,33,33,34,34,35,35,36,36,37,37,38,38],"right_children":[2,4,6,8,10,-1,12,14,16,18,20,22,-1,24,26,28,30,32,34,36,-1,38,40,42,44,46,48,50,-1,52,-1,-1,-1,54,56,58,60,62,64,-1,-1,-1,-1,-1,-1,-1,-1,-1,-1,-1,-1,-1,-1,-1,-1,-1,-1,-1,-1,-1,-1,-1,-1,-1,-1],"split_conditions":[1E0,1E0,1E0,1.3E1,1E0,1.3455597E-1,2E0,5E0,2E0,1E0,2E0,1.3E1,1.2645207E-1,1.1E1,1.1E1,1.5E1,1.4E1,1E0,1.1E1,3E0,1.0027938E-1,6E0,2E0,4E0,3E0,7E0,7E0,3E0,-1.1303436E-1,1E0,-1.1599846E-1,1.6104731E-1,-1.0970652E-1,1E0,3E0,1E0,2E0,3E0,1.1E1,3.412826E-2,-9.6924566E-2,2.1163428E-2,-3.639851E-2,-5.6721486E-2,-8.9321785E-2,-5.5507816E-2,-9.165078E-2,-9.704946E-2,-1.1631091E-1,-5.8824744E-2,-9.678101E-2,-9.3541324E-2,-1.1103439E-1,-2.8572893E-2,3.843324E-2,-6.0309123E-2,-1.1926699E-1,-1.3163885E-1,-4.7492343E-3,-9.474309E-2,2.5944525E-2,8.362057E-2,1.759228E-2,2.9723883E-2,-7.9326846E-2],"split_indices":[39,37,19,20,17,0,39,21,21,18,37,20,0,20,20,20,20,19,20,23,0,21,21,2,2,21,21,2,0,3,0,0,0,24,21,11,2,2,20,0,0,0,0,0,0,0,0,0,0,0,0,0,0,0,0,0,0,0,0,0,0,0,0,0,0],"split_type":[0,0,0,0,0,0,0,0,0,0,0,0,0,0,0,0,0,0,0,0,0,0,0,0,0,0,0,0,0,0,0,0,0,0,0,0,0,0,0,0,0,0,0,0,0,0,0,0,0,0,0,0,0,0,0,0,0,0,0,0,0,0,0,0,0],"sum_hessian":[4.422791E3,2.7145178E3,1.708273E3,2.551882E3,1.6263579E2,1.6768738E3,3.139916E1,1.4752122E3,1.0766699E3,1.2091231E2,4.1723473E1,2.161682E1,9.78234E0,5.989879E2,8.7622424E2,2.3196211E2,8.447078E2,1.0067121E2,2.02411E1,4.031139E1,1.4120821E0,1.0139744E1,1.1477076E1,6.1191334E1,5.377966E2,3.8324036E2,4.929839E2,1.2791211E2,1.04049995E2,4.8198013E2,3.6272766E2,9.821985E1,2.4513648E0,2.1528566E0,1.8088243E1,3.6920986E1,3.3904037E0,5.4526596E0,4.6870837E0,1.5683149E0,9.908761E0,2.2775349E1,3.841599E1,2.2891519E2,3.0888135E2,1.7474416E2,2.084962E2,4.0242548E2,9.055841E1,6.0611004E1,6.730111E1,1.4195308E2,3.4002707E2,1.0970069E0,1.0558497E0,4.751145E0,1.3337098E1,3.5679367E1,1.2416192E0,1.4087894E0,1.9816144E0,3.5373073E0,1.9153523E0,2.176829E0,2.5102549E0],"tree_param":{"num_deleted":"0","num_feature":"40","num_nodes":"65","size_leaf_vector":"1"}},{"base_weights":[4.612766E-4,-7.8680897E-1,1.2822662E-1,-1.1604453E0,1.0750322E0,-1.2733226E-1,4.0838277E-1,1.0893109E0,-6.4258404E-2,9.46167E-1,-1.2124845E0,1.1022096E0,6.766839E-1,-9.097857E-2,4.8578706E-1,1.0127778E0,-2.095517E-1,-1.3095541E0,9.2111185E-2,1.1090175E0,6.631453E-1,-1.0395708E-1,1.0397837E-1,6.798334E-2,4.067337E-3,1.19351946E-1,6.93373E-2,-8.037123E-2,9.886174E-2,7.3225047E-3,-1.356712E-1,1.14429094E-1,9.941452E-2,9.716147E-2,-1.2145715E-2],"categories":[],"categories_nodes":[],"categories_segments":[],"categories_sizes":[],"default_left":[0,0,0,0,0,0,0,0,0,0,0,0,0,0,0,0,0,0,0,0,0,0,0,0,0,0,0,0,0,0,0,0,0,0,0],"id":11,"left_children":[1,3,-1,5,7,-1,9,11,13,15,17,19,21,-1,23,25,27,29,-1,31,33,-1,-1,-1,-1,-1,-1,-1,-1,-1,-1,-1,-1,-1,-1],"loss_changes":[4.2340884E3,1.809469E3,0E0,3.8397144E2,7.145813E0,0E0,1.2849683E2,1.540863E0,3.385087E0,8.700554E0,8.835152E0,5.0512695E-1,1.0810923E1,0E0,3.5981297E-1,5.200859E0,5.6620584E0,2.4237404E0,0E0,5.123596E-1,2.2537076E0,0E0,0E0,0E0,0E0,0E0,0E0,0E0,0E0,0E0,0E0,0E0,0E0,0E0,0E0],"parents":[2147483647,0,0,1,1,3,3,4,4,6,6,7,7,8,8,9,9,10,10,11,11,12,12,14,14,15,15,16,16,17,17,19,19,20,20],"right_children":[2,4,-1,6,8,-1,10,12,14,16,18,20,22,-1,24,26,28,30,-1,32,34,-1,-1,-1,-1,-1,-1,-1,-1,-1,-1,-1,-1,-1,-1],"split_conditions":[1E0,1E0,1.2822662E-1,1E0,1.6E1,-1.2733226E-1,1E0,1.5E1,1.6E1,1.5E1,2E0,9E0,1.5E1,-9.097857E-2,2E0,5E0,1E0,1E0,9.2111185E-2,1.3E1,9E0,-1.0395708E-1,1.0397837E-1,6.798334E-2,4.067337E-3,1.19351946E-1,6.93373E-2,-8.037123E-2,9.886174E-2,7.3225047E-3,-1.356712E-1,1.14429094E-1,9.941452E-2,9.716147E-2,-1.2145715E-2],"split_indices":[39,38,0,37,20,0,17,20,0,20,37,21,0,0,21,1,7,21,0,20,20,0,0,0,0,0,0,0,0,0,0,0,0,0,0],"split_type":[0,0,0,0,0,0,0,0,0,0,0,0,0,0,0,0,0,0,0,0,0,0,0,0,0,0,0,0,0,0,0,0,0,0,0],"sum_hessian":[4.1937944E3,2.5983208E3,1.5954735E3,2.1643528E3,4.339679E2,2.0192556E3,1.4509729E2,4.2863968E2,5.3282337E0,1.092618E2,3.5835487E1,4.14026E2,1.4613663E1,1.8422762E0,3.4859574E0,1.0342452E2,5.837282E0,3.4645485E1,1.1900014E0,4.0620175E2,7.824256E0,2.226531E0,1.2387132E1,2.0604038E0,1.4255534E0,6.430151E1,3.9123005E1,4.122293E0,1.7149894E0,1.1243416E0,3.3521145E1,3.0391763E2,1.0228413E2,5.4451294E0,2.3791263E0],"tree_param":{"num_deleted":"0","num_feature":"40","num_nodes":"35","size_leaf_vector":"1"}},{"base_weights":[-1.8950275E-3,-7.5917876E-1,1.243879E0,-1.1246899E0,1.0369631E0,1.266461E-1,7.544783E-2,-1.2376992E0,3.6013559E-1,1.1797025E0,-6.6288984E-1,-3.586197E-1,1.1492367E-1,-1.2564324E-1,-7.5728655E-1,8.664795E-1,-1.1426394E0,1.2399075E-1,-1.374347E-1,-9.672347E-1,1.0576557E-1,-1.1077302E0,1.1826696E-1,-3.0284387E-1,-1.1433902E0,1.3759618E0,-1.4270866E-1,-1.2600074E0,9.450256E-2,-1.3371514E-1,1.109274E-1,-1.4451958E-1,7.118903E-2,8.326039E-2,-1.268896E-1,-1.16427295E-1,-2.681884E-2,1.4617518E-1,-1.0901147E-1,-4.992771E-2,-1.3045502E-1],"categories":[],"categories_nodes":[],"categories_segments":[],"categories_sizes":[],"default_left":[0,0,0,0,0,0,0,0,0,0,0,0,0,0,0,0,0,0,0,0,0,0,0,0,0,0,0,0,0,0,0,0,0,0,0,0,0,0,0,0,0],"id":12,"left_children":[1,3,5,7,9,-1,11,13,15,17,19,21,-1,-1,23,25,27,-1,-1,29,-1,31,-1,33,35,37,-1,39,-1,-1,-1,-1,-1,-1,-1,-1,-1,-1,-1,-1,-1],"loss_changes":[3.7152427E3,1.609129E3,3.918872E1,3.420171E2,1.0139398E2,0E0,1.4065333E1,1.6074951E1,1.11129776E2,6.05813E1,1.8178846E1,2.6275095E1,0E0,0E0,1.2553627E1,1.2914056E2,1.0234711E1,0E0,0E0,2.3268156E1,0E0,1.0280699E1,0E0,3.9592194E1,4.0763855E-1,2.0541672E1,0E0,5.4732513E-1,0E0,0E0,0E0,0E0,0E0,0E0,0E0,0E0,0E0,0E0,0E0,0E0,0E0],"parents":[2147483647,0,0,1,1,2,2,3,3,4,4,6,6,7,7,8,8,9,9,10,10,11,11,14,14,15,15,16,16,19,19,21,21,23,23,24,24,25,25,27,27],"right_children":[2,4,6,8,10,-1,12,14,16,18,20,22,-1,-1,24,26,28,-1,-1,30,-1,32,-1,34,36,38,-1,40,-1,-1,-1,-1,-1,-1,-1,-1,-1,-1,-1,-1,-1],"split_conditions":[1E0,1E0,1E0,1E0,1E0,1.266461E-1,2E0,1E0,1E0,1E0,2E0,1E0,1.1492367E-1,-1.2564324E-1,1E0,1E0,2E0,1.2399075E-1,-1.374347E-1,1E0,1.0576557E-1,1E0,1.1826696E-1,1E0,6E0,1E0,-1.4270866E-1,2E0,9.450256E-2,-1.3371514E-1,1.109274E-1,-1.4451958E-1,7.118903E-2,8.326039E-2,-1.268896E-1,-1.16427295E-1,-2.681884E-2,1.4617518E-1,-1.0901147E-1,-4.992771E-2,-1.3045502E-1],"split_indices":[39,38,19,37,18,0,39,36,17,19,38,38,0,0,16,18,37,0,0,37,0,37,0,17,22,19,0,21,0,0,0,0,0,0,0,0,0,0,0,0,0],"split_type":[0,0,0,0,0,0,0,0,0,0,0,0,0,0,0,0,0,0,0,0,0,0,0,0,0,0,0,0,0,0,0,0,0,0,0,0,0,0,0,0,0],"sum_hessian":[3.936122E3,2.4482595E3,1.4878625E3,2.034597E3,4.136624E2,1.45957E3,2.8292612E1,1.8908518E3,1.4374527E2,3.8189972E2,3.1762722E1,2.0622295E1,7.6703153E0,1.8183322E3,7.2519615E1,1.0783488E2,3.591039E1,3.7360742E2,8.292291E0,2.736075E1,4.401972E0,1.40667515E1,6.555545E0,3.4131413E1,3.83882E1,8.8562164E1,1.9272715E1,3.4374325E1,1.5360637E0,2.3525833E1,3.8349173E0,1.2039656E1,2.0270958E0,1.57535925E1,1.8377821E1,3.717099E1,1.2172108E0,8.597839E1,2.583764E0,2.5766985E0,3.1797626E1],"tree_param":{"num_deleted":"0","num_feature":"40","num_nodes":"41","size_leaf_vector":"1"}},{"base_weights":[7.9437075E-3,-7.359733E-1,1.2106209E0,-8.121E-1,3.9743707E-1,1.2346555E-1,4.6759713E-2,-7.05888E-1,-9.5974094E-1,8.599696E-1,-8.9254534E-1,-3.6739644E-1,1.1258196E-1,-7.6460695E-1,1.2341287E-1,-1.068968E0,-7.5633293E-1,1.3237884E0,-8.642575E-1,-9.751887E-1,8.4526286E-2,-4.7527987E-1,7.917025E-2,-6.476443E-1,-9.7310615E-1,-1.0123417E0,-1.2104775E-1,1.17837064E-1,-8.869715E-1,1.4090012E-1,-1.03991166E-1,-6.36605E-2,-9.7335297E-1,-1.00437E0,-1.2143834E-2,-1.158804E-1,-7.561761E-1,-7.648638E-2,1.2252509E-1,-1.19374275E-1,-8.2676016E-2,-1.1844863E-1,-8.6319655E-2,-6.693588E-2,-1.02836445E-1,-3.989179E-2,3.8765147E-2,-1.5415693E-2,-1.0536231E-1,-1.0319606E-1,-4.0009737E-2,7.399868E-2,-3.3046752E-2,3.993578E-2,-9.295266E-2],"categories":[],"categories_nodes":[],"categories_segments":[],"categories_sizes":[],"default_left":[0,0,0,0,0,0,0,0,0,0,0,0,0,0,0,0,0,0,0,0,0,0,0,0,0,0,0,0,0,0,0,0,0,0,0,0,0,0,0,0,0,0,0,0,0,0,0,0,0,0,0,0,0,0,0],"id":13,"left_children":[1,3,5,7,9,-1,11,13,15,17,19,21,-1,23,-1,25,27,29,31,33,-1,35,-1,37,39,41,-1,-1,43,-1,-1,45,47,49,-1,51,53,-1,-1,-1,-1,-1,-1,-1,-1,-1,-1,-1,-1,-1,-1,-1,-1,-1,-1],"loss_changes":[3.2661794E3,1.9493286E2,3.896814E1,3.247058E1,8.5868515E1,0E0,1.3492965E1,1.4142505E2,1.8779968E1,8.551155E1,6.3010464E0,3.1152477E0,0E0,2.8575012E1,0E0,3.3517456E0,7.9763E1,1.8289093E1,1.9440708E0,7.9652023E-1,0E0,1.9984074E0,0E0,1.700263E2,1.2845581E1,9.608612E0,0E0,0E0,8.306015E0,0E0,0E0,7.33294E-1,1.162138E0,1.791687E-1,0E0,2.1262805E0,2.6582456E0,0E0,0E0,0E0,0E0,0E0,0E0,0E0,0E0,0E0,0E0,0E0,0E0,0E0,0E0,0E0,0E0,0E0,0E0],"parents":[2147483647,0,0,1,1,2,2,3,3,4,4,6,6,7,7,8,8,9,9,10,10,11,11,13,13,15,15,16,16,17,17,18,18,19,19,21,21,23,23,24,24,25,25,28,28,31,31,32,32,33,33,35,35,36,36],"right_children":[2,4,6,8,10,-1,12,14,16,18,20,22,-1,24,-1,26,28,30,32,34,-1,36,-1,38,40,42,-1,-1,44,-1,-1,46,48,50,-1,52,54,-1,-1,-1,-1,-1,-1,-1,-1,-1,-1,-1,-1,-1,-1,-1,-1,-1,-1],"split_conditions":[1E0,1E0,1E0,1.3E1,1E0,1.2346555E-1,2E0,1.3E1,1.4E1,1E0,2E0,1E0,1.1258196E-1,1.2E1,1.2341287E-1,1.4E1,1.4E1,1E0,1.1E1,1E0,8.4526286E-2,1.3E1,7.917025E-2,1.2E1,1.2E1,1.3E1,-1.2104775E-1,1.17837064E-1,1.5E1,1.4090012E-1,-1.03991166E-1,1E0,2E0,3E0,-1.2143834E-2,4E0,2E0,-7.648638E-2,1.2252509E-1,-1.19374275E-1,-8.2676016E-2,-1.1844863E-1,-8.6319655E-2,-6.693588E-2,-1.02836445E-1,-3.989179E-2,3.8765147E-2,-1.5415693E-2,-1.0536231E-1,-1.0319606E-1,-4.0009737E-2,7.399868E-2,-3.3046752E-2,3.993578E-2,-9.295266E-2],"split_indices":[39,37,19,20,17,0,39,0,0,18,37,37,0,20,0,20,20,19,20,11,0,20,0,0,0,0,0,0,20,0,0,24,1,23,0,21,21,0,0,0,0,0,0,0,0,0,0,0,0,0,0,0,0,0,0],"split_type":[0,0,0,0,0,0,0,0,0,0,0,0,0,0,0,0,0,0,0,0,0,0,0,0,0,0,0,0,0,0,0,0,0,0,0,0,0,0,0,0,0,0,0,0,0,0,0,0,0,0,0,0,0,0,0],"sum_hessian":[3.6486228E3,2.2544924E3,1.3941302E3,2.1128633E3,1.4162917E2,1.3658634E3,2.826687E1,1.232204E3,8.806593E2,1.04495056E2,3.713411E1,2.0903412E1,7.363459E0,1.1965923E3,3.5611694E1,5.702099E2,3.1044943E2,8.252736E1,2.1967701E1,3.5867245E1,1.2668655E0,1.9663212E1,1.2402008E0,7.691981E2,4.2739413E2,4.1306998E2,1.571399E2,1.912948E1,2.9131998E2,8.004557E1,2.4817882E0,2.8243964E0,1.9143303E1,3.4511227E1,1.3560195E0,9.245883E0,1.0417328E1,7.244485E2,4.474968E1,1.67583E2,2.5981116E2,1.8852782E2,2.2454218E2,1.16993546E2,1.7432642E2,1.6871722E0,1.1372242E0,1.9690138E0,1.717429E1,3.2327408E1,2.1838188E0,1.3626436E0,7.8832393E0,1.1888478E0,9.22848E0],"tree_param":{"num_deleted":"0","num_feature":"40","num_nodes":"55","size_leaf_vector":"1"}},{"base_weights":[1.7692829E-3,-6.9475543E-1,1.1845312E0,-7.672448E-1,3.8822985E-1,1.2076044E-1,9.99152E-2,-6.560828E-1,-9.261109E-1,8.6340326E-1,-8.813337E-1,-3.0630583E-1,1.0943041E-1,-6.7985773E-1,-6.3692955E-3,-7.9597753E-1,-9.611108E-1,1.282053E0,-7.658101E-1,-9.593495E-1,8.037857E-2,-4.5751226E-1,6.806292E-2,-5.268871E-1,-7.487752E-1,2.1727817E-1,-5.7004005E-1,-6.465867E-1,-9.744143E-1,-9.1303927E-1,-1.0153977E-1,1.350367E-1,-9.4381645E-2,1.7157238E-2,-8.3920115E-1,-9.983947E-1,-3.6286536E-1,-2.2509994E-3,-7.711847E-1,-3.256528E-2,-7.599574E-2,-6.284712E-2,-8.821488E-2,1.073025E-2,9.280407E-2,-1.2666456E-2,-7.607474E-2,-4.2632844E-2,-8.107515E-2,-9.863897E-2,-1.2902967E-2,-8.397414E-2,-9.848104E-2,-3.078387E-3,-9.492882E-2,-3.9382968E-2,-1.0491067E-1,1.4631032E-2,-6.239772E-2,7.415778E-2,-2.592262E-2,9.7433785E-3,-8.919567E-2],"categories":[],"categories_nodes":[],"categories_segments":[],"categories_sizes":[],"default_left":[0,0,0,0,0,0,0,0,0,0,0,0,0,0,0,0,0,0,0,0,0,0,0,0,0,0,0,0,0,0,0,0,0,0,0,0,0,0,0,0,0,0,0,0,0,0,0,0,0,0,0,0,0,0,0,0,0,0,0,0,0,0,0],"id":14,"left_children":[1,3,5,7,9,-1,11,13,15,17,19,21,-1,23,25,27,29,31,33,35,-1,37,-1,39,41,43,45,47,49,51,-1,-1,-1,-1,53,55,57,59,61,-1,-1,-1,-1,-1,-1,-1,-1,-1,-1,-1,-1,-1,-1,-1,-1,-1,-1,-1,-1,-1,-1,-1,-1],"loss_changes":[2.8505781E3,1.7126025E2,3.1973633E1,3.544397E1,8.3579956E1,0E0,1.1566308E1,1.8601013E1,3.0516357E0,6.9462364E1,5.7515697E0,3.3737836E0,0E0,1.1855164E1,5.6112576E0,4.2595367E0,7.836304E-1,1.3477127E1,1.5991001E0,4.9160767E-1,0E0,2.6248155E0,0E0,1.683741E1,1.2260681E1,2.3929925E0,9.7248936E-1,3.371891E0,6.989746E-1,1.0541992E0,0E0,0E0,0E0,0E0,1.7315912E0,6.24321E-1,5.996325E-1,1.818111E0,1.2289934E0,0E0,0E0,0E0,0E0,0E0,0E0,0E0,0E0,0E0,0E0,0E0,0E0,0E0,0E0,0E0,0E0,0E0,0E0,0E0,0E0,0E0,0E0,0E0,0E0],"parents":[2147483647,0,0,1,1,2,2,3,3,4,4,6,6,7,7,8,8,9,9,10,10,11,11,13,13,14,14,15,15,16,16,17,17,18,18,19,19,21,21,23,23,24,24,25,25,26,26,27,27,28,28,29,29,34,34,35,35,36,36,37,37,38,38],"right_children":[2,4,6,8,10,-1,12,14,16,18,20,22,-1,24,26,28,30,32,34,36,-1,38,-1,40,42,44,46,48,50,52,-1,-1,-1,-1,54,56,58,60,62,-1,-1,-1,-1,-1,-1,-1,-1,-1,-1,-1,-1,-1,-1,-1,-1,-1,-1,-1,-1,-1,-1,-1,-1],"split_conditions":[1E0,1E0,1E0,1.3E1,1E0,1.2076044E-1,2E0,1E0,2E0,1E0,2E0,1E0,1.0943041E-1,1.1E1,1E0,1.5E1,2E0,1E0,2E0,3E0,8.037857E-2,1.3E1,6.806292E-2,7E0,5E0,1E0,5E0,3E0,1E0,4E0,-1.0153977E-1,1.350367E-1,-9.4381645E-2,1.7157238E-2,1.1E1,1E0,1.2E1,4E0,2E0,-3.256528E-2,-7.599574E-2,-6.284712E-2,-8.821488E-2,1.073025E-2,9.280407E-2,-1.2666456E-2,-7.607474E-2,-4.2632844E-2,-8.107515E-2,-9.863897E-2,-1.2902967E-2,-8.397414E-2,-9.848104E-2,-3.078387E-3,-9.492882E-2,-3.9382968E-2,-1.0491067E-1,1.4631032E-2,-6.239772E-2,7.415778E-2,-2.592262E-2,9.7433785E-3,-8.919567E-2],"split_indices":[39,37,19,20,17,0,39,36,21,18,37,37,0,20,17,20,22,19,1,23,0,20,0,21,21,29,1,22,17,21,0,0,0,0,20,2,20,21,21,0,0,0,0,0,0,0,0,0,0,0,0,0,0,0,0,0,0,0,0,0,0,0,0],"split_type":[0,0,0,0,0,0,0,0,0,0,0,0,0,0,0,0,0,0,0,0,0,0,0,0,0,0,0,0,0,0,0,0,0,0,0,0,0,0,0,0,0,0,0,0,0,0,0,0,0,0,0,0,0,0,0,0,0,0,0,0,0,0,0],"sum_hessian":[3.4581846E3,2.1767285E3,1.2814559E3,2.0404435E3,1.3628513E2,1.2546521E3,2.680381E1,1.2034756E3,8.3696783E2,9.940111E1,3.6884018E1,1.9521133E1,7.282676E0,1.1609468E3,4.252885E1,1.8242694E2,6.545409E2,7.924982E1,2.015129E1,3.5663597E1,1.2204205E0,1.7392841E1,2.1282928E0,3.6327005E2,7.976767E2,3.088797E1,1.1640881E1,1.01811745E2,8.06152E1,3.5659317E2,2.9794772E2,7.727161E1,1.9782088E0,1.3660274E0,1.8785263E1,3.284012E1,2.8234773E0,7.50595E0,9.88689E0,1.9623598E2,1.6703409E2,4.2239008E2,3.7528665E2,2.7745848E1,3.142123E0,4.0016437E0,7.639237E0,4.5013927E1,5.6797813E1,7.932473E1,1.2904687E0,1.8270325E2,1.7388992E2,2.404873E0,1.638039E1,3.219904E0,2.9620214E1,1.1061387E0,1.7173384E0,1.4430802E0,6.06287E0,1.2304523E0,8.656439E0],"tree_param":{"num_deleted":"0","num_feature":"40","num_nodes":"63","size_leaf_vector":"1"}},{"base_weights":[8.681691E-4,-6.5386844E-1,1.1585276E0,-1.0591542E0,1.0562067E0,1.1841097E-1,-2.334531E-3,-1.1675831E0,3.3826688E-1,1.1807709E0,-4.8256573E-1,-3.8026527E-1,1.1397564E-1,-1.1899374E0,-6.387861E-1,7.6927143E-1,-9.380502E-1,1.23475544E-1,-1.23883665E-1,-7.933857E-1,1.0658059E-1,-1.1004615E0,1.05655335E-1,-1.1905823E-1,-1.5844598E-2,-4.2618358E-1,-1.1822724E-1,1.2352835E0,-1.288508E-1,-1.0472976E0,1.0941353E-1,-1.20469406E-1,1.1195413E-1,-1.3095638E-1,4.4415902E-2,-3.1274557E-2,-1.22223295E-1,1.3051224E-1,-9.245625E-2,-1.1574849E-1,9.3707085E-2],"categories":[],"categories_nodes":[],"categories_segments":[],"categories_sizes":[],"default_left":[0,0,0,0,0,0,0,0,0,0,0,0,0,0,0,0,0,0,0,0,0,0,0,0,0,0,0,0,0,0,0,0,0,0,0,0,0,0,0,0,0],"id":15,"left_children":[1,3,5,7,9,-1,11,13,15,17,19,21,-1,23,25,27,29,-1,-1,31,-1,33,-1,-1,-1,35,-1,37,-1,39,-1,-1,-1,-1,-1,-1,-1,-1,-1,-1,-1],"loss_changes":[2.4823591E3,1.4509634E3,3.5138306E1,2.567119E2,7.74884E1,0E0,1.187534E1,1.7799072E1,6.815332E1,5.0059937E1,1.5650316E1,2.2549185E1,0E0,8.125E-1,7.103569E0,8.9993065E1,8.116045E0,0E0,0E0,2.1957085E1,0E0,5.1863384E0,0E0,0E0,0E0,4.032571E0,0E0,1.262146E1,0E0,7.7108536E0,0E0,0E0,0E0,0E0,0E0,0E0,0E0,0E0,0E0,0E0,0E0],"parents":[2147483647,0,0,1,1,2,2,3,3,4,4,6,6,7,7,8,8,9,9,10,10,11,11,13,13,14,14,15,15,16,16,19,19,21,21,25,25,27,27,29,29],"right_children":[2,4,6,8,10,-1,12,14,16,18,20,22,-1,24,26,28,30,-1,-1,32,-1,34,-1,-1,-1,36,-1,38,-1,40,-1,-1,-1,-1,-1,-1,-1,-1,-1,-1,-1],"split_conditions":[1E0,1E0,1E0,1E0,1E0,1.1841097E-1,1E0,1E0,1E0,1E0,2E0,2E0,1.1397564E-1,2E0,1E0,1E0,1E0,1.23475544E-1,-1.23883665E-1,1E0,1.0658059E-1,1E0,1.05655335E-1,-1.1905823E-1,-1.5844598E-2,1E0,-1.1822724E-1,1E0,-1.288508E-1,1E0,1.0941353E-1,-1.20469406E-1,1.1195413E-1,-1.3095638E-1,4.4415902E-2,-3.1274557E-2,-1.22223295E-1,1.3051224E-1,-9.245625E-2,-1.1574849E-1,9.3707085E-2],"split_indices":[39,38,19,37,18,0,38,36,17,19,38,39,0,34,17,18,36,0,0,37,0,37,0,0,0,18,0,19,0,35,0,0,0,0,0,0,0,0,0,0,0],"split_type":[0,0,0,0,0,0,0,0,0,0,0,0,0,0,0,0,0,0,0,0,0,0,0,0,0,0,0,0,0,0,0,0,0,0,0,0,0,0,0,0,0],"sum_hessian":[3.2730447E3,2.09092E3,1.1821249E3,1.6906246E3,4.002953E2,1.1566163E3,2.5508575E1,1.5690435E3,1.21581154E2,3.7053317E2,2.9762112E1,1.9667442E1,5.8411336E0,1.5042048E3,6.483868E1,9.11856E1,3.0395555E1,3.629255E2,7.6076565E0,2.519256E1,4.5695515E0,1.3256702E1,6.4107394E0,1.5031108E3,1.093971E0,4.788935E1,1.6949322E1,7.467429E1,1.6511305E1,2.9304815E1,1.0907406E0,2.1039074E1,4.1534853E0,1.1810094E1,1.4466085E0,4.313538E1,4.753972E0,7.2718666E1,1.955633E0,2.8157969E1,1.146846E0],"tree_param":{"num_deleted":"0","num_feature":"40","num_nodes":"41","size_leaf_vector":"1"}},{"base_weights":[9.633268E-4,-6.4211726E-1,1.1385095E0,-7.099365E-1,3.7349448E-1,1.1631968E-1,9.8243274E-2,-7.1970505E-1,-4.4950747E-1,7.96503E-1,-7.29395E-1,-2.695969E-1,1.0403543E-1,-7.783968E-2,-7.0277476E-1,1.3972405E-2,-8.6734486E-1,1.2060685E0,-7.7188194E-2,-8.1777906E-1,8.553349E-2,-3.6542746E-1,4.970858E-2,-7.000306E-1,-1.14791274E-1,9.702441E-1,-6.7034554E-1,-8.857392E-2,-1.3481147E-2,1.2666476E-1,-8.3591186E-2,2.8443484E-2,-8.6879104E-1,-4.5996407E-1,6.6347025E-2,-7.114752E-2,-6.476115E-2,1.6312152E-1,-5.7364374E-2,-7.418052E-2,1.5522756E-2,-9.048903E-2,8.331955E-3,-5.4754224E-2,3.5913166E-2,-5.247143E-2,4.3057933E-2],"categories":[],"categories_nodes":[],"categories_segments":[],"categories_sizes":[],"default_left":[0,0,0,0,0,0,0,0,0,0,0,0,0,0,0,0,0,0,0,0,0,0,0,0,0,0,0,0,0,0,0,0,0,0,0,0,0,0,0,0,0,0,0,0,0,0,0],"id":16,"left_children":[1,3,5,7,9,-1,11,13,15,17,19,21,-1,-1,23,25,27,29,-1,31,-1,33,-1,35,-1,37,39,-1,-1,-1,-1,-1,41,43,45,-1,-1,-1,-1,-1,-1,-1,-1,-1,-1,-1,-1],"loss_changes":[2.209054E3,1.3314185E2,2.7893677E1,4.277954E0,5.7224586E1,0E0,9.420296E0,1.1835938E0,1.3191765E1,5.7608566E1,5.486946E0,1.6336153E0,0E0,0E0,8.602295E-1,2.2408865E1,3.6305618E-1,9.761688E0,0E0,2.0961704E0,0E0,7.710829E-1,0E0,3.5284424E-1,0E0,1.5505592E1,1.2934084E0,0E0,0E0,0E0,0E0,0E0,1.1641808E0,1.273387E0,1.1156521E0,0E0,0E0,0E0,0E0,0E0,0E0,0E0,0E0,0E0,0E0,0E0,0E0],"parents":[2147483647,0,0,1,1,2,2,3,3,4,4,6,6,7,7,8,8,9,9,10,10,11,11,14,14,15,15,16,16,17,17,19,19,21,21,23,23,25,25,26,26,32,32,33,33,34,34],"right_children":[2,4,6,8,10,-1,12,14,16,18,20,22,-1,-1,24,26,28,30,-1,32,-1,34,-1,36,-1,38,40,-1,-1,-1,-1,-1,42,44,46,-1,-1,-1,-1,-1,-1,-1,-1,-1,-1,-1,-1],"split_conditions":[1E0,1E0,1E0,1E0,1E0,1.1631968E-1,2E0,1.1E1,1E0,1E0,2E0,1E0,1.0403543E-1,-7.783968E-2,1E0,1E0,1E0,1E0,-7.7188194E-2,1E0,8.553349E-2,2E0,4.970858E-2,1.4E1,-1.14791274E-1,1E0,1.5E1,-8.857392E-2,-1.3481147E-2,1.2666476E-1,-8.3591186E-2,2.8443484E-2,1E0,1E0,3E0,-7.114752E-2,-6.476115E-2,1.6312152E-1,-5.7364374E-2,-7.418052E-2,1.5522756E-2,-9.048903E-2,8.331955E-3,-5.4754224E-2,3.5913166E-2,-5.247143E-2,4.3057933E-2],"split_indices":[39,37,19,36,17,0,39,0,16,18,37,37,0,0,19,17,11,19,0,21,0,23,0,0,0,18,0,0,0,0,0,0,11,27,21,0,0,0,0,0,0,0,0,0,0,0,0],"split_type":[0,0,0,0,0,0,0,0,0,0,0,0,0,0,0,0,0,0,0,0,0,0,0,0,0,0,0,0,0,0,0,0,0,0,0,0,0,0,0,0,0,0,0,0,0,0,0],"sum_hessian":[3.0177566E3,1.9281597E3,1.0895968E3,1.8077454E3,1.20414314E2,1.0642228E3,2.5374023E1,1.7406896E3,6.7055855E1,8.7233925E1,3.3180393E1,1.8762272E1,6.611751E0,3.796365E2,1.3610531E3,3.22498E1,3.480605E1,6.935396E1,1.7879969E1,3.1886002E1,1.2943927E0,1.7142883E1,1.6193887E0,1.3552709E3,5.7822156E0,1.327766E1,1.8972141E1,3.374944E1,1.0566111E0,6.772448E1,1.6294736E0,1.208043E0,3.0677958E1,1.4010098E1,3.1327848E0,1.1020836E3,2.5318726E2,9.257686E0,4.0199747E0,1.7554161E1,1.4179801E0,2.9605078E1,1.0728797E0,1.2956329E1,1.0537694E0,1.0264691E0,2.1063156E0],"tree_param":{"num_deleted":"0","num_feature":"40","num_nodes":"47","size_leaf_vector":"1"}},{"base_weights":[3.8806444E-3,-6.019409E-1,1.12017944E-1,-6.625055E-1,3.2344344E-1,-6.720677E-1,-4.179786E-1,7.185816E-1,-6.7782044E-1,-6.729875E-1,-6.089713E-2,-3.3993065E-2,-7.6906675E-1,1.18104436E-1,-8.0983037E-1,-7.4832344E-1,7.9880886E-2,-6.5388006E-1,-7.063421E-1,1.6822802E-2,-2.911768E-2,7.650501E-1,-7.001025E-1,-7.888521E-2,-2.6920293E-2,-8.542626E-1,-1.4724088E-2,-2.1420176E-1,-8.0352867E-1,4.861785E-2,-2.7815718E-2,-6.044922E-2,-6.692882E-2,-7.152655E-2,-5.0048616E-2,1.4544204E-1,-1.1066375E-1,-4.602148E-2,-8.052985E-2,-1.0275054E-1,-5.1572245E-2,-5.851675E-2,1.8474406E-2,-8.6725056E-2,1.8406849E-3],"categories":[],"categories_nodes":[],"categories_segments":[],"categories_sizes":[],"default_left":[0,0,0,0,0,0,0,0,0,0,0,0,0,0,0,0,0,0,0,0,0,0,0,0,0,0,0,0,0,0,0,0,0,0,0,0,0,0,0,0,0,0,0,0,0],"id":17,"left_children":[1,3,-1,5,7,9,11,13,15,17,19,21,23,-1,25,27,29,31,33,-1,-1,35,37,-1,-1,39,-1,41,43,-1,-1,-1,-1,-1,-1,-1,-1,-1,-1,-1,-1,-1,-1,-1,-1],"loss_changes":[1.936879E3,1.0426288E2,0E0,3.7941284E0,4.587171E1,9.0093994E-1,9.172395E0,5.943842E1,1.821291E0,6.043701E-1,2.3984402E-1,1.8438057E1,1.3968658E-1,0E0,4.5750427E-1,7.202587E-1,6.750158E-1,4.1506958E-1,7.383728E-1,0E0,0E0,2.1956879E1,1.0547066E-1,0E0,0E0,5.4685116E-1,0E0,7.294582E-1,1.4335346E0,0E0,0E0,0E0,0E0,0E0,0E0,0E0,0E0,0E0,0E0,0E0,0E0,0E0,0E0,0E0,0E0],"parents":[2147483647,0,0,1,1,3,3,4,4,5,5,6,6,7,7,8,8,9,9,10,10,11,11,12,12,14,14,15,15,16,16,17,17,18,18,21,21,22,22,25,25,27,27,28,28],"right_children":[2,4,-1,6,8,10,12,14,16,18,20,22,24,-1,26,28,30,32,34,-1,-1,36,38,-1,-1,40,-1,42,44,-1,-1,-1,-1,-1,-1,-1,-1,-1,-1,-1,-1,-1,-1,-1,-1],"split_conditions":[1E0,1E0,1.12017944E-1,1E0,1E0,2E0,1E0,1E0,3E0,3E0,2E0,1E0,1E0,1.18104436E-1,2E0,2E0,4E0,1E0,1E0,1.6822802E-2,-2.911768E-2,1E0,1E0,-7.888521E-2,-2.6920293E-2,1E0,-1.4724088E-2,2E0,1E0,4.861785E-2,-2.7815718E-2,-6.044922E-2,-6.692882E-2,-7.152655E-2,-5.0048616E-2,1.4544204E-1,-1.1066375E-1,-4.602148E-2,-8.052985E-2,-1.0275054E-1,-5.1572245E-2,-5.851675E-2,1.8474406E-2,-8.6725056E-2,1.8406849E-3],"split_indices":[39,37,0,36,17,32,16,18,23,2,2,17,29,0,5,21,1,3,15,0,0,18,23,0,0,24,0,2,8,0,0,0,0,0,0,0,0,0,0,0,0,0,0,0,0],"split_type":[0,0,0,0,0,0,0,0,0,0,0,0,0,0,0,0,0,0,0,0,0,0,0,0,0,0,0,0,0,0,0,0,0,0,0,0,0,0,0,0,0,0,0,0,0],"sum_hessian":[2.8620315E3,1.8555015E3,1.00653015E3,1.7417888E3,1.1371266E2,1.6745569E3,6.723194E1,8.173797E1,3.1974699E1,1.6719396E3,2.617316E0,3.263539E1,3.4596546E1,6.2925434E1,1.881253E1,2.9264093E1,2.710605E0,1.0760942E3,5.9584534E2,1.4470164E0,1.1702996E0,1.4769657E1,1.7865734E1,3.2723183E1,1.8733667E0,1.7359173E1,1.4533585E0,3.19846E0,2.6065634E1,1.1020803E0,1.6085247E0,2.6545627E2,8.1063794E2,5.6871814E2,2.7127161E1,1.0956977E1,3.8126802E0,7.084699E0,1.0781034E1,1.0136743E1,7.2224298E0,1.4154751E0,1.7829849E0,2.413908E1,1.926553E0],"tree_param":{"num_deleted":"0","num_feature":"40","num_nodes":"45","size_leaf_vector":"1"}},{"base_weights":[3.8740502E-3,-1.9264969E-1,1.0919927E0,1.7691048E-2,-3.3994892E-1,1.199797E0,-7.151973E-3,-1.1430702E-1,1.1168795E-1,-1.1208736E-1,-2.6297042E-1,1.238484E-1,-4.3489583E-2,-1.7467624E-1,1.132969E-1,1.2013291E-1,-4.422704E-1,7.916246E-2,-4.103987E-1,3.0146456E-1,-3.004217E-1,-3.6505944E-1,1.0413504E-1,-8.917018E-2,1.1060723E-1,-1.1219726E-1,-2.3798443E-1,-1.9466507E-1,1.1208915E-1,-6.8403226E-1,-3.407048E-2,6.304957E-2,6.2862304E-3,-3.781329E-1,1.0825605E-2,8.372019E-2,-4.8474813E-1,2.4193838E-2,-4.155775E-2,1.904583E-2,-3.474137E-2,1.0309817E-2,-4.013058E-2,-1.1141797E-1,-5.1805068E-2,4.180202E-2,-6.0927957E-2,5.2748084E-2,-3.5513338E-2,-5.7265785E-2,-5.613539E-3,-6.292148E-2,6.1238408E-2,-7.7655025E-2,-3.2097127E-2],"categories":[],"categories_nodes":[],"categories_segments":[],"categories_sizes":[],"default_left":[0,0,0,0,0,0,0,0,0,0,0,0,0,0,0,0,0,0,0,0,0,0,0,0,0,0,0,0,0,0,0,0,0,0,0,0,0,0,0,0,0,0,0,0,0,0,0,0,0,0,0,0,0,0,0],"id":18,"left_children":[1,3,5,7,9,11,13,15,-1,-1,17,-1,19,21,-1,23,25,27,29,31,33,35,-1,37,-1,-1,39,41,-1,43,45,-1,47,49,-1,51,53,-1,-1,-1,-1,-1,-1,-1,-1,-1,-1,-1,-1,-1,-1,-1,-1,-1,-1],"loss_changes":[5.8689276E2,7.203187E1,4.975827E1,1.3918365E2,8.189851E1,1.8444946E1,7.5504484E0,6.591217E1,0E0,0E0,6.2875908E1,0E0,1.198863E0,8.351112E0,0E0,1.0333791E2,4.9341827E1,1.0748348E2,8.965529E1,5.6295776E-1,2.844503E-1,1.6793838E0,0E0,4.480146E1,0E0,0E0,1.3005214E1,1.8415237E1,0E0,3.5419617E1,9.5870636E1,0E0,9.5718104E-1,3.8533425E-1,0E0,3.1278348E0,9.088726E-1,0E0,0E0,0E0,0E0,0E0,0E0,0E0,0E0,0E0,0E0,0E0,0E0,0E0,0E0,0E0,0E0,0E0,0E0],"parents":[2147483647,0,0,1,1,2,2,3,3,4,4,5,5,6,6,7,7,10,10,12,12,13,13,15,15,16,16,17,17,18,18,19,19,20,20,21,21,23,23,26,26,27,27,29,29,30,30,32,32,33,33,35,35,36,36],"right_children":[2,4,6,8,10,12,14,16,-1,-1,18,-1,20,22,-1,24,26,28,30,32,34,36,-1,38,-1,-1,40,42,-1,44,46,-1,48,50,-1,52,54,-1,-1,-1,-1,-1,-1,-1,-1,-1,-1,-1,-1,-1,-1,-1,-1,-1,-1],"split_conditions":[1E0,1.2E1,1E0,1.2E1,1.2E1,1E0,1E0,1.1E1,1.1168795E-1,-1.1208736E-1,1.3E1,1.238484E-1,2E0,2E0,1.132969E-1,1.1E1,1.1E1,1.3E1,1.4E1,1.3E1,2E0,1.1E1,1.0413504E-1,1E1,1.1060723E-1,-1.1219726E-1,4E0,4E0,1.1208915E-1,1.3E1,1.5E1,6.304957E-2,1E0,3E0,1.0825605E-2,1E1,1.2E1,2.4193838E-2,-4.155775E-2,1.904583E-2,-3.474137E-2,1.0309817E-2,-4.013058E-2,-1.1141797E-1,-5.1805068E-2,4.180202E-2,-6.0927957E-2,5.2748084E-2,-3.5513338E-2,-5.7265785E-2,-5.613539E-3,-6.292148E-2,6.1238408E-2,-7.7655025E-2,-3.2097127E-2],"split_indices":[38,20,18,0,0,19,37,20,0,0,20,0,2,38,0,0,0,0,0,20,23,20,0,20,0,0,21,21,0,0,20,0,2,2,0,0,0,0,0,0,0,0,0,0,0,0,0,0,0,0,0,0,0,0,0],"split_type":[0,0,0,0,0,0,0,0,0,0,0,0,0,0,0,0,0,0,0,0,0,0,0,0,0,0,0,0,0,0,0,0,0,0,0,0,0,0,0,0,0,0,0,0,0,0,0,0,0,0,0,0,0,0,0],"sum_hessian":[2.742543E3,2.3236875E3,4.1885532E2,9.574069E2,1.3662806E3,3.813599E2,3.7495422E1,8.555613E2,1.0184565E2,1.2137775E2,1.2449028E3,3.698551E2,1.1504785E1,3.3430138E1,4.0652833E0,4.992869E2,3.562744E2,3.7503418E2,8.698687E2,4.837154E0,6.667631E0,2.9509823E1,3.9203153E0,4.126053E2,8.668159E1,8.12954E1,2.74979E2,2.9761627E2,7.74179E1,5.0318103E2,3.6668765E2,1.7502228E0,3.086931E0,5.665131E0,1.0024998E0,6.2764454E0,2.3233377E1,2.0495605E2,2.0764925E2,5.579343E1,2.191856E2,1.2213066E2,1.7548563E2,1.3851126E2,3.6466977E2,2.0546999E2,1.6121768E2,1.075913E0,2.011018E0,3.0463305E0,2.6188009E0,2.5914805E0,3.6849647E0,7.0071645E0,1.6226213E1],"tree_param":{"num_deleted":"0","num_feature":"40","num_nodes":"55","size_leaf_vector":"1"}},{"base_weights":[8.175254E-3,-5.6697947E-1,1.0999511E0,-6.270292E-1,3.3285415E-1,1.1290846E-1,4.694585E-3,-5.127468E-1,-7.9947174E-1,6.9161296E-1,-5.8522874E-1,-3.1929633E-1,9.811436E-2,-5.7199687E-1,1.19908355E-1,-9.1654646E-1,-6.039565E-1,7.3832977E-1,-8.7718144E-2,-6.69582E-1,8.204858E-2,-4.4376358E-1,5.4314036E-2,-4.5133358E-1,-8.080525E-1,-8.3837855E-1,-1.1214658E-1,1.1356366E-1,-7.2985613E-1,7.7771914E-1,6.477278E-2,-3.999922E-2,-7.425761E-1,-1.572103E-1,-6.131855E-1,-5.641801E-2,1.18448496E-1,-1.10675216E-1,-6.454403E-2,-1.09814726E-1,-6.481093E-2,-4.9720302E-2,-8.953702E-2,8.915665E-2,5.712926E-2,-5.9826132E-2,3.605241E-2,-5.4512132E-2,3.8066857E-2,-7.7989504E-2,4.218987E-3,-4.7185462E-2,2.8190026E-2,-9.929376E-2,-1.1446473E-2],"categories":[],"categories_nodes":[],"categories_segments":[],"categories_sizes":[],"default_left":[0,0,0,0,0,0,0,0,0,0,0,0,0,0,0,0,0,0,0,0,0,0,0,0,0,0,0,0,0,0,0,0,0,0,0,0,0,0,0,0,0,0,0,0,0,0,0,0,0,0,0,0,0,0,0],"id":19,"left_children":[1,3,5,7,9,-1,11,13,15,17,19,21,-1,23,-1,25,27,29,-1,31,-1,33,-1,35,37,39,-1,-1,41,43,45,47,49,51,53,-1,-1,-1,-1,-1,-1,-1,-1,-1,-1,-1,-1,-1,-1,-1,-1,-1,-1,-1,-1],"loss_changes":[1.6592377E3,9.372388E1,2.9085938E1,3.1569336E1,3.6280277E1,0E0,8.104272E0,9.995468E1,1.4210327E1,6.4210587E0,4.2425404E0,2.3069763E0,0E0,2.6599396E1,0E0,5.490906E0,5.43785E1,1.9935875E0,0E0,1.3459034E0,0E0,7.468355E-1,0E0,1.16726364E2,1.4777863E1,1.3848755E1,0E0,0E0,8.358009E0,1.1990395E0,1.2642486E0,1.092916E0,8.168001E-1,1.2104683E0,1.8883078E0,0E0,0E0,0E0,0E0,0E0,0E0,0E0,0E0,0E0,0E0,0E0,0E0,0E0,0E0,0E0,0E0,0E0,0E0,0E0,0E0],"parents":[2147483647,0,0,1,1,2,2,3,3,4,4,6,6,7,7,8,8,9,9,10,10,11,11,13,13,15,15,16,16,17,17,19,19,21,21,23,23,24,24,25,25,28,28,29,29,30,30,31,31,32,32,33,33,34,34],"right_children":[2,4,6,8,10,-1,12,14,16,18,20,22,-1,24,-1,26,28,30,-1,32,-1,34,-1,36,38,40,-1,-1,42,44,46,48,50,52,54,-1,-1,-1,-1,-1,-1,-1,-1,-1,-1,-1,-1,-1,-1,-1,-1,-1,-1,-1,-1],"split_conditions":[1E0,1E0,1E0,1.3E1,1E0,1.1290846E-1,2E0,1.3E1,1.4E1,1E0,2E0,1E0,9.811436E-2,1.2E1,1.19908355E-1,1.4E1,1.4E1,1.5E1,-8.7718144E-2,2E0,8.204858E-2,1.3E1,5.4314036E-2,1.2E1,1.2E1,1.3E1,-1.1214658E-1,1.1356366E-1,1.5E1,5E0,1.5E1,1E0,1E0,1.2E1,1.4E1,-5.641801E-2,1.18448496E-1,-1.10675216E-1,-6.454403E-2,-1.09814726E-1,-6.481093E-2,-4.9720302E-2,-8.953702E-2,8.915665E-2,5.712926E-2,-5.9826132E-2,3.605241E-2,-5.4512132E-2,3.8066857E-2,-7.7989504E-2,4.218987E-3,-4.7185462E-2,2.8190026E-2,-9.929376E-2,-1.1446473E-2],"split_indices":[39,37,19,20,17,0,39,0,0,19,37,37,0,20,0,20,20,20,0,21,0,20,0,0,0,0,0,0,20,1,0,23,11,0,0,0,0,0,0,0,0,0,0,0,0,0,0,0,0,0,0,0,0,0,0],"split_type":[0,0,0,0,0,0,0,0,0,0,0,0,0,0,0,0,0,0,0,0,0,0,0,0,0,0,0,0,0,0,0,0,0,0,0,0,0,0,0,0,0,0,0,0,0,0,0,0,0,0,0,0,0,0,0],"sum_hessian":[2.6403574E3,1.7296481E3,9.107093E2,1.6217264E3,1.07921555E2,8.8708234E2,2.3626947E1,9.7773096E2,6.4399554E2,7.777581E1,3.014574E1,1.8245872E1,5.3810744E0,9.4566534E2,3.2065605E1,4.004924E2,2.4350313E2,7.604077E1,1.7350389E0,2.8933205E1,1.2125354E0,1.6368952E1,1.8769206E0,6.277128E2,3.1795255E2,2.935913E2,1.06901085E2,1.5892435E1,2.2761069E2,7.169352E1,4.347258E0,3.1668377E0,2.5766367E1,6.798378E0,9.570575E0,5.878175E2,3.9895313E1,1.1003146E2,2.079211E2,1.2210864E2,1.7148268E2,9.627985E1,1.3133084E2,4.4069492E1,2.7624022E1,1.0254613E0,3.3217967E0,1.3045434E0,1.8622943E0,2.4602617E1,1.1637489E0,3.9170496E0,2.881328E0,4.870756E0,4.699818E0],"tree_param":{"num_deleted":"0","num_feature":"40","num_nodes":"55","size_leaf_vector":"1"}},{"base_weights":[2.2817208E-3,-5.2955997E-1,1.0810946E0,-1.0018214E0,1.0722723E0,1.11528695E-1,-5.198085E-2,-1.1028997E0,2.1557741E-1,1.1805681E0,-3.8216278E-1,-4.7749233E-1,1.1006389E-1,-1.130146E-1,-4.8397106E-1,4.6541324E-1,-1.19889E-1,1.2173754E-1,-1.0596706E-1,-6.7719674E-1,1.0321909E-1,-1.0452241E0,9.52034E-2,-9.214748E-3,-9.681911E-1,4.993705E-1,-8.147039E-2,-1.0418029E-1,1.0442042E-1,-1.2515235E-1,4.1347627E-2,1.650127E-2,-1.0036699E-1,-6.36883E-2,-1.081258E-1,5.4580726E-2,-1.5066276E-2],"categories":[],"categories_nodes":[],"categories_segments":[],"categories_sizes":[],"default_left":[0,0,0,0,0,0,0,0,0,0,0,0,0,0,0,0,0,0,0,0,0,0,0,0,0,0,0,0,0,0,0,0,0,0,0,0,0],"id":20,"left_children":[1,3,5,7,9,-1,11,13,15,17,19,21,-1,-1,23,25,-1,-1,-1,27,-1,29,-1,31,33,35,-1,-1,-1,-1,-1,-1,-1,-1,-1,-1,-1],"loss_changes":[1.430043E3,1.2639614E3,3.1943115E1,1.58953E2,6.0399445E1,0E0,1.2817919E1,1.9539307E1,3.57966E1,3.0518585E1,1.2020203E1,1.641762E1,0E0,0E0,1.1938861E1,4.1221027E0,0E0,0E0,0E0,1.5556041E1,0E0,4.753927E0,0E0,4.887393E0,2.7484322E-1,2.6141949E0,0E0,0E0,0E0,0E0,0E0,0E0,0E0,0E0,0E0,0E0,0E0],"parents":[2147483647,0,0,1,1,2,2,3,3,4,4,6,6,7,7,8,8,9,9,10,10,11,11,14,14,15,15,19,19,21,21,23,23,24,24,25,25],"right_children":[2,4,6,8,10,-1,12,14,16,18,20,22,-1,-1,24,26,-1,-1,-1,28,-1,30,-1,32,34,36,-1,-1,-1,-1,-1,-1,-1,-1,-1,-1,-1],"split_conditions":[1E0,1E0,1E0,1E0,1E0,1.11528695E-1,1E0,1E0,1E0,1E0,2E0,2E0,1.1006389E-1,-1.130146E-1,1E0,1E0,-1.19889E-1,1.2173754E-1,-1.0596706E-1,1E0,1.0321909E-1,1E0,9.52034E-2,1E0,1.2E1,1.5E1,-8.147039E-2,-1.0418029E-1,1.0442042E-1,-1.2515235E-1,4.1347627E-2,1.650127E-2,-1.0036699E-1,-6.36883E-2,-1.081258E-1,5.4580726E-2,-1.5066276E-2],"split_indices":[39,38,19,37,18,0,38,36,18,19,38,39,0,0,16,19,0,0,0,37,0,37,0,18,20,20,0,0,0,0,0,0,0,0,0,0,0],"split_type":[0,0,0,0,0,0,0,0,0,0,0,0,0,0,0,0,0,0,0,0,0,0,0,0,0,0,0,0,0,0,0,0,0,0,0,0,0],"sum_hessian":[2.4904185E3,1.6684177E3,8.220006E2,1.2888162E3,3.7960165E2,7.9793726E2,2.4063309E1,1.1900986E3,9.871747E1,3.5347086E2,2.6130804E1,1.800292E1,6.0603876E0,1.1391261E3,5.0972527E1,8.4468796E1,1.4248669E1,3.482064E2,5.2644577E0,2.2051964E1,4.078839E0,1.3077906E1,4.9250154E0,2.625232E1,2.4720205E1,8.2880165E1,1.5886327E0,1.8523365E1,3.5286002E0,1.1581936E1,1.4959693E0,2.3048342E1,3.2039773E0,7.9774666E0,1.674274E1,7.750382E1,5.3763433E0],"tree_param":{"num_deleted":"0","num_feature":"40","num_nodes":"37","size_leaf_vector":"1"}},{"base_weights":[1.0723145E-3,-1.9256261E-1,1.0472198E0,-7.949163E-3,-3.218797E-1,1.1496556E0,-1.5709024E-2,-1.2692234E-1,1.0823653E-1,-1.08373106E-1,-2.5076443E-1,1.1920561E-1,-6.015497E-2,-1.827851E-1,9.885528E-2,9.1860965E-2,-4.3431327E-1,6.791235E-2,-3.870747E-1,5.147138E-2,-5.5946805E-2,-3.8476285E-1,1.0015199E-1,-8.723706E-2,1.078568E-1,-1.0889777E-1,-2.4447607E-1,-1.7439961E-1,1.08774774E-1,-1.0807581E-1,-2.6534355E-1,1.7445187E-1,-4.088104E-2,-1.2395644E-1,-6.353332E-1,2.1775296E-2,-3.7717577E-2,-2.671274E-3,-4.2309135E-2,3.0161554E-2,-2.7720636E-2,3.5902665E-3,-4.755421E-2,5.7807364E-2,-1.9385295E-2,-2.7118906E-2,7.67928E-2,-1.1419936E-2,-7.0709676E-2],"categories":[],"categories_nodes":[],"categories_segments":[],"categories_sizes":[],"default_left":[0,0,0,0,0,0,0,0,0,0,0,0,0,0,0,0,0,0,0,0,0,0,0,0,0,0,0,0,0,0,0,0,0,0,0,0,0,0,0,0,0,0,0,0,0,0,0,0,0],"id":21,"left_children":[1,3,5,7,9,11,13,15,-1,-1,17,-1,19,21,-1,23,25,27,29,31,-1,33,-1,35,-1,-1,37,39,-1,-1,41,43,-1,45,47,-1,-1,-1,-1,-1,-1,-1,-1,-1,-1,-1,-1,-1,-1],"loss_changes":[4.6299374E2,4.6040733E1,3.8886078E1,1.0332565E2,6.1175163E1,1.6774323E1,5.611091E0,4.8334488E1,0E0,0E0,4.514254E1,0E0,6.963658E-1,7.2246885E0,0E0,7.4376755E1,3.686436E1,7.7293236E1,6.1154144E1,6.7725855E-1,0E0,1.5647304E0,0E0,3.162422E1,0E0,0E0,9.047375E0,1.2463415E1,0E0,0E0,3.929583E1,1.4720305E0,0E0,1.9895493E0,3.898611E-1,0E0,0E0,0E0,0E0,0E0,0E0,0E0,0E0,0E0,0E0,0E0,0E0,0E0,0E0],"parents":[2147483647,0,0,1,1,2,2,3,3,4,4,5,5,6,6,7,7,10,10,12,12,13,13,15,15,16,16,17,17,18,18,19,19,21,21,23,23,26,26,27,27,30,30,31,31,33,33,34,34],"right_children":[2,4,6,8,10,12,14,16,-1,-1,18,-1,20,22,-1,24,26,28,30,32,-1,34,-1,36,-1,-1,38,40,-1,-1,42,44,-1,46,48,-1,-1,-1,-1,-1,-1,-1,-1,-1,-1,-1,-1,-1,-1],"split_conditions":[1E0,1.2E1,1E0,1.2E1,1.2E1,1E0,2E0,1.1E1,1.0823653E-1,-1.08373106E-1,1.3E1,1.1920561E-1,4E0,1E0,9.885528E-2,1.1E1,1.1E1,1.3E1,1.3E1,1.5E1,-5.5946805E-2,1.3E1,1.0015199E-1,1E1,1.078568E-1,-1.0889777E-1,5E0,3E0,1.08774774E-1,-1.0807581E-1,1.4E1,5E0,-4.088104E-2,1.3E1,2E0,2.1775296E-2,-3.7717577E-2,-2.671274E-3,-4.2309135E-2,3.0161554E-2,-2.7720636E-2,3.5902665E-3,-4.755421E-2,5.7807364E-2,-1.9385295E-2,-2.7118906E-2,7.67928E-2,-1.1419936E-2,-7.0709676E-2],"split_indices":[38,20,18,0,0,19,38,20,0,0,20,0,2,37,0,0,0,0,0,20,0,20,0,20,0,0,21,21,0,0,20,21,0,0,21,0,0,0,0,0,0,0,0,0,0,0,0,0,0],"split_type":[0,0,0,0,0,0,0,0,0,0,0,0,0,0,0,0,0,0,0,0,0,0,0,0,0,0,0,0,0,0,0,0,0,0,0,0,0,0,0,0,0,0,0,0,0,0,0,0,0],"sum_hessian":[2.2835955E3,1.9276215E3,3.5597394E2,7.9448047E2,1.133141E3,3.2460934E2,3.1364613E1,7.1711383E2,7.73666E1,9.552727E1,1.0376138E3,3.136321E2,1.0977237E1,2.7592175E1,3.772438E0,4.1934744E2,2.9776642E2,3.1101062E2,7.2660315E2,9.704595E0,1.272642E0,2.414882E1,3.4433544E0,3.5569632E2,6.3651146E1,6.5870804E1,2.318956E2,2.5197142E2,5.9039196E1,1.0729661E2,6.193065E2,8.148441E0,1.556154E0,1.2565109E1,1.1583711E1,1.7347005E2,1.8222627E2,1.0501431E2,1.2688129E2,4.4410126E1,2.0756131E2,2.5486945E2,3.6443707E2,3.616071E0,4.53237E0,1.1382087E1,1.1830223E0,1.7157301E0,9.867981E0],"tree_param":{"num_deleted":"0","num_feature":"40","num_nodes":"49","size_leaf_vector":"1"}},{"base_weights":[2.963137E-3,-5.4319E-1,1.0709883E0,-9.786525E-1,1.006119E0,1.1035978E-1,-2.9465394E-2,-1.0818713E0,2.2391975E-1,1.1174767E0,-3.330509E-1,-4.00133E-1,1.04237415E-1,-1.1117164E-1,-4.6220854E-1,6.662681E-1,-8.820001E-1,1.1698605E-1,-1.0775101E-1,-6.066033E-1,9.746439E-2,-9.018928E-1,9.197231E-2,-3.9118506E-2,-9.332638E-1,1.0928524E0,-1.1393098E-1,-9.987993E-2,9.436285E-2,-9.3415394E-2,9.6089624E-2,-1.1680335E-1,4.9678937E-2,8.313344E-2,-1.08458355E-1,-9.638984E-2,-2.4642807E-2,1.1790639E-1,-8.463598E-2],"categories":[],"categories_nodes":[],"categories_segments":[],"categories_sizes":[],"default_left":[0,0,0,0,0,0,0,0,0,0,0,0,0,0,0,0,0,0,0,0,0,0,0,0,0,0,0,0,0,0,0,0,0,0,0,0,0,0,0],"id":22,"left_children":[1,3,5,7,9,-1,11,13,15,17,19,21,-1,-1,23,25,27,-1,-1,29,-1,31,-1,33,35,37,-1,-1,-1,-1,-1,-1,-1,-1,-1,-1,-1,-1,-1],"loss_changes":[1.283781E3,9.834445E2,2.67547E1,1.4140405E2,4.8091217E1,0E0,9.3185835E0,1.8858643E1,4.4969414E1,3.525534E1,9.654554E0,1.2333148E1,0E0,0E0,9.897517E0,5.1597023E1,6.561224E0,0E0,0E0,1.1972141E1,0E0,5.4532537E0,0E0,2.5748266E1,2.578106E-1,9.923729E0,0E0,0E0,0E0,0E0,0E0,0E0,0E0,0E0,0E0,0E0,0E0,0E0,0E0],"parents":[2147483647,0,0,1,1,2,2,3,3,4,4,6,6,7,7,8,8,9,9,10,10,11,11,14,14,15,15,16,16,19,19,21,21,23,23,24,24,25,25],"right_children":[2,4,6,8,10,-1,12,14,16,18,20,22,-1,-1,24,26,28,-1,-1,30,-1,32,-1,34,36,38,-1,-1,-1,-1,-1,-1,-1,-1,-1,-1,-1,-1,-1],"split_conditions":[1E0,1E0,1E0,1E0,1E0,1.1035978E-1,1E0,1E0,1E0,1E0,2E0,2E0,1.04237415E-1,-1.1117164E-1,1E0,1E0,1E0,1.1698605E-1,-1.0775101E-1,1E0,9.746439E-2,1E0,9.197231E-2,1E0,5E0,1E0,-1.1393098E-1,-9.987993E-2,9.436285E-2,-9.3415394E-2,9.6089624E-2,-1.1680335E-1,4.9678937E-2,8.313344E-2,-1.08458355E-1,-9.638984E-2,-2.4642807E-2,1.1790639E-1,-8.463598E-2],"split_indices":[39,38,19,37,18,0,38,36,17,19,38,39,0,0,16,18,35,0,0,37,0,37,0,17,22,19,0,0,0,0,0,0,0,0,0,0,0,0,0],"split_type":[0,0,0,0,0,0,0,0,0,0,0,0,0,0,0,0,0,0,0,0,0,0,0,0,0,0,0,0,0,0,0,0,0,0,0,0,0,0,0],"sum_hessian":[2.1988757E3,1.4552169E3,7.436589E2,1.1362272E3,3.1898975E2,7.222537E2,2.1405186E1,1.0465043E3,8.972282E1,2.946536E2,2.4336168E1,1.6370546E1,5.0346394E0,9.976594E2,4.88449E1,6.43725E1,2.5350317E1,2.8824167E2,6.4119124E0,2.056944E1,3.766727E0,1.2090765E1,4.2797823E0,2.630313E1,2.2541769E1,5.238969E1,1.1982808E1,2.4251657E1,1.0986596E0,1.734832E1,3.221121E0,1.0296462E1,1.7943027E0,1.4464677E1,1.1838453E1,2.1193113E1,1.3486558E0,5.053504E1,1.8546475E0],"tree_param":{"num_deleted":"0","num_feature":"40","num_nodes":"39","size_leaf_vector":"1"}},{"base_weights":[4.899347E-3,-1.7572102E-1,1.0027926E0,4.1748644E-3,-3.0162945E-1,1.1114255E0,3.9320808E-2,-1.04552425E-1,1.0731609E-1,-1.06318116E-1,-2.3593782E-1,1.1508864E-1,9.759795E-2,-1.1642366E-1,9.594443E-2,9.237347E-2,-3.7686828E-1,3.9135408E-2,-3.536376E-1,1.8834665E-1,-2.8567825E-2,-2.8911614E-1,9.495699E-2,-7.861658E-2,1.0728245E-1,-1.0646148E-1,-2.0155479E-1,-1.8348102E-1,1.0618784E-1,-6.0682577E-1,-2.702279E-2,4.6440136E-2,5.9786707E-2,8.682155E-2,-3.860713E-1,-3.744906E-2,1.628465E-2,1.3248554E-2,-2.8841352E-2,6.8856836E-3,-3.6019605E-2,-4.5899317E-2,-1.0890382E-1,1.0788194E-1,-2.1039924E-2,2.2350712E-2,-4.2300362E-2,-4.5599286E-2,4.925606E-2,-6.272346E-2,-2.5979811E-2],"categories":[],"categories_nodes":[],"categories_segments":[],"categories_sizes":[],"default_left":[0,0,0,0,0,0,0,0,0,0,0,0,0,0,0,0,0,0,0,0,0,0,0,0,0,0,0,0,0,0,0,0,0,0,0,0,0,0,0,0,0,0,0,0,0,0,0,0,0,0,0],"id":23,"left_children":[1,3,5,7,9,11,13,15,-1,-1,17,-1,19,21,-1,23,25,27,29,31,-1,33,-1,35,-1,-1,37,39,-1,41,43,45,-1,47,49,-1,-1,-1,-1,-1,-1,-1,-1,-1,-1,-1,-1,-1,-1,-1,-1],"loss_changes":[3.649234E2,3.88326E1,3.2433838E1,8.226731E1,5.0203583E1,1.1042328E1,4.7659926E0,3.4489517E1,0E0,0E0,3.0114819E1,0E0,4.5513904E-1,5.552107E0,0E0,6.2728455E1,3.2319584E1,6.3832718E1,5.3836487E1,5.494344E-1,0E0,9.607227E-1,0E0,2.28589E1,0E0,0E0,6.312725E0,1.0298571E1,0E0,2.5648148E1,5.8106483E1,7.978038E-1,0E0,1.5530778E0,4.5847082E-1,0E0,0E0,0E0,0E0,0E0,0E0,0E0,0E0,0E0,0E0,0E0,0E0,0E0,0E0,0E0,0E0],"parents":[2147483647,0,0,1,1,2,2,3,3,4,4,5,5,6,6,7,7,10,10,12,12,13,13,15,15,16,16,17,17,18,18,19,19,21,21,23,23,26,26,27,27,29,29,30,30,31,31,33,33,34,34],"right_children":[2,4,6,8,10,12,14,16,-1,-1,18,-1,20,22,-1,24,26,28,30,32,-1,34,-1,36,-1,-1,38,40,-1,42,44,46,-1,48,50,-1,-1,-1,-1,-1,-1,-1,-1,-1,-1,-1,-1,-1,-1,-1,-1],"split_conditions":[1E0,1.2E1,1E0,1.2E1,1.2E1,1E0,2E0,1.1E1,1.0731609E-1,-1.06318116E-1,1.3E1,1.1508864E-1,1.5E1,1E0,9.594443E-2,1.1E1,1.1E1,1.3E1,1.4E1,1.4E1,-2.8567825E-2,1.1E1,9.495699E-2,1E1,1.0728245E-1,-1.0646148E-1,4E0,4E0,1.0618784E-1,1.4E1,1.4E1,1.3E1,5.9786707E-2,1E1,1.2E1,-3.744906E-2,1.628465E-2,1.3248554E-2,-2.8841352E-2,6.8856836E-3,-3.6019605E-2,-4.5899317E-2,-1.0890382E-1,1.0788194E-1,-2.1039924E-2,2.2350712E-2,-4.2300362E-2,-4.5599286E-2,4.925606E-2,-6.272346E-2,-2.5979811E-2],"split_indices":[38,20,18,0,0,19,38,20,0,0,20,0,20,37,0,0,0,0,0,0,0,20,0,0,0,0,21,21,0,20,20,20,0,0,0,0,0,0,0,0,0,0,0,0,0,0,0,0,0,0,0],"split_type":[0,0,0,0,0,0,0,0,0,0,0,0,0,0,0,0,0,0,0,0,0,0,0,0,0,0,0,0,0,0,0,0,0,0,0,0,0,0,0,0,0,0,0,0,0,0,0,0,0,0,0],"sum_hessian":[2.022677E3,1.7133768E3,3.093002E2,7.0584467E2,1.00753217E3,2.7782178E2,3.1478413E1,6.414995E2,6.434515E1,7.880264E1,9.287295E2,2.672832E2,1.0538573E1,2.7668568E1,3.809844E0,3.7266595E2,2.6883356E2,2.785065E2,6.50223E2,8.93226E0,1.606313E0,2.4438309E1,3.2302587E0,3.1810794E2,5.4558014E1,5.3577785E1,2.1525577E2,2.2939551E2,4.911101E1,3.6580057E2,2.8442242E2,7.460469E0,1.4717913E0,5.031909E0,1.94064E1,1.4270055E2,1.754074E2,4.43128E1,1.7094296E2,9.473305E1,1.3466246E2,2.8146365E2,8.4336914E1,3.976124E1,2.446612E2,5.797594E0,1.6628743E0,2.0993948E0,2.932514E0,5.3058066E0,1.4100594E1],"tree_param":{"num_deleted":"0","num_feature":"40","num_nodes":"51","size_leaf_vector":"1"}},{"base_weights":[2.2452932E-3,-1.6457091E-1,9.859168E-1,-1.9888783E-1,3.7120628E-1,1.08898856E-1,5.6846697E-2,-4.7300167E-2,-3.0607358E-1,5.5212384E-1,-5.462502E-1,-6.875496E-2,8.925495E-2,1.0657192E-1,-2.1098344E-1,-1.5123376E-1,-4.0000895E-1,7.294771E-1,4.0061408E-1,1.0941451E-2,-6.3364613E-1,-2.1379212E-1,8.97383E-2,3.0462E-1,-1.8752592E-2,1.8172251E-2,-3.4994444E-1,6.451959E-2,-3.3064565E-1,-2.8159556E-1,-5.0354034E-1,9.073487E-1,4.1795915E-1,5.1884294E-1,-1.3424106E-1,-4.4872618E-1,-8.073612E-2,-2.7101932E-2,-6.4047486E-2,6.455023E-2,1.917719E-2,1.9493666E-2,-1.8849576E-2,2.0765144E-2,-1.9673927E-2,-2.1316832E-2,-5.032902E-2,1.4581417E-2,-4.2921137E-2,-2.5280176E-2,-5.7677478E-2,-1.6727349E-2,-4.5591373E-2,-4.6361934E-2,-7.688155E-2,9.677799E-2,3.403918E-2,1.5413727E-2,7.408484E-2,6.811532E-2,2.8302142E-2,1.6045814E-2,-7.6231994E-2,-5.638863E-3,-5.033624E-2,2.537711E-2,-3.9822757E-2],"categories":[],"categories_nodes":[],"categories_segments":[],"categories_sizes":[],"default_left":[0,0,0,0,0,0,0,0,0,0,0,0,0,0,0,0,0,0,0,0,0,0,0,0,0,0,0,0,0,0,0,0,0,0,0,0,0,0,0,0,0,0,0,0,0,0,0,0,0,0,0,0,0,0,0,0,0,0,0,0,0,0,0,0,0,0,0],"id":24,"left_children":[1,3,5,7,9,-1,11,13,15,17,19,21,-1,23,25,27,29,31,33,-1,35,37,-1,39,41,43,45,47,49,51,53,55,57,59,61,63,-1,65,-1,-1,-1,-1,-1,-1,-1,-1,-1,-1,-1,-1,-1,-1,-1,-1,-1,-1,-1,-1,-1,-1,-1,-1,-1,-1,-1,-1,-1],"loss_changes":[3.2446768E2,3.1158527E1,2.7393463E1,2.5812325E1,1.7251545E1,0E0,3.1774046E0,1.6634825E1,1.3480179E1,2.0131397E0,1.061976E0,3.9382591E0,0E0,8.4605665E0,1.0194302E1,1.3690488E1,6.9543304E0,1.743433E0,3.135727E0,0E0,1.334672E-1,1.8987114E0,0E0,4.9568872E0,7.6382275E0,4.997597E0,4.0709953E0,6.5313E0,3.55134E0,5.3497696E0,2.9005356E0,4.7678566E-1,1.22981E0,1.335002E0,1.8940601E0,1.8011141E-1,0E0,1.9541031E0,0E0,0E0,0E0,0E0,0E0,0E0,0E0,0E0,0E0,0E0,0E0,0E0,0E0,0E0,0E0,0E0,0E0,0E0,0E0,0E0,0E0,0E0,0E0,0E0,0E0,0E0,0E0,0E0,0E0],"parents":[2147483647,0,0,1,1,2,2,3,3,4,4,6,6,7,7,8,8,9,9,10,10,11,11,13,13,14,14,15,15,16,16,17,17,18,18,20,20,21,21,23,23,24,24,25,25,26,26,27,27,28,28,29,29,30,30,31,31,32,32,33,33,34,34,35,35,37,37],"right_children":[2,4,6,8,10,-1,12,14,16,18,20,22,-1,24,26,28,30,32,34,-1,36,38,-1,40,42,44,46,48,50,52,54,56,58,60,62,64,-1,66,-1,-1,-1,-1,-1,-1,-1,-1,-1,-1,-1,-1,-1,-1,-1,-1,-1,-1,-1,-1,-1,-1,-1,-1,-1,-1,-1,-1,-1],"split_conditions":[1E0,1E0,1E0,1.2E1,1E0,1.08898856E-1,2E0,6E0,3E0,4E0,1.1E1,1E0,8.925495E-2,3E0,1E1,1.4E1,1.3E1,1.4E1,1.3E1,1.0941451E-2,1E0,2E0,8.97383E-2,1.1E1,1.1E1,8E0,7E0,5E0,3E0,5E0,3E0,5E0,1E0,6E0,2E0,3E0,-8.073612E-2,1.3E1,-6.4047486E-2,6.455023E-2,1.917719E-2,1.9493666E-2,-1.8849576E-2,2.0765144E-2,-1.9673927E-2,-2.1316832E-2,-5.032902E-2,1.4581417E-2,-4.2921137E-2,-2.5280176E-2,-5.7677478E-2,-1.6727349E-2,-4.5591373E-2,-4.6361934E-2,-7.688155E-2,9.677799E-2,3.403918E-2,1.5413727E-2,7.408484E-2,6.811532E-2,2.8302142E-2,1.6045814E-2,-7.6231994E-2,-5.638863E-3,-5.033624E-2,2.537711E-2,-3.9822757E-2],"split_indices":[38,37,18,20,18,0,38,21,21,21,20,37,0,22,20,20,20,20,20,0,24,3,0,20,20,21,21,22,22,21,22,22,5,21,22,21,0,20,0,0,0,0,0,0,0,0,0,0,0,0,0,0,0,0,0,0,0,0,0,0,0,0,0,0,0,0,0],"split_type":[0,0,0,0,0,0,0,0,0,0,0,0,0,0,0,0,0,0,0,0,0,0,0,0,0,0,0,0,0,0,0,0,0,0,0,0,0,0,0,0,0,0,0,0,0,0,0,0,0,0,0,0,0,0,0,0,0,0,0,0,0,0,0,0,0,0,0],"sum_hessian":[1.9753591E3,1.6896517E3,2.8570737E2,1.5885338E3,1.0111796E2,2.5702112E2,2.8686255E1,6.5857874E2,9.299551E2,8.479503E1,1.632293E1,2.5736E1,2.9502552E0,3.3964294E2,3.189358E2,3.5212854E2,5.7782654E2,3.7308258E1,4.7486767E1,1.8902079E0,1.4432721E1,2.3053858E1,2.682143E0,1.310757E2,2.0856723E2,1.2072375E2,1.9821207E2,1.6016324E2,1.9196532E2,2.712761E2,3.0655045E2,2.253085E1,1.4777409E1,3.8914677E1,8.572089E0,8.726482E0,5.706239E0,1.6776854E1,6.2770042E0,3.1426136E1,9.9649574E1,9.2265724E1,1.1630151E2,6.417602E1,5.654773E1,1.0602954E2,9.218252E1,1.381251E2,2.2038128E1,1.4738011E2,4.45852E1,1.650149E2,1.0626119E2,2.688406E2,3.7709846E1,1.9721762E1,2.8090885E0,8.945616E0,5.831793E0,2.1931406E1,1.6983273E1,6.341253E0,2.2308366E0,1.3150816E0,7.411401E0,9.729583E0,7.0472703E0],"tree_param":{"num_deleted":"0","num_feature":"40","num_nodes":"67","size_leaf_vector":"1"}},{"base_weights":[1.0856307E-2,-1.4256538E-1,9.583305E-1,5.393961E-3,-2.4765305E-1,9.9734664E-1,-4.085373E-2,-9.207297E-2,1.05741896E-1,-1.0524895E-1,-1.8278565E-1,1.0033565E-1,3.0959878E-2,8.591421E-2,-3.6663692E-2,7.77688E-2,-3.3403397E-1,7.41087E-2,-2.9657954E-1,1.7156567E-1,-2.6821146E-2,-7.248433E-2,1.0579081E-1,-1.0543145E-1,-1.6401294E-1,-1.2212721E-1,1.06484585E-1,-1.05511464E-1,-1.7729504E-1,-8.805253E-2,5.1393E-2,1.9585675E-2,-3.259201E-2,-2.8230041E-2,-6.383711E-3,-2.0216733E-2,6.167103E-3,7.2931685E-3,-3.5849597E-2,3.0403078E-2,-4.8302703E-2],"categories":[],"categories_nodes":[],"categories_segments":[],"categories_sizes":[],"default_left":[0,0,0,0,0,0,0,0,0,0,0,0,0,0,0,0,0,0,0,0,0,0,0,0,0,0,0,0,0,0,0,0,0,0,0,0,0,0,0,0,0],"id":25,"left_children":[1,3,5,7,9,11,13,15,-1,-1,17,-1,-1,19,-1,21,23,25,27,29,-1,31,-1,-1,33,35,-1,-1,37,39,-1,-1,-1,-1,-1,-1,-1,-1,-1,-1,-1],"loss_changes":[2.7935248E2,2.5718899E1,1.04814E1,7.062965E1,5.02994E1,7.548828E-1,4.8683238E-1,2.5934866E1,0E0,0E0,2.6220879E1,0E0,0E0,3.1132677E-1,0E0,5.4750103E1,3.1693542E1,5.3773624E1,5.602825E1,7.255149E-1,0E0,2.2019133E1,0E0,0E0,2.4905815E0,3.4136972E0,0E0,0E0,2.4422827E1,9.531355E-1,0E0,0E0,0E0,0E0,0E0,0E0,0E0,0E0,0E0,0E0,0E0],"parents":[2147483647,0,0,1,1,2,2,3,3,4,4,5,5,6,6,7,7,10,10,13,13,15,15,16,16,17,17,18,18,19,19,21,21,24,24,25,25,28,28,29,29],"right_children":[2,4,6,8,10,12,14,16,-1,-1,18,-1,-1,20,-1,22,24,26,28,30,-1,32,-1,-1,34,36,-1,-1,38,40,-1,-1,-1,-1,-1,-1,-1,-1,-1,-1,-1],"split_conditions":[1E0,1.2E1,1E0,1.2E1,1.2E1,1.6E1,1E0,1.1E1,1.05741896E-1,-1.0524895E-1,1.3E1,1.0033565E-1,3.0959878E-2,1.5E1,-3.6663692E-2,1.1E1,1.1E1,1.3E1,1.3E1,1.3E1,-2.6821146E-2,1E1,1.0579081E-1,-1.0543145E-1,5E0,5E0,1.06484585E-1,-1.05511464E-1,1.4E1,1.2E1,5.1393E-2,1.9585675E-2,-3.259201E-2,-2.8230041E-2,-6.383711E-3,-2.0216733E-2,6.167103E-3,7.2931685E-3,-3.5849597E-2,3.0403078E-2,-4.8302703E-2],"split_indices":[38,20,19,0,0,20,25,20,0,0,20,0,0,20,0,0,0,0,0,0,0,20,0,0,1,1,0,0,20,20,0,0,0,0,0,0,0,0,0,0,0],"split_type":[0,0,0,0,0,0,0,0,0,0,0,0,0,0,0,0,0,0,0,0,0,0,0,0,0,0,0,0,0,0,0,0,0,0,0,0,0,0,0,0,0],"sum_hessian":[1.9198168E3,1.6530007E3,2.6681598E2,6.8686725E2,9.6613354E2,2.5679065E2,1.0025317E1,6.29462E2,5.740527E1,7.0924095E1,8.952095E2,2.5411122E2,2.679438E0,7.7470775E0,2.2782395E0,3.7024872E2,2.592133E2,2.7491852E2,6.2029095E2,6.653368E0,1.0937095E0,3.2183774E2,4.8410954E1,4.8508747E1,2.1070453E2,2.301995E2,4.4719025E1,8.322356E1,5.370674E2,4.2064137E0,2.446954E0,1.5643234E2,1.6540541E2,9.578439E1,1.1492014E2,1.6029471E2,6.9904785E1,2.2582089E2,3.112465E2,2.2264817E0,1.9799322E0],"tree_param":{"num_deleted":"0","num_feature":"40","num_nodes":"41","size_leaf_vector":"1"}},{"base_weights":[6.4101415E-3,-5.8758366E-1,1.0674763E0,-9.5855504E-1,9.0838027E-1,1.0685642E-1,2.4685295E-2,-1.0618441E0,1.8495454E-1,1.055565E-1,-4.33564E-1,-1.09143175E-1,-4.7560856E-1,6.1837447E-1,-8.882231E-1,-6.350633E-1,8.435439E-2,-2.5256726E-1,-1.0522276E-1,1.0764082E-1,-1.0968812E-1,-1.03692666E-1,-3.8463473E-1,-8.8477755E-1,8.547373E-2,-3.52793E-2,7.706958E-2,8.595633E-3,-5.1464017E-2,-2.6261533E-2,-9.461852E-2],"categories":[],"categories_nodes":[],"categories_segments":[],"categories_sizes":[],"default_left":[0,0,0,0,0,0,0,0,0,0,0,0,0,0,0,0,0,0,0,0,0,0,0,0,0,0,0,0,0,0,0],"id":26,"left_children":[1,3,5,7,9,-1,-1,11,13,-1,15,-1,17,19,21,23,-1,25,-1,-1,-1,-1,27,29,-1,-1,-1,-1,-1,-1,-1],"loss_changes":[1.1713092E3,6.620817E2,3.3172607E-1,1.13016174E2,4.732039E1,0E0,0E0,1.4679077E1,3.7752342E1,0E0,6.752903E0,0E0,5.376417E0,4.6404808E1,1.3549843E0,8.731677E0,0E0,3.6511545E0,0E0,0E0,0E0,0E0,4.6813416E-1,4.7175884E-1,0E0,0E0,0E0,0E0,0E0,0E0,0E0],"parents":[2147483647,0,0,1,1,2,2,3,3,4,4,7,7,8,8,10,10,12,12,13,13,14,14,15,15,17,17,22,22,23,23],"right_children":[2,4,6,8,10,-1,-1,12,14,-1,16,-1,18,20,22,24,-1,26,-1,-1,-1,-1,28,30,-1,-1,-1,-1,-1,-1,-1],"split_conditions":[1E0,1E0,1.7E1,1E0,1E0,1.0685642E-1,2.4685295E-2,1E0,1E0,1.055565E-1,2E0,-1.09143175E-1,1E0,1E0,2E0,1E0,8.435439E-2,1E0,-1.0522276E-1,1.0764082E-1,-1.0968812E-1,-1.03692666E-1,1E0,1E1,8.547373E-2,-3.52793E-2,7.706958E-2,8.595633E-3,-5.1464017E-2,-2.6261533E-2,-9.461852E-2],"split_indices":[39,38,20,37,18,0,0,36,17,0,38,0,17,18,23,37,0,10,0,0,0,0,2,20,0,0,0,0,0,0,0],"split_type":[0,0,0,0,0,0,0,0,0,0,0,0,0,0,0,0,0,0,0,0,0,0,0,0,0,0,0,0,0,0,0],"sum_hessian":[1.8564391E3,1.1904573E3,6.659818E2,9.5419403E2,2.3626323E2,6.6479834E2,1.1834639E0,8.752109E2,7.898315E1,2.1310341E2,2.3159819E1,8.323404E2,4.2870487E1,5.6563046E1,2.2420097E1,2.0437904E1,2.7219145E0,3.1949972E1,1.0920515E1,4.4936E1,1.1627047E1,1.6491331E1,5.928767E0,1.7851772E1,2.5861306E0,2.9696512E1,2.253461E0,1.3566859E0,4.572081E0,2.0777078E0,1.5774065E1],"tree_param":{"num_deleted":"0","num_feature":"40","num_nodes":"31","size_leaf_vector":"1"}},{"base_weights":[-2.2303509E-3,-5.810625E-1,1.0507939E0,-9.4166183E-1,8.884091E-1,1.0854801E-1,-3.0541219E-2,-1.0466521E0,1.8504685E-1,9.366624E-1,-1.0398363E-1,-3.594727E-1,9.5273696E-2,-1.0806016E-1,-4.074687E-1,6.040476E-1,-7.886968E-1,9.45031E-2,2.5210733E-2,-8.2803947E-1,8.826866E-2,5.532424E-2,-9.610661E-2,6.624303E-1,-7.986313E-2,-8.9617066E-2,7.994331E-2,-1.0999917E-1,4.6098217E-2,7.653536E-2,-1.0179782E-1,6.9989026E-2,1.0900124E-2],"categories":[],"categories_nodes":[],"categories_segments":[],"categories_sizes":[],"default_left":[0,0,0,0,0,0,0,0,0,0,0,0,0,0,0,0,0,0,0,0,0,0,0,0,0,0,0,0,0,0,0,0,0],"id":27,"left_children":[1,3,5,7,9,-1,11,13,15,17,-1,19,-1,-1,21,23,25,-1,-1,27,-1,29,-1,31,-1,-1,-1,-1,-1,-1,-1,-1,-1],"loss_changes":[1.044461E3,5.867627E2,2.2830872E1,1.05280396E2,2.1294174E1,0E0,6.767042E0,1.7197021E1,3.1718338E1,9.8532104E-1,0E0,9.816792E0,0E0,0E0,1.0966835E1,4.95965E0,4.7224293E0,0E0,0E0,4.6614084E0,0E0,1.9181313E1,0E0,1.011858E0,0E0,0E0,0E0,0E0,0E0,0E0,0E0,0E0,0E0],"parents":[2147483647,0,0,1,1,2,2,3,3,4,4,6,6,7,7,8,8,9,9,11,11,14,14,15,15,16,16,19,19,21,21,23,23],"right_children":[2,4,6,8,10,-1,12,14,16,18,-1,20,-1,-1,22,24,26,-1,-1,28,-1,30,-1,32,-1,-1,-1,-1,-1,-1,-1,-1,-1],"split_conditions":[1E0,1E0,1E0,1E0,1E0,1.0854801E-1,1E0,1E0,1E0,1.6E1,-1.0398363E-1,2E0,9.5273696E-2,-1.0806016E-1,1E0,1E0,2E0,9.45031E-2,2.5210733E-2,1E0,8.826866E-2,1E0,-9.610661E-2,1.5E1,-7.986313E-2,-8.9617066E-2,7.994331E-2,-1.0999917E-1,4.6098217E-2,7.653536E-2,-1.0179782E-1,6.9989026E-2,1.0900124E-2],"split_indices":[39,38,19,37,19,0,38,36,17,20,0,39,0,0,16,19,37,0,0,37,0,17,0,20,0,0,0,0,0,0,0,0,0],"split_type":[0,0,0,0,0,0,0,0,0,0,0,0,0,0,0,0,0,0,0,0,0,0,0,0,0,0,0,0,0,0,0,0,0],"sum_hessian":[1.711566E3,1.1047494E3,6.068166E2,8.873567E2,2.1739272E2,5.879528E2,1.8863766E1,8.1178326E2,7.557348E1,2.1258708E2,4.805638E0,1.4610573E1,4.253193E0,7.701852E2,4.159806E1,5.310299E1,2.247049E1,2.0964372E2,2.943358E0,1.0850819E1,3.759754E0,2.3147455E1,1.8450605E1,5.1487694E1,1.6152971E0,2.1454313E1,1.0161752E0,9.0814905E0,1.7693276E0,1.4104033E1,9.043423E0,4.7975716E1,3.5119765E0],"tree_param":{"num_deleted":"0","num_feature":"40","num_nodes":"33","size_leaf_vector":"1"}},{"base_weights":[4.40102E-3,-5.6541896E-1,1.04126036E-1,-9.279172E-1,8.6358005E-1,-1.0340475E0,1.8616433E-1,1.0225357E-1,-4.7556147E-1,-1.0358577E-1,-3.2598868E-1,5.631717E-1,-7.24267E-1,-6.939646E-1,8.251752E-2,-5.977195E-2,1.252891E-2,1.0179191E-1,-1.078341E-1,-8.363633E-1,7.24232E-2,-9.623118E-1,8.278575E-2,-2.7754685E-2,-8.8449225E-2,-2.2484098E-2,-1.0405349E-1],"categories":[],"categories_nodes":[],"categories_segments":[],"categories_sizes":[],"default_left":[0,0,0,0,0,0,0,0,0,0,0,0,0,0,0,0,0,0,0,0,0,0,0,0,0,0,0],"id":28,"left_children":[1,3,-1,5,7,9,11,-1,13,-1,15,17,19,21,-1,-1,-1,-1,-1,23,-1,25,-1,-1,-1,-1,-1],"loss_changes":[9.305076E2,5.272947E2,0E0,9.61073E1,4.4373642E1,6.118164E-1,2.4916319E1,0E0,6.9812646E0,0E0,4.8547637E-1,3.921E1,4.0718393E0,8.906519E0,0E0,0E0,0E0,0E0,0E0,2.998829E-1,0E0,7.6659393E-1,0E0,0E0,0E0,0E0,0E0],"parents":[2147483647,0,0,1,1,3,3,4,4,5,5,6,6,8,8,10,10,11,11,12,12,13,13,19,19,21,21],"right_children":[2,4,-1,6,8,10,12,-1,14,-1,16,18,20,22,-1,-1,-1,-1,-1,24,-1,26,-1,-1,-1,-1,-1],"split_conditions":[1E0,1E0,1.04126036E-1,1E0,1E0,2E0,1E0,1.0225357E-1,2E0,-1.0358577E-1,4E0,1E0,2E0,1E0,8.251752E-2,-5.977195E-2,1.252891E-2,1.0179191E-1,-1.078341E-1,2E0,7.24232E-2,1E1,8.278575E-2,-2.7754685E-2,-8.8449225E-2,-2.2484098E-2,-1.0405349E-1],"split_indices":[39,38,0,37,18,10,17,0,38,0,1,18,37,37,0,0,0,0,0,21,0,20,0,0,0,0,0],"split_type":[0,0,0,0,0,0,0,0,0,0,0,0,0,0,0,0,0,0,0,0,0,0,0,0,0,0,0],"sum_hessian":[1.5729376E3,1.01537775E3,5.575598E2,8.1020215E2,2.051756E2,7.397988E2,7.040335E1,1.8361678E2,2.1558819E1,7.374505E2,2.348298E0,5.0056503E1,2.034685E1,1.8858776E1,2.7000425E0,1.2631842E0,1.0851138E0,3.9495087E1,1.0561415E1,1.9277596E1,1.0692528E0,1.6344383E1,2.5143933E0,2.0652373E0,1.7212358E1,1.9389266E0,1.4405457E1],"tree_param":{"num_deleted":"0","num_feature":"40","num_nodes":"27","size_leaf_vector":"1"}},{"base_weights":[5.794789E-3,-5.5298865E-1,1.0245737E0,-9.0824485E-1,8.431705E-1,1.0686743E-1,-2.0005466E-1,-1.0186505E0,2.117378E-1,9.937596E-1,-4.4349334E-1,-5.5178666E-1,9.0742074E-2,-1.0205417E0,-3.9381522E-1,5.9737796E-1,-6.838826E-1,1.07653596E-1,-1.08303905E-1,-6.727792E-1,8.255818E-2,-1.001503E0,8.315287E-2,-1.0286086E-1,-8.103113E-1,-6.3123256E-2,4.435115E-3,9.9767685E-1,-1.0399244E-1,-7.984018E-1,7.4524164E-2,-9.127434E-2,7.6289736E-2,-1.1780726E-1,2.503979E-2,-1.2617782E-2,-8.477529E-2,1.10757485E-1,-8.26691E-2,-3.2686442E-2,-8.522417E-2],"categories":[],"categories_nodes":[],"categories_segments":[],"categories_sizes":[],"default_left":[0,0,0,0,0,0,0,0,0,0,0,0,0,0,0,0,0,0,0,0,0,0,0,0,0,0,0,0,0,0,0,0,0,0,0,0,0,0,0,0,0],"id":29,"left_children":[1,3,5,7,9,-1,11,13,15,17,19,21,-1,23,25,27,29,-1,-1,31,-1,33,-1,-1,35,-1,-1,37,-1,39,-1,-1,-1,-1,-1,-1,-1,-1,-1,-1,-1],"loss_changes":[8.196542E2,4.6195624E2,2.7756836E1,9.192944E1,3.7085083E1,0E0,7.7341495E0,3.9611816E-1,2.3681744E1,3.032492E1,6.52261E0,9.9871435E0,0E0,3.0725098E-1,4.0937626E-1,3.2258274E1,3.9905815E0,0E0,0E0,6.8699675E0,0E0,2.8500023E0,0E0,0E0,6.5044403E-1,0E0,0E0,8.692303E0,0E0,2.2133827E-1,0E0,0E0,0E0,0E0,0E0,0E0,0E0,0E0,0E0,0E0,0E0],"parents":[2147483647,0,0,1,1,2,2,3,3,4,4,6,6,7,7,8,8,9,9,10,10,11,11,13,13,14,14,15,15,16,16,19,19,21,21,24,24,27,27,29,29],"right_children":[2,4,6,8,10,-1,12,14,16,18,20,22,-1,24,26,28,30,-1,-1,32,-1,34,-1,-1,36,-1,-1,38,-1,40,-1,-1,-1,-1,-1,-1,-1,-1,-1,-1,-1],"split_conditions":[1E0,1E0,1E0,1E0,1E0,1.0686743E-1,1E0,2E0,1E0,1E0,1E0,2E0,9.0742074E-2,1E0,4E0,1E0,2E0,1.07653596E-1,-1.08303905E-1,2E0,8.255818E-2,1E0,8.315287E-2,-1.0286086E-1,1E1,-6.3123256E-2,4.435115E-3,1E0,-1.0399244E-1,1E0,7.4524164E-2,-9.127434E-2,7.6289736E-2,-1.1780726E-1,2.503979E-2,-1.2617782E-2,-8.477529E-2,1.10757485E-1,-8.26691E-2,-3.2686442E-2,-8.522417E-2],"split_indices":[39,38,19,37,18,0,38,10,17,19,37,39,0,35,1,18,37,0,0,38,0,37,0,0,20,0,0,19,0,2,0,0,0,0,0,0,0,0,0,0,0],"split_type":[0,0,0,0,0,0,0,0,0,0,0,0,0,0,0,0,0,0,0,0,0,0,0,0,0,0,0,0,0,0,0,0,0,0,0,0,0,0,0,0,0],"sum_hessian":[1.4378214E3,9.288304E2,5.0899097E2,7.407055E2,1.881249E2,4.914215E2,1.7569462E1,6.743226E2,6.638295E1,1.6861778E2,1.9507103E1,1.3715278E1,3.8541837E0,6.7165643E2,2.6661217E0,4.6635452E1,1.9747496E1,1.6261784E2,5.999937E0,1.6920004E1,2.5870984E0,1.0558665E1,3.1566129E0,6.4308746E2,2.8568996E1,1.4434018E0,1.22272E0,3.778755E1,8.847902E0,1.869107E1,1.0564257E0,1.4809013E1,2.1109905E0,9.305219E0,1.2534462E0,1.7091591E0,2.6859837E1,3.6011177E1,1.7763748E0,2.6400635E0,1.6051008E1],"tree_param":{"num_deleted":"0","num_feature":"40","num_nodes":"41","size_leaf_vector":"1"}},{"base_weights":[4.215064E-3,-5.503381E-1,1.0180424E0,-5.814389E-1,6.0582254E-2,1.0615788E-1,-1.1208885E-1,-3.8394976E-1,-6.336468E-1,5.1535726E-1,-5.6092036E-1,-3.7068808E-1,8.3200686E-2,-1.6560492E-1,-4.832133E-1,-5.858925E-1,-7.548217E-1,8.1296927E-1,-1.2356228E-1,-6.195604E-1,-2.4398367E-3,1.4443219E-3,-6.1138904E-1,2.876908E-1,-3.087729E-1,-1.6759004E-1,-5.43951E-1,-4.543747E-1,-6.635085E-1,-6.69529E-1,-8.2638755E-2,9.007269E-1,-2.8115386E-2,1.0667356E-1,-7.3405944E-2,-3.4071913E-1,-7.0500094E-1,-3.6826648E-2,2.1794315E-1,-1.2918143E-1,-7.439553E-2,6.172319E-2,1.2509515E-2,5.386974E-3,-4.1473802E-2,4.5566462E-2,-2.6372809E-2,-3.6475886E-2,-6.1857004E-2,-1.00649595E-2,-5.3562064E-2,-5.7859402E-2,-7.497277E-2,-5.2849393E-2,-7.659673E-2,1.0179551E-1,2.1755135E-2,4.160404E-2,-4.824595E-2,-4.5634195E-2,6.920591E-3,-7.578909E-2,-1.7330313E-2,-2.1383619E-2,4.1298326E-2,2.6916597E-2,-4.7707696E-2],"categories":[],"categories_nodes":[],"categories_segments":[],"categories_sizes":[],"default_left":[0,0,0,0,0,0,0,0,0,0,0,0,0,0,0,0,0,0,0,0,0,0,0,0,0,0,0,0,0,0,0,0,0,0,0,0,0,0,0,0,0,0,0,0,0,0,0,0,0,0,0,0,0,0,0,0,0,0,0,0,0,0,0,0,0,0,0],"id":30,"left_children":[1,3,5,7,9,-1,11,13,15,17,19,21,-1,23,25,27,29,31,33,35,-1,37,39,41,43,45,47,49,51,53,-1,55,-1,57,-1,59,61,-1,63,65,-1,-1,-1,-1,-1,-1,-1,-1,-1,-1,-1,-1,-1,-1,-1,-1,-1,-1,-1,-1,-1,-1,-1,-1,-1,-1,-1],"loss_changes":[7.456398E2,1.6324158E1,2.3191406E1,8.168762E0,1.2283158E1,0E0,4.776041E0,3.6722221E0,3.2828674E0,4.859091E0,5.640826E-1,1.3495245E0,0E0,3.6989942E0,2.1804276E0,4.4578094E0,5.3635406E-1,1.905221E0,1.3181353E0,1.5419912E-1,0E0,6.334557E-1,4.8848987E-1,6.659758E-1,1.6654468E0,1.3525925E0,1.0971451E0,5.010067E0,1.6969299E0,7.7459335E-1,0E0,1.0731792E0,0E0,1.5272522E0,0E0,3.07343E-1,1.9870567E-1,0E0,5.082909E-1,5.6940186E-1,0E0,0E0,0E0,0E0,0E0,0E0,0E0,0E0,0E0,0E0,0E0,0E0,0E0,0E0,0E0,0E0,0E0,0E0,0E0,0E0,0E0,0E0,0E0,0E0,0E0,0E0,0E0],"parents":[2147483647,0,0,1,1,2,2,3,3,4,4,6,6,7,7,8,8,9,9,10,10,11,11,13,13,14,14,15,15,16,16,17,17,18,18,19,19,21,21,22,22,23,23,24,24,25,25,26,26,27,27,28,28,29,29,31,31,33,33,35,35,36,36,38,38,39,39],"right_children":[2,4,6,8,10,-1,12,14,16,18,20,22,-1,24,26,28,30,32,34,36,-1,38,40,42,44,46,48,50,52,54,-1,56,-1,58,-1,60,62,-1,64,66,-1,-1,-1,-1,-1,-1,-1,-1,-1,-1,-1,-1,-1,-1,-1,-1,-1,-1,-1,-1,-1,-1,-1,-1,-1,-1,-1],"split_conditions":[1E0,1E0,1E0,1.1E1,1E0,1.0615788E-1,2E0,6E0,5E0,1.3E1,1E0,1.3E1,8.3200686E-2,3E0,9E0,1.3E1,1.2E1,8E0,1E0,1E0,-2.4398367E-3,1E0,1E0,2E0,1E1,7E0,2E0,2E0,3E0,6E0,-8.2638755E-2,4E0,-2.8115386E-2,4E0,-7.3405944E-2,4E0,7E0,-3.6826648E-2,1E0,4E0,-7.439553E-2,6.172319E-2,1.2509515E-2,5.386974E-3,-4.1473802E-2,4.5566462E-2,-2.6372809E-2,-3.6475886E-2,-6.1857004E-2,-1.00649595E-2,-5.3562064E-2,-5.7859402E-2,-7.497277E-2,-5.2849393E-2,-7.659673E-2,1.0179551E-1,2.1755135E-2,4.160404E-2,-4.824595E-2,-4.5634195E-2,6.920591E-3,-7.578909E-2,-1.7330313E-2,-2.1383619E-2,4.1298326E-2,2.6916597E-2,-4.7707696E-2],"split_indices":[39,36,19,20,16,0,39,21,21,20,9,20,0,22,20,20,20,1,18,3,0,3,3,23,20,21,2,22,21,21,0,22,0,21,0,2,21,0,23,1,0,0,0,0,0,0,0,0,0,0,0,0,0,0,0,0,0,0,0,0,0,0,0,0,0,0,0],"split_type":[0,0,0,0,0,0,0,0,0,0,0,0,0,0,0,0,0,0,0,0,0,0,0,0,0,0,0,0,0,0,0,0,0,0,0,0,0,0,0,0,0,0,0,0,0,0,0,0,0,0,0,0,0,0,0,0,0,0,0,0,0,0,0,0,0,0,0],"sum_hessian":[1.3242427E3,8.563081E2,4.6793457E2,8.148728E2,4.143533E1,4.506353E2,1.7299261E1,1.7212442E2,6.4274835E2,2.4025688E1,1.740964E1,1.4056403E1,3.2428572E0,5.4628746E1,1.1749567E2,4.6523666E2,1.7751172E2,1.6204933E1,7.8207545E0,1.5554782E1,1.8548585E0,5.911308E0,8.145096E0,1.2870129E1,4.1758617E1,1.9568295E1,9.7927376E1,1.7520744E2,2.900292E2,8.571335E1,9.179837E1,1.516531E1,1.039623E0,6.278298E0,1.542457E0,4.8181596E0,1.0736622E1,1.9242666E0,3.9870412E0,2.1821225E0,5.962973E0,3.3283246E0,9.541804E0,9.553944E0,3.2204674E1,2.1152997E0,1.7452995E1,3.0521223E1,6.740615E1,3.3144238E1,1.420632E2,1.5000502E2,1.4002419E2,3.7439903E1,4.827345E1,1.2525916E1,2.6393936E0,4.309233E0,1.9690645E0,3.6698227E0,1.1483371E0,9.37831E0,1.3583118E0,1.2106148E0,2.7764266E0,1.1227981E0,1.0593243E0],"tree_param":{"num_deleted":"0","num_feature":"40","num_nodes":"67","size_leaf_vector":"1"}},{"base_weights":[8.1301585E-4,-5.1327753E-1,1.0095096E0,-8.845426E-1,8.59078E-1,1.05477504E-1,-1.6709337E-1,-1.0033576E0,2.823848E-1,1.0086615E0,-3.6878282E-1,-4.6248645E-1,8.538835E-2,-1.0511048E-1,-2.2765382E-1,4.9295142E-1,-1.0103073E-1,1.071558E-1,-9.9242486E-2,-5.6590825E-1,7.965988E-2,-8.4691447E-1,7.897026E-2,1.9880296E-1,-8.2587445E-1,1.0108477E0,-5.274778E-1,-8.148742E-2,7.7973545E-2,-1.05584554E-1,3.1793695E-2,8.637826E-2,-9.6883856E-2,-4.653497E-2,-9.6238986E-2,1.0982605E-1,-6.956805E-2,-6.710794E-2,8.08068E-2],"categories":[],"categories_nodes":[],"categories_segments":[],"categories_sizes":[],"default_left":[0,0,0,0,0,0,0,0,0,0,0,0,0,0,0,0,0,0,0,0,0,0,0,0,0,0,0,0,0,0,0,0,0,0,0,0,0,0,0],"id":31,"left_children":[1,3,5,7,9,-1,11,13,15,17,19,21,-1,-1,23,25,-1,-1,-1,27,-1,29,-1,31,33,35,37,-1,-1,-1,-1,-1,-1,-1,-1,-1,-1,-1,-1],"loss_changes":[6.5111865E2,4.2453223E2,2.2752777E1,9.111536E1,3.299234E1,0E0,5.3913336E0,2.1790833E1,1.7189247E1,2.1023346E1,5.0497665E0,7.1664376E0,0E0,0E0,9.288562E0,2.8755386E1,0E0,0E0,0E0,6.567781E0,0E0,2.9665527E0,0E0,1.7675508E1,2.9430866E-1,6.099491E0,4.1163845E0,0E0,0E0,0E0,0E0,0E0,0E0,0E0,0E0,0E0,0E0,0E0,0E0],"parents":[2147483647,0,0,1,1,2,2,3,3,4,4,6,6,7,7,8,8,9,9,10,10,11,11,14,14,15,15,19,19,21,21,23,23,24,24,25,25,26,26],"right_children":[2,4,6,8,10,-1,12,14,16,18,20,22,-1,-1,24,26,-1,-1,-1,28,-1,30,-1,32,34,36,38,-1,-1,-1,-1,-1,-1,-1,-1,-1,-1,-1,-1],"split_conditions":[1E0,1E0,1E0,1E0,1E0,1.05477504E-1,1E0,1E0,1E0,1E0,1E0,2E0,8.538835E-2,-1.0511048E-1,1E0,1E0,-1.0103073E-1,1.071558E-1,-9.9242486E-2,2E0,7.965988E-2,1E0,7.897026E-2,1E0,1.2E1,1E0,2E0,-8.148742E-2,7.7973545E-2,-1.05584554E-1,3.1793695E-2,8.637826E-2,-9.6883856E-2,-4.653497E-2,-9.6238986E-2,1.0982605E-1,-6.956805E-2,-6.710794E-2,8.08068E-2],"split_indices":[39,38,19,37,18,0,38,36,18,19,37,39,0,0,16,17,0,0,0,38,0,37,0,17,20,19,37,0,0,0,0,0,0,