{"learner":{"attributes":{"scikit_learn":"{\"_estimator_type\": \"regressor\"}"},"feature_names":[],"feature_types":[],"gradient_booster":{"model":{"gbtree_model_param":{"num_parallel_tree":"1","num_trees":"339"},"iteration_indptr":[0,1,2,3,4,5,6,7,8,9,10,11,12,13,14,15,16,17,18,19,20,21,22,23,24,25,26,27,28,29,30,31,32,33,34,35,36,37,38,39,40,41,42,43,44,45,46,47,48,49,50,51,52,53,54,55,56,57,58,59,60,61,62,63,64,65,66,67,68,69,70,71,72,73,74,75,76,77,78,79,80,81,82,83,84,85,86,87,88,89,90,91,92,93,94,95,96,97,98,99,100,101,102,103,104,105,106,107,108,109,110,111,112,113,114,115,116,117,118,119,120,121,122,123,124,125,126,127,128,129,130,131,132,133,134,135,136,137,138,139,140,141,142,143,144,145,146,147,148,149,150,151,152,153,154,155,156,157,158,159,160,161,162,163,164,165,166,167,168,169,170,171,172,173,174,175,176,177,178,179,180,181,182,183,184,185,186,187,188,189,190,191,192,193,194,195,196,197,198,199,200,201,202,203,204,205,206,207,208,209,210,211,212,213,214,215,216,217,218,219,220,221,222,223,224,225,226,227,228,229,230,231,232,233,234,235,236,237,238,239,240,241,242,243,244,245,246,247,248,249,250,251,252,253,254,255,256,257,258,259,260,261,262,263,264,265,266,267,268,269,270,271,272,273,274,275,276,277,278,279,280,281,282,283,284,285,286,287,288,289,290,291,292,293,294,295,296,297,298,299,300,301,302,303,304,305,306,307,308,309,310,311,312,313,314,315,316,317,318,319,320,321,322,323,324,325,326,327,328,329,330,331,332,333,334,335,336,337,338,339],"tree_info":[0,0,0,0,0,0,0,0,0,0,0,0,0,0,0,0,0,0,0,0,0,0,0,0,0,0,0,0,0,0,0,0,0,0,0,0,0,0,0,0,0,0,0,0,0,0,0,0,0,0,0,0,0,0,0,0,0,0,0,0,0,0,0,0,0,0,0,0,0,0,0,0,0,0,0,0,0,0,0,0,0,0,0,0,0,0,0,0,0,0,0,0,0,0,0,0,0,0,0,0,0,0,0,0,0,0,0,0,0,0,0,0,0,0,0,0,0,0,0,0,0,0,0,0,0,0,0,0,0,0,0,0,0,0,0,0,0,0,0,0,0,0,0,0,0,0,0,0,0,0,0,0,0,0,0,0,0,0,0,0,0,0,0,0,0,0,0,0,0,0,0,0,0,0,0,0,0,0,0,0,0,0,0,0,0,0,0,0,0,0,0,0,0,0,0,0,0,0,0,0,0,0,0,0,0,0,0,0,0,0,0,0,0,0,0,0,0,0,0,0,0,0,0,0,0,0,0,0,0,0,0,0,0,0,0,0,0,0,0,0,0,0,0,0,0,0,0,0,0,0,0,0,0,0,0,0,0,0,0,0,0,0,0,0,0,0,0,0,0,0,0,0,0,0,0,0,0,0,0,0,0,0,0,0,0,0,0,0,0,0,0,0,0,0,0,0,0,0,0,0,0,0,0,0,0,0,0,0,0,0,0,0,0,0,0,0,0,0,0,0,0,0,0,0,0,0,0,0,0,0,0,0,0,0,0,0,0,0,0],"trees":[{"base_weights":[5.200011E-3,-3.8801444E0,6.578258E0,-8.766765E0,-7.813165E-1,3.2599583E0,1.172971E1,-1.3113657E1,-6.447499E0,-3.3659582E0,5.266403E0,-2.671874E0,8.70869E0,9.074859E0,1.9640108E1,-1.6073742E1,-9.891347E0,-9.630407E0,-3.8860242E0,-6.217489E0,2.7918146E0,2.41342E0,1.0815053E1,-5.5039616E0,1.0147301E0,5.0355134E0,1.4678973E1,5.8761954E0,1.7282658E1,1.8343723E1,2.9871458E1,-4.3084745E0,-1.551245E1,-1.0766202E1,-3.3069706E0,-1.2186959E1,-4.899878E0,-7.496243E0,3.9298046E-1,-1.0465002E1,-3.8595896E0,2.8549007E-1,8.23474E0,-6.6871054E-2,8.708172E0,9.105295E0,1.8546661E1,-9.810383E0,-4.278723E0,-3.4056983E0,3.5634685E0,3.0736344E0,1.1891771E1,1.2740645E1,2.2904953E1,3.9299138E0,1.1299482E1,1.5216654E1,2.6166895E1,1.6027666E1,2.5935492E1,5.4563184E0,6.885715E0,-1.9049992E1,-1.4579914E1,-1.5518759E1,-9.447673E0,-7.2634835E0,-3.473187E-1,-1.2904892E1,-8.62181E0,-6.8228483E0,-5.226285E-1,-8.780183E0,-5.386454E0,-1.893572E0,5.3650565E0,-1.293791E1,-6.062907E0,-6.829066E0,-2.3126336E-2,-3.2369938E0,5.15835E0,6.507844E0,1.6511806E1,-2.8154433E0,1.6060045E0,7.4878044E0,1.4936282E1,5.2039814E0,1.2590158E1,1.6270327E1,4.6208987E0,-1.0781406E1,-5.2199287E0,-5.311835E0,-1.9071956E0,-6.076512E0,5.720909E-1,1.5940504E0,8.835622E0,4.8483503E-1,5.0101004E0,1.0811114E1,3.585337E0,9.224137E0,1.6077415E1,2.1033232E1,6.152267E0,-8.640724E-1,6.540551E0,7.2210803E0,1.56664915E1,1.154776E1,1.9445982E1,2.314993E1,6.3077974E0,1.2462386E1,2.0220026E1,2.408473E1,5.929832E0,-4.083341E0,-3.0806956E0,-3.2437768E0,-2.571466E0,-3.4015107E0,-2.651392E0,-2.6328747E0,-1.3486981E0,-1.9177979E0,-9.462895E-1,-3.809746E-1,9.5064914E-1,-2.9329298E0,-2.2036319E0,-2.4118154E0,-1.3824948E0,-2.2278664E0,-9.647189E-1,-8.3670074E-1,3.9217955E-1,-2.2712188E0,-1.5712731E0,-1.5110636E0,-6.6981345E-1,-5.7262945E-1,6.351767E-1,8.253375E-1,2.2233694E0,-3.3915036E0,-2.136738E0,-1.8423359E0,-4.5077148E-1,-2.0982802E0,-6.732302E-1,-5.6386226E-1,1.1813099E0,-1.2352272E0,1.8899313E-1,5.957063E-1,2.2364886E0,4.4205E-1,1.9252975E0,2.7491693E0,4.0225654E0,-8.3503455E-1,1.0113054E-1,1.4459458E-1,1.3555473E0,1.112955E0,1.9876845E0,2.7307878E0,3.5851908E0,8.680689E-1,2.0348382E0,2.182491E0,3.697917E0,2.9073882E0,4.9783387E0,-2.271225E0,-1.8887669E0,-1.2023251E0,-3.86682E-1,-1.4983273E0,-8.200537E-1,-7.935283E-1,-2.9807422E-2,-1.4658003E0,-5.2600235E-1,-2.4149159E-1,1.1869693E0,1.5052286E-1,1.4249315E0,1.5592403E0,2.8214061E0,-1.0623403E-1,7.6844287E-1,8.460504E-1,2.0403478E0,1.844625E0,2.7970037E0,1.6496242E0,2.845243E0,2.8930829E0,4.336385E0,3.6444502E0,5.0896983E0,-5.159671E-1,5.136602E-2,8.321484E-1,1.73983E0,1.0199283E0,2.476847E0,2.898204E0,4.2828965E0,1.9237413E0,3.8424382E0,3.210526E0,4.6059294E0,4.3628864E0,6.0933013E0,2.3133626E0,3.5343611E0,3.6675336E0,5.221524E0,4.429822E0,6.386971E0],"categories":[],"categories_nodes":[],"categories_segments":[],"categories_sizes":[],"default_left":[0,0,0,0,0,0,0,0,0,0,0,0,0,0,0,0,0,0,0,0,0,0,0,0,0,0,0,0,0,0,0,0,0,0,0,0,0,0,0,0,0,0,0,0,0,0,0,0,0,0,0,0,0,0,0,0,0,0,0,0,0,0,0,0,0,0,0,0,0,0,0,0,0,0,0,0,0,0,0,0,0,0,0,0,0,0,0,0,0,0,0,0,0,0,0,0,0,0,0,0,0,0,0,0,0,0,0,0,0,0,0,0,0,0,0,0,0,0,0,0,0,0,0,0,0,0,0,0,0,0,0,0,0,0,0,0,0,0,0,0,0,0,0,0,0,0,0,0,0,0,0,0,0,0,0,0,0,0,0,0,0,0,0,0,0,0,0,0,0,0,0,0,0,0,0,0,0,0,0,0,0,0,0,0,0,0,0,0,0,0,0,0,0,0,0,0,0,0,0,0,0,0,0,0,0,0,0,0,0,0,0,0,0,0,0,0,0,0,0,0,0,0,0,0,0,0,0],"id":0,"left_children":[1,3,5,7,9,11,13,15,17,19,21,23,25,27,29,31,33,35,37,39,41,43,45,47,49,51,53,55,57,59,61,-1,63,65,67,69,71,73,75,77,79,81,83,85,87,89,91,93,95,97,99,101,103,105,107,109,111,113,115,117,119,-1,-1,121,123,125,127,129,131,133,135,137,139,141,143,145,147,149,151,153,155,157,159,161,163,165,167,169,171,173,175,177,-1,179,181,183,185,187,189,191,193,195,197,199,-1,201,203,205,-1,207,209,211,213,215,217,219,-1,221,223,225,-1,-1,-1,-1,-1,-1,-1,-1,-1,-1,-1,-1,-1,-1,-1,-1,-1,-1,-1,-1,-1,-1,-1,-1,-1,-1,-1,-1,-1,-1,-1,-1,-1,-1,-1,-1,-1,-1,-1,-1,-1,-1,-1,-1,-1,-1,-1,-1,-1,-1,-1,-1,-1,-1,-1,-1,-1,-1,-1,-1,-1,-1,-1,-1,-1,-1,-1,-1,-1,-1,-1,-1,-1,-1,-1,-1,-1,-1,-1,-1,-1,-1,-1,-1,-1,-1,-1,-1,-1,-1,-1,-1,-1,-1,-1,-1,-1,-1,-1,-1,-1,-1,-1,-1,-1,-1,-1],"loss_changes":[7.680732E5,2.8622228E5,1.9095375E5,7.3864E4,1.8083931E5,2.1970884E5,9.1742875E4,2.417325E4,3.897439E4,1.4233366E5,5.4809727E4,3.399034E4,7.762372E4,8.598525E4,1.4028906E4,3.9734375E3,7.0150938E3,2.5736453E4,4.098687E4,5.5443875E4,3.5002344E4,3.573832E4,1.5376875E4,9.671863E3,1.5954255E4,2.9488723E4,2.12175E4,2.4876523E4,1.6469938E4,1.6780469E4,3.848828E2,0E0,3.7270938E3,6.621078E3,1.6954131E3,3.4311406E3,6.309426E3,3.8507344E3,1.3823389E4,2.1443125E4,4.0601953E4,3.0192012E4,1.145609E4,7.559067E3,4.8057383E3,1.305418E4,1.9821016E3,1.7578984E3,3.5056953E3,5.506674E3,9.309916E3,8.559986E3,3.1249844E3,1.26884375E4,3.3247656E3,2.1769861E4,1.0982758E4,1.1382109E4,2.2875547E3,1.0988094E4,1.01884375E3,0E0,0E0,1.1014922E3,2.5636562E3,6.0527344E2,8.546664E3,3.2985815E2,6.979711E2,3.7517031E3,1.2797832E3,4.445824E3,2.1594277E3,1.8879141E3,2.453457E3,4.3209688E3,2.6208447E3,1.1138328E4,8.8206E3,2.6136477E4,2.6582648E4,1.2986427E4,9.721217E3,9.308508E3,1.1040391E3,2.9444448E3,4.694908E3,2.5392363E3,1.17427734E2,1.8258643E3,4.558086E3,1.6486523E3,0E0,1.874336E2,1.9736243E2,2.6021055E3,1.6252761E3,1.4172051E3,2.0546274E3,3.059518E3,1.123002E3,2.5605984E3,3.7007168E3,1.9237617E3,0E0,2.2621055E3,4.318453E3,2.1046094E3,0E0,1.2117156E3,5.932379E3,3.4791445E3,1.4308281E3,5.534676E3,3.9042266E3,2.374336E2,0E0,1.4122891E3,2.9861719E3,1.4414375E3,0E0,0E0,0E0,0E0,0E0,0E0,0E0,0E0,0E0,0E0,0E0,0E0,0E0,0E0,0E0,0E0,0E0,0E0,0E0,0E0,0E0,0E0,0E0,0E0,0E0,0E0,0E0,0E0,0E0,0E0,0E0,0E0,0E0,0E0,0E0,0E0,0E0,0E0,0E0,0E0,0E0,0E0,0E0,0E0,0E0,0E0,0E0,0E0,0E0,0E0,0E0,0E0,0E0,0E0,0E0,0E0,0E0,0E0,0E0,0E0,0E0,0E0,0E0,0E0,0E0,0E0,0E0,0E0,0E0,0E0,0E0,0E0,0E0,0E0,0E0,0E0,0E0,0E0,0E0,0E0,0E0,0E0,0E0,0E0,0E0,0E0,0E0,0E0,0E0,0E0,0E0,0E0,0E0,0E0,0E0,0E0,0E0,0E0,0E0,0E0,0E0,0E0,0E0,0E0,0E0,0E0,0E0],"parents":[2147483647,0,0,1,1,2,2,3,3,4,4,5,5,6,6,7,7,8,8,9,9,10,10,11,11,12,12,13,13,14,14,15,15,16,16,17,17,18,18,19,19,20,20,21,21,22,22,23,23,24,24,25,25,26,26,27,27,28,28,29,29,30,30,32,32,33,33,34,34,35,35,36,36,37,37,38,38,39,39,40,40,41,41,42,42,43,43,44,44,45,45,46,46,47,47,48,48,49,49,50,50,51,51,52,52,53,53,54,54,55,55,56,56,57,57,58,58,59,59,60,60,63,63,64,64,65,65,66,66,67,67,68,68,69,69,70,70,71,71,72,72,73,73,74,74,75,75,76,76,77,77,78,78,79,79,80,80,81,81,82,82,83,83,84,84,85,85,86,86,87,87,88,88,89,89,90,90,91,91,93,93,94,94,95,95,96,96,97,97,98,98,99,99,100,100,101,101,102,102,103,103,105,105,106,106,107,107,109,109,110,110,111,111,112,112,113,113,114,114,115,115,117,117,118,118,119,119],"right_children":[2,4,6,8,10,12,14,16,18,20,22,24,26,28,30,32,34,36,38,40,42,44,46,48,50,52,54,56,58,60,62,-1,64,66,68,70,72,74,76,78,80,82,84,86,88,90,92,94,96,98,100,102,104,106,108,110,112,114,116,118,120,-1,-1,122,124,126,128,130,132,134,136,138,140,142,144,146,148,150,152,154,156,158,160,162,164,166,168,170,172,174,176,178,-1,180,182,184,186,188,190,192,194,196,198,200,-1,202,204,206,-1,208,210,212,214,216,218,220,-1,222,224,226,-1,-1,-1,-1,-1,-1,-1,-1,-1,-1,-1,-1,-1,-1,-1,-1,-1,-1,-1,-1,-1,-1,-1,-1,-1,-1,-1,-1,-1,-1,-1,-1,-1,-1,-1,-1,-1,-1,-1,-1,-1,-1,-1,-1,-1,-1,-1,-1,-1,-1,-1,-1,-1,-1,-1,-1,-1,-1,-1,-1,-1,-1,-1,-1,-1,-1,-1,-1,-1,-1,-1,-1,-1,-1,-1,-1,-1,-1,-1,-1,-1,-1,-1,-1,-1,-1,-1,-1,-1,-1,-1,-1,-1,-1,-1,-1,-1,-1,-1,-1,-1,-1,-1,-1,-1,-1,-1],"split_conditions":[6E0,3E0,7E0,5E0,5E0,2E0,2E0,3E0,2E0,5E0,4E0,2E0,3E0,8E0,8E0,4E0,5E0,3E0,2E0,4E0,4E0,2E0,5E0,1E0,1E0,2E0,4E0,2E0,9E0,3E0,1E0,-4.3084745E0,2E0,4E0,4E0,3E0,4E0,2E0,3E0,3E0,2E0,6E0,6E0,1E0,3E0,1E0,1E0,3E0,2E0,3E0,3E0,1E0,3E0,1E0,5E0,1E0,1E0,1E0,1E0,1E0,1E0,5.4563184E0,6.885715E0,3E0,2E0,4E0,2E0,1E0,2E0,2E0,1E0,1E0,1E0,1E0,1E0,2E0,4E0,4E0,4E0,4E0,4E0,2E0,7E0,1E0,1E0,2E0,2E0,1E0,1E0,2E0,2E0,6E0,4.6208987E0,2E0,4E0,1E0,1E0,2E0,4E0,2E0,4E0,2E0,2E0,1E0,3.585337E0,2E0,2E0,1E0,6.152267E0,1E0,1E0,3E0,3E0,2E0,1E0,1E1,6.3077974E0,2E0,2E0,4E0,5.929832E0,-4.083341E0,-3.0806956E0,-3.2437768E0,-2.571466E0,-3.4015107E0,-2.651392E0,-2.6328747E0,-1.3486981E0,-1.9177979E0,-9.462895E-1,-3.809746E-1,9.5064914E-1,-2.9329298E0,-2.2036319E0,-2.4118154E0,-1.3824948E0,-2.2278664E0,-9.647189E-1,-8.3670074E-1,3.9217955E-1,-2.2712188E0,-1.5712731E0,-1.5110636E0,-6.6981345E-1,-5.7262945E-1,6.351767E-1,8.253375E-1,2.2233694E0,-3.3915036E0,-2.136738E0,-1.8423359E0,-4.5077148E-1,-2.0982802E0,-6.732302E-1,-5.6386226E-1,1.1813099E0,-1.2352272E0,1.8899313E-1,5.957063E-1,2.2364886E0,4.4205E-1,1.9252975E0,2.7491693E0,4.0225654E0,-8.3503455E-1,1.0113054E-1,1.4459458E-1,1.3555473E0,1.112955E0,1.9876845E0,2.7307878E0,3.5851908E0,8.680689E-1,2.0348382E0,2.182491E0,3.697917E0,2.9073882E0,4.9783387E0,-2.271225E0,-1.8887669E0,-1.2023251E0,-3.86682E-1,-1.4983273E0,-8.200537E-1,-7.935283E-1,-2.9807422E-2,-1.4658003E0,-5.2600235E-1,-2.4149159E-1,1.1869693E0,1.5052286E-1,1.4249315E0,1.5592403E0,2.8214061E0,-1.0623403E-1,7.6844287E-1,8.460504E-1,2.0403478E0,1.844625E0,2.7970037E0,1.6496242E0,2.845243E0,2.8930829E0,4.336385E0,3.6444502E0,5.0896983E0,-5.159671E-1,5.136602E-2,8.321484E-1,1.73983E0,1.0199283E0,2.476847E0,2.898204E0,4.2828965E0,1.9237413E0,3.8424382E0,3.210526E0,4.6059294E0,4.3628864E0,6.0933013E0,2.3133626E0,3.5343611E0,3.6675336E0,5.221524E0,4.429822E0,6.386971E0],"split_indices":[0,1,0,0,0,1,1,2,1,1,1,2,1,0,0,0,2,2,2,0,0,2,1,1,1,2,1,2,0,1,2,0,1,0,0,3,2,3,2,2,2,1,1,2,2,2,2,3,3,2,2,2,2,2,1,1,1,1,1,2,2,0,0,3,2,2,1,3,1,2,1,1,1,2,2,3,2,1,1,1,1,2,1,2,2,3,3,3,3,3,2,1,0,3,3,2,2,3,2,3,2,3,3,3,0,3,2,2,0,2,2,2,2,2,2,0,0,3,2,1,0,0,0,0,0,0,0,0,0,0,0,0,0,0,0,0,0,0,0,0,0,0,0,0,0,0,0,0,0,0,0,0,0,0,0,0,0,0,0,0,0,0,0,0,0,0,0,0,0,0,0,0,0,0,0,0,0,0,0,0,0,0,0,0,0,0,0,0,0,0,0,0,0,0,0,0,0,0,0,0,0,0,0,0,0,0,0,0,0,0,0,0,0,0,0,0,0,0,0,0,0,0,0,0,0,0,0],"split_type":[0,0,0,0,0,0,0,0,0,0,0,0,0,0,0,0,0,0,0,0,0,0,0,0,0,0,0,0,0,0,0,0,0,0,0,0,0,0,0,0,0,0,0,0,0,0,0,0,0,0,0,0,0,0,0,0,0,0,0,0,0,0,0,0,0,0,0,0,0,0,0,0,0,0,0,0,0,0,0,0,0,0,0,0,0,0,0,0,0,0,0,0,0,0,0,0,0,0,0,0,0,0,0,0,0,0,0,0,0,0,0,0,0,0,0,0,0,0,0,0,0,0,0,0,0,0,0,0,0,0,0,0,0,0,0,0,0,0,0,0,0,0,0,0,0,0,0,0,0,0,0,0,0,0,0,0,0,0,0,0,0,0,0,0,0,0,0,0,0,0,0,0,0,0,0,0,0,0,0,0,0,0,0,0,0,0,0,0,0,0,0,0,0,0,0,0,0,0,0,0,0,0,0,0,0,0,0,0,0,0,0,0,0,0,0,0,0,0,0,0,0,0,0,0,0,0,0],"sum_hessian":[3.0073E4,1.8901E4,1.1172E4,7.334E3,1.1567E4,6.796E3,4.376E3,2.55E3,4.784E3,8.104E3,3.463E3,3.254E3,3.542E3,3.278E3,1.098E3,1.327E3,1.223E3,2.132E3,2.652E3,5.539E3,2.565E3,2.288E3,1.175E3,1.84E3,1.414E3,2.194E3,1.348E3,2.36E3,9.18E2,9.77E2,1.21E2,1.14E2,1.213E3,1.079E3,1.44E2,1.383E3,7.49E2,1.438E3,1.214E3,1.976E3,3.563E3,1.757E3,8.08E2,1.642E3,6.46E2,9.64E2,2.11E2,4.06E2,1.434E3,5.17E2,8.97E2,1.707E3,4.87E2,1.093E3,2.55E2,1.738E3,6.22E2,7.47E2,1.71E2,7.51E2,2.26E2,8.9E1,3.2E1,2.49E2,9.64E2,2.32E2,8.47E2,6.1E1,8.3E1,1.149E3,2.34E2,5.2E2,2.29E2,8.92E2,5.46E2,8.32E2,3.82E2,1.264E3,7.12E2,2.008E3,1.555E3,1.02E3,7.37E2,6.7E2,1.38E2,6.21E2,1.021E3,5.42E2,1.04E2,4.56E2,5.08E2,1.47E2,6.4E1,3.34E2,7.2E1,9.98E2,4.36E2,3.09E2,2.08E2,6.54E2,2.43E2,7.31E2,9.76E2,4.18E2,6.9E1,5.34E2,5.59E2,2.11E2,4.4E1,6.13E2,1.125E3,3.23E2,2.99E2,4.02E2,3.45E2,1.16E2,5.5E1,4.08E2,3.43E2,1.61E2,6.5E1,1.64E2,8.5E1,4.29E2,5.35E2,1.22E2,1.1E2,3.37E2,5.1E2,2.9E1,3.2E1,6.4E1,1.9E1,5.32E2,6.17E2,7E1,1.64E2,1.55E2,3.65E2,9.2E1,1.37E2,2E2,6.92E2,2.53E2,2.93E2,6.95E2,1.37E2,3.2E2,6.2E1,4.14E2,8.5E2,3.8E2,3.32E2,9.47E2,1.061E3,1.057E3,4.98E2,5.92E2,4.28E2,5.49E2,1.88E2,2.91E2,3.79E2,8.6E1,5.2E1,4.35E2,1.86E2,8.77E2,1.44E2,3.19E2,2.23E2,8.2E1,2.2E1,3.96E2,6E1,4.1E2,9.8E1,1.28E2,1.9E1,2.01E2,1.33E2,5.6E1,1.6E1,3.32E2,6.66E2,1.97E2,2.39E2,2.2E2,8.9E1,1.57E2,5.1E1,5.71E2,8.3E1,2.1E2,3.3E1,5.63E2,1.68E2,8.62E2,1.14E2,2.95E2,1.23E2,4.61E2,7.3E1,4.55E2,1.04E2,1.41E2,7E1,2.39E2,3.74E2,5.6E2,5.65E2,2.35E2,8.8E1,2.61E2,3.8E1,3.3E2,7.2E1,1.94E2,1.51E2,1.06E2,1E1,3.63E2,4.5E1,2.76E2,6.7E1,1.38E2,2.3E1],"tree_param":{"num_deleted":"0","num_feature":"18","num_nodes":"227","size_leaf_vector":"1"}},{"base_weights":[-6.652506E-3,-3.1167262E0,5.2775407E0,-7.039956E0,-6.125055E-1,2.6229417E0,9.4441595E0,-1.0583529E1,-5.1510425E0,-2.7015924E0,4.2301993E0,-2.1399636E0,6.9470205E0,7.3390017E0,1.5739286E1,-1.1865491E1,-5.440051E0,-6.409633E0,-1.0655147E0,-4.990373E0,2.2172594E0,1.9419713E0,8.713552E0,-4.381556E0,7.8391945E-1,4.0503435E0,1.1710209E1,4.7468424E0,1.3876104E1,1.46500025E1,2.4217403E1,-1.0968074E1,-1.43174095E1,-9.488845E0,-3.4584398E0,-9.764567E0,-4.406122E0,-3.8878143E0,4.265813E0,-8.366469E0,-3.1209736E0,1.4940286E-1,6.660173E0,-7.6036625E-2,7.072354E0,7.3412337E0,1.5064817E1,-7.9405017E0,-3.417311E0,-2.8011935E0,2.8276794E0,2.4891872E0,9.539527E0,1.0167701E1,1.8378551E1,3.1928582E0,9.079637E0,1.2216127E1,2.1253521E1,1.2800927E1,2.0808657E1,4.4282155E0,5.569663E0,-9.386641E0,-1.4377527E1,-3.4421575E0,-1.3598746E1,-1.1157431E1,-6.131917E0,-5.8844347E0,-4.3102372E-1,-1.2924254E1,-9.1378765E0,-6.0370755E0,-1.5187646E0,-5.4182673E0,-3.4709257E-1,3.2753162E0,1.7982765E0,-1.0397305E1,-4.8178406E0,-4.180837E0,4.2175055E0,-2.6430275E0,4.0916777E0,5.2434225E0,1.3385206E1,-2.2296515E0,1.2587316E0,6.0388303E0,2.374255E0,4.215693E0,1.0122789E1,1.324994E1,3.7885027E0,-7.408059E0,-1.8800087E0,-4.9800887E0,-2.4755137E0,-4.8952713E0,2.9781583E-1,1.2409035E0,7.1107807E0,3.8961434E-1,4.056051E0,8.671383E0,2.9019864E0,7.366637E0,1.2909855E1,1.6871536E1,4.988809E0,-6.7991346E-1,5.266804E0,5.7996354E0,1.2653292E1,9.276946E0,1.56821785E1,1.8573156E1,5.103049E0,1.0069336E1,1.612393E1,1.919987E1,4.7737565E0,-2.067561E0,-1.5210464E0,-3.3463552E0,-2.7278063E0,-3.0556467E0,-2.485624E0,-2.7290893E0,-1.939937E0,-1.3598117E0,-3.4682852E-1,-1.3420885E0,9.289458E-1,-2.1583831E-1,7.6048297E-1,-2.3429847E0,-2.8752482E0,-2.1149518E0,-1.468926E0,-1.4935592E0,-1.0468824E0,-2.2035706E-1,-5.41829E-1,-1.8084892E0,-7.640148E-1,-6.585002E-1,3.3723345E-1,7.060455E-1,3.636608E-1,-2.7247329E0,-1.7223948E0,-1.4591368E0,-3.657396E-1,-1.3654926E0,-2.0734777E-1,4.676718E-1,2.1774147E0,-1.0012708E0,1.540874E-1,4.5246604E-1,1.7482033E0,7.9838234E-1,2.6978834E0,2.392309E0,4.0064516E0,-3.3177838E-1,-6.766614E-1,3.2832047E-1,1.0184632E-2,1.2335479E0,9.435018E-1,9.089209E-1,6.527298E-1,1.7513479E0,2.9948323E0,2.3527443E0,4.0648217E0,-1.3379388E0,-1.7694663E0,-1.0204107E0,-3.308016E-1,-4.434177E-1,-7.8606325E-1,-8.458916E-1,-1.253245E0,-2.2142151E-1,9.427087E-1,3.3747846E-1,4.8874073E-2,1.2613372E0,2.2512624E0,1.684701E-1,-9.8233275E-2,8.67556E-1,6.2538415E-1,1.7664926E0,1.5008917E0,1.5228153E0,1.2298645E0,2.3193E0,3.4834757E0,2.9215279E0,4.1083326E0,-4.0766194E-1,4.3778624E-2,6.6621184E-1,1.4067868E0,8.2665724E-1,2.0157356E0,2.3322074E0,3.4588225E0,1.0812354E0,2.3891032E0,2.588641E0,3.7267323E0,3.2837925E0,4.374788E0,2.028186E0,1.7309862E0,2.9395654E0,4.176817E0,3.5479565E0,5.123485E0],"categories":[],"categories_nodes":[],"categories_segments":[],"categories_sizes":[],"default_left":[0,0,0,0,0,0,0,0,0,0,0,0,0,0,0,0,0,0,0,0,0,0,0,0,0,0,0,0,0,0,0,0,0,0,0,0,0,0,0,0,0,0,0,0,0,0,0,0,0,0,0,0,0,0,0,0,0,0,0,0,0,0,0,0,0,0,0,0,0,0,0,0,0,0,0,0,0,0,0,0,0,0,0,0,0,0,0,0,0,0,0,0,0,0,0,0,0,0,0,0,0,0,0,0,0,0,0,0,0,0,0,0,0,0,0,0,0,0,0,0,0,0,0,0,0,0,0,0,0,0,0,0,0,0,0,0,0,0,0,0,0,0,0,0,0,0,0,0,0,0,0,0,0,0,0,0,0,0,0,0,0,0,0,0,0,0,0,0,0,0,0,0,0,0,0,0,0,0,0,0,0,0,0,0,0,0,0,0,0,0,0,0,0,0,0,0,0,0,0,0,0,0,0,0,0,0,0,0,0,0,0,0,0,0,0,0,0,0,0,0,0,0,0,0,0],"id":1,"left_children":[1,3,5,7,9,11,13,15,17,19,21,23,25,27,29,31,33,35,37,39,41,43,45,47,49,51,53,55,57,59,61,63,65,67,69,71,73,75,77,79,81,83,85,87,89,91,93,95,97,99,101,103,105,107,109,111,113,115,117,119,121,-1,-1,123,125,-1,127,129,131,133,135,137,139,141,143,145,147,149,-1,151,153,155,157,159,161,163,165,167,169,171,-1,173,175,177,-1,179,-1,181,183,185,187,189,191,193,195,197,-1,199,201,203,-1,205,207,209,211,213,215,217,-1,219,221,223,-1,-1,-1,-1,-1,-1,-1,-1,-1,-1,-1,-1,-1,-1,-1,-1,-1,-1,-1,-1,-1,-1,-1,-1,-1,-1,-1,-1,-1,-1,-1,-1,-1,-1,-1,-1,-1,-1,-1,-1,-1,-1,-1,-1,-1,-1,-1,-1,-1,-1,-1,-1,-1,-1,-1,-1,-1,-1,-1,-1,-1,-1,-1,-1,-1,-1,-1,-1,-1,-1,-1,-1,-1,-1,-1,-1,-1,-1,-1,-1,-1,-1,-1,-1,-1,-1,-1,-1,-1,-1,-1,-1,-1,-1,-1,-1,-1,-1,-1,-1,-1,-1,-1],"loss_changes":[4.9391434E5,1.8586792E5,1.23136125E5,4.9283312E4,1.1685071E5,1.4012384E5,5.7306438E4,1.6828656E4,2.4726219E4,9.0853266E4,3.5694434E4,2.122579E4,4.9154188E4,5.4989125E4,9.665281E3,4.35375E3,4.0830527E3,2.4672469E4,1.7079432E4,3.473008E4,2.3546078E4,2.387491E4,1.0139367E4,6.263164E3,1.0309839E4,1.8991918E4,1.3678625E4,1.5645652E4,1.1031484E4,1.0711469E4,2.2810938E2,7.9797344E3,9.971875E2,8.7260547E2,2.5386592E3,2.6026328E3,1.0840703E4,4.0189492E3,1.861104E3,1.4089406E4,2.7597668E4,1.9275738E4,7.6853555E3,4.7631055E3,3.2735781E3,8.38168E3,1.3143203E3,2.611289E2,2.1129805E3,3.3176265E3,6.080679E3,5.6863867E3,2.0819883E3,8.330898E3,2.2056719E3,1.3778322E4,7.123672E3,7.5459688E3,1.6072031E3,6.591E3,7.478281E2,0E0,0E0,1.8180391E3,4.293828E2,0E0,6.490625E2,2.5620117E2,1.8240454E2,1.9136362E3,4.457161E2,2.1472266E2,3.0061484E3,1.6053555E3,4.076311E2,2.9655137E3,1.3920579E3,1.3733838E2,0E0,6.9668906E3,5.4693105E3,2.6629023E4,5.618191E3,8.558757E3,6.209788E3,6.733365E3,9.745156E2,4.1107568E2,5.0251013E2,1.1879883E2,0E0,1.4859375E2,3.0776992E3,1.186793E3,0E0,2.2803223E2,0E0,3.438838E2,2.994624E2,2.4207031E2,1.3248356E3,3.06104E2,6.6902246E2,3.060725E2,2.8813965E2,6.1808594E1,0E0,1.7253906E2,2.8024844E3,1.400293E3,0E0,7.506206E2,3.9181504E3,2.245962E3,9.695117E2,4.3654844E3,2.5877969E3,3.923672E2,0E0,2.6414062E1,1.7316953E3,7.949219E2,0E0,0E0,0E0,0E0,0E0,0E0,0E0,0E0,0E0,0E0,0E0,0E0,0E0,0E0,0E0,0E0,0E0,0E0,0E0,0E0,0E0,0E0,0E0,0E0,0E0,0E0,0E0,0E0,0E0,0E0,0E0,0E0,0E0,0E0,0E0,0E0,0E0,0E0,0E0,0E0,0E0,0E0,0E0,0E0,0E0,0E0,0E0,0E0,0E0,0E0,0E0,0E0,0E0,0E0,0E0,0E0,0E0,0E0,0E0,0E0,0E0,0E0,0E0,0E0,0E0,0E0,0E0,0E0,0E0,0E0,0E0,0E0,0E0,0E0,0E0,0E0,0E0,0E0,0E0,0E0,0E0,0E0,0E0,0E0,0E0,0E0,0E0,0E0,0E0,0E0,0E0,0E0,0E0,0E0,0E0,0E0,0E0,0E0,0E0,0E0,0E0,0E0,0E0],"parents":[2147483647,0,0,1,1,2,2,3,3,4,4,5,5,6,6,7,7,8,8,9,9,10,10,11,11,12,12,13,13,14,14,15,15,16,16,17,17,18,18,19,19,20,20,21,21,22,22,23,23,24,24,25,25,26,26,27,27,28,28,29,29,30,30,31,31,32,32,33,33,34,34,35,35,36,36,37,37,38,38,39,39,40,40,41,41,42,42,43,43,44,44,45,45,46,46,47,47,48,48,49,49,50,50,51,51,52,52,53,53,54,54,55,55,56,56,57,57,58,58,59,59,60,60,63,63,64,64,66,66,67,67,68,68,69,69,70,70,71,71,72,72,73,73,74,74,75,75,76,76,77,77,79,79,80,80,81,81,82,82,83,83,84,84,85,85,86,86,87,87,88,88,89,89,91,91,92,92,93,93,95,95,97,97,98,98,99,99,100,100,101,101,102,102,103,103,104,104,105,105,107,107,108,108,109,109,111,111,112,112,113,113,114,114,115,115,116,116,117,117,119,119,120,120,121,121],"right_children":[2,4,6,8,10,12,14,16,18,20,22,24,26,28,30,32,34,36,38,40,42,44,46,48,50,52,54,56,58,60,62,64,66,68,70,72,74,76,78,80,82,84,86,88,90,92,94,96,98,100,102,104,106,108,110,112,114,116,118,120,122,-1,-1,124,126,-1,128,130,132,134,136,138,140,142,144,146,148,150,-1,152,154,156,158,160,162,164,166,168,170,172,-1,174,176,178,-1,180,-1,182,184,186,188,190,192,194,196,198,-1,200,202,204,-1,206,208,210,212,214,216,218,-1,220,222,224,-1,-1,-1,-1,-1,-1,-1,-1,-1,-1,-1,-1,-1,-1,-1,-1,-1,-1,-1,-1,-1,-1,-1,-1,-1,-1,-1,-1,-1,-1,-1,-1,-1,-1,-1,-1,-1,-1,-1,-1,-1,-1,-1,-1,-1,-1,-1,-1,-1,-1,-1,-1,-1,-1,-1,-1,-1,-1,-1,-1,-1,-1,-1,-1,-1,-1,-1,-1,-1,-1,-1,-1,-1,-1,-1,-1,-1,-1,-1,-1,-1,-1,-1,-1,-1,-1,-1,-1,-1,-1,-1,-1,-1,-1,-1,-1,-1,-1,-1,-1,-1,-1,-1],"split_conditions":[6E0,3E0,7E0,5E0,5E0,2E0,2E0,4E0,3E0,5E0,4E0,2E0,3E0,8E0,8E0,1E0,4E0,2E0,2E0,4E0,4E0,2E0,5E0,1E0,1E0,2E0,4E0,2E0,9E0,3E0,1E0,1E0,4E0,5E0,2E0,1E0,2E0,4E0,4E0,3E0,3E0,6E0,6E0,1E0,3E0,1E0,1E0,1E0,1E0,3E0,3E0,1E0,3E0,1E0,5E0,1E0,1E0,1E0,1E0,1E0,1E0,4.4282155E0,5.569663E0,3E0,4E0,-3.4421575E0,2E0,2E0,6E0,6E0,5E0,1E0,2E0,1E0,1E0,1E0,1E0,1E0,1.7982765E0,4E0,4E0,4E0,4E0,2E0,7E0,2E0,7E0,1E0,1E0,1E0,2.374255E0,1E0,2E0,6E0,3.7885027E0,1E0,-1.8800087E0,3E0,1E0,1E0,4E0,1E0,4E0,1E0,1E0,1E0,2.9019864E0,1E0,2E0,1E0,4.988809E0,1E0,1E0,3E0,3E0,1E0,1E0,1E0,5.103049E0,1E0,2E0,4E0,4.7737565E0,-2.067561E0,-1.5210464E0,-3.3463552E0,-2.7278063E0,-3.0556467E0,-2.485624E0,-2.7290893E0,-1.939937E0,-1.3598117E0,-3.4682852E-1,-1.3420885E0,9.289458E-1,-2.1583831E-1,7.6048297E-1,-2.3429847E0,-2.8752482E0,-2.1149518E0,-1.468926E0,-1.4935592E0,-1.0468824E0,-2.2035706E-1,-5.41829E-1,-1.8084892E0,-7.640148E-1,-6.585002E-1,3.3723345E-1,7.060455E-1,3.636608E-1,-2.7247329E0,-1.7223948E0,-1.4591368E0,-3.657396E-1,-1.3654926E0,-2.0734777E-1,4.676718E-1,2.1774147E0,-1.0012708E0,1.540874E-1,4.5246604E-1,1.7482033E0,7.9838234E-1,2.6978834E0,2.392309E0,4.0064516E0,-3.3177838E-1,-6.766614E-1,3.2832047E-1,1.0184632E-2,1.2335479E0,9.435018E-1,9.089209E-1,6.527298E-1,1.7513479E0,2.9948323E0,2.3527443E0,4.0648217E0,-1.3379388E0,-1.7694663E0,-1.0204107E0,-3.308016E-1,-4.434177E-1,-7.8606325E-1,-8.458916E-1,-1.253245E0,-2.2142151E-1,9.427087E-1,3.3747846E-1,4.8874073E-2,1.2613372E0,2.2512624E0,1.684701E-1,-9.8233275E-2,8.67556E-1,6.2538415E-1,1.7664926E0,1.5008917E0,1.5228153E0,1.2298645E0,2.3193E0,3.4834757E0,2.9215279E0,4.1083326E0,-4.0766194E-1,4.3778624E-2,6.6621184E-1,1.4067868E0,8.2665724E-1,2.0157356E0,2.3322074E0,3.4588225E0,1.0812354E0,2.3891032E0,2.588641E0,3.7267323E0,3.2837925E0,4.374788E0,2.028186E0,1.7309862E0,2.9395654E0,4.176817E0,3.5479565E0,5.123485E0],"split_indices":[0,1,0,0,0,1,1,2,2,1,1,2,1,0,0,16,0,1,1,0,0,2,1,1,1,2,1,2,0,1,2,17,0,2,1,1,2,2,2,2,2,1,1,2,2,2,2,16,2,2,2,2,2,2,1,1,1,1,1,2,2,0,0,2,0,0,1,1,2,2,2,17,2,2,6,1,1,6,0,1,1,1,1,2,1,2,1,6,6,7,0,5,2,1,0,17,0,4,16,7,2,5,2,6,6,6,0,6,2,2,0,2,2,2,2,2,2,2,0,10,2,1,0,0,0,0,0,0,0,0,0,0,0,0,0,0,0,0,0,0,0,0,0,0,0,0,0,0,0,0,0,0,0,0,0,0,0,0,0,0,0,0,0,0,0,0,0,0,0,0,0,0,0,0,0,0,0,0,0,0,0,0,0,0,0,0,0,0,0,0,0,0,0,0,0,0,0,0,0,0,0,0,0,0,0,0,0,0,0,0,0,0,0,0,0,0,0,0,0,0,0,0,0,0,0],"split_type":[0,0,0,0,0,0,0,0,0,0,0,0,0,0,0,0,0,0,0,0,0,0,0,0,0,0,0,0,0,0,0,0,0,0,0,0,0,0,0,0,0,0,0,0,0,0,0,0,0,0,0,0,0,0,0,0,0,0,0,0,0,0,0,0,0,0,0,0,0,0,0,0,0,0,0,0,0,0,0,0,0,0,0,0,0,0,0,0,0,0,0,0,0,0,0,0,0,0,0,0,0,0,0,0,0,0,0,0,0,0,0,0,0,0,0,0,0,0,0,0,0,0,0,0,0,0,0,0,0,0,0,0,0,0,0,0,0,0,0,0,0,0,0,0,0,0,0,0,0,0,0,0,0,0,0,0,0,0,0,0,0,0,0,0,0,0,0,0,0,0,0,0,0,0,0,0,0,0,0,0,0,0,0,0,0,0,0,0,0,0,0,0,0,0,0,0,0,0,0,0,0,0,0,0,0,0,0,0,0,0,0,0,0,0,0,0,0,0,0,0,0,0,0,0,0],"sum_hessian":[3.0052E4,1.8918E4,1.1134E4,7.37E3,1.1548E4,6.802E3,4.332E3,2.561E3,4.809E3,8.068E3,3.48E3,3.237E3,3.565E3,3.248E3,1.084E3,2.049E3,5.12E2,3.676E3,1.133E3,5.506E3,2.562E3,2.305E3,1.175E3,1.832E3,1.405E3,2.218E3,1.347E3,2.327E3,9.21E2,9.63E2,1.21E2,1.504E3,5.45E2,1.67E2,3.45E2,1.373E3,2.303E3,7.41E2,3.92E2,1.961E3,3.545E3,1.749E3,8.13E2,1.655E3,6.5E2,9.68E2,2.07E2,3.89E2,1.443E3,5.1E2,8.95E2,1.728E3,4.9E2,1.096E3,2.51E2,1.714E3,6.13E2,7.54E2,1.67E2,7.43E2,2.2E2,8.9E1,3.2E1,1.03E3,4.74E2,9.7E1,4.48E2,1.1E2,5.7E1,1.91E2,1.54E2,2.24E2,1.149E3,1.471E3,8.32E2,5.17E2,2.24E2,3.27E2,6.5E1,1.246E3,7.15E2,3.098E3,4.47E2,1.024E3,7.25E2,6.73E2,1.4E2,6.33E2,1.022E3,5.4E2,1.1E2,4.57E2,5.11E2,1.47E2,6E1,2.96E2,9.3E1,5.41E2,9.02E2,3.04E2,2.06E2,6.54E2,2.41E2,7.39E2,9.89E2,4.22E2,6.8E1,5.44E2,5.52E2,2.09E2,4.2E1,5.98E2,1.116E3,3.21E2,2.92E2,4.1E2,3.44E2,1.09E2,5.8E1,4.1E2,3.33E2,1.54E2,6.6E1,6.17E2,4.13E2,7.6E1,3.98E2,1.48E2,3E2,3.3E1,7.7E1,4.8E1,9E0,1.76E2,1.5E1,1.34E2,2E1,1.43E2,8.1E1,5.88E2,5.61E2,4.68E2,1.003E3,6.29E2,2.03E2,1.49E2,3.68E2,9.1E1,1.33E2,2.68E2,5.9E1,4.04E2,8.42E2,3.81E2,3.34E2,1.649E3,1.449E3,3.53E2,9.4E1,5.98E2,4.26E2,5.28E2,1.97E2,5.91E2,8.2E1,1.21E2,1.9E1,4.37E2,1.96E2,7.64E2,2.58E2,4.56E2,8.4E1,3.15E2,1.42E2,4.13E2,9.8E1,1.27E2,2E1,2.16E2,8E1,5.1E2,3.1E1,7.87E2,1.15E2,2.18E2,8.6E1,1.57E2,4.9E1,4.43E2,2.11E2,2.09E2,3.2E1,4.85E2,2.54E2,7.08E2,2.81E2,3.25E2,9.7E1,4.08E2,1.36E2,4.48E2,1.04E2,1.41E2,6.8E1,2.35E2,3.63E2,5.57E2,5.59E2,2.37E2,8.4E1,2.53E2,3.9E1,1.77E2,2.33E2,1.95E2,1.49E2,7.5E1,3.4E1,3.44E2,6.6E1,2.72E2,6.1E1,1.34E2,2E1],"tree_param":{"num_deleted":"0","num_feature":"18","num_nodes":"225","size_leaf_vector":"1"}},{"base_weights":[-3.355936E-3,-2.5022326E0,4.243055E0,-5.642105E0,-5.004392E-1,2.096312E0,7.5681624E0,-8.469334E0,-4.127941E0,-2.1633883E0,3.3393624E0,-1.7307163E0,5.589166E0,5.8688707E0,1.2748714E1,-9.512044E0,-4.383654E0,-5.147847E0,-8.4560597E-1,-4.025817E0,1.8258888E0,1.5235101E0,6.999496E0,-3.5656025E0,6.391089E-1,3.2973924E0,9.362396E0,3.7983155E0,1.11823225E1,1.1895367E1,1.9670752E1,-1.1782121E1,-8.789072E0,-7.5056596E0,-2.8543644E0,-7.8378754E0,-3.5275915E0,-3.0819557E0,3.4186978E0,-6.7257986E0,-2.5026295E0,2.233303E-1,5.317962E0,-6.2000677E-2,5.6635504E0,5.902126E0,1.2205842E1,-6.4382E0,-2.767062E0,-2.2916799E0,2.307095E0,2.0304267E0,7.6981E0,8.1791315E0,1.4612654E1,2.546724E0,7.281543E0,9.838859E0,1.7213243E1,1.0399263E1,1.6820091E1,1.8642323E1,5.9012966E0,-1.220566E1,-5.9031773E0,-9.8544655E0,-6.4468384E0,-9.011067E0,-4.689435E0,-4.7639585E0,-5.356338E-1,-8.465739E0,-4.8254786E0,-4.8386064E0,-1.2400732E0,-4.3245244E0,-2.592697E-1,2.6469831E0,7.344435E0,-1.0418558E1,-5.0966463E0,-4.784214E0,4.1811907E-1,-2.095251E0,3.3974643E0,4.2481103E0,1.0580918E1,-7.7207255E-1,2.6945665E0,4.8444695E0,9.582488E0,3.4330041E0,8.119982E0,1.0686792E1,1.5363653E1,-7.1507998E0,-2.7668564E0,-3.605481E0,-8.429381E-1,-3.957955E0,2.516385E-1,1.027142E0,5.673152E0,3.2322827E-1,3.2833111E0,7.0037293E0,2.338294E0,5.9203734E0,1.0358178E1,1.3490319E1,3.9474044E0,-5.4367465E-1,4.1954136E0,4.6392975E0,1.0109656E1,7.4143E0,1.2555876E1,1.61619E1,5.280208E0,8.113742E0,1.3077692E1,1.6072296E1,4.3558707E0,1.7103123E1,4.395073E0,-2.6396885E0,-2.1451533E0,-8.8738686E-1,-1.6853197E0,-2.8468258E0,-1.8450052E0,-2.1179087E0,-1.0198506E0,-1.9537908E0,-1.0866331E0,-1.33962E0,-5.428538E-1,-1.3100026E0,-1.9956948E-1,-3.7306514E-1,4.3136412E-1,-2.3164866E0,-1.57026E0,-1.2082936E0,-2.5475374E-1,-1.0570475E0,2.5398085E-2,-6.7197275E-1,5.001669E-2,-1.442927E0,-6.067902E-1,-2.3549579E-1,1.0971924E0,1.4318688E-1,1.0344253E0,1.3267157E0,2.0388715E0,-2.6231344E0,-1.8367037E0,-1.4662598E0,-6.192796E-1,-1.4348165E0,-4.9888536E-1,-3.035811E-1,8.929082E-1,-5.864235E-1,8.450575E-1,3.49996E-1,1.6710317E0,2.0576236E-1,1.3022934E0,1.7348161E0,2.7126656E0,-5.819776E-1,6.553614E-2,1.5730521E-1,1.0385958E0,6.6801757E-1,1.3632512E0,1.7194302E0,2.4616506E0,3.2167342E-1,9.8922026E-1,1.407288E0,2.4193006E0,1.8982255E0,3.3210824E0,2.80096E0,3.9523814E0,-1.4543328E0,-7.7440745E-1,-9.00343E-1,-2.7649832E-1,-1.0250138E0,-5.5939883E-1,-3.0464518E-1,3.994575E-1,-9.916402E-1,-2.4372588E-1,-1.821156E-1,8.064617E-1,-1.8412268E-1,5.492189E-1,7.923868E-1,1.6620034E0,-9.526219E-2,5.7722E-1,3.0137235E-1,9.635146E-1,1.1544665E0,1.9015841E0,7.710134E-1,1.4648658E0,1.8572271E0,2.7979355E0,2.3417723E0,3.2820237E0,-2.7461204E-1,3.8937345E-1,6.893664E-1,1.5970408E0,6.559976E-1,1.6510679E0,1.7855155E0,2.4459486E0,1.2110285E0,2.6555762E0,2.0751386E0,2.9796152E0,2.8366973E0,3.9118705E0,1.2820898E0,1.9928917E0,2.3777294E0,3.3714466E0,2.872817E0,3.7453256E0,3.1668468E0,4.6526747E0],"categories":[],"categories_nodes":[],"categories_segments":[],"categories_sizes":[],"default_left":[0,0,0,0,0,0,0,0,0,0,0,0,0,0,0,0,0,0,0,0,0,0,0,0,0,0,0,0,0,0,0,0,0,0,0,0,0,0,0,0,0,0,0,0,0,0,0,0,0,0,0,0,0,0,0,0,0,0,0,0,0,0,0,0,0,0,0,0,0,0,0,0,0,0,0,0,0,0,0,0,0,0,0,0,0,0,0,0,0,0,0,0,0,0,0,0,0,0,0,0,0,0,0,0,0,0,0,0,0,0,0,0,0,0,0,0,0,0,0,0,0,0,0,0,0,0,0,0,0,0,0,0,0,0,0,0,0,0,0,0,0,0,0,0,0,0,0,0,0,0,0,0,0,0,0,0,0,0,0,0,0,0,0,0,0,0,0,0,0,0,0,0,0,0,0,0,0,0,0,0,0,0,0,0,0,0,0,0,0,0,0,0,0,0,0,0,0,0,0,0,0,0,0,0,0,0,0,0,0,0,0,0,0,0,0,0,0,0,0,0,0,0,0,0,0,0,0,0,0,0,0,0,0,0,0,0,0,0,0],"id":2,"left_children":[1,3,5,7,9,11,13,15,17,19,21,23,25,27,29,31,33,35,37,39,41,43,45,47,49,51,53,55,57,59,61,63,65,67,69,71,73,75,77,79,81,83,85,87,89,91,93,95,97,99,101,103,105,107,109,111,113,115,117,119,121,123,-1,125,127,129,131,133,135,137,139,141,143,145,147,149,151,153,155,157,159,161,163,165,167,169,171,173,175,177,179,181,183,185,187,189,191,193,195,197,199,201,203,205,207,209,-1,211,213,215,-1,217,219,221,223,225,227,229,-1,231,233,235,-1,237,-1,-1,-1,-1,-1,-1,-1,-1,-1,-1,-1,-1,-1,-1,-1,-1,-1,-1,-1,-1,-1,-1,-1,-1,-1,-1,-1,-1,-1,-1,-1,-1,-1,-1,-1,-1,-1,-1,-1,-1,-1,-1,-1,-1,-1,-1,-1,-1,-1,-1,-1,-1,-1,-1,-1,-1,-1,-1,-1,-1,-1,-1,-1,-1,-1,-1,-1,-1,-1,-1,-1,-1,-1,-1,-1,-1,-1,-1,-1,-1,-1,-1,-1,-1,-1,-1,-1,-1,-1,-1,-1,-1,-1,-1,-1,-1,-1,-1,-1,-1,-1,-1,-1,-1,-1,-1,-1,-1,-1,-1,-1,-1,-1,-1,-1],"loss_changes":[3.1951556E5,1.1914277E5,7.961019E4,3.1557984E4,7.393093E4,9.063964E4,3.8448312E4,1.091975E4,1.6091266E4,6.0032246E4,2.324461E4,1.407357E4,3.0624125E4,3.6230453E4,6.1454688E3,3.2592656E3,2.485162E3,1.5959445E4,1.0891654E4,2.2635258E4,1.4392372E4,1.5360295E4,6.555375E3,4.1662324E3,6.912759E3,1.22896E4,8.198945E3,1.033109E4,7.3171953E3,6.9277344E3,6.775586E2,1.1530078E3,3.8242969E3,6.869492E2,1.5649011E3,2.5654766E3,6.8646387E3,2.6259067E3,1.1711729E3,1.18948125E4,2.3479041E4,1.2989255E4,4.5101934E3,3.3158923E3,2.0336094E3,5.2292344E3,7.999824E2,1.0162285E3,2.302255E3,2.1750222E3,3.8760361E3,3.66719E3,1.3428164E3,5.328203E3,1.2187148E3,8.908528E3,4.6384023E3,4.9002812E3,1.2483633E3,4.436117E3,5.2523047E2,2.3205469E2,0E0,5.7296875E2,9.131543E1,2.2869219E3,2.6247676E3,2.9541602E2,2.3411218E2,1.3632446E3,5.9937115E2,1.7743984E3,1.0984854E3,3.7933281E3,2.7098818E3,1.9186982E3,1.2602281E3,1.6447683E3,4.811499E1,1.8055781E3,6.2954805E3,1.1102629E4,1.2456821E4,5.7418535E3,6.1233145E3,5.087923E3,6.488164E2,3.2454414E3,1.690208E3,1.5988203E3,1.6816895E2,1.294186E3,1.9684766E3,7.423799E2,5.559082E1,2.1397461E2,1.5573575E2,1.2030166E3,8.802916E2,8.9915186E2,9.247042E2,2.2592996E3,1.0971377E3,1.5290721E3,2.7774043E3,1.2318242E3,0E0,1.6105781E3,1.8620352E3,8.5009766E2,0E0,1.3061677E3,3.0801973E3,1.56954E3,6.174297E2,3.0184336E3,1.6896484E3,7.1220703E2,0E0,1.2293242E3,1.1823945E3,5.9578125E2,0E0,1.6636719E2,0E0,0E0,0E0,0E0,0E0,0E0,0E0,0E0,0E0,0E0,0E0,0E0,0E0,0E0,0E0,0E0,0E0,0E0,0E0,0E0,0E0,0E0,0E0,0E0,0E0,0E0,0E0,0E0,0E0,0E0,0E0,0E0,0E0,0E0,0E0,0E0,0E0,0E0,0E0,0E0,0E0,0E0,0E0,0E0,0E0,0E0,0E0,0E0,0E0,0E0,0E0,0E0,0E0,0E0,0E0,0E0,0E0,0E0,0E0,0E0,0E0,0E0,0E0,0E0,0E0,0E0,0E0,0E0,0E0,0E0,0E0,0E0,0E0,0E0,0E0,0E0,0E0,0E0,0E0,0E0,0E0,0E0,0E0,0E0,0E0,0E0,0E0,0E0,0E0,0E0,0E0,0E0,0E0,0E0,0E0,0E0,0E0,0E0,0E0,0E0,0E0,0E0,0E0,0E0,0E0,0E0,0E0,0E0,0E0,0E0,0E0,0E0,0E0,0E0,0E0],"parents":[2147483647,0,0,1,1,2,2,3,3,4,4,5,5,6,6,7,7,8,8,9,9,10,10,11,11,12,12,13,13,14,14,15,15,16,16,17,17,18,18,19,19,20,20,21,21,22,22,23,23,24,24,25,25,26,26,27,27,28,28,29,29,30,30,31,31,32,32,33,33,34,34,35,35,36,36,37,37,38,38,39,39,40,40,41,41,42,42,43,43,44,44,45,45,46,46,47,47,48,48,49,49,50,50,51,51,52,52,53,53,54,54,55,55,56,56,57,57,58,58,59,59,60,60,61,61,63,63,64,64,65,65,66,66,67,67,68,68,69,69,70,70,71,71,72,72,73,73,74,74,75,75,76,76,77,77,78,78,79,79,80,80,81,81,82,82,83,83,84,84,85,85,86,86,87,87,88,88,89,89,90,90,91,91,92,92,93,93,94,94,95,95,96,96,97,97,98,98,99,99,100,100,101,101,102,102,103,103,104,104,105,105,107,107,108,108,109,109,111,111,112,112,113,113,114,114,115,115,116,116,117,117,119,119,120,120,121,121,123,123],"right_children":[2,4,6,8,10,12,14,16,18,20,22,24,26,28,30,32,34,36,38,40,42,44,46,48,50,52,54,56,58,60,62,64,66,68,70,72,74,76,78,80,82,84,86,88,90,92,94,96,98,100,102,104,106,108,110,112,114,116,118,120,122,124,-1,126,128,130,132,134,136,138,140,142,144,146,148,150,152,154,156,158,160,162,164,166,168,170,172,174,176,178,180,182,184,186,188,190,192,194,196,198,200,202,204,206,208,210,-1,212,214,216,-1,218,220,222,224,226,228,230,-1,232,234,236,-1,238,-1,-1,-1,-1,-1,-1,-1,-1,-1,-1,-1,-1,-1,-1,-1,-1,-1,-1,-1,-1,-1,-1,-1,-1,-1,-1,-1,-1,-1,-1,-1,-1,-1,-1,-1,-1,-1,-1,-1,-1,-1,-1,-1,-1,-1,-1,-1,-1,-1,-1,-1,-1,-1,-1,-1,-1,-1,-1,-1,-1,-1,-1,-1,-1,-1,-1,-1,-1,-1,-1,-1,-1,-1,-1,-1,-1,-1,-1,-1,-1,-1,-1,-1,-1,-1,-1,-1,-1,-1,-1,-1,-1,-1,-1,-1,-1,-1,-1,-1,-1,-1,-1,-1,-1,-1,-1,-1,-1,-1,-1,-1,-1,-1,-1,-1],"split_conditions":[6E0,3E0,7E0,5E0,5E0,2E0,2E0,4E0,3E0,5E0,4E0,2E0,3E0,8E0,8E0,2E0,4E0,2E0,2E0,4E0,4E0,2E0,5E0,1E0,1E0,2E0,4E0,2E0,9E0,3E0,9E0,4E0,3E0,5E0,2E0,3E0,2E0,4E0,4E0,2E0,2E0,6E0,6E0,2E0,3E0,1E0,1E0,3E0,2E0,3E0,3E0,1E0,3E0,1E0,5E0,1E0,1E0,1E0,1E1,1E0,4E0,1E0,5.9012966E0,3E0,1E0,4E0,4E0,2E0,1E0,5E0,1E0,1E0,2E0,3E0,1E0,1E0,5E0,1E0,1E0,4E0,4E0,4E0,4E0,3E0,2E0,1E0,1E0,1E0,1E0,1E0,1E0,1E0,2E0,6E0,2E0,3E0,1E0,1E0,3E0,2E0,4E0,1E0,1E0,2E0,1E0,1E0,2.338294E0,1E0,2E0,1E0,3.9474044E0,2E0,2E0,3E0,1E0,2E0,1E0,1E0,5.280208E0,1E0,2E0,1E0,4.3558707E0,3E0,4.395073E0,-2.6396885E0,-2.1451533E0,-8.8738686E-1,-1.6853197E0,-2.8468258E0,-1.8450052E0,-2.1179087E0,-1.0198506E0,-1.9537908E0,-1.0866331E0,-1.33962E0,-5.428538E-1,-1.3100026E0,-1.9956948E-1,-3.7306514E-1,4.3136412E-1,-2.3164866E0,-1.57026E0,-1.2082936E0,-2.5475374E-1,-1.0570475E0,2.5398085E-2,-6.7197275E-1,5.001669E-2,-1.442927E0,-6.067902E-1,-2.3549579E-1,1.0971924E0,1.4318688E-1,1.0344253E0,1.3267157E0,2.0388715E0,-2.6231344E0,-1.8367037E0,-1.4662598E0,-6.192796E-1,-1.4348165E0,-4.9888536E-1,-3.035811E-1,8.929082E-1,-5.864235E-1,8.450575E-1,3.49996E-1,1.6710317E0,2.0576236E-1,1.3022934E0,1.7348161E0,2.7126656E0,-5.819776E-1,6.553614E-2,1.5730521E-1,1.0385958E0,6.6801757E-1,1.3632512E0,1.7194302E0,2.4616506E0,3.2167342E-1,9.8922026E-1,1.407288E0,2.4193006E0,1.8982255E0,3.3210824E0,2.80096E0,3.9523814E0,-1.4543328E0,-7.7440745E-1,-9.00343E-1,-2.7649832E-1,-1.0250138E0,-5.5939883E-1,-3.0464518E-1,3.994575E-1,-9.916402E-1,-2.4372588E-1,-1.821156E-1,8.064617E-1,-1.8412268E-1,5.492189E-1,7.923868E-1,1.6620034E0,-9.526219E-2,5.7722E-1,3.0137235E-1,9.635146E-1,1.1544665E0,1.9015841E0,7.710134E-1,1.4648658E0,1.8572271E0,2.7979355E0,2.3417723E0,3.2820237E0,-2.7461204E-1,3.8937345E-1,6.893664E-1,1.5970408E0,6.559976E-1,1.6510679E0,1.7855155E0,2.4459486E0,1.2110285E0,2.6555762E0,2.0751386E0,2.9796152E0,2.8366973E0,3.9118705E0,1.2820898E0,1.9928917E0,2.3777294E0,3.3714466E0,2.872817E0,3.7453256E0,3.1668468E0,4.6526747E0],"split_indices":[0,1,0,0,0,1,1,2,2,1,1,2,1,0,0,1,0,1,1,0,0,2,1,1,1,2,1,2,0,1,0,3,2,2,1,3,2,2,2,2,2,1,1,3,2,2,2,3,3,2,2,2,2,2,1,1,1,1,0,2,1,2,0,2,17,0,0,3,3,2,3,1,2,3,3,1,2,3,3,1,1,1,1,2,2,2,2,2,2,3,3,3,2,1,2,4,2,2,3,3,2,3,3,3,3,3,0,3,2,2,0,3,3,2,3,2,2,2,0,3,2,2,0,1,0,0,0,0,0,0,0,0,0,0,0,0,0,0,0,0,0,0,0,0,0,0,0,0,0,0,0,0,0,0,0,0,0,0,0,0,0,0,0,0,0,0,0,0,0,0,0,0,0,0,0,0,0,0,0,0,0,0,0,0,0,0,0,0,0,0,0,0,0,0,0,0,0,0,0,0,0,0,0,0,0,0,0,0,0,0,0,0,0,0,0,0,0,0,0,0,0,0,0,0,0,0,0,0,0,0,0,0,0,0,0,0,0,0,0],"split_type":[0,0,0,0,0,0,0,0,0,0,0,0,0,0,0,0,0,0,0,0,0,0,0,0,0,0,0,0,0,0,0,0,0,0,0,0,0,0,0,0,0,0,0,0,0,0,0,0,0,0,0,0,0,0,0,0,0,0,0,0,0,0,0,0,0,0,0,0,0,0,0,0,0,0,0,0,0,0,0,0,0,0,0,0,0,0,0,0,0,0,0,0,0,0,0,0,0,0,0,0,0,0,0,0,0,0,0,0,0,0,0,0,0,0,0,0,0,0,0,0,0,0,0,0,0,0,0,0,0,0,0,0,0,0,0,0,0,0,0,0,0,0,0,0,0,0,0,0,0,0,0,0,0,0,0,0,0,0,0,0,0,0,0,0,0,0,0,0,0,0,0,0,0,0,0,0,0,0,0,0,0,0,0,0,0,0,0,0,0,0,0,0,0,0,0,0,0,0,0,0,0,0,0,0,0,0,0,0,0,0,0,0,0,0,0,0,0,0,0,0,0,0,0,0,0,0,0,0,0,0,0,0,0,0,0,0,0,0,0],"sum_hessian":[3.0109E4,1.8955E4,1.1154E4,7.379E3,1.1576E4,6.779E3,4.375E3,2.572E3,4.807E3,8.078E3,3.498E3,3.235E3,3.544E3,3.296E3,1.079E3,2.048E3,5.24E2,3.667E3,1.14E3,5.507E3,2.571E3,2.339E3,1.159E3,1.823E3,1.412E3,2.206E3,1.338E3,2.373E3,9.23E2,9.63E2,1.16E2,4.91E2,1.557E3,1.71E2,3.53E2,1.377E3,2.29E3,7.48E2,3.92E2,1.985E3,3.522E3,1.763E3,8.08E2,1.692E3,6.47E2,9.59E2,2E2,3.95E2,1.428E3,5.12E2,9E2,1.714E3,4.92E2,1.094E3,2.44E2,1.747E3,6.26E2,7.57E2,1.66E2,7.41E2,2.22E2,1.08E2,8E0,4.57E2,3.4E1,1.068E3,4.89E2,1.1E2,6.1E1,1.93E2,1.6E2,1.138E3,2.39E2,1.455E3,8.35E2,5.19E2,2.29E2,3.29E2,6.3E1,6.06E2,1.379E3,1.977E3,1.545E3,1.019E3,7.44E2,6.73E2,1.35E2,1.346E3,3.46E2,5.37E2,1.1E2,4.55E2,5.04E2,1.38E2,6.2E1,3.3E2,6.5E1,9.94E2,4.34E2,3.09E2,2.03E2,6.53E2,2.47E2,7.26E2,9.88E2,4.24E2,6.8E1,5.39E2,5.55E2,2.05E2,3.9E1,6.08E2,1.139E3,3.25E2,3.01E2,4.02E2,3.55E2,1.52E2,1.4E1,4.02E2,3.39E2,1.98E2,2.4E1,8E1,2.8E1,2.36E2,2.21E2,2.4E1,1E1,1.01E2,9.67E2,1.1E2,3.79E2,8.6E1,2.4E1,2.8E1,3.3E1,1.28E2,6.5E1,1.07E2,5.3E1,1.47E2,9.91E2,1.74E2,6.5E1,1.316E3,1.39E2,3.4E2,4.95E2,1.51E2,3.68E2,1.98E2,3.1E1,1.9E2,1.39E2,5.5E1,8E0,1.64E2,4.42E2,6.26E2,7.53E2,9.37E2,1.04E3,1.047E3,4.98E2,8.96E2,1.23E2,5.65E2,1.79E2,2.86E2,3.87E2,8.9E1,4.6E1,4.52E2,8.94E2,2E2,1.46E2,3.17E2,2.2E2,8.8E1,2.2E1,2.14E2,2.41E2,4.1E2,9.4E1,1.2E2,1.8E1,5.3E1,9E0,3.07E2,2.3E1,2.7E1,3.8E1,3.21E2,6.73E2,3.49E2,8.5E1,2.21E2,8.8E1,1.56E2,4.7E1,3.09E2,3.44E2,1.56E2,9.1E1,5.55E2,1.71E2,4.73E2,5.15E2,2.98E2,1.26E2,2.33E2,3.06E2,4.49E2,1.06E2,1.39E2,6.6E1,4.55E2,1.53E2,9.68E2,1.71E2,2.42E2,8.3E1,2.1E2,9.1E1,3.34E2,6.8E1,2.01E2,1.54E2,1.06E2,4.6E1,2.25E2,1.77E2,2.74E2,6.5E1,1.35E2,6.3E1,7.2E1,8E0],"tree_param":{"num_deleted":"0","num_feature":"18","num_nodes":"239","size_leaf_vector":"1"}},{"base_weights":[3.0768695E-3,-2.0167868E0,3.4211683E0,-4.55382E0,-3.9419538E-1,1.7204213E0,6.0966763E0,-6.827959E0,-3.3248627E0,-1.7349063E0,2.736312E0,-1.3583988E0,4.5447106E0,4.72406E0,1.015141E1,-7.6657124E0,-3.5166748E0,-5.040969E0,-1.9482747E0,-3.218446E0,1.448994E0,1.2555438E0,5.6234965E0,-2.825373E0,5.5375665E-1,2.6538117E0,7.594838E0,3.0530627E0,8.975832E0,9.437686E0,1.5777991E1,-9.569419E0,-6.948303E0,-6.012584E0,-2.3115442E0,-7.417864E0,-3.9001238E0,-3.8002717E0,1.8377036E-1,-5.456182E0,-1.9904974E0,-2.0334618E0,2.7251852E0,-2.1776756E-2,4.528463E0,4.7127886E0,9.772965E0,-5.133081E0,-2.1852238E0,-1.7369281E0,1.8394557E0,1.6326665E0,6.225525E0,6.6067686E0,1.1862187E1,2.0593548E0,5.798084E0,7.836847E0,1.388559E1,8.251465E0,1.3429397E1,1.4935618E1,4.867387E0,-1.0765456E1,-6.6264334E0,-9.200761E0,-6.166421E0,-6.429554E0,1.1806847E-1,-3.825722E0,-3.5547304E-1,-7.82668E0,-1.3842316E0,-4.33455E0,1.0754212E-1,-4.462659E0,-1.9671403E-1,-1.0097998E0,2.7592208E0,-6.130863E0,5.819973E-1,-2.7904098E0,3.4434605E0,-4.0273337E0,5.2821593E0,1.5907923E0,5.8001466E0,-1.5878117E0,9.1877854E-1,3.8765972E0,7.7156825E0,2.7278392E0,6.5001283E0,8.510175E0,1.2459034E1,-5.7020855E0,-2.312623E0,-2.8810067E0,-6.42586E-1,-3.175526E0,3.739885E-1,7.925219E-1,4.600191E0,2.501007E-1,2.6300857E0,5.642022E0,1.8672136E0,4.78284E0,8.367128E0,1.0853504E1,3.2684834E0,-4.274528E-1,3.3969E0,3.6787946E0,8.083378E0,6.024781E0,9.943044E0,1.1854246E1,1.7845417E1,6.4970503E0,1.0385208E1,1.2804968E1,3.557152E0,2.6654222E0,3.5739172E0,-2.1972775E0,-1.6419959E0,-1.5387448E0,-6.51424E-1,-1.9517757E0,-1.1632414E0,-1.9255648E0,-1.074352E0,-1.6674987E0,-1.010456E0,-8.763818E-1,8.131069E-1,-2.852936E-1,3.658818E-1,-1.6003566E0,-9.732087E-1,-6.9288516E-1,-3.9710544E-2,-1.1965859E0,-7.113083E-1,-2.8818855E-1,4.4882613E-1,-1.08527E0,-3.3735007E-1,-5.4707336E-1,2.9285163E-1,-3.3973023E-1,5.510929E-1,4.136489E-1,1.1806619E0,-2.0632882E0,-1.0689813E0,-6.0338074E-1,5.90465E-1,-9.0442497E-1,-1.4187658E-1,4.9452123E-1,1.9372605E0,-1.0763993E0,4.0678102E-1,6.054815E-1,2.8078444E0,9.237192E-2,1.04175E0,9.417752E-1,2.364105E0,-5.87838E-1,-2.0217447E-1,-1.6148946E-1,4.434464E-1,5.373018E-1,1.0991104E0,1.3837622E0,1.9934258E0,4.1941738E-1,1.2861129E0,1.019583E0,1.8354093E0,1.497212E0,2.6783772E0,2.269763E0,3.2512662E0,-1.2358693E0,-9.4399935E-1,-7.4122983E-1,-2.1726696E-1,-7.9976165E-1,-4.5329165E-1,-4.0579915E-1,1.1942648E-1,-7.892006E-1,-2.0276824E-1,-4.650806E-2,1.146471E0,4.2268444E-2,9.831535E-1,6.351071E-1,1.343141E0,-8.3999604E-2,4.8359102E-1,4.101494E-1,1.2895814E0,9.3266344E-1,1.5283878E0,8.188408E-1,1.6995308E0,1.4426638E0,2.2237391E0,1.8907733E0,2.6412287E0,-2.16333E-1,2.8981614E-1,3.6503905E-1,9.647541E-1,4.0318623E-1,1.1174798E0,1.472207E0,2.4298239E0,6.260834E-1,1.6244019E0,1.8603898E0,3.5567243E0,2.1991498E0,3.4474232E0,3.197958E0,4.3277707E0,1.1729772E0,2.1026418E0,1.820018E0,2.61058E0,2.285859E0,3.0129182E0],"categories":[],"categories_nodes":[],"categories_segments":[],"categories_sizes":[],"default_left":[0,0,0,0,0,0,0,0,0,0,0,0,0,0,0,0,0,0,0,0,0,0,0,0,0,0,0,0,0,0,0,0,0,0,0,0,0,0,0,0,0,0,0,0,0,0,0,0,0,0,0,0,0,0,0,0,0,0,0,0,0,0,0,0,0,0,0,0,0,0,0,0,0,0,0,0,0,0,0,0,0,0,0,0,0,0,0,0,0,0,0,0,0,0,0,0,0,0,0,0,0,0,0,0,0,0,0,0,0,0,0,0,0,0,0,0,0,0,0,0,0,0,0,0,0,0,0,0,0,0,0,0,0,0,0,0,0,0,0,0,0,0,0,0,0,0,0,0,0,0,0,0,0,0,0,0,0,0,0,0,0,0,0,0,0,0,0,0,0,0,0,0,0,0,0,0,0,0,0,0,0,0,0,0,0,0,0,0,0,0,0,0,0,0,0,0,0,0,0,0,0,0,0,0,0,0,0,0,0,0,0,0,0,0,0,0,0,0,0,0,0,0,0,0,0,0,0,0,0,0,0,0,0,0,0,0,0],"id":3,"left_children":[1,3,5,7,9,11,13,15,17,19,21,23,25,27,29,31,33,35,37,39,41,43,45,47,49,51,53,55,57,59,61,63,65,67,69,71,73,75,77,79,81,83,85,87,89,91,93,95,97,99,101,103,105,107,109,111,113,115,117,119,121,123,-1,125,127,129,131,133,-1,135,137,139,141,143,145,147,149,151,153,155,157,159,161,163,165,167,169,171,173,175,177,179,181,183,185,187,189,191,193,195,197,199,201,203,205,207,-1,209,211,213,-1,215,217,219,221,223,225,227,229,231,233,235,-1,-1,-1,-1,-1,-1,-1,-1,-1,-1,-1,-1,-1,-1,-1,-1,-1,-1,-1,-1,-1,-1,-1,-1,-1,-1,-1,-1,-1,-1,-1,-1,-1,-1,-1,-1,-1,-1,-1,-1,-1,-1,-1,-1,-1,-1,-1,-1,-1,-1,-1,-1,-1,-1,-1,-1,-1,-1,-1,-1,-1,-1,-1,-1,-1,-1,-1,-1,-1,-1,-1,-1,-1,-1,-1,-1,-1,-1,-1,-1,-1,-1,-1,-1,-1,-1,-1,-1,-1,-1,-1,-1,-1,-1,-1,-1,-1,-1,-1,-1,-1,-1,-1,-1,-1,-1,-1,-1,-1,-1,-1,-1,-1,-1,-1],"loss_changes":[2.0764016E5,7.781781E4,5.0821617E4,2.0586297E4,4.8401566E4,5.9404984E4,2.4112266E4,7.146703E3,1.1303574E4,3.8141742E4,1.4776758E4,9.171379E3,2.0529383E4,2.3027352E4,4.256453E3,2.7510312E3,1.5622397E3,5.7496367E3,1.049987E4,1.512416E4,1.1414008E4,9.561055E3,4.382875E3,2.721746E3,4.1852817E3,8.0174062E3,5.668625E3,6.3464434E3,5.007992E3,4.5106016E3,5.475547E2,1.9068555E3,2.5885234E3,4.7251416E2,1.0500931E3,1.6911523E3,2.511039E3,3.39575E3,3.8053008E3,7.9516406E3,1.5475132E4,1.0071311E4,6.545126E3,2.425922E3,1.3039336E3,3.3987793E3,6.062793E2,6.303594E2,1.5544932E3,1.5529722E3,2.6265337E3,2.361565E3,8.7327734E2,3.5207305E3,1.0342344E3,5.6992627E3,2.9682012E3,2.7834375E3,1.1639414E3,2.7588516E3,4.090664E2,2.6954883E2,0E0,2.778203E2,6.2113086E2,8.327637E2,2.8294844E3,3.799502E2,0E0,1.005302E3,3.7946298E2,5.0639453E2,1.12720665E2,1.617457E3,4.8692206E2,3.441289E3,9.6738513E2,2.30317E3,8.240332E2,5.3274453E3,1.7415879E3,1.1546729E4,2.702246E3,4.7449404E3,2.8883354E3,5.6938936E3,3.1459453E3,4.813723E2,2.3824727E3,1.0311143E3,1.0901904E2,1.0294509E3,1.8402402E3,5.7449414E2,5.7527344E1,1.426416E2,1.1678253E2,6.7384863E2,8.004739E2,5.3659106E2,6.918841E2,1.602073E3,7.408374E2,1.0724452E3,2.124371E3,7.649678E2,0E0,1.2840742E3,1.6369219E3,5.552969E2,0E0,7.6469055E2,2.5686533E3,1.0386001E3,6.820078E2,2.5183135E3,1.2310391E3,2.6039844E2,1.6857422E1,8.859414E2,9.937656E2,4.189629E2,0E0,0E0,0E0,0E0,0E0,0E0,0E0,0E0,0E0,0E0,0E0,0E0,0E0,0E0,0E0,0E0,0E0,0E0,0E0,0E0,0E0,0E0,0E0,0E0,0E0,0E0,0E0,0E0,0E0,0E0,0E0,0E0,0E0,0E0,0E0,0E0,0E0,0E0,0E0,0E0,0E0,0E0,0E0,0E0,0E0,0E0,0E0,0E0,0E0,0E0,0E0,0E0,0E0,0E0,0E0,0E0,0E0,0E0,0E0,0E0,0E0,0E0,0E0,0E0,0E0,0E0,0E0,0E0,0E0,0E0,0E0,0E0,0E0,0E0,0E0,0E0,0E0,0E0,0E0,0E0,0E0,0E0,0E0,0E0,0E0,0E0,0E0,0E0,0E0,0E0,0E0,0E0,0E0,0E0,0E0,0E0,0E0,0E0,0E0,0E0,0E0,0E0,0E0,0E0,0E0,0E0,0E0,0E0,0E0,0E0,0E0,0E0,0E0,0E0,0E0],"parents":[2147483647,0,0,1,1,2,2,3,3,4,4,5,5,6,6,7,7,8,8,9,9,10,10,11,11,12,12,13,13,14,14,15,15,16,16,17,17,18,18,19,19,20,20,21,21,22,22,23,23,24,24,25,25,26,26,27,27,28,28,29,29,30,30,31,31,32,32,33,33,34,34,35,35,36,36,37,37,38,38,39,39,40,40,41,41,42,42,43,43,44,44,45,45,46,46,47,47,48,48,49,49,50,50,51,51,52,52,53,53,54,54,55,55,56,56,57,57,58,58,59,59,60,60,61,61,63,63,64,64,65,65,66,66,67,67,69,69,70,70,71,71,72,72,73,73,74,74,75,75,76,76,77,77,78,78,79,79,80,80,81,81,82,82,83,83,84,84,85,85,86,86,87,87,88,88,89,89,90,90,91,91,92,92,93,93,94,94,95,95,96,96,97,97,98,98,99,99,100,100,101,101,102,102,103,103,104,104,105,105,107,107,108,108,109,109,111,111,112,112,113,113,114,114,115,115,116,116,117,117,118,118,119,119,120,120,121,121],"right_children":[2,4,6,8,10,12,14,16,18,20,22,24,26,28,30,32,34,36,38,40,42,44,46,48,50,52,54,56,58,60,62,64,66,68,70,72,74,76,78,80,82,84,86,88,90,92,94,96,98,100,102,104,106,108,110,112,114,116,118,120,122,124,-1,126,128,130,132,134,-1,136,138,140,142,144,146,148,150,152,154,156,158,160,162,164,166,168,170,172,174,176,178,180,182,184,186,188,190,192,194,196,198,200,202,204,206,208,-1,210,212,214,-1,216,218,220,222,224,226,228,230,232,234,236,-1,-1,-1,-1,-1,-1,-1,-1,-1,-1,-1,-1,-1,-1,-1,-1,-1,-1,-1,-1,-1,-1,-1,-1,-1,-1,-1,-1,-1,-1,-1,-1,-1,-1,-1,-1,-1,-1,-1,-1,-1,-1,-1,-1,-1,-1,-1,-1,-1,-1,-1,-1,-1,-1,-1,-1,-1,-1,-1,-1,-1,-1,-1,-1,-1,-1,-1,-1,-1,-1,-1,-1,-1,-1,-1,-1,-1,-1,-1,-1,-1,-1,-1,-1,-1,-1,-1,-1,-1,-1,-1,-1,-1,-1,-1,-1,-1,-1,-1,-1,-1,-1,-1,-1,-1,-1,-1,-1,-1,-1,-1,-1,-1,-1,-1],"split_conditions":[6E0,3E0,7E0,5E0,5E0,2E0,2E0,4E0,2E0,5E0,4E0,2E0,3E0,8E0,8E0,2E0,4E0,2E0,2E0,4E0,3E0,2E0,5E0,1E0,1E0,2E0,4E0,2E0,9E0,3E0,9E0,3E0,2E0,6E0,2E0,4E0,3E0,4E0,3E0,4E0,3E0,7E0,6E0,1E0,3E0,1E0,1E0,3E0,2E0,3E0,3E0,1E0,3E0,1E0,5E0,1E0,1E0,1E0,1E0,1E0,4E0,1E0,4.867387E0,3E0,4E0,3E0,4E0,1E0,1.1806847E-1,6E0,1E0,3E0,1E0,1E0,1E0,2E0,1E0,2E0,4E0,3E0,3E0,4E0,4E0,3E0,8E0,2E0,7E0,1E0,1E0,1E0,1E0,2E0,1E0,6E0,2E0,2E0,1E0,1E0,1E0,2E0,2E0,2E0,1E0,2E0,2E0,1E0,1.8672136E0,2E0,1E0,1E0,3.2684834E0,2E0,1E0,1E0,3E0,1E0,2E0,1E1,1E0,2E0,1E0,1E0,3.557152E0,2.6654222E0,3.5739172E0,-2.1972775E0,-1.6419959E0,-1.5387448E0,-6.51424E-1,-1.9517757E0,-1.1632414E0,-1.9255648E0,-1.074352E0,-1.6674987E0,-1.010456E0,-8.763818E-1,8.131069E-1,-2.852936E-1,3.658818E-1,-1.6003566E0,-9.732087E-1,-6.9288516E-1,-3.9710544E-2,-1.1965859E0,-7.113083E-1,-2.8818855E-1,4.4882613E-1,-1.08527E0,-3.3735007E-1,-5.4707336E-1,2.9285163E-1,-3.3973023E-1,5.510929E-1,4.136489E-1,1.1806619E0,-2.0632882E0,-1.0689813E0,-6.0338074E-1,5.90465E-1,-9.0442497E-1,-1.4187658E-1,4.9452123E-1,1.9372605E0,-1.0763993E0,4.0678102E-1,6.054815E-1,2.8078444E0,9.237192E-2,1.04175E0,9.417752E-1,2.364105E0,-5.87838E-1,-2.0217447E-1,-1.6148946E-1,4.434464E-1,5.373018E-1,1.0991104E0,1.3837622E0,1.9934258E0,4.1941738E-1,1.2861129E0,1.019583E0,1.8354093E0,1.497212E0,2.6783772E0,2.269763E0,3.2512662E0,-1.2358693E0,-9.4399935E-1,-7.4122983E-1,-2.1726696E-1,-7.9976165E-1,-4.5329165E-1,-4.0579915E-1,1.1942648E-1,-7.892006E-1,-2.0276824E-1,-4.650806E-2,1.146471E0,4.2268444E-2,9.831535E-1,6.351071E-1,1.343141E0,-8.3999604E-2,4.8359102E-1,4.101494E-1,1.2895814E0,9.3266344E-1,1.5283878E0,8.188408E-1,1.6995308E0,1.4426638E0,2.2237391E0,1.8907733E0,2.6412287E0,-2.16333E-1,2.8981614E-1,3.6503905E-1,9.647541E-1,4.0318623E-1,1.1174798E0,1.472207E0,2.4298239E0,6.260834E-1,1.6244019E0,1.8603898E0,3.5567243E0,2.1991498E0,3.4474232E0,3.197958E0,4.3277707E0,1.1729772E0,2.1026418E0,1.820018E0,2.61058E0,2.285859E0,3.0129182E0],"split_indices":[0,1,0,0,0,1,1,2,2,1,1,2,1,0,0,2,0,1,1,0,0,2,1,1,1,2,1,2,0,1,0,3,1,2,1,3,3,2,2,2,2,1,1,3,2,2,2,3,3,2,2,2,2,2,1,1,1,1,1,2,1,2,0,4,3,3,0,3,0,2,3,4,1,2,2,3,1,3,2,0,0,1,2,2,1,2,1,2,2,3,3,3,3,1,2,3,2,2,2,3,3,3,3,3,3,3,0,3,3,2,0,3,2,3,2,2,2,0,2,3,3,2,0,0,0,0,0,0,0,0,0,0,0,0,0,0,0,0,0,0,0,0,0,0,0,0,0,0,0,0,0,0,0,0,0,0,0,0,0,0,0,0,0,0,0,0,0,0,0,0,0,0,0,0,0,0,0,0,0,0,0,0,0,0,0,0,0,0,0,0,0,0,0,0,0,0,0,0,0,0,0,0,0,0,0,0,0,0,0,0,0,0,0,0,0,0,0,0,0,0,0,0,0,0,0,0,0,0,0,0,0,0,0,0,0,0,0],"split_type":[0,0,0,0,0,0,0,0,0,0,0,0,0,0,0,0,0,0,0,0,0,0,0,0,0,0,0,0,0,0,0,0,0,0,0,0,0,0,0,0,0,0,0,0,0,0,0,0,0,0,0,0,0,0,0,0,0,0,0,0,0,0,0,0,0,0,0,0,0,0,0,0,0,0,0,0,0,0,0,0,0,0,0,0,0,0,0,0,0,0,0,0,0,0,0,0,0,0,0,0,0,0,0,0,0,0,0,0,0,0,0,0,0,0,0,0,0,0,0,0,0,0,0,0,0,0,0,0,0,0,0,0,0,0,0,0,0,0,0,0,0,0,0,0,0,0,0,0,0,0,0,0,0,0,0,0,0,0,0,0,0,0,0,0,0,0,0,0,0,0,0,0,0,0,0,0,0,0,0,0,0,0,0,0,0,0,0,0,0,0,0,0,0,0,0,0,0,0,0,0,0,0,0,0,0,0,0,0,0,0,0,0,0,0,0,0,0,0,0,0,0,0,0,0,0,0,0,0,0,0,0,0,0,0,0,0,0],"sum_hessian":[3.0073E4,1.8903E4,1.117E4,7.373E3,1.153E4,6.83E3,4.34E3,2.585E3,4.788E3,8.073E3,3.457E3,3.268E3,3.562E3,3.244E3,1.096E3,2.062E3,5.23E2,2.13E3,2.658E3,5.507E3,2.566E3,2.286E3,1.171E3,1.849E3,1.419E3,2.2E3,1.362E3,2.33E3,9.14E2,9.75E2,1.21E2,5.61E2,1.501E3,1.69E2,3.54E2,6.89E2,1.441E3,1.422E3,1.236E3,1.95E3,3.557E3,6.88E2,1.878E3,1.645E3,6.41E2,9.62E2,2.09E2,4E2,1.449E3,5.1E2,9.09E2,1.712E3,4.88E2,1.108E3,2.54E2,1.712E3,6.18E2,7.44E2,1.7E2,7.54E2,2.21E2,1.13E2,8E0,3.97E2,1.64E2,3.84E2,1.117E3,1.59E2,1E1,1.99E2,1.55E2,6.45E2,4.4E1,1.3E3,1.41E2,1.201E3,2.21E2,8.45E2,3.91E2,1.754E3,1.96E2,3.101E3,4.56E2,5.41E2,1.47E2,1.373E3,5.05E2,6.17E2,1.028E3,5.34E2,1.07E2,4.57E2,5.05E2,1.45E2,6.4E1,3.32E2,6.8E1,9.98E2,4.51E2,3.03E2,2.07E2,6.6E2,2.49E2,7.18E2,9.94E2,4.16E2,7.2E1,5.46E2,5.62E2,2.12E2,4.2E1,5.99E2,1.113E3,3.22E2,2.96E2,4.02E2,3.42E2,1.15E2,5.5E1,4.16E2,3.38E2,1.98E2,2.3E1,8.2E1,3.1E1,3.4E2,5.7E1,1.2E2,4.4E1,3.15E2,6.9E1,1.83E2,9.34E2,6E1,9.9E1,1.85E2,1.4E1,1.04E2,5.1E1,5.84E2,6.1E1,1.5E1,2.9E1,3.81E2,9.19E2,8.2E1,5.9E1,8.7E2,3.31E2,8.7E1,1.34E2,7.12E2,1.33E2,3.26E2,6.5E1,2.44E2,1.51E3,7.8E1,1.18E2,1.659E3,1.442E3,3.99E2,5.7E1,4.38E2,1.03E2,1.19E2,2.8E1,1.054E3,3.19E2,4.35E2,7E1,1.76E2,4.41E2,4.46E2,5.82E2,3.2E2,2.14E2,8.6E1,2.1E1,3.96E2,6.1E1,3.45E2,1.6E2,1.25E2,2E1,5.5E1,9E0,2.01E2,1.31E2,3E1,3.8E1,3.28E2,6.7E2,2.11E2,2.4E2,2.18E2,8.5E1,1.87E2,2E1,5.81E2,7.9E1,1.55E2,9.4E1,5.5E2,1.68E2,8.73E2,1.21E2,2.93E2,1.23E2,4.71E2,7.5E1,4.16E2,1.46E2,1.45E2,6.7E1,4.43E2,1.56E2,5.49E2,5.64E2,1.78E2,1.44E2,2.61E2,3.5E1,1.77E2,2.25E2,3.24E2,1.8E1,1.05E2,1E1,4.3E1,1.2E1,3.7E2,4.6E1,2.44E2,9.4E1,1.37E2,6.1E1],"tree_param":{"num_deleted":"0","num_feature":"18","num_nodes":"237","size_leaf_vector":"1"}},{"base_weights":[1.5530776E-2,-1.6052437E0,2.7606797E0,-2.7995079E0,6.942684E-1,1.3619361E0,4.913385E0,-4.545327E0,-1.4816858E0,-1.3618951E0,2.40356E0,1.788128E-1,6.1127143E0,3.8001604E0,8.228441E0,-3.8609502E0,-7.257644E0,-2.675691E0,9.843637E-1,-2.5750468E0,2.2514603E0,1.2846403E0,4.6101522E0,-1.1088902E0,2.097858E0,5.3141446E0,9.5848875E0,2.4493515E0,7.23859E0,7.6405015E0,1.2855507E1,-2.6970289E0,-6.9258265E0,-6.4749975E0,-8.723479E0,-3.3811188E0,-3.927087E-1,-4.8047002E-2,3.6330721E0,-4.6132164E0,-7.65601E-1,-1.6993304E0,4.2789135E0,-1.4578913E0,2.6022537E0,3.8589406E0,7.8945274E0,-2.3002348E0,4.240998E-1,1.307348E0,4.964459E0,4.8355527E0,1.9601144E0,8.834269E0,2.5839431E0,5.1796794E-1,3.4419146E0,6.344534E0,1.1216362E1,6.672787E0,1.0848107E1,1.2155757E1,4.014618E0,-1.6658658E0,-4.4059515E0,-6.0565667E0,-8.505225E0,-5.726366E0,-8.276647E0,-1.001293E1,-8.158049E0,-5.1672025E0,-2.2841392E0,-1.7983812E0,2.2443738E0,-5.790038E-1,2.063244E0,3.1227472E0,6.277345E0,-8.665147E0,-3.82742E0,-4.067404E0,8.6934966E-1,-2.614566E0,1.8948829E0,3.843486E0,3.176616E0,-4.8588195E0,1.8761549E0,1.5084399E0,5.6177006E0,3.3010418E0,8.668491E0,6.9239373E0,2.0549178E0,-4.235126E0,-1.7731403E0,-1.4645149E0,1.50493E0,1.783625E-1,2.1287673E0,4.468623E0,1.5243695E0,3.7545607E0,6.154282E0,7.7582207E0,2.1524787E0,-1.697184E0,1.4975818E0,1.6246927E0,4.8967524E0,4.6940155E0,7.95694E0,1.0414028E1,3.6974883E0,6.16674E0,2.3410652E0,1.006398E1,2.5420086E0,1.1053155E1,2.891509E0,-1.3086474E-1,-8.093546E-1,-6.753767E-1,-1.0804454E0,-1.5230702E0,-1.048516E0,-1.9926724E0,-1.552897E0,-8.1804335E-1,-1.3316746E0,-1.989342E0,-1.4730309E0,-2.126341E0,-1.709006E0,-1.7696525E0,-1.3863984E0,-1.22784E0,-7.682352E-1,-6.199258E-1,-1.569923E-1,-7.871248E-1,-1.5161863E-1,2.1668524E-1,8.1048656E-1,-4.0525255E-1,3.2392476E-2,2.7440584E-1,1.1052164E0,4.2888585E-1,8.838629E-1,1.1213442E0,1.6183796E0,-1.8071878E0,-1.0077392E0,-1.1494088E0,-4.2596978E-1,-9.541103E-1,3.1800112E-1,-6.5536514E-2,6.738095E-1,-1.1076996E0,-1.6124225E-1,3.6213198E-1,1.2407959E0,-1.2296869E0,-3.2727194E-1,2.6935402E-1,2.4026308E0,-1.1930325E-2,7.1319777E-1,9.135337E-1,1.8404524E0,4.2215738E-1,9.3543947E-1,1.5503881E0,2.229782E0,1.2200062E0,2.2782145E0,-9.166413E-1,-4.111663E-1,-3.9751428E-1,3.6473498E-1,-3.79582E-1,5.875185E-1,1.2807356E-1,7.339369E-1,-1.2010069E-3,1.1886982E0,1.6155474E-1,6.524385E-1,8.302929E-1,2.043441E0,4.687235E-1,9.3295735E-1,9.784551E-1,1.732827E0,1.2889317E0,2.0348876E0,-4.2695436E-1,7.3600763E-1,1.3724633E-1,8.766291E-1,2.0154566E-1,1.1825134E0,7.2061396E-1,1.2722969E0,4.9978974E-1,1.2894584E0,1.2994316E0,1.9640324E0,1.7620529E0,2.594254E0,1.0027637E0,1.5544189E0,1.7368689E0,2.4216397E0,2.008765E0,3.3705406E0],"categories":[],"categories_nodes":[],"categories_segments":[],"categories_sizes":[],"default_left":[0,0,0,0,0,0,0,0,0,0,0,0,0,0,0,0,0,0,0,0,0,0,0,0,0,0,0,0,0,0,0,0,0,0,0,0,0,0,0,0,0,0,0,0,0,0,0,0,0,0,0,0,0,0,0,0,0,0,0,0,0,0,0,0,0,0,0,0,0,0,0,0,0,0,0,0,0,0,0,0,0,0,0,0,0,0,0,0,0,0,0,0,0,0,0,0,0,0,0,0,0,0,0,0,0,0,0,0,0,0,0,0,0,0,0,0,0,0,0,0,0,0,0,0,0,0,0,0,0,0,0,0,0,0,0,0,0,0,0,0,0,0,0,0,0,0,0,0,0,0,0,0,0,0,0,0,0,0,0,0,0,0,0,0,0,0,0,0,0,0,0,0,0,0,0,0,0,0,0,0,0,0,0,0,0,0,0,0,0,0,0,0,0,0,0,0,0,0,0,0,0,0,0,0,0,0,0,0,0,0,0,0,0,0,0,0,0,0,0],"id":4,"left_children":[1,3,5,7,9,11,13,15,17,19,21,23,25,27,29,31,33,35,37,39,41,43,45,47,49,51,53,55,57,59,61,63,65,67,69,71,73,75,77,79,81,83,85,87,89,91,93,95,97,99,101,103,-1,105,-1,107,109,111,113,115,117,119,-1,121,123,125,127,129,131,133,135,137,139,141,143,145,147,149,151,153,155,157,159,161,-1,163,-1,165,167,169,171,173,175,177,-1,179,181,183,185,187,189,191,-1,193,195,197,-1,199,201,203,205,207,209,211,-1,213,-1,215,-1,217,-1,-1,-1,-1,-1,-1,-1,-1,-1,-1,-1,-1,-1,-1,-1,-1,-1,-1,-1,-1,-1,-1,-1,-1,-1,-1,-1,-1,-1,-1,-1,-1,-1,-1,-1,-1,-1,-1,-1,-1,-1,-1,-1,-1,-1,-1,-1,-1,-1,-1,-1,-1,-1,-1,-1,-1,-1,-1,-1,-1,-1,-1,-1,-1,-1,-1,-1,-1,-1,-1,-1,-1,-1,-1,-1,-1,-1,-1,-1,-1,-1,-1,-1,-1,-1,-1,-1,-1,-1,-1,-1,-1,-1,-1,-1,-1,-1,-1,-1],"loss_changes":[1.3375386E5,5.191109E4,3.3596984E4,2.8616023E4,2.2714506E4,3.8028945E4,1.6188055E4,9.90475E3,2.088191E4,1.2867127E4,8.707178E3,1.3391071E4,3.6895352E3,1.5272488E4,2.9051484E3,1.5231426E4,1.179082E3,7.693539E3,6.327935E3,8.098913E3,5.9186816E3,8.470449E3,2.8981738E3,5.92373E3,4.924491E3,2.3874766E3,5.48291E2,4.5319697E3,3.229129E3,2.9757852E3,3.9903125E2,5.455412E3,1.5630273E3,9.048379E2,1.8953906E2,7.139633E3,4.1890977E3,1.868788E3,8.561826E2,3.2558984E3,6.2925376E3,2.6240312E3,2.453455E3,8.637982E3,5.212795E3,2.5687637E3,4.682998E2,1.8537539E3,2.8987686E3,1.5826414E3,6.108535E2,1.3995801E3,0E0,3.867461E2,0E0,1.7472166E3,4.1215996E3,1.9852441E3,8.274336E2,1.9205703E3,2.3329688E2,1.5667969E2,0E0,4.72857E3,1.2096855E3,8.97041E2,3.3758008E2,7.867969E2,2.236289E2,1.986621E1,1.8029883E2,1.8476055E3,2.8963496E3,1.6618813E3,8.35911E2,1.4628403E3,7.888981E2,6.940923E2,7.155908E1,2.5194336E2,2.8826748E3,1.7035464E3,2.3909253E3,1.253415E3,0E0,2.3100552E3,0E0,1.653707E3,2.0067461E3,3.8503696E3,1.4959375E3,1.4454131E3,1.2323193E2,4.79688E2,0E0,3.38542E2,1.2716748E3,1.065946E3,1.7108743E3,7.7730475E2,1.5253291E3,5.620947E2,0E0,7.311328E2,1.3624043E3,3.7654785E2,0E0,6.372615E2,1.3158679E3,1.8273196E3,1.6526289E3,1.4911797E3,9.833008E2,5.1024805E2,0E0,1.2441094E3,0E0,3.59125E2,0E0,2.6339062E2,0E0,0E0,0E0,0E0,0E0,0E0,0E0,0E0,0E0,0E0,0E0,0E0,0E0,0E0,0E0,0E0,0E0,0E0,0E0,0E0,0E0,0E0,0E0,0E0,0E0,0E0,0E0,0E0,0E0,0E0,0E0,0E0,0E0,0E0,0E0,0E0,0E0,0E0,0E0,0E0,0E0,0E0,0E0,0E0,0E0,0E0,0E0,0E0,0E0,0E0,0E0,0E0,0E0,0E0,0E0,0E0,0E0,0E0,0E0,0E0,0E0,0E0,0E0,0E0,0E0,0E0,0E0,0E0,0E0,0E0,0E0,0E0,0E0,0E0,0E0,0E0,0E0,0E0,0E0,0E0,0E0,0E0,0E0,0E0,0E0,0E0,0E0,0E0,0E0,0E0,0E0,0E0,0E0,0E0,0E0,0E0,0E0,0E0,0E0],"parents":[2147483647,0,0,1,1,2,2,3,3,4,4,5,5,6,6,7,7,8,8,9,9,10,10,11,11,12,12,13,13,14,14,15,15,16,16,17,17,18,18,19,19,20,20,21,21,22,22,23,23,24,24,25,25,26,26,27,27,28,28,29,29,30,30,31,31,32,32,33,33,34,34,35,35,36,36,37,37,38,38,39,39,40,40,41,41,42,42,43,43,44,44,45,45,46,46,47,47,48,48,49,49,50,50,51,51,53,53,55,55,56,56,57,57,58,58,59,59,60,60,61,61,63,63,64,64,65,65,66,66,67,67,68,68,69,69,70,70,71,71,72,72,73,73,74,74,75,75,76,76,77,77,78,78,79,79,80,80,81,81,82,82,83,83,85,85,87,87,88,88,89,89,90,90,91,91,92,92,93,93,95,95,96,96,97,97,98,98,99,99,100,100,101,101,103,103,104,104,105,105,107,107,108,108,109,109,110,110,111,111,112,112,113,113,115,115,117,117,119,119],"right_children":[2,4,6,8,10,12,14,16,18,20,22,24,26,28,30,32,34,36,38,40,42,44,46,48,50,52,54,56,58,60,62,64,66,68,70,72,74,76,78,80,82,84,86,88,90,92,94,96,98,100,102,104,-1,106,-1,108,110,112,114,116,118,120,-1,122,124,126,128,130,132,134,136,138,140,142,144,146,148,150,152,154,156,158,160,162,-1,164,-1,166,168,170,172,174,176,178,-1,180,182,184,186,188,190,192,-1,194,196,198,-1,200,202,204,206,208,210,212,-1,214,-1,216,-1,218,-1,-1,-1,-1,-1,-1,-1,-1,-1,-1,-1,-1,-1,-1,-1,-1,-1,-1,-1,-1,-1,-1,-1,-1,-1,-1,-1,-1,-1,-1,-1,-1,-1,-1,-1,-1,-1,-1,-1,-1,-1,-1,-1,-1,-1,-1,-1,-1,-1,-1,-1,-1,-1,-1,-1,-1,-1,-1,-1,-1,-1,-1,-1,-1,-1,-1,-1,-1,-1,-1,-1,-1,-1,-1,-1,-1,-1,-1,-1,-1,-1,-1,-1,-1,-1,-1,-1,-1,-1,-1,-1,-1,-1,-1,-1,-1,-1,-1,-1],"split_conditions":[6E0,4E0,7E0,5E0,4E0,3E0,2E0,1E0,3E0,6E0,5E0,2E0,4E0,8E0,8E0,1E0,1E0,3E0,2E0,2E0,1E0,1E0,5E0,2E0,2E0,2E0,5E0,1E0,9E0,3E0,9E0,1E0,1E0,1E0,4E0,2E0,2E0,2E0,3E0,3E0,3E0,8E0,8E0,5E0,5E0,2E0,1E0,1E0,1E0,1E0,3E0,1E0,1.9601144E0,1E0,2.5839431E0,1E0,1E0,1E0,1E1,2E0,1E0,1E0,4.014618E0,1E0,1E0,4E0,4E0,1E0,4E0,3E0,2E0,2E0,2E0,1E0,1E0,1E0,3E0,1E0,1E0,3E0,5E0,4E0,3E0,3E0,1.8948829E0,3E0,3.176616E0,2E0,7E0,2E0,2E0,1E0,1E0,6E0,2.0549178E0,3E0,3E0,4E0,3E0,3E0,1E0,2E0,1.5243695E0,1E0,1E0,1E0,2.1524787E0,3E0,2E0,3E0,1E0,1E0,1E0,1E0,3.6974883E0,1E0,2.3410652E0,1E0,2.5420086E0,3E0,2.891509E0,-1.3086474E-1,-8.093546E-1,-6.753767E-1,-1.0804454E0,-1.5230702E0,-1.048516E0,-1.9926724E0,-1.552897E0,-8.1804335E-1,-1.3316746E0,-1.989342E0,-1.4730309E0,-2.126341E0,-1.709006E0,-1.7696525E0,-1.3863984E0,-1.22784E0,-7.682352E-1,-6.199258E-1,-1.569923E-1,-7.871248E-1,-1.5161863E-1,2.1668524E-1,8.1048656E-1,-4.0525255E-1,3.2392476E-2,2.7440584E-1,1.1052164E0,4.2888585E-1,8.838629E-1,1.1213442E0,1.6183796E0,-1.8071878E0,-1.0077392E0,-1.1494088E0,-4.2596978E-1,-9.541103E-1,3.1800112E-1,-6.5536514E-2,6.738095E-1,-1.1076996E0,-1.6124225E-1,3.6213198E-1,1.2407959E0,-1.2296869E0,-3.2727194E-1,2.6935402E-1,2.4026308E0,-1.1930325E-2,7.1319777E-1,9.135337E-1,1.8404524E0,4.2215738E-1,9.3543947E-1,1.5503881E0,2.229782E0,1.2200062E0,2.2782145E0,-9.166413E-1,-4.111663E-1,-3.9751428E-1,3.6473498E-1,-3.79582E-1,5.875185E-1,1.2807356E-1,7.339369E-1,-1.2010069E-3,1.1886982E0,1.6155474E-1,6.524385E-1,8.302929E-1,2.043441E0,4.687235E-1,9.3295735E-1,9.784551E-1,1.732827E0,1.2889317E0,2.0348876E0,-4.2695436E-1,7.3600763E-1,1.3724633E-1,8.766291E-1,2.0154566E-1,1.1825134E0,7.2061396E-1,1.2722969E0,4.9978974E-1,1.2894584E0,1.2994316E0,1.9640324E0,1.7620529E0,2.594254E0,1.0027637E0,1.5544189E0,1.7368689E0,2.4216397E0,2.008765E0,3.3705406E0],"split_indices":[0,1,0,0,0,1,1,17,1,1,0,1,1,0,0,16,5,2,2,2,2,2,1,2,2,2,1,2,0,1,0,5,5,6,0,1,1,3,2,0,0,1,1,1,1,2,3,1,1,2,2,3,0,2,0,1,1,2,0,2,3,2,0,6,4,0,0,4,0,2,2,3,2,1,3,2,3,3,3,3,1,2,2,0,0,0,0,3,1,2,2,3,3,1,0,3,3,2,2,3,3,3,0,2,2,3,0,3,3,2,3,1,1,1,0,3,0,2,0,1,0,0,0,0,0,0,0,0,0,0,0,0,0,0,0,0,0,0,0,0,0,0,0,0,0,0,0,0,0,0,0,0,0,0,0,0,0,0,0,0,0,0,0,0,0,0,0,0,0,0,0,0,0,0,0,0,0,0,0,0,0,0,0,0,0,0,0,0,0,0,0,0,0,0,0,0,0,0,0,0,0,0,0,0,0,0,0,0,0,0,0,0,0,0,0,0,0,0,0],"split_type":[0,0,0,0,0,0,0,0,0,0,0,0,0,0,0,0,0,0,0,0,0,0,0,0,0,0,0,0,0,0,0,0,0,0,0,0,0,0,0,0,0,0,0,0,0,0,0,0,0,0,0,0,0,0,0,0,0,0,0,0,0,0,0,0,0,0,0,0,0,0,0,0,0,0,0,0,0,0,0,0,0,0,0,0,0,0,0,0,0,0,0,0,0,0,0,0,0,0,0,0,0,0,0,0,0,0,0,0,0,0,0,0,0,0,0,0,0,0,0,0,0,0,0,0,0,0,0,0,0,0,0,0,0,0,0,0,0,0,0,0,0,0,0,0,0,0,0,0,0,0,0,0,0,0,0,0,0,0,0,0,0,0,0,0,0,0,0,0,0,0,0,0,0,0,0,0,0,0,0,0,0,0,0,0,0,0,0,0,0,0,0,0,0,0,0,0,0,0,0,0,0,0,0,0,0,0,0,0,0,0,0,0,0,0,0,0,0,0,0],"sum_hessian":[3.006E4,1.8901E4,1.1159E4,1.244E4,6.461E3,6.765E3,4.394E3,5.35E3,7.09E3,2.933E3,3.528E3,5.417E3,1.348E3,3.291E3,1.103E3,4.274E3,1.076E3,4.777E3,2.313E3,2.196E3,7.37E2,2.342E3,1.186E3,3.242E3,2.175E3,1.098E3,2.5E2,2.364E3,9.27E2,9.81E2,1.22E2,3.099E3,1.175E3,7.05E2,3.71E2,3.649E3,1.128E3,1.665E3,6.48E2,1.032E3,1.164E3,2.5E2,4.87E2,7.6E2,1.582E3,9.67E2,2.19E2,1.824E3,1.418E3,1.706E3,4.69E2,9.97E2,1.01E2,2.09E2,4.1E1,8.03E2,1.561E3,7.59E2,1.68E2,7.56E2,2.25E2,1.14E2,8E0,1.934E3,1.165E3,7.61E2,4.14E2,5.01E2,2.04E2,1.08E2,2.63E2,1.387E3,2.262E3,7.36E2,3.92E2,1.331E3,3.34E2,5.45E2,1.03E2,1.66E2,8.66E2,3.85E2,7.79E2,2.32E2,1.8E1,4.71E2,1.6E1,3.76E2,3.84E2,1.162E3,4.2E2,8.68E2,9.9E1,1.61E2,5.8E1,3.89E2,1.435E3,5.16E2,9.02E2,7.19E2,9.87E2,4E2,6.9E1,5.5E2,4.47E2,1.41E2,6.8E1,2.46E2,5.57E2,6.95E2,8.66E2,3.77E2,3.82E2,1.54E2,1.4E1,6.91E2,6.5E1,1.67E2,5.8E1,8.3E1,3.1E1,1.372E3,5.62E2,6.12E2,5.53E2,2.3E2,5.31E2,1.12E2,3.02E2,2E2,3.01E2,5.9E1,1.45E2,6.4E1,4.4E1,1.48E2,1.15E2,7.53E2,6.34E2,1.432E3,8.3E2,2.34E2,5.02E2,2.44E2,1.48E2,4.45E2,8.86E2,2.82E2,5.2E1,3.23E2,2.22E2,8.2E1,2.1E1,1.44E2,2.2E1,3.92E2,4.74E2,3.39E2,4.6E1,5.3E2,2.49E2,8.6E1,1.46E2,2.6E2,2.11E2,2.62E2,1.14E2,3.67E2,1.7E1,6.67E2,4.95E2,3.34E2,8.6E1,4.83E2,3.85E2,7.9E1,2E1,1.41E2,2E1,3.25E2,6.4E1,1.345E3,9E1,4.68E2,4.8E1,6.52E2,2.5E2,6.98E2,2.1E1,4.69E2,5.18E2,3.85E2,1.5E1,2.3E2,3.2E2,3.1E2,1.37E2,9.8E1,4.3E1,2.27E2,1.9E1,4.39E2,1.18E2,6.12E2,8.3E1,4.84E2,3.82E2,1.75E2,2.02E2,2.3E2,1.52E2,1.03E2,5.1E1,4.27E2,2.64E2,1.1E2,5.7E1,7.5E1,8E0],"tree_param":{"num_deleted":"0","num_feature":"18","num_nodes":"219","size_leaf_vector":"1"}},{"base_weights":[7.2733397E-3,-1.3054744E0,2.2278228E0,-3.003929E0,-2.2436582E-1,1.1001257E0,3.9620962E0,-4.597912E0,-2.1434574E0,3.2466123E-1,-3.6447153E0,-8.9465374E-1,2.911102E0,3.0767484E0,6.611319E0,-5.8885546E0,-3.178349E0,-3.3093374E0,-1.18554E0,1.0726105E0,-3.2516737E0,-4.424273E0,-2.5096533E-1,-1.8302255E0,3.3082193E-1,1.6932826E0,4.9080806E0,1.9874642E0,5.8541594E0,6.151465E0,1.0247269E1,-6.929256E0,-4.892044E0,-3.6071014E0,7.127428E-2,-4.9561615E0,-2.5041366E0,-4.3199134E0,-6.905524E-1,1.9099541E0,-7.791228E-1,-4.0388465E0,-3.5338253E-2,-3.7246928E0,-5.9951224E0,-8.57511E-1,1.3920528E0,-3.2942355E0,-1.4248347E0,-1.1705012E0,1.1770493E0,1.0533508E0,3.9579206E0,4.261496E0,7.6743603E0,1.253243E0,4.03423E0,5.1581154E0,8.927354E0,5.367162E0,8.740902E0,9.375219E0,2.5307782E0,-7.003152E0,-1.6532923E-1,-6.971418E0,-4.205482E0,-5.1085854E0,-2.7457528E0,8.2337236E-1,-2.696805E0,-5.259308E0,-1.6680868E-1,-3.405199E0,-1.0429177E0,-4.7929573E0,8.5690355E-1,-1.1701121E0,1.6888714E0,2.7243204E0,-3.668578E-1,-1.6032419E0,8.46118E-1,-3.3413763E0,-5.7837815E0,-7.7630305E-1,1.6007099E0,-2.6495392E0,-5.0089245E0,-5.333552E0,-7.3179483E0,-1.3299756E0,2.9613364E-1,7.85719E-1,5.2122504E-1,-3.47458E0,2.3550268E-1,-1.9184184E0,-2.9028794E-1,-1.5544974E0,2.5018475E0,-1.31821325E-2,2.4501579E0,6.68201E-1,2.9727452E0,3.4311817E0,5.3849583E0,3.8340654E0,8.073197E0,6.996487E0,2.133061E0,-3.4618196E-1,2.1109858E0,2.5874557E0,5.602996E0,4.5737367E0,9.146338E0,7.5246E0,1.1723576E1,3.9468877E0,7.0942035E0,8.245514E0,2.4428656E0,8.778215E0,2.7800202E0,-1.7516426E0,-1.3188477E0,-1.2230823E0,-1.5773566E0,-1.457191E0,-7.2187054E-1,-1.220358E0,-6.0653955E-1,-1.0009562E0,-3.7111485E-1,3.7492004E-1,-4.4558212E-1,-4.274273E-1,-6.8198407E-1,-1.4890897E0,-9.63861E-1,-4.0034273E-1,1.3970135E-1,-7.122732E-1,5.224625E-2,-5.0544137E-1,6.227193E-2,-1.275973E0,-7.54967E-1,-4.7468928E-1,-4.4920124E-2,1.7452641E-1,9.9642926E-1,6.727305E-1,4.378656E-2,-2.476692E-1,2.5021437E-1,-2.1998742E-1,-7.8760165E-1,2.4024077E-2,5.0646824E-1,-5.292049E-1,-1.1164396E0,-9.8013455E-1,-1.4348536E0,-4.0637589E-1,2.0010129E-2,1.6858642E-1,6.499722E-1,-3.5526153E-1,-9.041953E-1,-8.774507E-1,-1.5156447E0,-1.1587418E0,-7.410328E-1,-1.5683371E0,-1.2535335E0,-4.233027E-1,-9.4552524E-2,2.445459E-1,-6.525639E-2,-9.20027E-1,-5.892929E-1,-4.1379324E-1,3.2046393E-1,-3.0586022E-1,1.5569778E-1,-6.1489916E-1,-1.0846906E-1,1.5890113E-1,9.530709E-1,-8.172453E-2,1.2267785E0,3.6235693E-1,9.3573016E-1,-6.00855E-2,2.5479737E-1,3.522187E-1,9.036475E-1,5.7679945E-1,1.1143472E0,9.6722996E-1,1.6658502E0,6.936375E-1,1.3630643E0,1.5261601E0,2.0828276E0,1.2441018E0,1.7778647E0,-1.801096E-1,2.5296026E-1,3.1110796E-1,9.7927207E-1,4.356347E-1,2.1412225E0,1.002563E0,1.7771131E0,5.8396417E-1,1.2060075E0,1.5610778E0,2.5446842E0,1.2046611E0,2.0450559E0,2.0671227E0,3.0972068E0,7.035646E-1,1.375433E0,1.2247965E0,1.7893382E0,1.46044E0,1.9655225E0,1.4950584E0,2.2243476E0],"categories":[],"categories_nodes":[],"categories_segments":[],"categories_sizes":[],"default_left":[0,0,0,0,0,0,0,0,0,0,0,0,0,0,0,0,0,0,0,0,0,0,0,0,0,0,0,0,0,0,0,0,0,0,0,0,0,0,0,0,0,0,0,0,0,0,0,0,0,0,0,0,0,0,0,0,0,0,0,0,0,0,0,0,0,0,0,0,0,0,0,0,0,0,0,0,0,0,0,0,0,0,0,0,0,0,0,0,0,0,0,0,0,0,0,0,0,0,0,0,0,0,0,0,0,0,0,0,0,0,0,0,0,0,0,0,0,0,0,0,0,0,0,0,0,0,0,0,0,0,0,0,0,0,0,0,0,0,0,0,0,0,0,0,0,0,0,0,0,0,0,0,0,0,0,0,0,0,0,0,0,0,0,0,0,0,0,0,0,0,0,0,0,0,0,0,0,0,0,0,0,0,0,0,0,0,0,0,0,0,0,0,0,0,0,0,0,0,0,0,0,0,0,0,0,0,0,0,0,0,0,0,0,0,0,0,0,0,0,0,0,0,0,0,0,0,0,0,0,0,0,0,0],"id":5,"left_children":[1,3,5,7,9,11,13,15,17,19,21,23,25,27,29,31,33,35,37,39,41,43,45,47,49,51,53,55,57,59,61,63,65,67,69,71,73,75,77,79,81,83,85,87,89,91,93,95,97,99,101,103,105,107,109,111,113,115,117,119,121,123,-1,125,-1,127,129,131,133,135,137,139,141,143,145,147,-1,149,151,153,155,157,159,161,163,165,167,169,171,173,175,177,-1,179,-1,181,-1,183,185,187,189,191,193,195,197,199,201,203,205,207,-1,209,211,213,215,217,219,221,223,225,227,229,-1,231,-1,-1,-1,-1,-1,-1,-1,-1,-1,-1,-1,-1,-1,-1,-1,-1,-1,-1,-1,-1,-1,-1,-1,-1,-1,-1,-1,-1,-1,-1,-1,-1,-1,-1,-1,-1,-1,-1,-1,-1,-1,-1,-1,-1,-1,-1,-1,-1,-1,-1,-1,-1,-1,-1,-1,-1,-1,-1,-1,-1,-1,-1,-1,-1,-1,-1,-1,-1,-1,-1,-1,-1,-1,-1,-1,-1,-1,-1,-1,-1,-1,-1,-1,-1,-1,-1,-1,-1,-1,-1,-1,-1,-1,-1,-1,-1,-1,-1,-1,-1,-1,-1,-1,-1,-1,-1,-1,-1,-1],"loss_changes":[8.7520586E4,3.4646844E4,2.1811871E4,1.0056141E4,2.1654838E4,2.4426703E4,1.0288055E4,4.693574E3,5.3210586E3,2.6584139E4,4.21866E3,3.6901084E3,8.610555E3,9.960049E3,1.7761719E3,1.3619922E3,1.7098154E3,2.838541E3,4.060332E3,1.2745351E4,4.352043E3,1.4029883E3,2.991668E2,1.078437E3,1.7723999E3,3.1884487E3,2.3676426E3,3.5550283E3,1.9390176E3,1.9413438E3,1.5546582E2,2.893672E2,9.5716797E2,1.3879111E3,3.0200934E2,1.0226953E3,1.9003223E3,1.4845688E3,2.5842307E3,1.0495539E4,3.4302002E3,1.6614082E3,4.1219675E2,1.2294004E3,3.0927637E2,2.461827E2,5.943181E1,3.2393555E2,8.0079443E2,7.1320355E2,1.3516743E3,1.2687919E3,3.4608594E2,1.744916E3,4.6414258E2,2.3946885E3,1.4040342E3,1.7271172E3,5.7859375E2,1.8214668E3,3.0679883E2,1.4441406E2,0E0,3.213047E2,0E0,8.46543E1,8.765088E2,8.47667E2,1.3812847E3,3.8358862E2,4.9953003E0,5.248496E2,7.1633194E1,6.8527637E2,1.1441125E3,5.23666E2,0E0,2.1974893E3,1.023312E3,7.184615E3,2.1737283E3,1.975794E3,1.0756293E3,1.4928594E3,4.4062598E2,2.6425836E2,1.3125616E2,7.994153E2,5.766299E2,2.0879883E2,2.8993164E1,1.2619736E2,0E0,2.8866688E1,0E0,2.0585205E2,0E0,6.42948E2,5.940084E2,7.150051E2,1.8603723E2,1.1594175E3,5.969641E2,8.712199E2,5.4037036E2,3.8395117E2,1.4749927E2,9.2844336E2,7.930176E0,2.3532129E2,0E0,5.654084E2,1.7208628E3,9.969153E2,4.8120312E2,1.6345332E3,3.408291E2,4.037998E2,1.06438965E2,4.509165E2,5.355742E2,2.1766016E2,0E0,1.7460645E2,0E0,0E0,0E0,0E0,0E0,0E0,0E0,0E0,0E0,0E0,0E0,0E0,0E0,0E0,0E0,0E0,0E0,0E0,0E0,0E0,0E0,0E0,0E0,0E0,0E0,0E0,0E0,0E0,0E0,0E0,0E0,0E0,0E0,0E0,0E0,0E0,0E0,0E0,0E0,0E0,0E0,0E0,0E0,0E0,0E0,0E0,0E0,0E0,0E0,0E0,0E0,0E0,0E0,0E0,0E0,0E0,0E0,0E0,0E0,0E0,0E0,0E0,0E0,0E0,0E0,0E0,0E0,0E0,0E0,0E0,0E0,0E0,0E0,0E0,0E0,0E0,0E0,0E0,0E0,0E0,0E0,0E0,0E0,0E0,0E0,0E0,0E0,0E0,0E0,0E0,0E0,0E0,0E0,0E0,0E0,0E0,0E0,0E0,0E0,0E0,0E0,0E0,0E0,0E0,0E0,0E0,0E0,0E0,0E0],"parents":[2147483647,0,0,1,1,2,2,3,3,4,4,5,5,6,6,7,7,8,8,9,9,10,10,11,11,12,12,13,13,14,14,15,15,16,16,17,17,18,18,19,19,20,20,21,21,22,22,23,23,24,24,25,25,26,26,27,27,28,28,29,29,30,30,31,31,32,32,33,33,34,34,35,35,36,36,37,37,38,38,39,39,40,40,41,41,42,42,43,43,44,44,45,45,46,46,47,47,48,48,49,49,50,50,51,51,52,52,53,53,54,54,55,55,56,56,57,57,58,58,59,59,60,60,61,61,63,63,65,65,66,66,67,67,68,68,69,69,70,70,71,71,72,72,73,73,74,74,75,75,77,77,78,78,79,79,80,80,81,81,82,82,83,83,84,84,85,85,86,86,87,87,88,88,89,89,90,90,91,91,93,93,95,95,97,97,98,98,99,99,100,100,101,101,102,102,103,103,104,104,105,105,106,106,107,107,108,108,109,109,111,111,112,112,113,113,114,114,115,115,116,116,117,117,118,118,119,119,120,120,121,121,123,123],"right_children":[2,4,6,8,10,12,14,16,18,20,22,24,26,28,30,32,34,36,38,40,42,44,46,48,50,52,54,56,58,60,62,64,66,68,70,72,74,76,78,80,82,84,86,88,90,92,94,96,98,100,102,104,106,108,110,112,114,116,118,120,122,124,-1,126,-1,128,130,132,134,136,138,140,142,144,146,148,-1,150,152,154,156,158,160,162,164,166,168,170,172,174,176,178,-1,180,-1,182,-1,184,186,188,190,192,194,196,198,200,202,204,206,208,-1,210,212,214,216,218,220,222,224,226,228,230,-1,232,-1,-1,-1,-1,-1,-1,-1,-1,-1,-1,-1,-1,-1,-1,-1,-1,-1,-1,-1,-1,-1,-1,-1,-1,-1,-1,-1,-1,-1,-1,-1,-1,-1,-1,-1,-1,-1,-1,-1,-1,-1,-1,-1,-1,-1,-1,-1,-1,-1,-1,-1,-1,-1,-1,-1,-1,-1,-1,-1,-1,-1,-1,-1,-1,-1,-1,-1,-1,-1,-1,-1,-1,-1,-1,-1,-1,-1,-1,-1,-1,-1,-1,-1,-1,-1,-1,-1,-1,-1,-1,-1,-1,-1,-1,-1,-1,-1,-1,-1,-1,-1,-1,-1,-1,-1,-1,-1,-1,-1],"split_conditions":[6E0,3E0,7E0,5E0,1E0,2E0,2E0,3E0,2E0,1E0,5E0,2E0,3E0,8E0,8E0,2E0,5E0,2E0,1E0,1E0,5E0,1E0,4E0,1E0,1E0,2E0,4E0,2E0,9E0,3E0,1E0,4E0,2E0,2E0,1E0,4E0,2E0,5E0,2E0,1E0,5E0,1E0,4E0,1E0,1E0,2E0,1E0,4E0,2E0,4E0,1E0,2E0,1E0,2E0,5E0,1E0,1E0,2E0,1E0,1E0,4E0,3E0,2.5307782E0,2E0,-1.6532923E-1,1E0,4E0,2E0,4E0,1E0,1E0,1E0,1E0,3E0,1E0,3E0,8.5690355E-1,2E0,3E0,1E0,5E0,1E0,4E0,1E0,1E0,1E0,1E0,1E0,1E0,5E0,4E0,1E0,2.9613364E-1,1E0,5.2122504E-1,1E0,2.3550268E-1,3E0,1E0,1E0,1E0,4E0,3E0,1E0,1E0,3E0,2E0,2E0,1E0,1E0,2.133061E0,2E0,2E0,4E0,3E0,1E0,1E0,1E0,1E0,2E0,1E0,1E0,2.4428656E0,1E0,2.7800202E0,-1.7516426E0,-1.3188477E0,-1.2230823E0,-1.5773566E0,-1.457191E0,-7.2187054E-1,-1.220358E0,-6.0653955E-1,-1.0009562E0,-3.7111485E-1,3.7492004E-1,-4.4558212E-1,-4.274273E-1,-6.8198407E-1,-1.4890897E0,-9.63861E-1,-4.0034273E-1,1.3970135E-1,-7.122732E-1,5.224625E-2,-5.0544137E-1,6.227193E-2,-1.275973E0,-7.54967E-1,-4.7468928E-1,-4.4920124E-2,1.7452641E-1,9.9642926E-1,6.727305E-1,4.378656E-2,-2.476692E-1,2.5021437E-1,-2.1998742E-1,-7.8760165E-1,2.4024077E-2,5.0646824E-1,-5.292049E-1,-1.1164396E0,-9.8013455E-1,-1.4348536E0,-4.0637589E-1,2.0010129E-2,1.6858642E-1,6.499722E-1,-3.5526153E-1,-9.041953E-1,-8.774507E-1,-1.5156447E0,-1.1587418E0,-7.410328E-1,-1.5683371E0,-1.2535335E0,-4.233027E-1,-9.4552524E-2,2.445459E-1,-6.525639E-2,-9.20027E-1,-5.892929E-1,-4.1379324E-1,3.2046393E-1,-3.0586022E-1,1.5569778E-1,-6.1489916E-1,-1.0846906E-1,1.5890113E-1,9.530709E-1,-8.172453E-2,1.2267785E0,3.6235693E-1,9.3573016E-1,-6.00855E-2,2.5479737E-1,3.522187E-1,9.036475E-1,5.7679945E-1,1.1143472E0,9.6722996E-1,1.6658502E0,6.936375E-1,1.3630643E0,1.5261601E0,2.0828276E0,1.2441018E0,1.7778647E0,-1.801096E-1,2.5296026E-1,3.1110796E-1,9.7927207E-1,4.356347E-1,2.1412225E0,1.002563E0,1.7771131E0,5.8396417E-1,1.2060075E0,1.5610778E0,2.5446842E0,1.2046611E0,2.0450559E0,2.0671227E0,3.0972068E0,7.035646E-1,1.375433E0,1.2247965E0,1.7893382E0,1.46044E0,1.9655225E0,1.4950584E0,2.2243476E0],"split_indices":[0,1,0,0,17,1,1,2,2,16,0,2,1,0,0,3,2,1,1,5,0,5,1,1,1,2,1,2,0,1,3,4,1,1,16,3,3,2,3,6,0,5,1,4,4,2,2,3,3,2,3,3,3,2,1,1,1,2,1,2,1,1,0,1,0,5,0,3,0,5,3,1,1,4,2,2,0,1,2,7,0,6,1,6,4,2,2,6,6,1,0,3,0,6,0,2,0,4,2,3,3,2,2,2,2,2,3,3,3,3,0,3,3,2,2,1,1,2,2,3,3,2,0,2,0,0,0,0,0,0,0,0,0,0,0,0,0,0,0,0,0,0,0,0,0,0,0,0,0,0,0,0,0,0,0,0,0,0,0,0,0,0,0,0,0,0,0,0,0,0,0,0,0,0,0,0,0,0,0,0,0,0,0,0,0,0,0,0,0,0,0,0,0,0,0,0,0,0,0,0,0,0,0,0,0,0,0,0,0,0,0,0,0,0,0,0,0,0,0,0,0,0,0,0,0,0,0,0,0,0,0,0,0],"split_type":[0,0,0,0,0,0,0,0,0,0,0,0,0,0,0,0,0,0,0,0,0,0,0,0,0,0,0,0,0,0,0,0,0,0,0,0,0,0,0,0,0,0,0,0,0,0,0,0,0,0,0,0,0,0,0,0,0,0,0,0,0,0,0,0,0,0,0,0,0,0,0,0,0,0,0,0,0,0,0,0,0,0,0,0,0,0,0,0,0,0,0,0,0,0,0,0,0,0,0,0,0,0,0,0,0,0,0,0,0,0,0,0,0,0,0,0,0,0,0,0,0,0,0,0,0,0,0,0,0,0,0,0,0,0,0,0,0,0,0,0,0,0,0,0,0,0,0,0,0,0,0,0,0,0,0,0,0,0,0,0,0,0,0,0,0,0,0,0,0,0,0,0,0,0,0,0,0,0,0,0,0,0,0,0,0,0,0,0,0,0,0,0,0,0,0,0,0,0,0,0,0,0,0,0,0,0,0,0,0,0,0,0,0,0,0,0,0,0,0,0,0,0,0,0,0,0,0,0,0,0,0,0,0],"sum_hessian":[3.0022E4,1.8868E4,1.1154E4,7.338E3,1.153E4,6.76E3,4.394E3,2.571E3,4.767E3,9.936E3,1.594E3,3.217E3,3.543E3,3.295E3,1.099E3,1.345E3,1.226E3,2.149E3,2.618E3,8.218E3,1.718E3,1.296E3,2.98E2,1.824E3,1.393E3,2.202E3,1.341E3,2.368E3,9.27E2,9.78E2,1.21E2,6.55E2,6.9E2,1.083E3,1.43E2,7.04E2,1.445E3,3.56E2,2.262E3,5.659E3,2.559E3,1.38E3,3.38E2,8.99E2,3.97E2,2.18E2,8E1,3.94E2,1.43E3,5.02E2,8.91E2,1.718E3,4.84E2,1.089E3,2.52E2,1.744E3,6.24E2,7.58E2,1.69E2,7.53E2,2.25E2,9.4E1,2.7E1,6.47E2,8E0,1.69E2,5.21E2,3.93E2,6.9E2,1.13E2,3E1,6.62E2,4.2E1,8.93E2,5.52E2,3.38E2,1.8E1,1.883E3,3.79E2,4.168E3,1.491E3,1.698E3,8.61E2,9.88E2,3.92E2,2.33E2,1.05E2,4.91E2,4.08E2,2.68E2,1.29E2,1.82E2,3.6E1,5.5E1,2.5E1,3.79E2,1.5E1,9.96E2,4.34E2,4.55E2,4.7E1,4.61E2,4.3E2,1.432E3,2.86E2,3.56E2,1.28E2,9.81E2,1.08E2,2.1E2,4.2E1,6.09E2,1.135E3,3.26E2,2.98E2,6.63E2,9.5E1,1.15E2,5.4E1,4.15E2,3.38E2,2.01E2,2.4E1,8.6E1,8E0,8.8E1,5.59E2,1.01E2,6.8E1,7.4E1,4.47E2,2.55E2,1.38E2,1.85E2,5.05E2,8.4E1,2.9E1,2E1,1E1,8.9E1,5.73E2,1.3E1,2.9E1,8.45E2,4.8E1,2.6E2,2.92E2,1.21E2,2.17E2,8.13E2,1.07E3,3.07E2,7.2E1,3.268E3,9E2,9.66E2,5.25E2,1.412E3,2.86E2,6.07E2,2.54E2,7.72E2,2.16E2,2.57E2,1.35E2,9.4E1,1.39E2,7.4E1,3.1E1,3.43E2,1.48E2,3.4E2,6.8E1,1.97E2,7.1E1,7.3E1,5.6E1,9.2E1,9E1,3.9E1,1.6E1,1.07E2,2.72E2,9.48E2,4.8E1,2E2,2.34E2,1.77E2,2.78E2,2.8E1,1.9E1,4.34E2,2.7E1,3.41E2,8.9E1,5.6E2,8.72E2,1.66E2,1.2E2,2.92E2,6.4E1,1.13E2,1.5E1,8.92E2,8.9E1,9.9E1,9E0,1.6E2,5E1,4.52E2,1.57E2,9.58E2,1.77E2,3.13E2,1.3E1,2.61E2,3.7E1,3.26E2,3.37E2,7.4E1,2.1E1,7.9E1,3.6E1,4.4E1,1E1,3.71E2,4.4E1,2.37E2,1.01E2,1.39E2,6.2E1,6.1E1,2.5E1],"tree_param":{"num_deleted":"0","num_feature":"18","num_nodes":"233","size_leaf_vector":"1"}},{"base_weights":[5.1910086E-3,-1.0442351E0,1.7871906E0,-1.8769627E0,5.651268E-1,8.8441896E-1,3.175062E0,-3.0880032E0,-9.656113E-1,-8.8355154E-1,1.773639E0,-7.3028165E-1,2.3663733E0,2.4540198E0,5.3544445E0,-4.5731993E0,-2.4206977E0,-1.7205244E0,5.884069E-1,-1.7606182E0,1.7692837E0,1.0081005E0,3.6404777E0,-1.0969299E0,1.5573673E0,1.3841007E0,3.9648318E0,1.5784284E0,4.6755605E0,5.0573897E0,1.8824604E0,-5.1221986E0,-2.0589468E0,-4.185014E0,-1.7559621E0,-1.3053566E0,-3.7593853E0,-1.790781E-1,2.5827215E0,-3.328259E0,-3.683346E-1,4.474763E-1,5.89647E0,-1.0175767E0,2.0319312E0,3.0515614E0,6.8214345E0,-2.314227E0,-6.875278E-1,1.2037826E0,6.1053014E0,8.476069E-1,3.240896E0,3.4547856E0,6.196749E0,1.03736386E-1,2.3297977E0,4.3354273E0,9.226192E0,4.4630504E0,7.128349E0,-1.6513233E0,-4.7479644E0,-5.2811995E0,-1.3591964E0,-5.1256943E0,-1.9171257E0,-2.8031352E0,-1.18142895E-1,-7.90685E-1,-3.4898047E0,-5.6970263E0,-3.3839777E0,-1.2378316E0,4.561429E-1,2.168349E0,4.6306696E0,-5.603542E0,-2.533053E0,-2.893459E0,8.031523E-1,-5.6637164E-2,8.9541855E0,4.6617365E0,1.7295439E0,-3.477534E0,1.1268796E0,1.7001483E0,6.9261255E0,2.5767648E0,7.214518E0,5.4722614E0,9.34349E0,-3.0033062E0,-1.3156408E0,-2.0737727E0,-2.1073097E-1,2.2774955E-2,2.2062254E0,9.2056996E-1,1.5011889E0,-3.2134153E-2,1.4442948E0,2.9160624E0,1.0138066E0,2.3065047E0,4.5516024E0,5.315242E0,1.608188E0,-1.3705727E-1,5.0795045E0,1.1266767E0,3.2743142E0,3.6931164E0,7.0574627E0,8.008036E0,2.2349586E0,3.9531076E0,7.674973E0,6.6824355E0,2.058951E0,-1.2315993E0,-8.015499E-1,-1.2836112E0,-6.4061815E-1,-9.700901E-1,-8.475287E-2,-1.1748493E0,-7.1839094E-1,-6.373162E-1,-4.2252872E-2,-6.656396E-1,-1.3843814E-1,-2.3473054E-1,3.9427802E-1,-4.438144E-2,-4.2867288E-1,-8.6000746E-1,-4.9865258E-1,-1.2662531E0,-8.759823E-1,-9.555982E-1,-5.794041E-1,-3.2023478E-1,9.0262525E-2,-1.5006205E-1,2.7518454E-1,3.8974184E-1,1.4973203E0,8.2799286E-1,1.1897848E0,-1.2524949E0,-3.8174012E-1,-1.1490737E0,-3.57038E-1,-6.249306E-1,1.4642648E0,9.409958E-2,1.3147584E0,-3.916572E-1,2.8324315E-1,1.4367827E0,2.1086354E0,5.937099E-1,1.7811085E0,-8.828175E-1,-2.4295141E-1,1.3392529E-1,7.8081703E-1,1.417579E-1,7.500688E-1,1.2411222E0,2.2228818E0,2.4385488E-1,8.6557955E-1,1.2879374E0,2.3387692E0,8.8279206E-1,2.0516958E0,1.6441628E0,2.6461453E0,-6.3243914E-1,1.1765056E-2,-5.5449027E-1,-1.7078905E-1,-4.8819622E-1,1.9302383E-1,-2.6228324E-1,8.838555E-2,-1.6186182E-1,2.1579948E-1,3.1141216E-1,1.1695913E0,-8.745182E-2,3.5140258E-1,1.2655932E-1,4.382128E-1,5.3789717E-1,1.3680906E0,2.3511215E-1,6.252038E-1,7.600133E-1,1.2897164E0,9.2521757E-1,1.3780134E0,-3.3523098E-1,9.8815285E-2,6.121105E-1,1.3375428E0,1.404707E-1,7.954161E-1,4.4124955E-1,9.0734327E-1,4.5017162E-1,9.8324233E-1,1.2562481E0,2.7550185E0,1.2464939E0,1.8825356E0,6.24294E-1,1.0142876E0,1.366884E0,2.9653015E0,1.1822537E0,1.693217E0],"categories":[],"categories_nodes":[],"categories_segments":[],"categories_sizes":[],"default_left":[0,0,0,0,0,0,0,0,0,0,0,0,0,0,0,0,0,0,0,0,0,0,0,0,0,0,0,0,0,0,0,0,0,0,0,0,0,0,0,0,0,0,0,0,0,0,0,0,0,0,0,0,0,0,0,0,0,0,0,0,0,0,0,0,0,0,0,0,0,0,0,0,0,0,0,0,0,0,0,0,0,0,0,0,0,0,0,0,0,0,0,0,0,0,0,0,0,0,0,0,0,0,0,0,0,0,0,0,0,0,0,0,0,0,0,0,0,0,0,0,0,0,0,0,0,0,0,0,0,0,0,0,0,0,0,0,0,0,0,0,0,0,0,0,0,0,0,0,0,0,0,0,0,0,0,0,0,0,0,0,0,0,0,0,0,0,0,0,0,0,0,0,0,0,0,0,0,0,0,0,0,0,0,0,0,0,0,0,0,0,0,0,0,0,0,0,0,0,0,0,0,0,0,0,0,0,0,0,0,0,0,0,0,0,0,0,0,0,0,0,0,0,0,0,0],"id":6,"left_children":[1,3,5,7,9,11,13,15,17,19,21,23,25,27,29,31,33,35,37,39,41,43,45,47,49,51,53,55,57,59,-1,61,63,65,67,69,71,73,75,77,79,81,83,85,87,89,91,93,95,97,99,101,103,105,107,109,111,113,115,117,119,-1,121,123,125,127,129,131,133,135,137,139,141,143,145,147,149,151,153,155,157,159,161,163,-1,165,167,169,171,173,175,177,179,181,183,185,187,189,191,-1,-1,193,195,197,-1,199,201,203,-1,205,207,209,211,213,215,217,-1,219,221,223,-1,-1,-1,-1,-1,-1,-1,-1,-1,-1,-1,-1,-1,-1,-1,-1,-1,-1,-1,-1,-1,-1,-1,-1,-1,-1,-1,-1,-1,-1,-1,-1,-1,-1,-1,-1,-1,-1,-1,-1,-1,-1,-1,-1,-1,-1,-1,-1,-1,-1,-1,-1,-1,-1,-1,-1,-1,-1,-1,-1,-1,-1,-1,-1,-1,-1,-1,-1,-1,-1,-1,-1,-1,-1,-1,-1,-1,-1,-1,-1,-1,-1,-1,-1,-1,-1,-1,-1,-1,-1,-1,-1,-1,-1,-1,-1,-1,-1,-1,-1,-1,-1,-1,-1,-1],"loss_changes":[5.6233207E4,2.5363588E4,1.3961102E4,1.376216E4,1.1300878E4,1.6163458E4,6.8885703E3,5.29616E3,8.351486E3,6.8343457E3,5.025463E3,2.7134277E3,5.5244824E3,6.415541E3,1.311666E3,2.2794062E3,4.328504E3,4.0505264E3,3.5637144E3,4.815775E3,3.9797637E3,5.1807217E3,1.8955879E3,1.3873496E3,7.114623E2,2.1718687E3,1.5040215E3,2.62581E3,1.4041191E3,1.2248867E3,0E0,1.6185469E3,6.6699866E2,2.146998E3,4.608089E3,4.474097E3,5.699209E2,1.1317811E3,5.390122E2,1.8638779E3,3.4633599E3,2.3762512E3,5.881743E2,4.429871E3,2.682126E3,1.6911323E3,4.8989746E2,4.784104E2,1.3789805E3,4.9244922E2,3.3802734E1,8.8980396E2,2.872334E2,1.3660859E3,3.8565625E2,9.60401E2,1.7804082E3,1.4950371E3,7.392822E1,1.2734258E3,2.645547E2,0E0,1.224875E3,1.1136987E2,8.155442E2,8.6113477E2,6.6724036E2,1.9740703E3,2.3864534E3,2.5232212E3,6.253301E2,8.98999E1,4.2883936E2,4.1473804E2,1.2050405E3,5.4478467E2,3.9895752E1,7.25749E2,1.8236489E3,1.0849717E3,1.5257661E3,1.5138066E3,1.2012939E1,8.8203784E2,0E0,8.735425E2,5.6674066E2,3.2086802E3,2.1650146E2,1.8859004E3,2.0084131E2,4.7324292E2,1.0881445E2,2.6066284E2,1.9127692E2,6.5964575E2,1.1478269E3,1.7462773E2,5.15897E2,0E0,0E0,5.1321484E2,6.2972754E2,2.972046E2,0E0,5.128474E2,7.479297E2,1.483291E2,0E0,7.645548E2,1.0356671E2,8.304737E2,1.1996123E3,1.2773594E3,6.9173047E2,5.3927246E1,0E0,6.295088E2,4.8466113E2,2.1220312E2,0E0,0E0,0E0,0E0,0E0,0E0,0E0,0E0,0E0,0E0,0E0,0E0,0E0,0E0,0E0,0E0,0E0,0E0,0E0,0E0,0E0,0E0,0E0,0E0,0E0,0E0,0E0,0E0,0E0,0E0,0E0,0E0,0E0,0E0,0E0,0E0,0E0,0E0,0E0,0E0,0E0,0E0,0E0,0E0,0E0,0E0,0E0,0E0,0E0,0E0,0E0,0E0,0E0,0E0,0E0,0E0,0E0,0E0,0E0,0E0,0E0,0E0,0E0,0E0,0E0,0E0,0E0,0E0,0E0,0E0,0E0,0E0,0E0,0E0,0E0,0E0,0E0,0E0,0E0,0E0,0E0,0E0,0E0,0E0,0E0,0E0,0E0,0E0,0E0,0E0,0E0,0E0,0E0,0E0,0E0,0E0,0E0,0E0,0E0,0E0,0E0,0E0,0E0,0E0,0E0],"parents":[2147483647,0,0,1,1,2,2,3,3,4,4,5,5,6,6,7,7,8,8,9,9,10,10,11,11,12,12,13,13,14,14,15,15,16,16,17,17,18,18,19,19,20,20,21,21,22,22,23,23,24,24,25,25,26,26,27,27,28,28,29,29,31,31,32,32,33,33,34,34,35,35,36,36,37,37,38,38,39,39,40,40,41,41,42,42,43,43,44,44,45,45,46,46,47,47,48,48,49,49,50,50,51,51,52,52,53,53,54,54,55,55,56,56,57,57,58,58,59,59,60,60,62,62,63,63,64,64,65,65,66,66,67,67,68,68,69,69,70,70,71,71,72,72,73,73,74,74,75,75,76,76,77,77,78,78,79,79,80,80,81,81,82,82,83,83,85,85,86,86,87,87,88,88,89,89,90,90,91,91,92,92,93,93,94,94,95,95,96,96,97,97,98,98,101,101,102,102,103,103,105,105,106,106,107,107,109,109,110,110,111,111,112,112,113,113,114,114,115,115,117,117,118,118,119,119],"right_children":[2,4,6,8,10,12,14,16,18,20,22,24,26,28,30,32,34,36,38,40,42,44,46,48,50,52,54,56,58,60,-1,62,64,66,68,70,72,74,76,78,80,82,84,86,88,90,92,94,96,98,100,102,104,106,108,110,112,114,116,118,120,-1,122,124,126,128,130,132,134,136,138,140,142,144,146,148,150,152,154,156,158,160,162,164,-1,166,168,170,172,174,176,178,180,182,184,186,188,190,192,-1,-1,194,196,198,-1,200,202,204,-1,206,208,210,212,214,216,218,-1,220,222,224,-1,-1,-1,-1,-1,-1,-1,-1,-1,-1,-1,-1,-1,-1,-1,-1,-1,-1,-1,-1,-1,-1,-1,-1,-1,-1,-1,-1,-1,-1,-1,-1,-1,-1,-1,-1,-1,-1,-1,-1,-1,-1,-1,-1,-1,-1,-1,-1,-1,-1,-1,-1,-1,-1,-1,-1,-1,-1,-1,-1,-1,-1,-1,-1,-1,-1,-1,-1,-1,-1,-1,-1,-1,-1,-1,-1,-1,-1,-1,-1,-1,-1,-1,-1,-1,-1,-1,-1,-1,-1,-1,-1,-1,-1,-1,-1,-1,-1,-1,-1,-1,-1,-1,-1,-1],"split_conditions":[6E0,4E0,7E0,5E0,4E0,2E0,2E0,2E0,3E0,6E0,5E0,3E0,3E0,8E0,2E0,3E0,4E0,1E0,2E0,2E0,2E0,1E0,6E0,1E0,2E0,2E0,4E0,1E0,2E0,3E0,1.8824604E0,4E0,2E0,4E0,3E0,1E0,1E0,1E0,3E0,1E0,3E0,8E0,3E0,5E0,3E0,2E0,1E0,2E0,1E0,1E0,1E0,1E0,3E0,1E0,1E0,3E0,1E0,9E0,1E0,8E0,4E0,-1.6513233E0,3E0,4E0,4E0,2E0,3E0,4E0,3E0,1E0,2E0,3E0,1E0,2E0,1E0,2E0,1E0,3E0,3E0,5E0,4E0,1E0,1E0,7E0,1.7295439E0,2E0,2E0,5E0,4E0,1E0,5E0,7E0,2E0,3E0,1E0,3E0,1E0,1E0,4E0,9.2056996E-1,1.5011889E0,2E0,1E0,2E0,1.0138066E0,1E0,1E0,1E0,1.608188E0,1E0,1E0,3E0,1E0,1E0,1E1,1E0,2.2349586E0,1E0,9E0,1E0,2.058951E0,-1.2315993E0,-8.015499E-1,-1.2836112E0,-6.4061815E-1,-9.700901E-1,-8.475287E-2,-1.1748493E0,-7.1839094E-1,-6.373162E-1,-4.2252872E-2,-6.656396E-1,-1.3843814E-1,-2.3473054E-1,3.9427802E-1,-4.438144E-2,-4.2867288E-1,-8.6000746E-1,-4.9865258E-1,-1.2662531E0,-8.759823E-1,-9.555982E-1,-5.794041E-1,-3.2023478E-1,9.0262525E-2,-1.5006205E-1,2.7518454E-1,3.8974184E-1,1.4973203E0,8.2799286E-1,1.1897848E0,-1.2524949E0,-3.8174012E-1,-1.1490737E0,-3.57038E-1,-6.249306E-1,1.4642648E0,9.409958E-2,1.3147584E0,-3.916572E-1,2.8324315E-1,1.4367827E0,2.1086354E0,5.937099E-1,1.7811085E0,-8.828175E-1,-2.4295141E-1,1.3392529E-1,7.8081703E-1,1.417579E-1,7.500688E-1,1.2411222E0,2.2228818E0,2.4385488E-1,8.6557955E-1,1.2879374E0,2.3387692E0,8.8279206E-1,2.0516958E0,1.6441628E0,2.6461453E0,-6.3243914E-1,1.1765056E-2,-5.5449027E-1,-1.7078905E-1,-4.8819622E-1,1.9302383E-1,-2.6228324E-1,8.838555E-2,-1.6186182E-1,2.1579948E-1,3.1141216E-1,1.1695913E0,-8.745182E-2,3.5140258E-1,1.2655932E-1,4.382128E-1,5.3789717E-1,1.3680906E0,2.3511215E-1,6.252038E-1,7.600133E-1,1.2897164E0,9.2521757E-1,1.3780134E0,-3.3523098E-1,9.8815285E-2,6.121105E-1,1.3375428E0,1.404707E-1,7.954161E-1,4.4124955E-1,9.0734327E-1,4.5017162E-1,9.8324233E-1,1.2562481E0,2.7550185E0,1.2464939E0,1.8825356E0,6.24294E-1,1.0142876E0,1.366884E0,2.9653015E0,1.1822537E0,1.693217E0],"split_indices":[0,1,0,0,0,1,1,2,1,1,1,2,1,0,2,3,0,17,2,2,2,2,1,1,3,2,1,2,3,1,0,0,1,2,1,16,1,3,2,2,0,1,0,0,2,2,2,3,2,1,1,3,2,2,2,3,1,0,2,0,1,0,1,3,0,3,1,2,2,6,1,2,2,4,2,3,3,3,0,2,2,2,2,1,0,3,3,0,2,3,0,1,2,4,2,3,3,3,2,0,0,4,2,3,0,3,3,3,0,1,1,2,3,2,0,1,0,3,0,3,0,0,0,0,0,0,0,0,0,0,0,0,0,0,0,0,0,0,0,0,0,0,0,0,0,0,0,0,0,0,0,0,0,0,0,0,0,0,0,0,0,0,0,0,0,0,0,0,0,0,0,0,0,0,0,0,0,0,0,0,0,0,0,0,0,0,0,0,0,0,0,0,0,0,0,0,0,0,0,0,0,0,0,0,0,0,0,0,0,0,0,0,0,0,0,0,0,0,0,0,0,0,0,0,0],"split_type":[0,0,0,0,0,0,0,0,0,0,0,0,0,0,0,0,0,0,0,0,0,0,0,0,0,0,0,0,0,0,0,0,0,0,0,0,0,0,0,0,0,0,0,0,0,0,0,0,0,0,0,0,0,0,0,0,0,0,0,0,0,0,0,0,0,0,0,0,0,0,0,0,0,0,0,0,0,0,0,0,0,0,0,0,0,0,0,0,0,0,0,0,0,0,0,0,0,0,0,0,0,0,0,0,0,0,0,0,0,0,0,0,0,0,0,0,0,0,0,0,0,0,0,0,0,0,0,0,0,0,0,0,0,0,0,0,0,0,0,0,0,0,0,0,0,0,0,0,0,0,0,0,0,0,0,0,0,0,0,0,0,0,0,0,0,0,0,0,0,0,0,0,0,0,0,0,0,0,0,0,0,0,0,0,0,0,0,0,0,0,0,0,0,0,0,0,0,0,0,0,0,0,0,0,0,0,0,0,0,0,0,0,0,0,0,0,0,0,0,0,0,0,0,0,0],"sum_hessian":[3.0068E4,1.8924E4,1.1144E4,1.2471E4,6.453E3,6.753E3,4.391E3,5.354E3,7.117E3,2.935E3,3.518E3,3.232E3,3.521E3,3.301E3,1.09E3,1.658E3,3.696E3,4.79E3,2.327E3,2.206E3,7.29E2,2.496E3,1.022E3,2.786E3,4.46E2,2.182E3,1.339E3,2.369E3,9.32E2,1.02E3,7E1,1.36E3,2.98E2,1.01E3,2.686E3,3.981E3,8.09E2,1.681E3,6.46E2,1.037E3,1.169E3,5.53E2,1.76E2,8.38E2,1.658E3,8.64E2,1.58E2,7E2,2.086E3,4.15E2,3.1E1,1.694E3,4.88E2,1.092E3,2.47E2,8E2,1.569E3,8.69E2,6.3E1,7.95E2,2.25E2,1.38E2,1.222E3,5.2E1,2.46E2,7.13E2,2.97E2,1.638E3,1.048E3,3.223E3,7.58E2,1.29E2,6.8E2,6.3E2,1.051E3,5.39E2,1.07E2,2.67E2,7.7E2,3.7E2,7.99E2,5.23E2,3E1,1.25E2,5.1E1,3.9E2,4.48E2,1.554E3,1.04E2,7.77E2,8.7E1,1.05E2,5.3E1,4.13E2,2.87E2,5.33E2,1.553E3,1.91E2,2.24E2,1.8E1,1.3E1,6.85E2,1.009E3,4.19E2,6.9E1,5.35E2,5.57E2,1.73E2,7.4E1,7.64E2,3.6E1,6.91E2,8.78E2,7.05E2,1.64E2,4.3E1,2E1,6.88E2,1.07E2,2.01E2,2.4E1,3.79E2,8.43E2,3.1E1,2.1E1,5E1,1.96E2,4.54E2,2.59E2,1.67E2,1.3E2,1.286E3,3.52E2,6.96E2,3.52E2,2.289E3,9.34E2,3.95E2,3.63E2,7.9E1,5E1,1.56E2,5.24E2,5.13E2,1.17E2,4.58E2,5.93E2,5.22E2,1.7E1,8.5E1,2.2E1,2.21E2,4.6E1,1.37E2,6.33E2,3.61E2,9E0,7.58E2,4.1E1,2.28E2,2.95E2,1.8E1,1.2E1,9.2E1,3.3E1,2.69E2,1.21E2,3.88E2,6E1,1.061E3,4.93E2,9.3E1,1.1E1,4.48E2,3.29E2,7.8E1,9E0,8.9E1,1.6E1,4.5E1,8E0,3.87E2,2.6E1,6.5E1,2.22E2,4.71E2,6.2E1,5.75E2,9.78E2,1.07E2,8.4E1,1.93E2,3.1E1,5.59E2,1.26E2,4.98E2,5.11E2,4.02E2,1.7E1,2.35E2,3E2,4.15E2,1.42E2,1.29E2,4.4E1,2.21E2,5.43E2,1.8E1,1.8E1,6.06E2,8.5E1,4.95E2,3.83E2,3.39E2,3.66E2,1.51E2,1.3E1,2.3E1,2E1,4.17E2,2.71E2,9.9E1,8E0,1.51E2,5E1],"tree_param":{"num_deleted":"0","num_feature":"18","num_nodes":"225","size_leaf_vector":"1"}},{"base_weights":[5.32439E-3,-8.449769E-1,1.4451735E0,-4.3523347E-1,-3.031044E0,7.23804E-1,2.5653067E0,1.4892879E-1,-2.8544936E0,-2.7193186E0,-4.490488E0,1.05519556E-1,3.2046154E0,1.9899423E0,4.3107953E0,-6.085087E-1,1.4715766E0,-2.1511638E0,-3.7405567E0,-2.2705815E0,-4.052438E0,-4.995772E0,-3.6668828E0,-5.6538033E-1,1.1012571E0,2.7870564E0,4.9965577E0,1.2706666E0,3.8025427E0,3.9833925E0,6.9077363E0,-1.7598258E-1,-1.7842295E0,1.938315E0,-1.3329203E-1,-1.6331534E0,-3.7182927E0,-5.0804935E0,-3.154977E0,-1.5680395E0,-3.0275908E0,-3.3786855E0,-5.177268E0,-4.7511725E0,-1.3416638E0,-5.052648E0,-2.5840015E0,-1.2600474E0,3.283696E-1,6.857822E-1,2.5887523E0,2.4803865E0,5.675337E0,4.418471E0,1.5114319E0,7.1367335E-1,2.8317919E0,2.9269922E0,5.137596E0,3.139611E0,5.1623282E0,6.255787E0,1.7396955E0,2.6133323E-1,-1.7220726E0,-2.792691E0,-1.2084411E0,2.698343E0,8.6550224E-1,-6.799605E-1,1.9185464E0,-1.217287E0,-3.5559916E0,-3.3912454E0,-5.169324E0,-5.716012E0,-3.3314433E0,-3.8081546E0,-1.9657912E0,-1.6546496E0,9.5826143E-1,-2.72216E0,-5.034184E0,-4.8784127E0,-2.9820397E0,-1.2752529E0,-4.661653E0,-5.0237017E0,-3.5372796E0,-1.0342512E0,-7.401896E-1,-3.1878831E0,-1.4015869E0,-1.4292016E0,5.7713044E-1,-5.087442E-1,1.0802181E0,3.97069E-1,2.138116E0,2.1760738E0,3.7621248E0,2.2135262E0,5.023241E0,5.422812E0,1.4845704E0,3.7615201E0,5.7254624E0,-2.95673E-1,1.3598956E0,1.7591807E0,3.9999232E0,2.240025E0,5.338187E0,4.024089E0,6.930232E0,2.408126E0,4.992282E0,4.7552433E0,1.4330969E0,5.7240615E0,2.0858274E0,1.2266864E-1,-2.8424636E-1,-5.535218E-1,-2.260166E-1,-6.547227E-1,-3.362162E-1,-4.5785785E-1,-1.5670235E-1,6.471515E-1,1.0991112E-1,8.2950145E-2,5.853977E-1,-1.6710861E-1,8.599062E-1,2.994148E-1,7.5149506E-1,-1.4444217E-1,-5.9080184E-1,-1.132229E0,-6.5688944E-1,-8.570078E-1,-5.8290315E-1,-1.1731253E0,-7.381168E-1,-1.3963275E0,-1.0500156E0,-1.0448712E0,-4.2103523E-1,-6.730098E-1,-1.0382509E0,-5.390955E-1,-5.0803185E-2,-2.761052E-1,-6.892604E-1,-4.822998E-1,-9.0038705E-1,-1.096584E0,-6.84071E-1,-1.1526952E0,-8.3644015E-1,-8.61586E-1,-4.6879643E-1,-1.0940894E0,-7.9467523E-1,-1.1557809E0,-9.037016E-1,-9.542291E-1,-4.5913672E-1,-7.1660745E-1,-3.2579616E-1,-3.9388335E-1,-1.4546892E-1,-3.454193E-1,-5.9699718E-2,1.6935496E-2,5.9346396E-1,-1.5138835E-1,5.0149107E-1,-3.6099106E-3,3.5887837E-1,-6.955465E-2,1.708953E-1,3.5762572E-1,1.0154426E0,3.5794544E-1,7.35276E-1,6.761117E-1,1.1095669E0,3.012307E-1,5.7460517E-1,7.9501593E-1,1.7182459E0,1.0077736E0,1.2933353E0,6.081831E-1,1.040154E0,1.0224917E0,1.7215513E0,-1.24063894E-1,2.5934574E-1,3.2620244E-2,4.2406812E-1,6.872125E-2,6.787613E-1,6.9047827E-1,1.3804923E0,3.2357192E-1,1.098544E0,9.312872E-1,2.1127698E0,5.578422E-1,1.0881691E0,1.1684979E0,1.770207E0,4.1504937E-1,9.333014E-1,8.244496E-1,1.3252897E0,8.0826664E-1,1.2374759E0,9.438716E-1,1.5328875E0],"categories":[],"categories_nodes":[],"categories_segments":[],"categories_sizes":[],"default_left":[0,0,0,0,0,0,0,0,0,0,0,0,0,0,0,0,0,0,0,0,0,0,0,0,0,0,0,0,0,0,0,0,0,0,0,0,0,0,0,0,0,0,0,0,0,0,0,0,0,0,0,0,0,0,0,0,0,0,0,0,0,0,0,0,0,0,0,0,0,0,0,0,0,0,0,0,0,0,0,0,0,0,0,0,0,0,0,0,0,0,0,0,0,0,0,0,0,0,0,0,0,0,0,0,0,0,0,0,0,0,0,0,0,0,0,0,0,0,0,0,0,0,0,0,0,0,0,0,0,0,0,0,0,0,0,0,0,0,0,0,0,0,0,0,0,0,0,0,0,0,0,0,0,0,0,0,0,0,0,0,0,0,0,0,0,0,0,0,0,0,0,0,0,0,0,0,0,0,0,0,0,0,0,0,0,0,0,0,0,0,0,0,0,0,0,0,0,0,0,0,0,0,0,0,0,0,0,0,0,0,0,0,0,0,0,0,0,0,0,0,0,0,0],"id":7,"left_children":[1,3,5,7,9,11,13,15,17,19,21,23,25,27,29,31,33,35,37,39,41,43,45,47,49,51,53,55,57,59,61,63,65,67,69,71,73,75,77,79,81,83,85,87,-1,89,91,93,95,97,99,101,103,105,-1,107,109,111,113,115,117,119,-1,121,123,125,127,129,131,133,135,137,139,141,143,145,147,149,151,153,-1,155,157,159,161,-1,163,165,167,-1,-1,169,171,173,175,177,179,181,183,185,187,189,191,193,-1,195,197,199,201,203,205,207,209,211,213,215,217,219,-1,221,-1,-1,-1,-1,-1,-1,-1,-1,-1,-1,-1,-1,-1,-1,-1,-1,-1,-1,-1,-1,-1,-1,-1,-1,-1,-1,-1,-1,-1,-1,-1,-1,-1,-1,-1,-1,-1,-1,-1,-1,-1,-1,-1,-1,-1,-1,-1,-1,-1,-1,-1,-1,-1,-1,-1,-1,-1,-1,-1,-1,-1,-1,-1,-1,-1,-1,-1,-1,-1,-1,-1,-1,-1,-1,-1,-1,-1,-1,-1,-1,-1,-1,-1,-1,-1,-1,-1,-1,-1,-1,-1,-1,-1,-1,-1,-1,-1,-1,-1,-1,-1,-1,-1],"loss_changes":[3.683935E4,1.6944037E4,9.025453E3,2.251759E4,1.3462559E3,1.0425222E4,4.386203E3,1.2859293E4,1.9232305E3,1.4642148E3,1.997461E2,3.6360974E3,1.00068945E3,4.288448E3,8.9414844E2,4.150307E3,3.501336E3,1.3983218E3,1.0589277E3,9.7648145E2,4.5162012E2,1.1031299E2,2.9156982E2,2.019446E3,1.3522998E3,9.6201855E2,3.5996875E2,2.0492148E3,1.0778906E3,9.4374023E2,9.489111E1,4.0355918E3,1.2711748E3,2.9501113E3,1.1835504E3,1.0368076E3,1.8605371E2,4.4225195E2,7.3508594E2,5.421001E2,5.299155E2,2.1744824E2,1.2315332E2,7.717578E1,0E0,2.5185547E0,7.836035E1,5.6952734E2,8.9616113E2,7.178447E2,2.2327295E2,6.6611084E2,8.38623E0,1.6049268E2,0E0,1.1353381E3,7.697925E2,9.2722754E2,7.0867773E2,7.536665E2,3.096289E2,1.5338525E2,0E0,2.8625322E3,8.1926685E2,4.5264404E2,6.4274036E2,2.651879E3,1.4052365E3,7.0886896E2,1.6218195E2,9.223074E2,9.370386E1,1.3368018E2,6.354712E1,1.2341699E2,2.5472961E2,3.3587598E2,4.4738892E2,4.3793457E2,0E0,3.8099463E2,7.670508E1,2.4426025E1,2.5038452E2,0E0,7.171362E1,5.8634277E1,7.692609E1,0E0,0E0,4.623578E1,1.4761215E1,6.097644E2,1.8504686E2,5.356031E2,6.101888E2,5.0468066E2,2.676975E2,1.9244617E2,5.6906006E1,4.3072266E2,3.0852637E2,3.2617188E-1,0E0,1.3123804E2,6.634424E1,3.665765E2,1.0028468E3,7.710288E2,4.1717334E2,8.744802E2,3.6184644E2,3.9537134E2,2.3441211E2,2.7638623E2,1.9472607E2,3.1218408E2,0E0,1.2597754E2,0E0,0E0,0E0,0E0,0E0,0E0,0E0,0E0,0E0,0E0,0E0,0E0,0E0,0E0,0E0,0E0,0E0,0E0,0E0,0E0,0E0,0E0,0E0,0E0,0E0,0E0,0E0,0E0,0E0,0E0,0E0,0E0,0E0,0E0,0E0,0E0,0E0,0E0,0E0,0E0,0E0,0E0,0E0,0E0,0E0,0E0,0E0,0E0,0E0,0E0,0E0,0E0,0E0,0E0,0E0,0E0,0E0,0E0,0E0,0E0,0E0,0E0,0E0,0E0,0E0,0E0,0E0,0E0,0E0,0E0,0E0,0E0,0E0,0E0,0E0,0E0,0E0,0E0,0E0,0E0,0E0,0E0,0E0,0E0,0E0,0E0,0E0,0E0,0E0,0E0,0E0,0E0,0E0,0E0,0E0,0E0,0E0,0E0,0E0,0E0,0E0,0E0,0E0],"parents":[2147483647,0,0,1,1,2,2,3,3,4,4,5,5,6,6,7,7,8,8,9,9,10,10,11,11,12,12,13,13,14,14,15,15,16,16,17,17,18,18,19,19,20,20,21,21,22,22,23,23,24,24,25,25,26,26,27,27,28,28,29,29,30,30,31,31,32,32,33,33,34,34,35,35,36,36,37,37,38,38,39,39,40,40,41,41,42,42,43,43,45,45,46,46,47,47,48,48,49,49,50,50,51,51,52,52,53,53,55,55,56,56,57,57,58,58,59,59,60,60,61,61,63,63,64,64,65,65,66,66,67,67,68,68,69,69,70,70,71,71,72,72,73,73,74,74,75,75,76,76,77,77,78,78,79,79,81,81,82,82,83,83,84,84,86,86,87,87,88,88,91,91,92,92,93,93,94,94,95,95,96,96,97,97,98,98,99,99,100,100,101,101,102,102,103,103,105,105,106,106,107,107,108,108,109,109,110,110,111,111,112,112,113,113,114,114,115,115,116,116,117,117,119,119],"right_children":[2,4,6,8,10,12,14,16,18,20,22,24,26,28,30,32,34,36,38,40,42,44,46,48,50,52,54,56,58,60,62,64,66,68,70,72,74,76,78,80,82,84,86,88,-1,90,92,94,96,98,100,102,104,106,-1,108,110,112,114,116,118,120,-1,122,124,126,128,130,132,134,136,138,140,142,144,146,148,150,152,154,-1,156,158,160,162,-1,164,166,168,-1,-1,170,172,174,176,178,180,182,184,186,188,190,192,194,-1,196,198,200,202,204,206,208,210,212,214,216,218,220,-1,222,-1,-1,-1,-1,-1,-1,-1,-1,-1,-1,-1,-1,-1,-1,-1,-1,-1,-1,-1,-1,-1,-1,-1,-1,-1,-1,-1,-1,-1,-1,-1,-1,-1,-1,-1,-1,-1,-1,-1,-1,-1,-1,-1,-1,-1,-1,-1,-1,-1,-1,-1,-1,-1,-1,-1,-1,-1,-1,-1,-1,-1,-1,-1,-1,-1,-1,-1,-1,-1,-1,-1,-1,-1,-1,-1,-1,-1,-1,-1,-1,-1,-1,-1,-1,-1,-1,-1,-1,-1,-1,-1,-1,-1,-1,-1,-1,-1,-1,-1,-1,-1,-1,-1],"split_conditions":[6E0,1E0,7E0,1E0,1E0,3E0,2E0,4E0,1E0,1E0,5E0,2E0,4E0,8E0,8E0,1E0,1E0,1E0,4E0,1E0,1E0,1E0,2E0,2E0,2E0,2E0,5E0,2E0,1E0,1E0,1E0,1E0,5E0,1E0,5E0,1E0,1E0,5E0,3E0,7E0,1E0,2E0,4E0,5E0,-1.3416638E0,3E0,3E0,3E0,1E0,2E0,1E0,2E0,1E0,1E0,1.5114319E0,1E0,1E0,9E0,1E0,3E0,3E0,3E0,1.7396955E0,1E0,5E0,3E0,2E0,1E0,5E0,7E0,5E0,1E0,3E0,4E0,5E0,3E0,1E0,1E0,5E0,1E0,9.5826143E-1,1E0,5E0,5E0,4E0,-1.2752529E0,2E0,4E0,3E0,-1.0342512E0,-7.401896E-1,2E0,1E0,2E0,4E0,4E0,1E0,1E0,3E0,3E0,2E0,1E0,1E0,1E0,1.4845704E0,1E0,1E0,2E0,1E0,1E0,3E0,2E0,1E1,1E0,1E0,2E0,1E0,1E0,1.4330969E0,1E0,2.0858274E0,1.2266864E-1,-2.8424636E-1,-5.535218E-1,-2.260166E-1,-6.547227E-1,-3.362162E-1,-4.5785785E-1,-1.5670235E-1,6.471515E-1,1.0991112E-1,8.2950145E-2,5.853977E-1,-1.6710861E-1,8.599062E-1,2.994148E-1,7.5149506E-1,-1.4444217E-1,-5.9080184E-1,-1.132229E0,-6.5688944E-1,-8.570078E-1,-5.8290315E-1,-1.1731253E0,-7.381168E-1,-1.3963275E0,-1.0500156E0,-1.0448712E0,-4.2103523E-1,-6.730098E-1,-1.0382509E0,-5.390955E-1,-5.0803185E-2,-2.761052E-1,-6.892604E-1,-4.822998E-1,-9.0038705E-1,-1.096584E0,-6.84071E-1,-1.1526952E0,-8.3644015E-1,-8.61586E-1,-4.6879643E-1,-1.0940894E0,-7.9467523E-1,-1.1557809E0,-9.037016E-1,-9.542291E-1,-4.5913672E-1,-7.1660745E-1,-3.2579616E-1,-3.9388335E-1,-1.4546892E-1,-3.454193E-1,-5.9699718E-2,1.6935496E-2,5.9346396E-1,-1.5138835E-1,5.0149107E-1,-3.6099106E-3,3.5887837E-1,-6.955465E-2,1.708953E-1,3.5762572E-1,1.0154426E0,3.5794544E-1,7.35276E-1,6.761117E-1,1.1095669E0,3.012307E-1,5.7460517E-1,7.9501593E-1,1.7182459E0,1.0077736E0,1.2933353E0,6.081831E-1,1.040154E0,1.0224917E0,1.7215513E0,-1.24063894E-1,2.5934574E-1,3.2620244E-2,4.2406812E-1,6.872125E-2,6.787613E-1,6.9047827E-1,1.3804923E0,3.2357192E-1,1.098544E0,9.312872E-1,2.1127698E0,5.578422E-1,1.0881691E0,1.1684979E0,1.770207E0,4.1504937E-1,9.333014E-1,8.244496E-1,1.3252897E0,8.0826664E-1,1.2374759E0,9.438716E-1,1.5328875E0],"split_indices":[0,17,0,16,7,1,1,1,4,6,0,1,1,0,0,6,6,6,0,4,4,8,1,2,2,2,1,2,3,2,3,7,0,4,0,8,7,1,1,1,8,1,0,1,0,2,1,3,3,3,3,3,3,2,0,3,1,0,1,1,1,1,0,8,0,2,1,7,0,1,1,7,0,0,0,0,2,6,0,9,0,9,0,0,0,0,1,0,0,0,0,2,2,4,3,2,1,2,3,2,3,2,2,4,0,3,3,4,1,3,2,2,0,2,2,3,3,3,0,2,0,0,0,0,0,0,0,0,0,0,0,0,0,0,0,0,0,0,0,0,0,0,0,0,0,0,0,0,0,0,0,0,0,0,0,0,0,0,0,0,0,0,0,0,0,0,0,0,0,0,0,0,0,0,0,0,0,0,0,0,0,0,0,0,0,0,0,0,0,0,0,0,0,0,0,0,0,0,0,0,0,0,0,0,0,0,0,0,0,0,0,0,0,0,0,0,0,0,0,0,0,0,0],"split_type":[0,0,0,0,0,0,0,0,0,0,0,0,0,0,0,0,0,0,0,0,0,0,0,0,0,0,0,0,0,0,0,0,0,0,0,0,0,0,0,0,0,0,0,0,0,0,0,0,0,0,0,0,0,0,0,0,0,0,0,0,0,0,0,0,0,0,0,0,0,0,0,0,0,0,0,0,0,0,0,0,0,0,0,0,0,0,0,0,0,0,0,0,0,0,0,0,0,0,0,0,0,0,0,0,0,0,0,0,0,0,0,0,0,0,0,0,0,0,0,0,0,0,0,0,0,0,0,0,0,0,0,0,0,0,0,0,0,0,0,0,0,0,0,0,0,0,0,0,0,0,0,0,0,0,0,0,0,0,0,0,0,0,0,0,0,0,0,0,0,0,0,0,0,0,0,0,0,0,0,0,0,0,0,0,0,0,0,0,0,0,0,0,0,0,0,0,0,0,0,0,0,0,0,0,0,0,0,0,0,0,0,0,0,0,0,0,0,0,0,0,0,0,0],"sum_hessian":[3.0088E4,1.8917E4,1.1171E4,1.5932E4,2.985E3,6.796E3,4.375E3,1.2834E4,3.098E3,2.462E3,5.23E2,5.441E3,1.355E3,3.292E3,1.083E3,8.161E3,4.673E3,1.729E3,1.369E3,1.844E3,6.18E2,3.21E2,2.02E2,3.251E3,2.19E3,1.101E3,2.54E2,2.358E3,9.34E2,9.64E2,1.19E2,5.967E3,2.194E3,3.62E3,1.053E3,1.301E3,4.28E2,4.14E2,9.55E2,9.58E2,8.86E2,3.89E2,2.29E2,2.86E2,3.5E1,8.7E1,1.15E2,1.829E3,1.422E3,1.713E3,4.77E2,9.97E2,1.04E2,2.11E2,4.3E1,1.739E3,6.19E2,5.66E2,3.68E2,5.64E2,4E2,9.2E1,2.7E1,4.652E3,1.315E3,7.96E2,1.398E3,2.118E3,1.502E3,8.32E2,2.21E2,1.071E3,2.3E2,3.52E2,7.6E1,3.02E2,1.12E2,6.15E2,3.4E2,9.46E2,1.2E1,7.71E2,1.15E2,7.9E1,3.1E2,6.2E1,1.67E2,2.31E2,5.5E1,7.3E1,1.4E1,7.5E1,4E1,1.675E3,1.54E2,6.73E2,7.49E2,1.43E3,2.83E2,3.55E2,1.22E2,9.04E2,9.3E1,9.5E1,9E0,1.43E2,6.8E1,6.79E2,1.06E3,3.24E2,2.95E2,4.42E2,1.24E2,2.29E2,1.39E2,4.06E2,1.58E2,3.38E2,6.2E1,8.4E1,8E0,3.839E3,8.13E2,4.54E2,8.61E2,5.34E2,2.62E2,3.77E2,1.021E3,1.663E3,4.55E2,1.241E3,2.61E2,8.06E2,2.6E1,1.84E2,3.7E1,8.43E2,2.28E2,1.9E1,2.11E2,1.07E2,2.45E2,4.7E1,2.9E1,6.3E1,2.39E2,4.1E1,7.1E1,4.87E2,1.28E2,2.34E2,1.06E2,8.33E2,1.13E2,6.73E2,9.8E1,8.4E1,3.1E1,2.8E1,5.1E1,9.2E1,2.18E2,6.6E1,1.01E2,7.5E1,1.56E2,2.5E1,3E1,5.7E1,1.8E1,2E1,2E1,1.301E3,3.74E2,1.29E2,2.5E1,6.21E2,5.2E1,3.02E2,4.47E2,5.51E2,8.79E2,2.57E2,2.6E1,2.9E2,6.5E1,1.06E2,1.6E1,4.59E2,4.45E2,7.5E1,1.8E1,7.9E1,1.6E1,1.01E2,4.2E1,6E1,8E0,5.63E2,1.16E2,4.23E2,6.37E2,1.77E2,1.47E2,2.55E2,4E1,3.76E2,6.6E1,1.13E2,1.1E1,1.29E2,1E2,9.6E1,4.3E1,3.61E2,4.5E1,1.1E2,4.8E1,2.39E2,9.9E1,6E1,2.4E1],"tree_param":{"num_deleted":"0","num_feature":"18","num_nodes":"223","size_leaf_vector":"1"}},{"base_weights":[1.0974378E-2,-6.670635E-1,1.1656282E0,-3.5212956E-2,-1.9434341E0,5.8319896E-1,2.0673206E0,-4.058241E-1,1.8189113E0,-1.6378889E0,-3.5611498E0,-4.476767E-1,1.5225223E0,1.5932777E0,3.4789321E0,-2.0943844E0,-1.0060139E-1,-1.2531516E-1,2.4212894E0,-1.2182809E0,-3.5103285E0,-3.291665E0,-4.6958175E0,-7.309335E-1,1.3071152E0,8.9734703E-1,2.5418296E0,1.0085485E0,3.0883255E0,3.240208E0,1.3189824E0,-3.0304792E0,-9.975904E-1,-8.2878727E-1,5.736027E-1,-1.1442779E0,3.3835506E0,2.2040818E0,7.82294E0,-2.0402555E0,-6.5269744E-1,-3.2432418E0,-4.7434154E0,-3.0912735E0,-4.765225E0,-1.2294887E0,-4.253297E0,-1.728933E0,-3.9679885E-1,1.0013888E0,4.89481E0,5.5204505E-1,2.1183188E0,2.2016404E0,4.0027986E0,-8.63408E-2,1.5665762E0,2.1909137E0,4.2091193E0,2.9690754E0,5.277232E0,-4.231466E0,-2.3209527E0,-1.7272185E0,3.2826793E-1,-1.0937847E0,1.2862941E0,-5.8898393E-2,1.6448965E0,-2.1827533E0,3.0919182E0,2.1752043E0,1.4473494E0,1.6633357E0,4.1954064E0,6.558924E0,2.5794773E0,-1.7851986E0,-3.260826E0,-1.1972438E0,4.0647566E-1,-2.9944978E0,-4.7094383E0,-1.0585574E0,-3.8364024E0,2.5212234E-1,-3.1550798E0,-1.2694023E0,-4.2899895E0,-3.749387E0,-1.0061598E0,-1.9831066E0,9.994174E-2,-1.3938969E0,-6.1836503E-2,8.490015E-2,1.7454151E0,7.745873E-1,1.1667078E0,-1.4669466E-1,1.0287583E0,1.7767758E0,3.0444503E0,1.9404045E0,4.5932226E0,3.6062038E0,1.164737E0,-2.9587507E-1,3.9883597E0,1.282233E0,4.1174464E0,1.8711641E0,5.925173E0,3.740649E0,7.276409E0,2.506679E0,4.399517E0,4.6587024E0,1.4035676E0,-1.068022E0,-6.6671705E-1,-1.0353192E0,-3.5998073E-1,-4.3696737E-1,2.9686368E-1,-3.7011668E-1,3.0058756E-1,-1.3935442E-1,-4.5570335E-1,1.3110937E-1,7.482722E-1,-2.3313558E-1,1.460575E-1,2.8789443E-1,1.4229722E0,-1.0694253E0,-3.075311E-1,4.3063655E-1,1.264112E0,2.1587676E-1,1.2445192E0,2.3395933E-1,9.2842925E-1,7.0713043E-1,