{"learner":{"attributes":{"scikit_learn":"{\"_estimator_type\": \"regressor\"}"},"feature_names":[],"feature_types":[],"gradient_booster":{"model":{"gbtree_model_param":{"num_parallel_tree":"1","num_trees":"339"},"iteration_indptr":[0,1,2,3,4,5,6,7,8,9,10,11,12,13,14,15,16,17,18,19,20,21,22,23,24,25,26,27,28,29,30,31,32,33,34,35,36,37,38,39,40,41,42,43,44,45,46,47,48,49,50,51,52,53,54,55,56,57,58,59,60,61,62,63,64,65,66,67,68,69,70,71,72,73,74,75,76,77,78,79,80,81,82,83,84,85,86,87,88,89,90,91,92,93,94,95,96,97,98,99,100,101,102,103,104,105,106,107,108,109,110,111,112,113,114,115,116,117,118,119,120,121,122,123,124,125,126,127,128,129,130,131,132,133,134,135,136,137,138,139,140,141,142,143,144,145,146,147,148,149,150,151,152,153,154,155,156,157,158,159,160,161,162,163,164,165,166,167,168,169,170,171,172,173,174,175,176,177,178,179,180,181,182,183,184,185,186,187,188,189,190,191,192,193,194,195,196,197,198,199,200,201,202,203,204,205,206,207,208,209,210,211,212,213,214,215,216,217,218,219,220,221,222,223,224,225,226,227,228,229,230,231,232,233,234,235,236,237,238,239,240,241,242,243,244,245,246,247,248,249,250,251,252,253,254,255,256,257,258,259,260,261,262,263,264,265,266,267,268,269,270,271,272,273,274,275,276,277,278,279,280,281,282,283,284,285,286,287,288,289,290,291,292,293,294,295,296,297,298,299,300,301,302,303,304,305,306,307,308,309,310,311,312,313,314,315,316,317,318,319,320,321,322,323,324,325,326,327,328,329,330,331,332,333,334,335,336,337,338,339],"tree_info":[0,0,0,0,0,0,0,0,0,0,0,0,0,0,0,0,0,0,0,0,0,0,0,0,0,0,0,0,0,0,0,0,0,0,0,0,0,0,0,0,0,0,0,0,0,0,0,0,0,0,0,0,0,0,0,0,0,0,0,0,0,0,0,0,0,0,0,0,0,0,0,0,0,0,0,0,0,0,0,0,0,0,0,0,0,0,0,0,0,0,0,0,0,0,0,0,0,0,0,0,0,0,0,0,0,0,0,0,0,0,0,0,0,0,0,0,0,0,0,0,0,0,0,0,0,0,0,0,0,0,0,0,0,0,0,0,0,0,0,0,0,0,0,0,0,0,0,0,0,0,0,0,0,0,0,0,0,0,0,0,0,0,0,0,0,0,0,0,0,0,0,0,0,0,0,0,0,0,0,0,0,0,0,0,0,0,0,0,0,0,0,0,0,0,0,0,0,0,0,0,0,0,0,0,0,0,0,0,0,0,0,0,0,0,0,0,0,0,0,0,0,0,0,0,0,0,0,0,0,0,0,0,0,0,0,0,0,0,0,0,0,0,0,0,0,0,0,0,0,0,0,0,0,0,0,0,0,0,0,0,0,0,0,0,0,0,0,0,0,0,0,0,0,0,0,0,0,0,0,0,0,0,0,0,0,0,0,0,0,0,0,0,0,0,0,0,0,0,0,0,0,0,0,0,0,0,0,0,0,0,0,0,0,0,0,0,0,0,0,0,0,0,0,0,0,0,0,0,0,0,0,0,0,0,0,0,0,0,0],"trees":[{"base_weights":[1.7114913E-2,-3.791112E0,6.451457E0,-6.6841154E0,1.7647556E0,3.1030896E0,1.1644806E1,-1.0480751E1,-3.8347611E0,-4.9265918E-1,1.1062695E1,-2.4262297E0,8.457069E0,8.932022E0,1.9344994E1,-1.3021225E1,-8.2270355E0,-6.484256E0,2.0837078E0,-3.8383923E0,3.1484041E0,9.259688E0,1.8716936E1,-5.247895E0,1.1134108E0,5.1169477E0,1.4540969E1,5.8156705E0,1.6988804E1,1.8036346E1,2.9383503E1,-1.6026808E1,-9.929725E0,-1.2879198E1,-6.477622E0,-8.076579E0,-1.2197099E0,-3.0214143E-1,8.842059E0,-8.311841E0,-5.931296E-1,6.480471E-1,8.374494E0,5.2710795E0,1.26412115E1,1.6246597E1,4.493748E0,-9.526796E0,-3.9834733E0,-2.8862057E0,3.6509962E0,3.1745205E0,1.2034077E1,1.2510941E1,2.2093283E1,1.9520447E0,8.521036E0,1.5506771E1,2.6016699E1,1.6087822E1,2.4897812E1,2.7607271E1,6.823172E0,-4.335944E0,-1.5518444E1,-1.0781766E1,-2.9589317E0,-1.6715368E1,-8.928973E0,-8.3771925E0,1.7575074E0,-1.2074846E1,-5.5359793E0,-4.610688E0,5.162863E0,-2.9832654E0,1.4223247E0,7.563888E0,1.481217E1,-1.053071E1,-2.4600418E0,-3.384493E0,5.9509435E0,-1.1067494E0,1.0841651E1,6.54944E0,1.5544956E1,4.524223E0,2.0161443E0,1.1067855E1,3.6437151E0,1.49491625E1,4.850672E0,-1.0461591E1,-5.4391904E0,-4.5284047E0,1.989653E0,-4.1741157E0,6.351211E0,1.6930757E0,9.010182E0,4.849203E-1,5.175098E0,1.0923447E1,3.6731904E0,8.945904E0,1.6621004E1,1.9641117E1,5.260082E0,-6.6818506E-1,7.0663404E0,6.7437487E0,1.5776357E1,1.1768989E1,1.9481657E1,2.3497244E1,6.197226E0,1.2677237E1,1.9914692E1,2.3046429E1,5.8839965E0,5.15453E0,7.008926E0,-3.7220855E0,-2.8576858E0,-3.1297638E0,-1.8458831E0,-1.0329257E0,9.788606E-2,-3.432925E0,-2.6248102E0,-2.1487794E0,-9.527602E-1,-2.060063E0,-1.0377566E0,1.6642697E-1,1.4740757E0,-2.710157E0,-2.0594075E0,-1.5024979E0,-3.6565962E-1,-1.2454118E0,-1.5431252E-1,8.11008E-1,2.138889E0,-8.6130637E-1,1.1457075E-1,1.328279E-1,1.2896348E0,1.1314164E0,2.0664363E0,2.7372196E0,3.5524607E0,-2.5917156E0,-1.6022878E0,-1.3147091E0,2.5659416E-2,-1.2321218E0,-3.0062833E-1,8.677136E-1,2.2824793E0,-6.5643084E-1,5.342134E-1,1.75233E0,3.4860337E0,4.551909E-1,1.9187131E0,2.4701416E0,4.016301E0,6.4161474E-1,1.1667668E0,1.8823336E0,2.7569504E0,2.6408744E0,3.445397E0,-2.1387737E0,-1.2989554E0,-1.229883E0,-3.5407546E-1,-1.3617717E0,-6.632768E-1,-1.0524911E-1,1.0542117E0,-1.1427991E0,-2.142619E-1,6.8780977E-1,1.6717459E0,1.8066396E-1,1.3655305E0,1.5052295E0,3.1119962E0,-1.2016809E-1,7.9898083E-1,8.754367E-1,2.063063E0,1.8355675E0,2.6970773E0,1.608383E0,2.8414886E0,2.9458723E0,4.4717216E0,3.6106198E0,5.900742E0,-3.5275227E-1,4.8022047E-1,1.0655218E0,2.4972498E0,8.346859E-1,1.7533228E0,2.9039173E0,4.2529263E0,1.9585056E0,3.8526354E0,3.2575166E0,4.5889883E0,4.1653466E0,5.244556E0,2.1105733E0,2.8935196E0,3.6606524E0,5.114278E0,4.3445764E0,6.2449045E0],"categories":[],"categories_nodes":[],"categories_segments":[],"categories_sizes":[],"default_left":[0,0,0,0,0,0,0,0,0,0,0,0,0,0,0,0,0,0,0,0,0,0,0,0,0,0,0,0,0,0,0,0,0,0,0,0,0,0,0,0,0,0,0,0,0,0,0,0,0,0,0,0,0,0,0,0,0,0,0,0,0,0,0,0,0,0,0,0,0,0,0,0,0,0,0,0,0,0,0,0,0,0,0,0,0,0,0,0,0,0,0,0,0,0,0,0,0,0,0,0,0,0,0,0,0,0,0,0,0,0,0,0,0,0,0,0,0,0,0,0,0,0,0,0,0,0,0,0,0,0,0,0,0,0,0,0,0,0,0,0,0,0,0,0,0,0,0,0,0,0,0,0,0,0,0,0,0,0,0,0,0,0,0,0,0,0,0,0,0,0,0,0,0,0,0,0,0,0,0,0,0,0,0,0,0,0,0,0,0,0,0,0,0,0,0,0,0,0,0,0,0,0,0,0,0,0,0,0,0,0,0,0,0,0,0,0,0,0,0,0,0,0,0],"id":0,"left_children":[1,3,5,7,9,11,13,15,17,19,21,23,25,27,29,31,33,35,37,39,41,43,45,47,49,51,53,55,57,59,61,63,65,67,69,71,73,75,77,79,81,83,85,87,89,91,-1,93,95,97,99,101,103,105,107,109,111,113,115,117,119,121,-1,-1,123,125,127,129,131,133,135,137,139,141,143,145,147,149,151,153,155,157,159,161,163,165,167,169,-1,171,-1,173,-1,175,177,179,181,183,185,187,189,191,193,195,-1,197,199,201,-1,203,205,207,209,211,213,215,-1,217,219,221,-1,-1,-1,-1,-1,-1,-1,-1,-1,-1,-1,-1,-1,-1,-1,-1,-1,-1,-1,-1,-1,-1,-1,-1,-1,-1,-1,-1,-1,-1,-1,-1,-1,-1,-1,-1,-1,-1,-1,-1,-1,-1,-1,-1,-1,-1,-1,-1,-1,-1,-1,-1,-1,-1,-1,-1,-1,-1,-1,-1,-1,-1,-1,-1,-1,-1,-1,-1,-1,-1,-1,-1,-1,-1,-1,-1,-1,-1,-1,-1,-1,-1,-1,-1,-1,-1,-1,-1,-1,-1,-1,-1,-1,-1,-1,-1,-1,-1,-1,-1,-1,-1,-1],"loss_changes":[7.369408E5,3.0368172E5,1.9441038E5,1.3436212E5,1.3580625E5,2.0132678E5,9.138344E4,3.0386938E4,1.11332586E5,6.3443887E4,1.7270703E4,3.3424617E4,7.013453E4,8.132567E4,1.44591875E4,2.3088844E4,2.2907984E4,4.1099703E4,3.541187E4,3.9395605E4,3.2583896E4,1.3758133E4,2.0499297E3,1.0036094E4,1.5082352E4,2.9950984E4,1.8489234E4,2.4442266E4,1.1691734E4,1.3129625E4,2.5292188E2,3.5050625E3,7.309203E3,1.1534281E4,3.2161516E4,3.8178016E4,2.4697016E4,7.512819E3,4.260426E3,1.4789266E4,2.8772223E4,3.0206438E4,1.0458984E4,1.7014746E3,4.8904453E3,1.2923203E3,0E0,1.5632305E3,4.692879E3,6.8910566E3,9.522757E3,9.381527E3,3.3819844E3,1.4020297E4,2.3822734E3,1.293633E4,1.7636844E4,1.1344531E4,9.834453E2,1.00715625E4,1.3485312E3,2.5072656E2,0E0,0E0,3.745625E3,7.8012656E3,1.074888E3,6.981094E2,3.033668E3,1.0727258E4,2.0102617E3,3.8396406E3,1.7684898E4,4.865665E3,2.3166758E3,3.1460713E3,3.7858481E3,2.4640547E3,4.667578E1,5.093367E3,3.436062E3,5.8747393E3,4.0548809E3,1.2240309E4,3.1548516E3,8.688551E3,2.1173516E3,7.1027344E2,0E0,1.8117617E3,0E0,2.9563672E2,0E0,4.473086E2,2.250437E2,3.6293457E3,1.0285448E3,2.53537E3,4.0325464E2,2.7048843E3,2.141588E3,2.9127031E3,3.835289E3,1.7442344E3,0E0,2.1173906E3,4.213133E3,1.7936641E3,0E0,2.2292854E3,2.9739062E3,5.9387695E3,1.3160234E3,5.563449E3,3.8374688E3,9.967969E1,0E0,1.5034453E3,2.5221406E3,7.4115625E2,0E0,0E0,0E0,0E0,0E0,0E0,0E0,0E0,0E0,0E0,0E0,0E0,0E0,0E0,0E0,0E0,0E0,0E0,0E0,0E0,0E0,0E0,0E0,0E0,0E0,0E0,0E0,0E0,0E0,0E0,0E0,0E0,0E0,0E0,0E0,0E0,0E0,0E0,0E0,0E0,0E0,0E0,0E0,0E0,0E0,0E0,0E0,0E0,0E0,0E0,0E0,0E0,0E0,0E0,0E0,0E0,0E0,0E0,0E0,0E0,0E0,0E0,0E0,0E0,0E0,0E0,0E0,0E0,0E0,0E0,0E0,0E0,0E0,0E0,0E0,0E0,0E0,0E0,0E0,0E0,0E0,0E0,0E0,0E0,0E0,0E0,0E0,0E0,0E0,0E0,0E0,0E0,0E0,0E0,0E0,0E0,0E0,0E0,0E0,0E0,0E0,0E0,0E0],"parents":[2147483647,0,0,1,1,2,2,3,3,4,4,5,5,6,6,7,7,8,8,9,9,10,10,11,11,12,12,13,13,14,14,15,15,16,16,17,17,18,18,19,19,20,20,21,21,22,22,23,23,24,24,25,25,26,26,27,27,28,28,29,29,30,30,31,31,32,32,33,33,34,34,35,35,36,36,37,37,38,38,39,39,40,40,41,41,42,42,43,43,44,44,45,45,47,47,48,48,49,49,50,50,51,51,52,52,53,53,54,54,55,55,56,56,57,57,58,58,59,59,60,60,61,61,64,64,65,65,66,66,67,67,68,68,69,69,70,70,71,71,72,72,73,73,74,74,75,75,76,76,77,77,78,78,79,79,80,80,81,81,82,82,83,83,84,84,85,85,86,86,87,87,89,89,91,91,93,93,94,94,95,95,96,96,97,97,98,98,99,99,100,100,101,101,102,102,103,103,105,105,106,106,107,107,109,109,110,110,111,111,112,112,113,113,114,114,115,115,117,117,118,118,119,119],"right_children":[2,4,6,8,10,12,14,16,18,20,22,24,26,28,30,32,34,36,38,40,42,44,46,48,50,52,54,56,58,60,62,64,66,68,70,72,74,76,78,80,82,84,86,88,90,92,-1,94,96,98,100,102,104,106,108,110,112,114,116,118,120,122,-1,-1,124,126,128,130,132,134,136,138,140,142,144,146,148,150,152,154,156,158,160,162,164,166,168,170,-1,172,-1,174,-1,176,178,180,182,184,186,188,190,192,194,196,-1,198,200,202,-1,204,206,208,210,212,214,216,-1,218,220,222,-1,-1,-1,-1,-1,-1,-1,-1,-1,-1,-1,-1,-1,-1,-1,-1,-1,-1,-1,-1,-1,-1,-1,-1,-1,-1,-1,-1,-1,-1,-1,-1,-1,-1,-1,-1,-1,-1,-1,-1,-1,-1,-1,-1,-1,-1,-1,-1,-1,-1,-1,-1,-1,-1,-1,-1,-1,-1,-1,-1,-1,-1,-1,-1,-1,-1,-1,-1,-1,-1,-1,-1,-1,-1,-1,-1,-1,-1,-1,-1,-1,-1,-1,-1,-1,-1,-1,-1,-1,-1,-1,-1,-1,-1,-1,-1,-1,-1,-1,-1,-1,-1,-1],"split_conditions":[6E0,4E0,7E0,5E0,5E0,2E0,2E0,3E0,3E0,5E0,5E0,2E0,3E0,8E0,8E0,3E0,4E0,3E0,2E0,4E0,4E0,1E0,1E0,1E0,1E0,2E0,4E0,1E0,9E0,3E0,1E0,4E0,5E0,3E0,3E0,2E0,2E0,1E0,3E0,3E0,2E0,7E0,6E0,2E0,2E0,6E0,4.493748E0,3E0,3E0,4E0,3E0,1E0,3E0,1E0,1E0,2E0,2E0,1E0,1E0,1E0,1E0,3E0,6.823172E0,-4.335944E0,2E0,4E0,2E0,3E0,4E0,2E0,4E0,2E0,2E0,4E0,4E0,2E0,2E0,1E0,1E0,2E0,3E0,1E0,3E0,2E0,8E0,1E0,1E0,1E0,2.0161443E0,1E0,3.6437151E0,1E0,4.850672E0,3E0,4E0,1E0,1E0,3E0,1E0,2E0,4E0,2E0,2E0,1E0,3.6731904E0,2E0,2E0,5E0,5.260082E0,2E0,3E0,1E0,3E0,2E0,1E0,1E0,6.197226E0,1E0,2E0,4E0,5.8839965E0,5.15453E0,7.008926E0,-3.7220855E0,-2.8576858E0,-3.1297638E0,-1.8458831E0,-1.0329257E0,9.788606E-2,-3.432925E0,-2.6248102E0,-2.1487794E0,-9.527602E-1,-2.060063E0,-1.0377566E0,1.6642697E-1,1.4740757E0,-2.710157E0,-2.0594075E0,-1.5024979E0,-3.6565962E-1,-1.2454118E0,-1.5431252E-1,8.11008E-1,2.138889E0,-8.6130637E-1,1.1457075E-1,1.328279E-1,1.2896348E0,1.1314164E0,2.0664363E0,2.7372196E0,3.5524607E0,-2.5917156E0,-1.6022878E0,-1.3147091E0,2.5659416E-2,-1.2321218E0,-3.0062833E-1,8.677136E-1,2.2824793E0,-6.5643084E-1,5.342134E-1,1.75233E0,3.4860337E0,4.551909E-1,1.9187131E0,2.4701416E0,4.016301E0,6.4161474E-1,1.1667668E0,1.8823336E0,2.7569504E0,2.6408744E0,3.445397E0,-2.1387737E0,-1.2989554E0,-1.229883E0,-3.5407546E-1,-1.3617717E0,-6.632768E-1,-1.0524911E-1,1.0542117E0,-1.1427991E0,-2.142619E-1,6.8780977E-1,1.6717459E0,1.8066396E-1,1.3655305E0,1.5052295E0,3.1119962E0,-1.2016809E-1,7.9898083E-1,8.754367E-1,2.063063E0,1.8355675E0,2.6970773E0,1.608383E0,2.8414886E0,2.9458723E0,4.4717216E0,3.6106198E0,5.900742E0,-3.5275227E-1,4.8022047E-1,1.0655218E0,2.4972498E0,8.346859E-1,1.7533228E0,2.9039173E0,4.2529263E0,1.9585056E0,3.8526354E0,3.2575166E0,4.5889883E0,4.1653466E0,5.244556E0,2.1105733E0,2.8935196E0,3.6606524E0,5.114278E0,4.3445764E0,6.2449045E0],"split_indices":[0,1,0,0,0,1,1,1,1,1,1,2,1,0,0,2,0,2,2,0,0,2,2,1,1,2,1,1,0,1,2,0,2,2,2,1,1,2,2,2,2,1,1,3,2,1,0,3,3,2,2,2,2,2,2,2,2,1,1,2,2,1,0,0,1,0,1,3,2,2,2,2,2,2,2,3,3,3,3,2,0,2,2,2,1,2,2,3,0,3,0,3,0,4,3,2,2,2,3,3,2,3,3,3,0,3,2,1,0,3,2,2,2,2,2,2,0,3,2,1,0,0,0,0,0,0,0,0,0,0,0,0,0,0,0,0,0,0,0,0,0,0,0,0,0,0,0,0,0,0,0,0,0,0,0,0,0,0,0,0,0,0,0,0,0,0,0,0,0,0,0,0,0,0,0,0,0,0,0,0,0,0,0,0,0,0,0,0,0,0,0,0,0,0,0,0,0,0,0,0,0,0,0,0,0,0,0,0,0,0,0,0,0,0,0,0,0,0,0,0,0,0,0],"split_type":[0,0,0,0,0,0,0,0,0,0,0,0,0,0,0,0,0,0,0,0,0,0,0,0,0,0,0,0,0,0,0,0,0,0,0,0,0,0,0,0,0,0,0,0,0,0,0,0,0,0,0,0,0,0,0,0,0,0,0,0,0,0,0,0,0,0,0,0,0,0,0,0,0,0,0,0,0,0,0,0,0,0,0,0,0,0,0,0,0,0,0,0,0,0,0,0,0,0,0,0,0,0,0,0,0,0,0,0,0,0,0,0,0,0,0,0,0,0,0,0,0,0,0,0,0,0,0,0,0,0,0,0,0,0,0,0,0,0,0,0,0,0,0,0,0,0,0,0,0,0,0,0,0,0,0,0,0,0,0,0,0,0,0,0,0,0,0,0,0,0,0,0,0,0,0,0,0,0,0,0,0,0,0,0,0,0,0,0,0,0,0,0,0,0,0,0,0,0,0,0,0,0,0,0,0,0,0,0,0,0,0,0,0,0,0,0,0,0,0,0,0,0,0],"sum_hessian":[3.0073E4,1.8892E4,1.1181E4,1.2423E4,6.469E3,6.799E3,4.382E3,5.325E3,7.098E3,5.206E3,1.263E3,3.345E3,3.454E3,3.242E3,1.14E3,2.501E3,2.824E3,4.903E3,2.195E3,2.713E3,2.493E3,1.024E3,2.39E2,1.861E3,1.484E3,2.231E3,1.223E3,2.339E3,9.03E2,1.011E3,1.29E2,1.266E3,1.235E3,7.7E2,2.054E3,3.764E3,1.139E3,1.623E3,5.72E2,1.14E3,1.573E3,1.687E3,8.06E2,4.71E2,5.53E2,1.52E2,8.7E1,4.23E2,1.438E3,5.76E2,9.08E2,1.743E3,4.88E2,9.66E2,2.57E2,9.64E2,1.375E3,7.78E2,1.25E2,7.9E2,2.21E2,1.01E2,2.8E1,9.6E1,1.17E3,1.1E3,1.35E2,3.89E2,3.81E2,1.669E3,3.85E2,1.461E3,2.303E3,7.44E2,3.95E2,6.35E2,9.88E2,4.73E2,9.9E1,8.26E2,3.14E2,1.103E3,4.7E2,1.44E3,2.47E2,6.44E2,1.62E2,4.11E2,6E1,4.38E2,1.15E2,1.34E2,1.8E1,3.43E2,8E1,1.318E3,1.2E2,5.06E2,7E1,6.66E2,2.42E2,7.44E2,9.99E2,4.2E2,6.8E1,5.19E2,4.47E2,1.71E2,8.6E1,6.38E2,3.26E2,1.106E3,2.69E2,4.03E2,3.75E2,8.9E1,3.6E1,4.2E2,3.7E2,1.65E2,5.6E1,8.9E1,1.2E1,2.68E2,9.02E2,2.37E2,8.63E2,8.1E1,5.4E1,3.19E2,7E1,2.56E2,1.25E2,1E3,6.69E2,3.33E2,5.2E1,7.16E2,7.45E2,1.469E3,8.34E2,5.14E2,2.3E2,3.35E2,6E1,4.57E2,1.78E2,8.63E2,1.25E2,2.93E2,1.8E2,8.1E1,1.8E1,3.93E2,4.33E2,1.19E2,1.95E2,4.33E2,6.7E2,3.7E2,1E2,9.1E2,5.3E2,1.94E2,5.3E1,2.77E2,3.67E2,1.02E2,6E1,2.17E2,1.94E2,2.91E2,1.47E2,8.7E1,4.7E1,3.1E2,3.3E1,6.5E1,1.5E1,4.31E2,8.87E2,6.9E1,5.1E1,3.31E2,1.75E2,3.1E1,3.9E1,5.81E2,8.5E1,2.03E2,3.9E1,5.7E2,1.74E2,8.79E2,1.2E2,2.68E2,1.52E2,4.56E2,6.3E1,3.53E2,9.4E1,1.54E2,1.7E1,4.69E2,1.69E2,2.53E2,7.3E1,5.12E2,5.94E2,2.31E2,3.8E1,3.28E2,7.5E1,2.14E2,1.61E2,5.5E1,3.4E1,2.15E2,2.05E2,3.06E2,6.4E1,1.51E2,1.4E1],"tree_param":{"num_deleted":"0","num_feature":"18","num_nodes":"223","size_leaf_vector":"1"}},{"base_weights":[8.450558E-3,-3.0485446E0,5.175869E0,-5.3613496E0,1.4051964E0,2.4949615E0,9.339744E0,-8.39609E0,-3.0651329E0,-4.3780965E-1,8.900528E0,-1.947248E0,6.794977E0,7.1720147E0,1.5551009E1,-1.0461562E1,-6.5565033E0,-5.1818166E0,1.6326231E0,-1.845412E0,6.128403E0,7.4491973E0,1.5252357E1,-4.20152E0,8.503805E-1,4.0765867E0,1.1663688E1,4.665139E0,1.3609195E1,1.4500643E1,2.3668327E1,-1.1752663E1,-5.5800214E0,-7.970764E0,-2.822064E0,-6.4689455E0,-9.0085846E-1,-2.5040883E-1,7.0530086E0,-5.023535E0,1.1499189E0,4.7918954E0,1.2550576E1,4.2868085E0,1.0199305E1,1.3312598E1,3.6425881E0,-7.6745367E0,-3.1900651E0,-2.2752492E0,2.8666456E0,2.5327172E0,9.5879135E0,1.0057266E1,1.7810545E1,1.5117815E0,6.8469625E0,1.2453689E1,2.0823862E1,1.2948824E1,2.0101961E1,2.199565E1,5.5567884E0,-1.4513084E1,-1.0747188E1,-8.808525E0,-3.945389E0,-1.3327573E1,-6.73178E0,-7.159146E0,1.423343E0,-9.637998E0,-4.4269805E0,-3.6185102E0,4.061108E0,-2.3969226E0,1.1319044E0,6.011254E0,2.3607152E0,-7.7752852E0,-2.825892E0,-4.4705376E-1,6.0540447E0,2.8725867E0,8.855643E0,1.0094768E1,1.6568338E1,4.682093E0,3.5060744E0,8.9216385E0,2.9380033E0,2.3999534E0,3.970912E0,-7.19382E0,-1.8066069E0,-4.8159747E0,-2.2921104E0,-3.337448E0,5.1191187E0,1.3424478E0,7.176326E0,3.838132E-1,4.135894E0,8.734345E0,2.96958E0,7.172182E0,1.3335288E1,1.6829422E1,5.233536E0,-5.303237E-1,5.6558313E0,5.378014E0,1.2762102E1,9.400465E0,1.5593297E1,1.8791647E1,5.0171146E0,1.0230376E1,1.5999633E1,1.8557135E1,4.7472954E0,4.106882E0,5.6305094E0,-2.7073028E0,-3.2063723E0,-2.4004686E0,-1.5163647E0,-1.9072593E0,-1.1887778E-1,-1.3637309E0,5.2965343E-2,-3.0506582E0,-2.3858256E0,-1.6562859E0,-8.272109E-1,-1.7286112E0,-7.6505464E-1,1.3212584E-1,1.215314E0,-2.592237E0,-1.7541144E0,-1.1962678E0,-2.880221E-1,-1.4196337E0,-3.664594E-1,6.314814E-1,1.7113954E0,-3.9967838E-1,-8.271273E-1,3.0081588E-1,1.7781664E-2,1.2528684E0,9.102418E-1,-2.086321E0,-1.1221027E0,-9.094827E-1,1.0632619E-1,-5.382812E-1,7.8448826E-1,9.336536E-1,2.611383E0,-2.4803777E-1,9.3180263E-1,1.4434822E0,2.8268535E0,1.829797E0,3.403016E0,3.0082383E0,4.200283E0,1.0068951E0,7.314555E-1,7.3328424E-1,4.33803E-1,1.8055589E0,1.5638177E0,-1.3058923E0,-1.7430888E0,-8.855211E-1,-1.2530419E0,-3.4971797E-1,-6.5182817E-1,-9.0107036E-1,-1.6170518E-1,1.074316E0,5.371272E-1,3.3554068E-1,1.7596828E-2,1.1887208E0,2.6025317E0,1.546798E-1,-9.132411E-2,9.072822E-1,5.865957E-1,1.7746449E0,1.4760902E0,1.47486E0,1.1247077E0,2.3662062E0,3.5700595E0,2.9024572E0,4.08337E0,-5.582869E-1,1.7139328E-1,8.571017E-1,1.9760649E0,6.724705E-1,1.3978868E0,2.3449125E0,3.4271939E0,1.1237369E0,2.4011297E0,2.600189E0,3.6982245E0,3.3117707E0,4.225339E0,2.090269E0,1.7865099E0,2.9404783E0,4.145102E0,3.5121453E0,5.032466E0],"categories":[],"categories_nodes":[],"categories_segments":[],"categories_sizes":[],"default_left":[0,0,0,0,0,0,0,0,0,0,0,0,0,0,0,0,0,0,0,0,0,0,0,0,0,0,0,0,0,0,0,0,0,0,0,0,0,0,0,0,0,0,0,0,0,0,0,0,0,0,0,0,0,0,0,0,0,0,0,0,0,0,0,0,0,0,0,0,0,0,0,0,0,0,0,0,0,0,0,0,0,0,0,0,0,0,0,0,0,0,0,0,0,0,0,0,0,0,0,0,0,0,0,0,0,0,0,0,0,0,0,0,0,0,0,0,0,0,0,0,0,0,0,0,0,0,0,0,0,0,0,0,0,0,0,0,0,0,0,0,0,0,0,0,0,0,0,0,0,0,0,0,0,0,0,0,0,0,0,0,0,0,0,0,0,0,0,0,0,0,0,0,0,0,0,0,0,0,0,0,0,0,0,0,0,0,0,0,0,0,0,0,0,0,0,0,0,0,0,0,0,0,0,0,0,0,0,0,0,0,0,0,0,0,0,0,0,0,0,0,0],"id":1,"left_children":[1,3,5,7,9,11,13,15,17,19,21,23,25,27,29,31,33,35,37,39,41,43,45,47,49,51,53,55,57,59,61,63,65,67,69,71,73,75,77,79,81,83,85,87,89,91,-1,93,95,97,99,101,103,105,107,109,111,113,115,117,119,121,-1,123,125,127,129,131,133,135,137,139,141,143,145,147,149,151,-1,153,155,157,159,161,163,165,167,169,171,173,-1,-1,-1,175,-1,177,179,181,183,185,187,189,191,193,-1,195,197,199,-1,201,203,205,207,209,211,213,-1,215,217,219,-1,-1,-1,-1,-1,-1,-1,-1,-1,-1,-1,-1,-1,-1,-1,-1,-1,-1,-1,-1,-1,-1,-1,-1,-1,-1,-1,-1,-1,-1,-1,-1,-1,-1,-1,-1,-1,-1,-1,-1,-1,-1,-1,-1,-1,-1,-1,-1,-1,-1,-1,-1,-1,-1,-1,-1,-1,-1,-1,-1,-1,-1,-1,-1,-1,-1,-1,-1,-1,-1,-1,-1,-1,-1,-1,-1,-1,-1,-1,-1,-1,-1,-1,-1,-1,-1,-1,-1,-1,-1,-1,-1,-1,-1,-1,-1,-1,-1,-1,-1,-1],"loss_changes":[4.7475622E5,1.9451439E5,1.2467816E5,8.658475E4,8.917289E4,1.29846625E5,5.879497E4,2.027075E4,7.037977E4,4.7906555E4,1.1630883E4,2.1092898E4,4.566633E4,5.230175E4,9.299875E3,1.5816875E4,1.4945195E4,2.6878156E4,2.244643E4,4.0635125E4,7.7935586E3,8.992363E3,1.2319219E3,6.4812227E3,9.415555E3,1.8848164E4,1.20355625E4,1.6068371E4,7.3186406E3,8.466703E3,3.485547E2,5.3729062E3,2.757002E3,1.3549328E4,1.4372078E4,2.423039E4,1.5239144E4,4.848076E3,2.8366035E3,1.2502121E4,1.7216902E4,5.8944473E3,1.3818438E3,1.3326172E2,3.2046328E3,9.2729297E2,0E0,2.3302148E2,2.0855117E3,4.6196987E3,5.9548413E3,5.972169E3,2.1363594E3,9.200953E3,1.7402734E3,8.101695E3,1.1930922E4,7.387953E3,6.8858594E2,6.379875E3,8.823203E2,1.5123438E2,0E0,4.9816406E2,6.3072188E3,1.2548848E3,4.4252866E3,8.25E2,7.0447266E3,2.0041875E3,1.4064783E3,3.6945156E3,1.1110898E4,4.5894893E3,1.5569858E3,4.1662646E2,4.081361E2,1.966914E2,0E0,5.316457E3,6.9419727E3,1.678579E4,5.054551E3,3.9676597E3,1.9375566E3,4.2139453E2,3.3918945E1,1.1313379E2,3.8516846E1,3.0914062E1,0E0,0E0,0E0,2.4144336E2,0E0,2.2553906E2,4.8131787E2,1.5898643E3,4.3869263E1,3.029602E2,1.5565E3,2.5240314E2,5.244082E2,7.415039E1,0E0,1.9633789E2,2.6996094E3,1.5923438E3,0E0,2.0715034E3,1.7615859E3,3.7103477E3,8.896133E2,4.056914E3,2.6903594E3,1.1347656E2,0E0,8.744531E1,1.6983281E3,3.6877734E2,0E0,0E0,0E0,0E0,0E0,0E0,0E0,0E0,0E0,0E0,0E0,0E0,0E0,0E0,0E0,0E0,0E0,0E0,0E0,0E0,0E0,0E0,0E0,0E0,0E0,0E0,0E0,0E0,0E0,0E0,0E0,0E0,0E0,0E0,0E0,0E0,0E0,0E0,0E0,0E0,0E0,0E0,0E0,0E0,0E0,0E0,0E0,0E0,0E0,0E0,0E0,0E0,0E0,0E0,0E0,0E0,0E0,0E0,0E0,0E0,0E0,0E0,0E0,0E0,0E0,0E0,0E0,0E0,0E0,0E0,0E0,0E0,0E0,0E0,0E0,0E0,0E0,0E0,0E0,0E0,0E0,0E0,0E0,0E0,0E0,0E0,0E0,0E0,0E0,0E0,0E0,0E0,0E0,0E0,0E0,0E0,0E0,0E0,0E0,0E0,0E0],"parents":[2147483647,0,0,1,1,2,2,3,3,4,4,5,5,6,6,7,7,8,8,9,9,10,10,11,11,12,12,13,13,14,14,15,15,16,16,17,17,18,18,19,19,20,20,21,21,22,22,23,23,24,24,25,25,26,26,27,27,28,28,29,29,30,30,31,31,32,32,33,33,34,34,35,35,36,36,37,37,38,38,39,39,40,40,41,41,42,42,43,43,44,44,45,45,47,47,48,48,49,49,50,50,51,51,52,52,53,53,54,54,55,55,56,56,57,57,58,58,59,59,60,60,61,61,63,63,64,64,65,65,66,66,67,67,68,68,69,69,70,70,71,71,72,72,73,73,74,74,75,75,76,76,77,77,79,79,80,80,81,81,82,82,83,83,84,84,85,85,86,86,87,87,88,88,89,89,93,93,95,95,96,96,97,97,98,98,99,99,100,100,101,101,102,102,103,103,105,105,106,106,107,107,109,109,110,110,111,111,112,112,113,113,114,114,115,115,117,117,118,118,119,119],"right_children":[2,4,6,8,10,12,14,16,18,20,22,24,26,28,30,32,34,36,38,40,42,44,46,48,50,52,54,56,58,60,62,64,66,68,70,72,74,76,78,80,82,84,86,88,90,92,-1,94,96,98,100,102,104,106,108,110,112,114,116,118,120,122,-1,124,126,128,130,132,134,136,138,140,142,144,146,148,150,152,-1,154,156,158,160,162,164,166,168,170,172,174,-1,-1,-1,176,-1,178,180,182,184,186,188,190,192,194,-1,196,198,200,-1,202,204,206,208,210,212,214,-1,216,218,220,-1,-1,-1,-1,-1,-1,-1,-1,-1,-1,-1,-1,-1,-1,-1,-1,-1,-1,-1,-1,-1,-1,-1,-1,-1,-1,-1,-1,-1,-1,-1,-1,-1,-1,-1,-1,-1,-1,-1,-1,-1,-1,-1,-1,-1,-1,-1,-1,-1,-1,-1,-1,-1,-1,-1,-1,-1,-1,-1,-1,-1,-1,-1,-1,-1,-1,-1,-1,-1,-1,-1,-1,-1,-1,-1,-1,-1,-1,-1,-1,-1,-1,-1,-1,-1,-1,-1,-1,-1,-1,-1,-1,-1,-1,-1,-1,-1,-1,-1,-1,-1],"split_conditions":[6E0,4E0,7E0,5E0,5E0,2E0,2E0,3E0,3E0,6E0,5E0,2E0,3E0,8E0,8E0,4E0,3E0,3E0,2E0,4E0,4E0,1E0,1E0,1E0,1E0,2E0,4E0,1E0,9E0,3E0,1E0,2E0,4E0,4E0,4E0,2E0,2E0,1E0,3E0,2E0,2E0,7E0,1E0,1E0,2E0,6E0,3.6425881E0,1E0,1E0,4E0,3E0,1E0,3E0,1E0,5E0,2E0,2E0,1E0,1E0,1E0,1E0,3E0,5.5567884E0,1E0,3E0,6E0,2E0,2E0,2E0,4E0,4E0,1E0,2E0,1E0,4E0,1E0,1E0,1E0,2.3607152E0,5E0,5E0,5E0,5E0,1E0,8E0,7E0,2E0,1E0,1E0,1E0,2.9380033E0,2.3999534E0,3.970912E0,1E0,-1.8066069E0,1E0,1E0,3E0,1E0,1E0,4E0,1E0,1E0,1E0,2.96958E0,1E0,2E0,1E0,5.233536E0,1E0,3E0,1E0,3E0,1E0,1E0,1E0,5.0171146E0,1E0,2E0,4E0,4.7472954E0,4.106882E0,5.6305094E0,-2.7073028E0,-3.2063723E0,-2.4004686E0,-1.5163647E0,-1.9072593E0,-1.1887778E-1,-1.3637309E0,5.2965343E-2,-3.0506582E0,-2.3858256E0,-1.6562859E0,-8.272109E-1,-1.7286112E0,-7.6505464E-1,1.3212584E-1,1.215314E0,-2.592237E0,-1.7541144E0,-1.1962678E0,-2.880221E-1,-1.4196337E0,-3.664594E-1,6.314814E-1,1.7113954E0,-3.9967838E-1,-8.271273E-1,3.0081588E-1,1.7781664E-2,1.2528684E0,9.102418E-1,-2.086321E0,-1.1221027E0,-9.094827E-1,1.0632619E-1,-5.382812E-1,7.8448826E-1,9.336536E-1,2.611383E0,-2.4803777E-1,9.3180263E-1,1.4434822E0,2.8268535E0,1.829797E0,3.403016E0,3.0082383E0,4.200283E0,1.0068951E0,7.314555E-1,7.3328424E-1,4.33803E-1,1.8055589E0,1.5638177E0,-1.3058923E0,-1.7430888E0,-8.855211E-1,-1.2530419E0,-3.4971797E-1,-6.5182817E-1,-9.0107036E-1,-1.6170518E-1,1.074316E0,5.371272E-1,3.3554068E-1,1.7596828E-2,1.1887208E0,2.6025317E0,1.546798E-1,-9.132411E-2,9.072822E-1,5.865957E-1,1.7746449E0,1.4760902E0,1.47486E0,1.1247077E0,2.3662062E0,3.5700595E0,2.9024572E0,4.08337E0,-5.582869E-1,1.7139328E-1,8.571017E-1,1.9760649E0,6.724705E-1,1.3978868E0,2.3449125E0,3.4271939E0,1.1237369E0,2.4011297E0,2.600189E0,3.6982245E0,3.3117707E0,4.225339E0,2.090269E0,1.7865099E0,2.9404783E0,4.145102E0,3.5121453E0,5.032466E0],"split_indices":[0,1,0,0,0,1,1,1,1,1,1,2,1,0,0,2,2,2,2,0,0,2,2,1,1,2,1,1,0,1,2,1,0,0,0,1,1,2,2,2,2,1,2,5,2,1,0,17,2,2,2,2,2,2,1,2,2,1,1,2,2,1,0,17,2,2,1,2,2,2,2,1,2,1,2,16,6,6,0,1,1,1,1,2,1,1,2,6,7,6,0,0,0,16,0,17,6,2,7,7,2,6,6,6,0,7,2,2,0,2,2,2,2,2,2,2,0,6,2,1,0,0,0,0,0,0,0,0,0,0,0,0,0,0,0,0,0,0,0,0,0,0,0,0,0,0,0,0,0,0,0,0,0,0,0,0,0,0,0,0,0,0,0,0,0,0,0,0,0,0,0,0,0,0,0,0,0,0,0,0,0,0,0,0,0,0,0,0,0,0,0,0,0,0,0,0,0,0,0,0,0,0,0,0,0,0,0,0,0,0,0,0,0,0,0,0,0,0,0,0,0],"split_type":[0,0,0,0,0,0,0,0,0,0,0,0,0,0,0,0,0,0,0,0,0,0,0,0,0,0,0,0,0,0,0,0,0,0,0,0,0,0,0,0,0,0,0,0,0,0,0,0,0,0,0,0,0,0,0,0,0,0,0,0,0,0,0,0,0,0,0,0,0,0,0,0,0,0,0,0,0,0,0,0,0,0,0,0,0,0,0,0,0,0,0,0,0,0,0,0,0,0,0,0,0,0,0,0,0,0,0,0,0,0,0,0,0,0,0,0,0,0,0,0,0,0,0,0,0,0,0,0,0,0,0,0,0,0,0,0,0,0,0,0,0,0,0,0,0,0,0,0,0,0,0,0,0,0,0,0,0,0,0,0,0,0,0,0,0,0,0,0,0,0,0,0,0,0,0,0,0,0,0,0,0,0,0,0,0,0,0,0,0,0,0,0,0,0,0,0,0,0,0,0,0,0,0,0,0,0,0,0,0,0,0,0,0,0,0,0,0,0,0,0,0],"sum_hessian":[3.0052E4,1.8882E4,1.117E4,1.2428E4,6.454E3,6.796E3,4.374E3,5.352E3,7.076E3,5.181E3,1.273E3,3.343E3,3.453E3,3.244E3,1.13E3,2.519E3,2.833E3,4.878E3,2.198E3,4.267E3,9.14E2,1.038E3,2.35E2,1.851E3,1.492E3,2.217E3,1.236E3,2.336E3,9.08E2,1.003E3,1.27E2,1.991E3,5.28E2,2.054E3,7.79E2,3.75E3,1.128E3,1.632E3,5.66E2,2.07E3,2.197E3,7.58E2,1.56E2,4.84E2,5.54E2,1.5E2,8.5E1,4.16E2,1.435E3,5.85E2,9.07E2,1.733E3,4.84E2,9.82E2,2.54E2,9.56E2,1.38E3,7.85E2,1.23E2,7.88E2,2.15E2,9.7E1,3E1,5.28E2,1.463E3,1.76E2,3.52E2,3.84E2,1.67E3,3.85E2,3.94E2,1.468E3,2.282E3,7.29E2,3.99E2,6.39E2,9.93E2,4.69E2,9.7E1,9.18E2,1.152E3,1.658E3,5.39E2,5.16E2,2.42E2,9.9E1,5.7E1,3.18E2,1.66E2,4.38E2,1.16E2,1.31E2,1.9E1,3.19E2,9.7E1,5.09E2,9.26E2,5.12E2,7.3E1,6.71E2,2.36E2,7.41E2,9.92E2,4.21E2,6.3E1,5.24E2,4.58E2,2.31E2,2.3E1,6.41E2,3.15E2,1.107E3,2.73E2,4E2,3.85E2,8.9E1,3.4E1,4.19E2,3.69E2,1.59E2,5.6E1,8.6E1,1.1E1,3.72E2,1.56E2,9.94E2,4.69E2,1.59E2,1.7E1,2.06E2,1.46E2,1.35E2,2.49E2,1.005E3,6.65E2,2.57E2,1.28E2,3.41E2,5.3E1,2.52E2,1.216E3,1.468E3,8.14E2,2.39E2,4.9E2,3.38E2,6.1E1,5.32E2,1.07E2,7.2E2,2.73E2,3.73E2,9.6E1,3.89E2,5.29E2,7.52E2,4E2,1.094E3,5.64E2,4.57E2,8.2E1,1.6E2,3.56E2,1.91E2,5.1E1,9.1E1,8E0,4.8E1,9E0,2.18E2,1E2,1.41E2,2.5E1,3.46E2,9.2E1,2.41E2,7.8E1,4.24E2,8.5E1,6.15E2,3.11E2,3.43E2,1.69E2,6.3E1,1E1,5.21E2,1.5E2,2E2,3.6E1,5.03E2,2.38E2,7.05E2,2.87E2,3.41E2,8E1,4.29E2,9.5E1,3.61E2,9.7E1,1.53E2,7.8E1,2.42E2,3.99E2,2.44E2,7.1E1,5.17E2,5.9E2,2.33E2,4E1,1.73E2,2.27E2,2.22E2,1.63E2,5.5E1,3.4E1,3.11E2,1.08E2,3.07E2,6.2E1,1.47E2,1.2E1],"tree_param":{"num_deleted":"0","num_feature":"18","num_nodes":"221","size_leaf_vector":"1"}},{"base_weights":[-3.754251E-3,-2.4658751E0,4.1475883E0,-4.3159194E0,1.086831E0,2.0140681E0,7.49031E0,-6.7831807E0,-2.4800982E0,-3.7999037E-1,7.155815E0,-1.5676328E0,5.4606724E0,5.7362614E0,1.24681835E1,-5.95347E0,-1.0157462E1,-4.152739E0,1.2957468E0,-1.5130398E0,4.9310527E0,5.9936705E0,1.2252505E1,-3.401198E0,7.128163E-1,3.2766352E0,9.378114E0,3.7215319E0,1.0966375E1,1.1605229E1,1.9180025E1,-4.532686E0,-1.0058433E1,-8.893953E0,-1.1564977E1,-6.308943E0,-2.4375458E0,-1.8757524E-1,5.663199E0,-4.088267E0,9.3095994E-1,2.1064556E0,7.3774314E0,3.4475965E0,8.191546E0,1.0677927E1,2.9305904E0,-6.1792574E0,-2.5822122E0,-1.8754405E0,2.379769E0,2.0301013E0,7.7620363E0,8.046379E0,1.4264269E1,1.2299662E0,5.4369736E0,9.981129E0,1.703573E1,1.0330575E1,1.6188694E1,1.8007109E1,4.5137353E0,-5.797898E0,-2.8007429E0,-8.619118E0,-1.1568253E1,-7.801468E0,-1.0735429E1,-1.2595052E1,-9.852397E0,-9.134838E0,-4.9281845E0,-4.7217264E0,2.9667202E-1,-1.91709E0,9.296643E-1,4.8675575E0,9.563401E0,-5.161879E0,1.7516404E-1,-3.4238997E-1,4.869766E0,-5.948042E-1,5.6771126E0,5.140614E0,9.620683E0,2.8071325E0,1.4591582E0,7.176176E0,1.20637245E1,9.820404E0,3.2271705E0,-6.896475E0,-2.918533E0,-3.759566E0,-2.221252E-1,-2.7020564E0,4.170136E0,1.0829787E0,5.8041506E0,3.349616E-1,3.2977457E0,7.0388947E0,2.4180603E0,5.7815027E0,1.0672673E1,1.3519263E1,4.3189745E0,-4.3316227E-1,4.583909E0,4.275365E0,1.0249498E1,7.5153728E0,1.2537656E1,1.5387822E1,4.067468E0,8.1262045E0,1.28543005E1,1.4986648E1,3.839251E0,3.3422053E0,4.7093196E0,-1.6041222E0,-9.1210127E-1,-3.5224336E-1,-1.0332631E0,-1.4311239E0,-2.0675366E0,-2.7056327E0,-2.0791712E0,-1.3249509E0,-1.9536136E0,-2.1685836E0,-1.5820414E0,-2.299922E0,-2.8409305E0,-2.5000222E0,-1.6076038E0,-2.0308168E0,-1.0700073E0,-1.2185618E0,-4.984098E-1,-1.1087575E0,6.269358E-2,-2.2883812E-1,6.483359E-1,-4.6961072E-1,1.0527952E0,-2.0229322E-1,4.935683E-1,6.7786896E-1,1.4274082E0,1.7610117E0,2.412041E0,-1.910608E0,-7.871379E-1,-4.1451472E-1,4.409323E-1,-4.2652044E-1,6.379506E-1,7.3985136E-1,2.0942273E0,-6.8847597E-1,8.340345E-1,2.8362635E-1,1.6176976E0,5.8679223E-1,1.6384605E0,1.6449733E0,2.6736739E0,3.5923603E-1,7.747777E-1,1.1686293E0,1.8662585E0,2.251391E0,3.0032127E0,1.6561285E0,2.36083E0,-1.413826E0,-8.173538E-1,-9.0733355E-1,-2.6899368E-1,-1.0473264E0,-6.075224E-1,-3.8960502E-1,2.5780794E-1,-7.482867E-1,1.4987516E-1,3.870216E-1,1.1493195E0,-1.726358E-1,5.242722E-1,9.6093315E-1,2.0537665E0,-1.0420046E-1,6.2786144E-1,2.8702945E-1,9.613313E-1,1.1421851E0,1.8243583E0,7.9725033E-1,1.4866207E0,1.8887699E0,2.8747458E0,2.3317034E0,3.2750537E0,-2.5689036E-1,3.921197E-1,6.839324E-1,1.6249821E0,5.313147E-1,1.1158639E0,1.7891792E0,2.5501869E0,1.2147057E0,2.6284494E0,2.3580482E0,4.28751E0,2.7284365E0,3.490098E0,1.4898783E0,2.5384586E0,2.3598258E0,3.3220997E0,2.8250768E0,4.1320887E0],"categories":[],"categories_nodes":[],"categories_segments":[],"categories_sizes":[],"default_left":[0,0,0,0,0,0,0,0,0,0,0,0,0,0,0,0,0,0,0,0,0,0,0,0,0,0,0,0,0,0,0,0,0,0,0,0,0,0,0,0,0,0,0,0,0,0,0,0,0,0,0,0,0,0,0,0,0,0,0,0,0,0,0,0,0,0,0,0,0,0,0,0,0,0,0,0,0,0,0,0,0,0,0,0,0,0,0,0,0,0,0,0,0,0,0,0,0,0,0,0,0,0,0,0,0,0,0,0,0,0,0,0,0,0,0,0,0,0,0,0,0,0,0,0,0,0,0,0,0,0,0,0,0,0,0,0,0,0,0,0,0,0,0,0,0,0,0,0,0,0,0,0,0,0,0,0,0,0,0,0,0,0,0,0,0,0,0,0,0,0,0,0,0,0,0,0,0,0,0,0,0,0,0,0,0,0,0,0,0,0,0,0,0,0,0,0,0,0,0,0,0,0,0,0,0,0,0,0,0,0,0,0,0,0,0,0,0,0,0,0,0,0,0,0,0,0,0],"id":2,"left_children":[1,3,5,7,9,11,13,15,17,19,21,23,25,27,29,31,33,35,37,39,41,43,45,47,49,51,53,55,57,59,61,63,65,67,69,71,73,75,77,79,81,83,85,87,89,91,-1,93,95,97,99,101,103,105,107,109,111,113,115,117,119,121,-1,123,125,127,129,131,133,135,137,139,141,143,145,147,149,151,153,155,157,159,161,163,165,167,169,171,-1,173,175,177,-1,179,181,183,185,187,189,191,193,195,197,199,-1,201,203,205,-1,207,209,211,213,215,217,219,-1,221,223,225,-1,-1,-1,-1,-1,-1,-1,-1,-1,-1,-1,-1,-1,-1,-1,-1,-1,-1,-1,-1,-1,-1,-1,-1,-1,-1,-1,-1,-1,-1,-1,-1,-1,-1,-1,-1,-1,-1,-1,-1,-1,-1,-1,-1,-1,-1,-1,-1,-1,-1,-1,-1,-1,-1,-1,-1,-1,-1,-1,-1,-1,-1,-1,-1,-1,-1,-1,-1,-1,-1,-1,-1,-1,-1,-1,-1,-1,-1,-1,-1,-1,-1,-1,-1,-1,-1,-1,-1,-1,-1,-1,-1,-1,-1,-1,-1,-1,-1,-1,-1,-1,-1,-1,-1,-1,-1,-1],"loss_changes":[3.0776775E5,1.2423463E5,7.9932E4,5.6279688E4,5.7626113E4,8.449572E4,3.805864E4,1.4783422E4,4.5023203E4,3.1383617E4,7.38966E3,1.4039224E4,2.9812047E4,3.4005094E4,6.362922E3,2.4788188E4,1.7555781E3,1.8254258E4,1.41821455E4,2.7054793E4,6.320963E3,5.7243984E3,8.009844E2,4.218174E3,6.463272E3,1.2514131E4,8.0060312E3,9.969148E3,5.199836E3,5.7335156E3,1.4621484E2,6.9191484E3,2.2776797E3,1.0327891E3,7.420703E2,8.492289E3,1.7195121E4,3.161064E3,1.6757051E3,9.581133E3,1.1065813E4,4.121908E3,2.4142559E3,1.190168E3,2.079789E3,5.669004E2,0E0,9.6911914E2,3.9976523E3,2.9447246E3,4.0391963E3,3.7701E3,1.5005645E3,5.78541E3,1.2194219E3,5.3178555E3,7.6819336E3,4.791203E3,4.1823828E2,4.3071797E3,5.701992E2,2.2538281E2,0E0,4.96984E3,3.3019404E3,1.356832E3,1.02389844E3,7.3507227E2,5.9228516E1,3.4221094E2,8.0426953E2,3.0493984E3,4.414422E3,6.832828E3,5.4743076E3,2.1819556E3,3.0637893E3,1.5453975E3,4.7049805E1,8.8134375E3,1.9870662E3,1.0881641E4,3.422416E3,3.4277825E3,1.9613994E3,1.6772842E3,1.1137031E3,4.4976147E2,0E0,1.1988594E3,5.5865234E1,3.0315332E2,0E0,2.334414E2,1.9791516E2,9.9406445E2,1.2912384E3,1.961987E3,2.4877148E2,2.0472504E3,1.0209824E3,1.8529528E3,2.913378E3,1.1102188E3,0E0,1.5902734E3,1.7961953E3,1.085125E3,0E0,1.3475668E3,1.259917E3,2.4260586E3,7.2716016E2,3.0429297E3,1.7444141E3,7.379492E1,0E0,1.0511133E3,1.0960977E3,3.4014844E2,0E0,0E0,0E0,0E0,0E0,0E0,0E0,0E0,0E0,0E0,0E0,0E0,0E0,0E0,0E0,0E0,0E0,0E0,0E0,0E0,0E0,0E0,0E0,0E0,0E0,0E0,0E0,0E0,0E0,0E0,0E0,0E0,0E0,0E0,0E0,0E0,0E0,0E0,0E0,0E0,0E0,0E0,0E0,0E0,0E0,0E0,0E0,0E0,0E0,0E0,0E0,0E0,0E0,0E0,0E0,0E0,0E0,0E0,0E0,0E0,0E0,0E0,0E0,0E0,0E0,0E0,0E0,0E0,0E0,0E0,0E0,0E0,0E0,0E0,0E0,0E0,0E0,0E0,0E0,0E0,0E0,0E0,0E0,0E0,0E0,0E0,0E0,0E0,0E0,0E0,0E0,0E0,0E0,0E0,0E0,0E0,0E0,0E0,0E0,0E0,0E0,0E0,0E0,0E0,0E0,0E0,0E0],"parents":[2147483647,0,0,1,1,2,2,3,3,4,4,5,5,6,6,7,7,8,8,9,9,10,10,11,11,12,12,13,13,14,14,15,15,16,16,17,17,18,18,19,19,20,20,21,21,22,22,23,23,24,24,25,25,26,26,27,27,28,28,29,29,30,30,31,31,32,32,33,33,34,34,35,35,36,36,37,37,38,38,39,39,40,40,41,41,42,42,43,43,44,44,45,45,47,47,48,48,49,49,50,50,51,51,52,52,53,53,54,54,55,55,56,56,57,57,58,58,59,59,60,60,61,61,63,63,64,64,65,65,66,66,67,67,68,68,69,69,70,70,71,71,72,72,73,73,74,74,75,75,76,76,77,77,78,78,79,79,80,80,81,81,82,82,83,83,84,84,85,85,86,86,87,87,89,89,90,90,91,91,93,93,94,94,95,95,96,96,97,97,98,98,99,99,100,100,101,101,102,102,103,103,105,105,106,106,107,107,109,109,110,110,111,111,112,112,113,113,114,114,115,115,117,117,118,118,119,119],"right_children":[2,4,6,8,10,12,14,16,18,20,22,24,26,28,30,32,34,36,38,40,42,44,46,48,50,52,54,56,58,60,62,64,66,68,70,72,74,76,78,80,82,84,86,88,90,92,-1,94,96,98,100,102,104,106,108,110,112,114,116,118,120,122,-1,124,126,128,130,132,134,136,138,140,142,144,146,148,150,152,154,156,158,160,162,164,166,168,170,172,-1,174,176,178,-1,180,182,184,186,188,190,192,194,196,198,200,-1,202,204,206,-1,208,210,212,214,216,218,220,-1,222,224,226,-1,-1,-1,-1,-1,-1,-1,-1,-1,-1,-1,-1,-1,-1,-1,-1,-1,-1,-1,-1,-1,-1,-1,-1,-1,-1,-1,-1,-1,-1,-1,-1,-1,-1,-1,-1,-1,-1,-1,-1,-1,-1,-1,-1,-1,-1,-1,-1,-1,-1,-1,-1,-1,-1,-1,-1,-1,-1,-1,-1,-1,-1,-1,-1,-1,-1,-1,-1,-1,-1,-1,-1,-1,-1,-1,-1,-1,-1,-1,-1,-1,-1,-1,-1,-1,-1,-1,-1,-1,-1,-1,-1,-1,-1,-1,-1,-1,-1,-1,-1,-1,-1,-1,-1,-1,-1,-1],"split_conditions":[6E0,4E0,7E0,5E0,5E0,2E0,2E0,1E0,3E0,6E0,5E0,2E0,3E0,8E0,8E0,1E0,1E0,2E0,2E0,4E0,3E0,1E0,1E0,1E0,1E0,2E0,4E0,1E0,9E0,3E0,1E0,3E0,1E0,1E0,3E0,2E0,2E0,1E0,3E0,3E0,2E0,7E0,1E0,2E0,2E0,6E0,2.9305904E0,3E0,2E0,4E0,3E0,1E0,3E0,1E0,5E0,2E0,2E0,1E0,1E0,1E0,1E0,3E0,4.5137353E0,3E0,1E0,1E0,4E0,1E0,4E0,1E0,4E0,3E0,2E0,4E0,3E0,3E0,1E0,1E0,1E0,3E0,3E0,5E0,5E0,2E0,1E0,4E0,4E0,1E0,1.4591582E0,1E0,1E0,1E0,3.2271705E0,3E0,1E0,1E0,1E0,2E0,1E0,1E0,4E0,2E0,1E0,1E0,2.4180603E0,1E0,2E0,1E0,4.3189745E0,2E0,3E0,1E0,1E0,2E0,2E0,1E0,4.067468E0,2E0,2E0,4E0,3.839251E0,3.3422053E0,4.7093196E0,-1.6041222E0,-9.1210127E-1,-3.5224336E-1,-1.0332631E0,-1.4311239E0,-2.0675366E0,-2.7056327E0,-2.0791712E0,-1.3249509E0,-1.9536136E0,-2.1685836E0,-1.5820414E0,-2.299922E0,-2.8409305E0,-2.5000222E0,-1.6076038E0,-2.0308168E0,-1.0700073E0,-1.2185618E0,-4.984098E-1,-1.1087575E0,6.269358E-2,-2.2883812E-1,6.483359E-1,-4.6961072E-1,1.0527952E0,-2.0229322E-1,4.935683E-1,6.7786896E-1,1.4274082E0,1.7610117E0,2.412041E0,-1.910608E0,-7.871379E-1,-4.1451472E-1,4.409323E-1,-4.2652044E-1,6.379506E-1,7.3985136E-1,2.0942273E0,-6.8847597E-1,8.340345E-1,2.8362635E-1,1.6176976E0,5.8679223E-1,1.6384605E0,1.6449733E0,2.6736739E0,3.5923603E-1,7.747777E-1,1.1686293E0,1.8662585E0,2.251391E0,3.0032127E0,1.6561285E0,2.36083E0,-1.413826E0,-8.173538E-1,-9.0733355E-1,-2.6899368E-1,-1.0473264E0,-6.075224E-1,-3.8960502E-1,2.5780794E-1,-7.482867E-1,1.4987516E-1,3.870216E-1,1.1493195E0,-1.726358E-1,5.242722E-1,9.6093315E-1,2.0537665E0,-1.0420046E-1,6.2786144E-1,2.8702945E-1,9.613313E-1,1.1421851E0,1.8243583E0,7.9725033E-1,1.4866207E0,1.8887699E0,2.8747458E0,2.3317034E0,3.2750537E0,-2.5689036E-1,3.921197E-1,6.839324E-1,1.6249821E0,5.313147E-1,1.1158639E0,1.7891792E0,2.5501869E0,1.2147057E0,2.6284494E0,2.3580482E0,4.28751E0,2.7284365E0,3.490098E0,1.4898783E0,2.5384586E0,2.3598258E0,3.3220997E0,2.8250768E0,4.1320887E0],"split_indices":[0,1,0,0,0,1,1,17,1,1,1,2,1,0,0,16,4,2,2,0,0,2,2,1,1,2,1,1,0,1,2,2,4,5,1,1,1,2,2,2,2,1,2,3,2,1,0,3,3,2,2,2,2,2,1,2,2,1,1,2,2,1,0,1,5,5,0,6,2,5,0,3,3,2,2,3,3,3,3,0,0,1,1,2,2,0,0,3,0,3,3,3,0,4,2,2,2,3,3,3,2,3,3,3,0,3,2,2,0,3,2,2,3,2,2,2,0,3,2,1,0,0,0,0,0,0,0,0,0,0,0,0,0,0,0,0,0,0,0,0,0,0,0,0,0,0,0,0,0,0,0,0,0,0,0,0,0,0,0,0,0,0,0,0,0,0,0,0,0,0,0,0,0,0,0,0,0,0,0,0,0,0,0,0,0,0,0,0,0,0,0,0,0,0,0,0,0,0,0,0,0,0,0,0,0,0,0,0,0,0,0,0,0,0,0,0,0,0,0,0,0,0,0,0,0,0,0],"split_type":[0,0,0,0,0,0,0,0,0,0,0,0,0,0,0,0,0,0,0,0,0,0,0,0,0,0,0,0,0,0,0,0,0,0,0,0,0,0,0,0,0,0,0,0,0,0,0,0,0,0,0,0,0,0,0,0,0,0,0,0,0,0,0,0,0,0,0,0,0,0,0,0,0,0,0,0,0,0,0,0,0,0,0,0,0,0,0,0,0,0,0,0,0,0,0,0,0,0,0,0,0,0,0,0,0,0,0,0,0,0,0,0,0,0,0,0,0,0,0,0,0,0,0,0,0,0,0,0,0,0,0,0,0,0,0,0,0,0,0,0,0,0,0,0,0,0,0,0,0,0,0,0,0,0,0,0,0,0,0,0,0,0,0,0,0,0,0,0,0,0,0,0,0,0,0,0,0,0,0,0,0,0,0,0,0,0,0,0,0,0,0,0,0,0,0,0,0,0,0,0,0,0,0,0,0,0,0,0,0,0,0,0,0,0,0,0,0,0,0,0,0,0,0,0,0,0,0],"sum_hessian":[3.0109E4,1.89E4,1.1209E4,1.2428E4,6.472E3,6.843E3,4.366E3,5.301E3,7.127E3,5.213E3,1.259E3,3.356E3,3.487E3,3.23E3,1.136E3,4.257E3,1.044E3,4.939E3,2.188E3,4.297E3,9.16E2,1.027E3,2.32E2,1.86E3,1.496E3,2.24E3,1.247E3,2.333E3,8.97E2,1.009E3,1.27E2,3.164E3,1.093E3,5.54E2,4.9E2,2.187E3,2.752E3,1.634E3,5.54E2,2.092E3,2.205E3,4.26E2,4.9E2,4.77E2,5.5E2,1.48E2,8.4E1,4.22E2,1.438E3,5.86E2,9.1E2,1.754E3,4.86E2,9.82E2,2.65E2,9.52E2,1.381E3,7.74E2,1.23E2,7.92E2,2.17E2,1.01E2,2.6E1,1.827E3,1.337E3,5.63E2,5.3E2,3.51E2,2.03E2,3.02E2,1.88E2,7.16E2,1.471E3,1.499E3,1.253E3,6.41E2,9.93E2,4.62E2,9.2E1,1.671E3,4.21E2,1.667E3,5.38E2,2.43E2,1.83E2,2.47E2,2.43E2,4.12E2,6.5E1,4.38E2,1.12E2,1.31E2,1.7E1,3.45E2,7.7E1,9.59E2,4.79E2,5.16E2,7E1,6.61E2,2.49E2,7.51E2,1.003E3,4.21E2,6.5E1,5.29E2,4.53E2,2.44E2,2.1E1,6.37E2,3.15E2,1.114E3,2.67E2,3.96E2,3.78E2,8.8E1,3.5E1,4.25E2,3.67E2,1.63E2,5.4E1,8.9E1,1.2E1,6.07E2,1.22E3,9.46E2,3.91E2,3.29E2,2.34E2,1.66E2,3.64E2,2.35E2,1.16E2,1.82E2,2.1E1,2.05E2,9.7E1,6.8E1,1.2E2,5.43E2,1.73E2,9.65E2,5.06E2,1.271E3,2.28E2,8.43E2,4.1E2,6.03E2,3.8E1,4.43E2,5.5E2,2.9E2,1.72E2,7.8E1,1.4E1,3.41E2,1.33E3,2E2,2.21E2,1.105E3,5.62E2,4.52E2,8.6E1,1.52E2,9.1E1,6.9E1,1.14E2,1.48E2,9.9E1,1.86E2,5.7E1,2.21E2,1.91E2,2.86E2,1.52E2,9.7E1,1.5E1,8.2E1,4.9E1,3.12E2,3.3E1,3.6E1,4.1E1,2.89E2,6.7E2,2.23E2,2.56E2,3.92E2,1.24E2,3.1E1,3.9E1,2.95E2,3.66E2,2.09E2,4E1,5.77E2,1.74E2,4.64E2,5.39E2,2.72E2,1.49E2,2.68E2,2.61E2,3.57E2,9.6E1,1.61E2,8.3E1,4.69E2,1.68E2,2.43E2,7.2E1,5.22E2,5.92E2,1.89E2,7.8E1,3.23E2,7.3E1,3.58E2,2E1,5.7E1,3.1E1,3.82E2,4.3E1,3.04E2,6.3E1,1.5E2,1.3E1],"tree_param":{"num_deleted":"0","num_feature":"18","num_nodes":"227","size_leaf_vector":"1"}},{"base_weights":[3.9793462E-3,-1.9650024E0,3.323185E0,-4.5487084E0,-2.9612195E-1,1.6138775E0,6.003605E0,-6.9248934E0,-3.3340077E0,-1.6429656E0,2.8184664E0,-1.2503711E0,4.377278E0,4.5646634E0,1.0044751E1,-7.860237E0,-3.3652163E0,-4.179663E0,-5.02715E-1,-3.1947258E0,1.7811309E0,1.1007744E0,5.7984576E0,-1.9383588E0,2.762635E0,2.6561239E0,7.4585953E0,2.9915197E0,8.726E0,9.30788E0,1.5576095E1,-1.2289423E1,-7.30056E0,-4.445976E0,-2.5712842E-1,-6.2795205E0,-2.8263698E0,-5.2587996E0,8.213794E-1,-5.6290407E0,-1.9143608E0,5.531622E-1,4.358265E0,-1.4430514E-1,4.615398E0,4.8250237E0,9.897513E0,-4.185827E0,-1.1376586E0,9.0089566E-1,4.5611954E0,1.6481755E0,6.2516856E0,6.403501E0,1.1439266E1,1.0048304E0,4.371958E0,7.9560304E0,1.3502784E1,8.298108E0,1.294761E1,1.4560817E1,3.635911E0,-1.2868464E1,-1.9698719E0,-9.793239E0,-6.333391E0,-6.519253E0,-2.8331132E0,8.7542504E-1,-5.0823708E0,-6.982511E0,-2.909727E0,-6.0268545E0,-2.0329638E0,-6.261303E0,8.426538E-1,-6.829762E-1,2.6600723E0,-6.2654305E0,-2.517167E-1,-3.5431736E0,3.4102392E-1,-3.573673E-1,6.014054E0,2.1113484E0,6.327906E0,-7.5494474E-1,2.5204136E0,3.9106686E0,7.7326555E0,2.7729974E0,6.620166E0,8.656787E0,2.352037E0,-5.4002805E0,-2.525643E0,-2.079894E0,8.945476E-1,-1.1677413E0,2.6205785E0,3.347131E0,7.195451E0,2.4039115E-1,2.6873152E0,5.7029877E0,9.806273E0,4.6144767E0,8.50618E0,1.0148538E1,2.754925E0,-3.2694998E-1,3.6528144E0,3.4792228E0,8.197336E0,5.993369E0,1.0019193E1,2.4450326E0,3.1643126E0,6.5555186E0,1.0364367E1,1.2094989E1,3.0066833E0,2.6980414E0,3.8525105E0,-2.8227499E0,-2.3593483E0,-2.126401E0,-1.3389214E0,-1.8008356E0,-9.799284E-1,-1.4781052E0,-6.6568685E-1,-1.2990658E0,-5.8080885E-3,3.538266E-1,-9.2591625E-1,-1.2211651E0,-6.8837583E-1,-2.1168513E0,-1.2538632E0,-1.1652784E0,-2.9453957E-1,-1.393004E0,-2.2112794E-1,-5.9638757E-1,2.5162077E-1,-1.4874798E0,-5.5216175E-1,-3.4404927E-1,4.7465897E-1,2.201193E-1,1.0593174E0,-1.9817951E0,-1.1076206E0,-4.935879E-1,7.250123E-1,-1.081441E0,-3.5378993E-1,-1.6897596E-1,5.711811E-1,-3.5940143E-1,4.329293E-1,9.3156767E-1,1.9231982E0,8.8123314E-2,1.3271755E0,1.1064711E0,2.1285548E0,-4.9883544E-1,3.3019464E-2,2.192533E-1,8.8488686E-1,7.0058125E-1,1.9953866E0,1.4031171E0,1.9979193E0,4.505932E-1,1.1632992E0,1.1456971E0,1.9045073E0,1.5506432E0,2.6179767E0,-1.1205404E0,-5.1372784E-1,-7.247256E-1,-1.9542191E-2,-4.8901173E-1,4.5209187E-1,6.568565E-2,9.3824077E-1,-4.228894E-1,3.042965E-1,3.7732396E-1,1.1329668E0,4.8536423E-1,1.4427334E0,1.3159207E0,2.0563674E0,-1.31660085E-2,1.2725418E0,4.2601132E-1,1.2834693E0,9.200829E-1,1.4783627E0,1.7899851E0,2.4583125E0,7.9720366E-1,1.6972374E0,1.452768E0,2.1515856E0,1.7499075E0,2.5483253E0,-4.2730778E-1,1.5489401E-1,6.580516E-1,2.5798862E0,5.6194365E-1,1.4137033E0,1.4801166E0,2.3928611E0,6.704925E-1,1.5676922E0,1.6375245E0,2.4372017E0,1.00463E0,1.5939438E0,1.8143777E0,2.58469E0,2.142707E0,2.9561365E0],"categories":[],"categories_nodes":[],"categories_segments":[],"categories_sizes":[],"default_left":[0,0,0,0,0,0,0,0,0,0,0,0,0,0,0,0,0,0,0,0,0,0,0,0,0,0,0,0,0,0,0,0,0,0,0,0,0,0,0,0,0,0,0,0,0,0,0,0,0,0,0,0,0,0,0,0,0,0,0,0,0,0,0,0,0,0,0,0,0,0,0,0,0,0,0,0,0,0,0,0,0,0,0,0,0,0,0,0,0,0,0,0,0,0,0,0,0,0,0,0,0,0,0,0,0,0,0,0,0,0,0,0,0,0,0,0,0,0,0,0,0,0,0,0,0,0,0,0,0,0,0,0,0,0,0,0,0,0,0,0,0,0,0,0,0,0,0,0,0,0,0,0,0,0,0,0,0,0,0,0,0,0,0,0,0,0,0,0,0,0,0,0,0,0,0,0,0,0,0,0,0,0,0,0,0,0,0,0,0,0,0,0,0,0,0,0,0,0,0,0,0,0,0,0,0,0,0,0,0,0,0,0,0,0,0,0,0,0,0,0,0,0,0,0,0,0,0,0,0,0,0],"id":3,"left_children":[1,3,5,7,9,11,13,15,17,19,21,23,25,27,29,31,33,35,37,39,41,43,45,47,49,51,53,55,57,59,61,63,65,67,69,71,73,75,77,79,81,83,85,87,89,91,93,95,97,99,101,103,105,107,109,111,113,115,117,119,121,123,-1,125,-1,127,129,131,133,135,137,139,141,143,145,147,-1,149,151,153,155,157,159,161,163,165,167,169,171,173,175,177,179,181,-1,183,185,187,189,191,193,195,197,199,201,203,205,207,209,211,-1,213,215,217,219,221,223,-1,-1,225,227,229,-1,-1,-1,-1,-1,-1,-1,-1,-1,-1,-1,-1,-1,-1,-1,-1,-1,-1,-1,-1,-1,-1,-1,-1,-1,-1,-1,-1,-1,-1,-1,-1,-1,-1,-1,-1,-1,-1,-1,-1,-1,-1,-1,-1,-1,-1,-1,-1,-1,-1,-1,-1,-1,-1,-1,-1,-1,-1,-1,-1,-1,-1,-1,-1,-1,-1,-1,-1,-1,-1,-1,-1,-1,-1,-1,-1,-1,-1,-1,-1,-1,-1,-1,-1,-1,-1,-1,-1,-1,-1,-1,-1,-1,-1,-1,-1,-1,-1,-1,-1,-1,-1,-1,-1,-1,-1,-1,-1,-1],"loss_changes":[1.9655383E5,8.139432E4,5.1295758E4,2.1359016E4,4.8119715E4,5.4136613E4,2.5307438E4,8.314E3,1.1739535E4,4.2555207E4,1.7719703E4,9.279215E3,1.844139E4,2.1033602E4,4.517828E3,4.825961E3,1.7556641E3,1.0712602E4,7.1142026E3,1.7165969E4,7.9028574E3,9.619083E3,5.003789E3,5.156341E3,1.6433286E3,8.0896504E3,5.164125E3,6.402092E3,3.1365469E3,3.611961E3,1.1905664E2,1.6510156E2,4.1882812E3,1.2789673E3,7.4766815E2,3.483332E3,5.8230215E3,2.3780156E3,2.4470034E3,6.4969375E3,1.3273922E4,8.420259E3,3.5536875E3,2.6444475E3,1.2329326E3,3.7574102E3,5.0791602E2,1.5045723E3,4.0536128E3,8.6750824E2,7.754551E2,2.5550137E3,8.9781836E2,3.6773516E3,7.09875E2,3.3831396E3,4.677418E3,3.0255156E3,1.3976953E2,2.7945664E3,2.4429297E2,1.8027148E2,0E0,5.433203E1,0E0,1.3926719E3,4.813746E3,4.9502148E2,2.3176025E3,5.7739343E2,2.438031E1,2.7852656E3,1.0832751E3,2.3195898E3,6.059732E3,9.7069336E2,0E0,1.6038113E3,1.6612754E3,4.099133E3,1.7974497E3,7.1186504E3,4.647519E3,5.4405005E3,1.1204092E3,2.9047183E3,1.3093262E3,2.1661729E3,8.3508594E2,1.0064751E3,8.278516E1,7.177903E2,1.2850918E3,4.5791797E2,0E0,3.305586E2,8.935867E2,2.5425444E3,1.4543171E3,2.976217E2,2.827556E2,5.899398E2,6.1425537E1,1.4191631E3,2.0073472E3,7.5747266E2,1.0385742E1,1.1858154E3,1.1591875E3,5.0685742E2,0E0,1.3108284E3,9.078999E2,2.5756465E3,6.1403516E2,1.9695986E3,1.3826055E3,0E0,0E0,9.2814844E2,1.0327578E3,4.1964648E2,0E0,0E0,0E0,0E0,0E0,0E0,0E0,0E0,0E0,0E0,0E0,0E0,0E0,0E0,0E0,0E0,0E0,0E0,0E0,0E0,0E0,0E0,0E0,0E0,0E0,0E0,0E0,0E0,0E0,0E0,0E0,0E0,0E0,0E0,0E0,0E0,0E0,0E0,0E0,0E0,0E0,0E0,0E0,0E0,0E0,0E0,0E0,0E0,0E0,0E0,0E0,0E0,0E0,0E0,0E0,0E0,0E0,0E0,0E0,0E0,0E0,0E0,0E0,0E0,0E0,0E0,0E0,0E0,0E0,0E0,0E0,0E0,0E0,0E0,0E0,0E0,0E0,0E0,0E0,0E0,0E0,0E0,0E0,0E0,0E0,0E0,0E0,0E0,0E0,0E0,0E0,0E0,0E0,0E0,0E0,0E0,0E0,0E0,0E0,0E0,0E0,0E0,0E0,0E0,0E0,0E0,0E0,0E0,0E0],"parents":[2147483647,0,0,1,1,2,2,3,3,4,4,5,5,6,6,7,7,8,8,9,9,10,10,11,11,12,12,13,13,14,14,15,15,16,16,17,17,18,18,19,19,20,20,21,21,22,22,23,23,24,24,25,25,26,26,27,27,28,28,29,29,30,30,31,31,32,32,33,33,34,34,35,35,36,36,37,37,38,38,39,39,40,40,41,41,42,42,43,43,44,44,45,45,46,46,47,47,48,48,49,49,50,50,51,51,52,52,53,53,54,54,55,55,56,56,57,57,58,58,59,59,60,60,61,61,63,63,65,65,66,66,67,67,68,68,69,69,70,70,71,71,72,72,73,73,74,74,75,75,77,77,78,78,79,79,80,80,81,81,82,82,83,83,84,84,85,85,86,86,87,87,88,88,89,89,90,90,91,91,92,92,93,93,95,95,96,96,97,97,98,98,99,99,100,100,101,101,102,102,103,103,104,104,105,105,106,106,107,107,108,108,109,109,111,111,112,112,113,113,114,114,115,115,116,116,119,119,120,120,121,121],"right_children":[2,4,6,8,10,12,14,16,18,20,22,24,26,28,30,32,34,36,38,40,42,44,46,48,50,52,54,56,58,60,62,64,66,68,70,72,74,76,78,80,82,84,86,88,90,92,94,96,98,100,102,104,106,108,110,112,114,116,118,120,122,124,-1,126,-1,128,130,132,134,136,138,140,142,144,146,148,-1,150,152,154,156,158,160,162,164,166,168,170,172,174,176,178,180,182,-1,184,186,188,190,192,194,196,198,200,202,204,206,208,210,212,-1,214,216,218,220,222,224,-1,-1,226,228,230,-1,-1,-1,-1,-1,-1,-1,-1,-1,-1,-1,-1,-1,-1,-1,-1,-1,-1,-1,-1,-1,-1,-1,-1,-1,-1,-1,-1,-1,-1,-1,-1,-1,-1,-1,-1,-1,-1,-1,-1,-1,-1,-1,-1,-1,-1,-1,-1,-1,-1,-1,-1,-1,-1,-1,-1,-1,-1,-1,-1,-1,-1,-1,-1,-1,-1,-1,-1,-1,-1,-1,-1,-1,-1,-1,-1,-1,-1,-1,-1,-1,-1,-1,-1,-1,-1,-1,-1,-1,-1,-1,-1,-1,-1,-1,-1,-1,-1,-1,-1,-1,-1,-1,-1,-1,-1,-1,-1,-1],"split_conditions":[6E0,3E0,7E0,5E0,5E0,2E0,2E0,4E0,3E0,5E0,4E0,3E0,3E0,8E0,8E0,4E0,5E0,2E0,1E0,4E0,4E0,2E0,5E0,1E0,1E0,2E0,4E0,1E0,9E0,3E0,1E0,3E0,2E0,2E0,1E0,3E0,1E0,5E0,2E0,4E0,2E0,7E0,1E0,2E0,3E0,1E0,1E0,2E0,2E0,1E0,1E0,1E0,3E0,1E0,1E0,2E0,2E0,1E0,1E0,1E0,1E0,3E0,3.635911E0,3E0,-1.9698719E0,3E0,2E0,2E0,4E0,1E0,4E0,1E0,1E0,3E0,2E0,2E0,8.426538E-1,4E0,1E0,3E0,4E0,4E0,3E0,2E0,3E0,6E0,6E0,1E0,1E0,2E0,1E0,2E0,2E0,6E0,2.352037E0,3E0,2E0,3E0,2E0,4E0,2E0,4E0,4E0,3E0,2E0,1E0,1E0,2E0,1E0,1E0,2.754925E0,1E0,4E0,2E0,3E0,1E0,1E0,2.4450326E0,3.1643126E0,1E0,1E0,1E0,3.0066833E0,2.6980414E0,3.8525105E0,-2.8227499E0,-2.3593483E0,-2.126401E0,-1.3389214E0,-1.8008356E0,-9.799284E-1,-1.4781052E0,-6.6568685E-1,-1.2990658E0,-5.8080885E-3,3.538266E-1,-9.2591625E-1,-1.2211651E0,-6.8837583E-1,-2.1168513E0,-1.2538632E0,-1.1652784E0,-2.9453957E-1,-1.393004E0,-2.2112794E-1,-5.9638757E-1,2.5162077E-1,-1.4874798E0,-5.5216175E-1,-3.4404927E-1,4.7465897E-1,2.201193E-1,1.0593174E0,-1.9817951E0,-1.1076206E0,-4.935879E-1,7.250123E-1,-1.081441E0,-3.5378993E-1,-1.6897596E-1,5.711811E-1,-3.5940143E-1,4.329293E-1,9.3156767E-1,1.9231982E0,8.8123314E-2,1.3271755E0,1.1064711E0,2.1285548E0,-4.9883544E-1,3.3019464E-2,2.192533E-1,8.8488686E-1,7.0058125E-1,1.9953866E0,1.4031171E0,1.9979193E0,4.505932E-1,1.1632992E0,1.1456971E0,1.9045073E0,1.5506432E0,2.6179767E0,-1.1205404E0,-5.1372784E-1,-7.247256E-1,-1.9542191E-2,-4.8901173E-1,4.5209187E-1,6.568565E-2,9.3824077E-1,-4.228894E-1,3.042965E-1,3.7732396E-1,1.1329668E0,4.8536423E-1,1.4427334E0,1.3159207E0,2.0563674E0,-1.31660085E-2,1.2725418E0,4.2601132E-1,1.2834693E0,9.200829E-1,1.4783627E0,1.7899851E0,2.4583125E0,7.9720366E-1,1.6972374E0,1.452768E0,2.1515856E0,1.7499075E0,2.5483253E0,-4.2730778E-1,1.5489401E-1,6.580516E-1,2.5798862E0,5.6194365E-1,1.4137033E0,1.4801166E0,2.3928611E0,6.704925E-1,1.5676922E0,1.6375245E0,2.4372017E0,1.00463E0,1.5939438E0,1.8143777E0,2.58469E0,2.142707E0,2.9561365E0],"split_indices":[0,1,0,0,0,1,1,2,2,1,1,2,1,0,0,0,2,1,1,0,0,2,1,1,1,2,1,1,0,1,2,3,1,1,17,3,2,2,1,2,2,1,2,3,2,2,2,3,2,3,3,2,2,2,2,2,2,1,1,2,2,1,0,2,0,3,2,3,0,16,0,1,1,3,3,3,0,2,3,0,1,1,2,2,0,1,1,2,2,3,3,3,2,1,0,4,2,3,3,2,3,2,2,3,3,3,3,3,3,3,0,2,2,3,2,2,2,0,0,3,3,3,0,0,0,0,0,0,0,0,0,0,0,0,0,0,0,0,0,0,0,0,0,0,0,0,0,0,0,0,0,0,0,0,0,0,0,0,0,0,0,0,0,0,0,0,0,0,0,0,0,0,0,0,0,0,0,0,0,0,0,0,0,0,0,0,0,0,0,0,0,0,0,0,0,0,0,0,0,0,0,0,0,0,0,0,0,0,0,0,0,0,0,0,0,0,0,0,0,0,0,0,0,0,0,0,0,0,0,0,0],"split_type":[0,0,0,0,0,0,0,0,0,0,0,0,0,0,0,0,0,0,0,0,0,0,0,0,0,0,0,0,0,0,0,0,0,0,0,0,0,0,0,0,0,0,0,0,0,0,0,0,0,0,0,0,0,0,0,0,0,0,0,0,0,0,0,0,0,0,0,0,0,0,0,0,0,0,0,0,0,0,0,0,0,0,0,0,0,0,0,0,0,0,0,0,0,0,0,0,0,0,0,0,0,0,0,0,0,0,0,0,0,0,0,0,0,0,0,0,0,0,0,0,0,0,0,0,0,0,0,0,0,0,0,0,0,0,0,0,0,0,0,0,0,0,0,0,0,0,0,0,0,0,0,0,0,0,0,0,0,0,0,0,0,0,0,0,0,0,0,0,0,0,0,0,0,0,0,0,0,0,0,0,0,0,0,0,0,0,0,0,0,0,0,0,0,0,0,0,0,0,0,0,0,0,0,0,0,0,0,0,0,0,0,0,0,0,0,0,0,0,0,0,0,0,0,0,0,0,0,0,0,0,0],"sum_hessian":[3.0073E4,1.8876E4,1.1197E4,7.407E3,1.1469E4,6.838E3,4.359E3,2.504E3,4.903E3,8.007E3,3.462E3,3.358E3,3.48E3,3.216E3,1.143E3,1.982E3,5.22E2,3.775E3,1.128E3,5.51E3,2.497E3,2.197E3,1.265E3,2.867E3,4.91E2,2.234E3,1.246E3,2.335E3,8.81E2,1.011E3,1.32E2,2.2E2,1.762E3,3.87E2,1.35E2,1.478E3,2.297E3,2.45E2,8.83E2,1.898E3,3.612E3,1.692E3,8.05E2,1.623E3,5.74E2,1.024E3,2.41E2,7.52E2,2.115E3,2.42E2,2.49E2,1.746E3,4.88E2,9.87E2,2.59E2,9.58E2,1.377E3,7.61E2,1.2E2,7.94E2,2.17E2,1.02E2,3E1,1.72E2,4.8E1,4.9E2,1.272E3,1.68E2,2.19E2,1.1E2,2.5E1,1.222E3,2.56E2,4.55E2,1.842E3,2.22E2,2.3E1,4.86E2,3.97E2,1.697E3,2.01E2,2.097E3,1.515E3,1.451E3,2.41E2,3.77E2,4.28E2,1.321E3,3.02E2,4.7E2,1.04E2,4.79E2,5.45E2,1.53E2,8.8E1,4.33E2,3.19E2,1.445E3,6.7E2,1.1E2,1.32E2,1.72E2,7.7E1,7.42E2,1.004E3,4.25E2,6.3E1,5.35E2,4.52E2,1.75E2,8.4E1,6.38E2,3.2E2,1.118E3,2.59E2,3.92E2,3.69E2,8.8E1,3.2E1,4.33E2,3.61E2,1.63E2,5.4E1,9E1,1.2E1,6E1,1.12E2,3.66E2,1.24E2,4.14E2,8.58E2,1.27E2,4.1E1,9.3E1,1.26E2,9.5E1,1.5E1,1.3E1,1.2E1,1.71E2,1.051E3,8.1E1,1.75E2,3.75E2,8E1,1.417E3,4.25E2,1.61E2,6.1E1,3.62E2,1.24E2,2.54E2,1.43E2,2.45E2,1.452E3,1.28E2,7.3E1,9.92E2,1.105E3,1.032E3,4.83E2,9.22E2,5.29E2,1.81E2,6E1,2.78E2,9.9E1,3.71E2,5.7E1,4.51E2,8.7E2,1.77E2,1.25E2,4.46E2,2.4E1,8.6E1,1.8E1,4.16E2,6.3E1,4.33E2,1.12E2,1.33E2,2E1,3.92E2,4.1E1,2.16E2,1.03E2,1.324E3,1.21E2,5.86E2,8.4E1,8.1E1,2.9E1,1.09E2,2.3E1,1.42E2,3E1,6.9E1,8E0,7.08E2,3.4E1,8.84E2,1.2E2,2.72E2,1.53E2,5.3E1,1E1,4.7E2,6.5E1,3.1E2,1.42E2,1.23E2,5.2E1,2.4E2,3.98E2,3.11E2,9E0,9.57E2,1.61E2,2.23E2,3.6E1,1.7E2,2.22E2,2.16E2,1.53E2,2.24E2,2.09E2,2.57E2,1.04E2,1.18E2,4.5E1],"tree_param":{"num_deleted":"0","num_feature":"18","num_nodes":"231","size_leaf_vector":"1"}},{"base_weights":[1.3404104E-2,-1.5801886E0,2.692987E0,-2.8208134E0,8.25872E-1,1.2915845E0,4.8766665E0,-4.4537377E0,-1.5985353E0,-9.310703E-2,4.5999064E0,-9.962105E-1,3.5175493E0,3.7420595E0,8.0810175E0,-3.857329E0,-6.883496E0,-2.7114882E0,8.5509086E-1,-8.624273E-1,3.5289285E0,3.8450313E0,7.846209E0,-1.5595459E0,2.2932665E0,2.137752E0,6.0354824E0,2.4362962E0,7.0951986E0,7.524195E0,1.2564497E1,-2.854507E0,-6.80858E0,-8.517682E0,-6.2258782E0,-4.2728434E0,-1.4583031E0,-1.2990606E-1,3.6949332E0,-2.5924063E0,7.661816E-1,1.4506506E0,5.274098E0,2.2003345E0,5.2662125E0,7.433244E0,2.3100617E0,-3.3557842E0,-9.0848964E-1,7.668676E-1,3.7499936E0,1.3394066E0,5.043468E0,5.202248E0,9.23205E0,4.4250488E-1,3.409371E0,6.4718013E0,1.0979462E1,6.6988926E0,1.0464364E1,1.1937126E1,3.2888207E0,-1.9437408E0,-4.43478E0,-7.7873883E0,-5.720046E0,-9.183843E0,-5.9385333E0,-7.141114E0,-4.802787E0,-6.169097E0,-3.34059E0,-2.9340389E0,3.657211E-1,-1.4296322E0,7.336518E-1,3.1559296E0,6.269747E0,-4.528152E0,-1.0710155E0,-2.0340805E0,2.0832176E0,4.0325883E-1,9.428611E0,4.5845675E0,2.3041878E0,9.884451E-1,3.2244723E0,4.639349E0,7.7713385E0,6.3442535E0,9.135446E0,-3.7867043E0,-5.176795E-1,-1.6535028E0,7.0205224E-1,-8.059834E-1,2.0405533E0,2.663884E0,6.010005E0,4.567954E-2,2.1819887E0,4.5651913E0,7.98889E0,4.6627994E0,1.0202804E1,8.582945E0,3.0199172E0,-1.8114346E0,1.49321E0,1.6720306E0,4.846757E0,4.8881016E0,8.083793E0,9.922686E0,1.3383186E1,6.2470856E0,2.3425725E0,1.0096193E1,2.9985256E0,2.1370366E0,2.8713732E0,-2.0783284E-1,-8.235335E-1,-6.8604755E-1,-1.0889363E0,-1.6902674E0,-1.2957954E0,-1.5267822E0,-8.9457947E-1,-2.093001E0,-1.6506453E0,-1.4826081E0,-9.1791683E-1,-1.6178163E0,-1.0454421E0,-1.5247784E0,-7.5484854E-1,-1.283989E0,-3.198034E-2,-7.3623073E-1,1.6578023E-1,-7.00724E-1,7.809623E-2,-4.233357E-2,8.980307E-1,-5.455482E-1,-1.6316245E-1,-1.10197835E-1,3.4707674E-1,4.075126E-1,9.74501E-1,1.1351659E0,1.6198387E0,-1.2545143E0,-6.224027E-1,-7.2622997E-1,3.7834257E-2,-7.221448E-1,8.2919374E-2,1.6104515E-1,7.0596445E-1,-2.803347E-1,8.6046934E-1,1.3497665E0,2.2039855E0,7.660398E-1,1.6551218E0,1.1415896E-1,5.885182E-1,5.351801E-1,9.5615846E-1,7.1238786E-1,1.281298E0,1.4268283E0,2.0870383E0,1.0248799E0,1.6018978E0,1.7103606E0,2.3425171E0,-9.1531515E-1,-5.662397E-1,-3.448944E-1,7.4713E-1,-4.972352E-1,1.3191568E-2,-1.4554936E-1,3.7382466E-1,-3.3347106E-1,2.533804E-1,2.7627298E-1,9.6782213E-1,3.939595E-1,1.1086091E0,1.0826703E0,1.7346385E0,-2.649559E-1,1.507488E-1,1.8756843E-1,6.5550935E-1,7.3860717E-1,1.1818047E0,1.4456162E0,2.0346415E0,6.8373436E-1,1.2176387E0,1.8662581E0,3.1704216E0,1.4693698E0,2.1061313E0,-4.3659607E-1,5.55881E-1,1.3269179E-1,8.8621825E-1,2.4536872E-1,1.0733322E0,7.123914E-1,1.2457054E0,7.695405E-1,1.8307284E0,1.5070467E0,3.0251815E0,2.0846493E0,1.4626476E0,2.294707E0,3.2661812E0,1.0311098E0,1.5074487E0,1.7997241E0,2.4657023E0],"categories":[],"categories_nodes":[],"categories_segments":[],"categories_sizes":[],"default_left":[0,0,0,0,0,0,0,0,0,0,0,0,0,0,0,0,0,0,0,0,0,0,0,0,0,0,0,0,0,0,0,0,0,0,0,0,0,0,0,0,0,0,0,0,0,0,0,0,0,0,0,0,0,0,0,0,0,0,0,0,0,0,0,0,0,0,0,0,0,0,0,0,0,0,0,0,0,0,0,0,0,0,0,0,0,0,0,0,0,0,0,0,0,0,0,0,0,0,0,0,0,0,0,0,0,0,0,0,0,0,0,0,0,0,0,0,0,0,0,0,0,0,0,0,0,0,0,0,0,0,0,0,0,0,0,0,0,0,0,0,0,0,0,0,0,0,0,0,0,0,0,0,0,0,0,0,0,0,0,0,0,0,0,0,0,0,0,0,0,0,0,0,0,0,0,0,0,0,0,0,0,0,0,0,0,0,0,0,0,0,0,0,0,0,0,0,0,0,0,0,0,0,0,0,0,0,0,0,0,0,0,0,0,0,0,0,0,0,0,0,0,0,0,0,0,0,0,0,0,0,0],"id":4,"left_children":[1,3,5,7,9,11,13,15,17,19,21,23,25,27,29,31,33,35,37,39,41,43,45,47,49,51,53,55,57,59,61,63,65,67,69,71,73,75,77,79,81,83,85,87,89,91,-1,93,95,97,99,101,103,105,107,109,111,113,115,117,119,121,-1,123,125,127,129,131,133,135,137,139,141,143,145,147,149,151,153,155,157,159,161,163,165,167,-1,169,171,173,175,177,179,181,183,185,187,189,191,193,195,197,199,201,203,205,207,209,-1,211,213,215,217,219,221,223,225,227,-1,229,-1,-1,-1,-1,-1,-1,-1,-1,-1,-1,-1,-1,-1,-1,-1,-1,-1,-1,-1,-1,-1,-1,-1,-1,-1,-1,-1,-1,-1,-1,-1,-1,-1,-1,-1,-1,-1,-1,-1,-1,-1,-1,-1,-1,-1,-1,-1,-1,-1,-1,-1,-1,-1,-1,-1,-1,-1,-1,-1,-1,-1,-1,-1,-1,-1,-1,-1,-1,-1,-1,-1,-1,-1,-1,-1,-1,-1,-1,-1,-1,-1,-1,-1,-1,-1,-1,-1,-1,-1,-1,-1,-1,-1,-1,-1,-1,-1,-1,-1,-1,-1,-1,-1,-1,-1,-1,-1,-1,-1,-1,-1],"loss_changes":[1.2836965E5,5.6272926E4,3.4301766E4,2.4817719E4,2.2245838E4,3.4785633E4,1.5901305E4,7.6886094E3,1.9431754E4,1.4378625E4,3.0477246E3,6.2465986E3,1.2014906E4,1.4159992E4,2.763961E3,1.26386875E4,1.0732227E3,9.571652E3,6.2131406E3,1.1993093E4,3.2711084E3,2.3749111E3,2.9044043E2,3.3614658E3,1.0933328E3,5.184879E3,3.214746E3,4.5228203E3,2.1251914E3,2.4073867E3,1.2403125E2,4.588375E3,1.1104219E3,4.5746484E2,9.438535E2,3.8314023E3,7.314633E3,1.8529904E3,7.740542E2,6.0736816E3,8.092122E3,3.4556025E3,2.118709E3,5.863552E2,8.2293945E2,3.424375E2,0E0,9.3363184E2,2.5364966E3,4.8644757E2,6.0255444E2,1.915155E3,6.425342E2,2.579836E3,8.646074E2,1.8167656E3,3.9050547E3,1.9619648E3,1.821875E2,1.8003086E3,2.3454297E2,1.6463477E2,0E0,4.0254683E3,1.1943848E3,4.8677344E2,1.2023359E3,1.8397461E2,9.4839355E1,8.482715E2,8.180488E2,1.4860586E3,2.4179297E3,3.108289E3,2.9590042E3,5.2845105E2,1.3183468E3,9.142803E2,5.013965E1,2.2652715E3,3.8197715E3,2.8100276E3,2.8279321E3,2.6609119E3,1.4061035E2,1.1516934E3,0E0,1.7729361E2,1.9970166E2,8.1599805E2,8.529785E1,2.33229E2,8.984375E-2,5.0680566E2,5.4809924E2,2.161133E3,1.1526011E3,2.0413861E2,2.3879114E2,3.2745898E2,6.853125E1,6.94739E2,1.4941392E3,4.6546875E2,2.5105469E1,1.5719531E3,2.5370117E2,4.6585156E2,0E0,4.6243774E2,1.2848534E3,1.139242E3,1.5333086E3,1.6866387E3,1.1132344E3,6.874805E1,1.3168945E0,1.01018164E3,0E0,3.7267578E2,0E0,0E0,0E0,0E0,0E0,0E0,0E0,0E0,0E0,0E0,0E0,0E0,0E0,0E0,0E0,0E0,0E0,0E0,0E0,0E0,0E0,0E0,0E0,0E0,0E0,0E0,0E0,0E0,0E0,0E0,0E0,0E0,0E0,0E0,0E0,0E0,0E0,0E0,0E0,0E0,0E0,0E0,0E0,0E0,0E0,0E0,0E0,0E0,0E0,0E0,0E0,0E0,0E0,0E0,0E0,0E0,0E0,0E0,0E0,0E0,0E0,0E0,0E0,0E0,0E0,0E0,0E0,0E0,0E0,0E0,0E0,0E0,0E0,0E0,0E0,0E0,0E0,0E0,0E0,0E0,0E0,0E0,0E0,0E0,0E0,0E0,0E0,0E0,0E0,0E0,0E0,0E0,0E0,0E0,0E0,0E0,0E0,0E0,0E0,0E0,0E0,0E0,0E0,0E0,0E0,0E0,0E0,0E0,0E0,0E0,0E0],"parents":[2147483647,0,0,1,1,2,2,3,3,4,4,5,5,6,6,7,7,8,8,9,9,10,10,11,11,12,12,13,13,14,14,15,15,16,16,17,17,18,18,19,19,20,20,21,21,22,22,23,23,24,24,25,25,26,26,27,27,28,28,29,29,30,30,31,31,32,32,33,33,34,34,35,35,36,36,37,37,38,38,39,39,40,40,41,41,42,42,43,43,44,44,45,45,47,47,48,48,49,49,50,50,51,51,52,52,53,53,54,54,55,55,56,56,57,57,58,58,59,59,60,60,61,61,63,63,64,64,65,65,66,66,67,67,68,68,69,69,70,70,71,71,72,72,73,73,74,74,75,75,76,76,77,77,78,78,79,79,80,80,81,81,82,82,83,83,84,84,85,85,87,87,88,88,89,89,90,90,91,91,92,92,93,93,94,94,95,95,96,96,97,97,98,98,99,99,100,100,101,101,102,102,103,103,104,104,105,105,106,106,107,107,109,109,110,110,111,111,112,112,113,113,114,114,115,115,116,116,117,117,119,119],"right_children":[2,4,6,8,10,12,14,16,18,20,22,24,26,28,30,32,34,36,38,40,42,44,46,48,50,52,54,56,58,60,62,64,66,68,70,72,74,76,78,80,82,84,86,88,90,92,-1,94,96,98,100,102,104,106,108,110,112,114,116,118,120,122,-1,124,126,128,130,132,134,136,138,140,142,144,146,148,150,152,154,156,158,160,162,164,166,168,-1,170,172,174,176,178,180,182,184,186,188,190,192,194,196,198,200,202,204,206,208,210,-1,212,214,216,218,220,222,224,226,228,-1,230,-1,-1,-1,-1,-1,-1,-1,-1,-1,-1,-1,-1,-1,-1,-1,-1,-1,-1,-1,-1,-1,-1,-1,-1,-1,-1,-1,-1,-1,-1,-1,-1,-1,-1,-1,-1,-1,-1,-1,-1,-1,-1,-1,-1,-1,-1,-1,-1,-1,-1,-1,-1,-1,-1,-1,-1,-1,-1,-1,-1,-1,-1,-1,-1,-1,-1,-1,-1,-1,-1,-1,-1,-1,-1,-1,-1,-1,-1,-1,-1,-1,-1,-1,-1,-1,-1,-1,-1,-1,-1,-1,-1,-1,-1,-1,-1,-1,-1,-1,-1,-1,-1,-1,-1,-1,-1,-1,-1,-1,-1,-1],"split_conditions":[6E0,4E0,7E0,5E0,5E0,2E0,2E0,1E0,3E0,6E0,5E0,3E0,3E0,8E0,8E0,1E0,4E0,2E0,2E0,4E0,3E0,1E0,6E0,1E0,1E0,2E0,4E0,1E0,9E0,3E0,3E0,1E0,3E0,4E0,3E0,2E0,2E0,1E0,3E0,2E0,1E0,8E0,2E0,1E0,2E0,1E0,2.3100617E0,3E0,2E0,1E0,1E0,1E0,3E0,2E0,5E0,1E0,1E0,1E0,1E0,2E0,4E0,1E0,3.2888207E0,1E0,1E0,3E0,4E0,3E0,1E0,3E0,1E0,4E0,3E0,4E0,2E0,1E0,1E0,1E0,1E0,5E0,3E0,5E0,1E0,2E0,1E0,7E0,2.3041878E0,2E0,2E0,1E0,1E0,1E0,1E0,2E0,2E0,2E0,1E0,4E0,2E0,4E0,4E0,1E0,1E0,1E0,1E0,1E0,3E0,1E0,3.0199172E0,3E0,2E0,3E0,1E0,2E0,2E0,1E0,1E0,1E0,2.3425725E0,1E0,2.9985256E0,2.1370366E0,2.8713732E0,-2.0783284E-1,-8.235335E-1,-6.8604755E-1,-1.0889363E0,-1.6902674E0,-1.2957954E0,-1.5267822E0,-8.9457947E-1,-2.093001E0,-1.6506453E0,-1.4826081E0,-9.1791683E-1,-1.6178163E0,-1.0454421E0,-1.5247784E0,-7.5484854E-1,-1.283989E0,-3.198034E-2,-7.3623073E-1,1.6578023E-1,-7.00724E-1,7.809623E-2,-4.233357E-2,8.980307E-1,-5.455482E-1,-1.6316245E-1,-1.10197835E-1,3.4707674E-1,4.075126E-1,9.74501E-1,1.1351659E0,1.6198387E0,-1.2545143E0,-6.224027E-1,-7.2622997E-1,3.7834257E-2,-7.221448E-1,8.2919374E-2,1.6104515E-1,7.0596445E-1,-2.803347E-1,8.6046934E-1,1.3497665E0,2.2039855E0,7.660398E-1,1.6551218E0,1.1415896E-1,5.885182E-1,5.351801E-1,9.5615846E-1,7.1238786E-1,1.281298E0,1.4268283E0,2.0870383E0,1.0248799E0,1.6018978E0,1.7103606E0,2.3425171E0,-9.1531515E-1,-5.662397E-1,-3.448944E-1,7.4713E-1,-4.972352E-1,1.3191568E-2,-1.4554936E-1,3.7382466E-1,-3.3347106E-1,2.533804E-1,2.7627298E-1,9.6782213E-1,3.939595E-1,1.1086091E0,1.0826703E0,1.7346385E0,-2.649559E-1,1.507488E-1,1.8756843E-1,6.5550935E-1,7.3860717E-1,1.1818047E0,1.4456162E0,2.0346415E0,6.8373436E-1,1.2176387E0,1.8662581E0,3.1704216E0,1.4693698E0,2.1061313E0,-4.3659607E-1,5.55881E-1,1.3269179E-1,8.8621825E-1,2.4536872E-1,1.0733322E0,7.123914E-1,1.2457054E0,7.695405E-1,1.8307284E0,1.5070467E0,3.0251815E0,2.0846493E0,1.4626476E0,2.294707E0,3.2661812E0,1.0311098E0,1.5074487E0,1.7997241E0,2.4657023E0],"split_indices":[0,1,0,0,0,1,1,17,1,1,1,2,1,0,0,16,0,2,2,0,0,2,1,1,1,2,1,2,0,1,1,5,1,2,1,1,1,3,2,2,2,1,2,3,2,2,0,3,2,3,3,3,2,2,1,1,1,1,1,2,1,2,0,6,4,2,0,1,3,2,2,3,3,2,3,2,2,3,3,1,0,1,3,2,2,1,0,4,3,3,3,3,3,2,2,3,3,2,3,2,2,2,2,3,3,3,2,2,0,3,3,2,3,2,2,5,2,3,0,2,0,0,0,0,0,0,0,0,0,0,0,0,0,0,0,0,0,0,0,0,0,0,0,0,0,0,0,0,0,0,0,0,0,0,0,0,0,0,0,0,0,0,0,0,0,0,0,0,0,0,0,0,0,0,0,0,0,0,0,0,0,0,0,0,0,0,0,0,0,0,0,0,0,0,0,0,0,0,0,0,0,0,0,0,0,0,0,0,0,0,0,0,0,0,0,0,0,0,0,0,0,0,0,0,0,0,0,0,0,0,0],"split_type":[0,0,0,0,0,0,0,0,0,0,0,0,0,0,0,0,0,0,0,0,0,0,0,0,0,0,0,0,0,0,0,0,0,0,0,0,0,0,0,0,0,0,0,0,0,0,0,0,0,0,0,0,0,0,0,0,0,0,0,0,0,0,0,0,0,0,0,0,0,0,0,0,0,0,0,0,0,0,0,0,0,0,0,0,0,0,0,0,0,0,0,0,0,0,0,0,0,0,0,0,0,0,0,0,0,0,0,0,0,0,0,0,0,0,0,0,0,0,0,0,0,0,0,0,0,0,0,0,0,0,0,0,0,0,0,0,0,0,0,0,0,0,0,0,0,0,0,0,0,0,0,0,0,0,0,0,0,0,0,0,0,0,0,0,0,0,0,0,0,0,0,0,0,0,0,0,0,0,0,0,0,0,0,0,0,0,0,0,0,0,0,0,0,0,0,0,0,0,0,0,0,0,0,0,0,0,0,0,0,0,0,0,0,0,0,0,0,0,0,0,0,0,0,0,0,0,0,0,0,0,0],"sum_hessian":[3.006E4,1.885E4,1.121E4,1.2437E4,6.413E3,6.829E3,4.381E3,5.323E3,7.114E3,5.158E3,1.255E3,3.368E3,3.461E3,3.237E3,1.144E3,4.276E3,1.047E3,4.894E3,2.22E3,4.255E3,9.03E2,1.02E3,2.35E2,2.876E3,4.92E2,2.237E3,1.224E3,2.331E3,9.06E2,1.02E3,1.24E2,3.193E3,1.083E3,2.97E2,7.5E2,2.178E3,2.716E3,1.649E3,5.71E2,2.063E3,2.192E3,4.13E2,4.9E2,4.74E2,5.46E2,2.15E2,2E1,7.64E2,2.112E3,2.41E2,2.51E2,1.756E3,4.81E2,9.73E2,2.51E2,7.65E2,1.566E3,7.83E2,1.23E2,7.99E2,2.21E2,1.11E2,1.3E1,2.027E3,1.166E3,5.67E2,5.16E2,2.34E2,6.3E1,4.54E2,2.96E2,7.16E2,1.462E3,1.501E3,1.215E3,6.58E2,9.91E2,4.74E2,9.7E1,9.07E2,1.156E3,7.01E2,1.491E3,3.66E2,4.7E1,4.44E2,4.6E1,2.18E2,2.56E2,4.39E2,1.07E2,1.34E2,8.1E1,6.63E2,1.01E2,1.444E3,6.68E2,1.08E2,1.33E2,1.71E2,8E1,6.93E2,1.063E3,4.16E2,6.5E1,8.8E2,9.3E1,2.29E2,2.2E1,2.43E2,5.22E2,7.1E2,8.56E2,3.97E2,3.86E2,8.9E1,3.4E1,7.37E2,6.2E1,2.08E2,1.3E1,8.2E1,2.9E1,1.451E3,5.76E2,6.24E2,5.42E2,3.4E2,2.27E2,1.88E2,3.28E2,8E1,1.54E2,2.6E1,3.7E1,2.85E2,1.69E2,7.2E1,2.24E2,6.77E2,3.9E1,1.336E3,1.26E2,1.265E3,2.36E2,1.068E3,1.47E2,2.03E2,4.55E2,4.39E2,5.52E2,2.96E2,1.78E2,8E1,1.7E1,3.86E2,5.21E2,3.76E2,7.8E2,4.21E2,2.8E2,8.09E2,6.82E2,2.51E2,1.15E2,2.1E1,2.6E1,3.77E2,6.7E1,1.82E2,3.6E1,1.97E2,5.9E1,2.85E2,1.54E2,9.3E1,1.4E1,8.4E1,5E1,7.3E1,8E0,3.4E2,3.23E2,7.9E1,2.2E1,9.59E2,4.85E2,3.03E2,3.65E2,7.6E1,3.2E1,1.1E2,2.3E1,1.41E2,3E1,7E1,1E1,2.36E2,4.57E2,5.13E2,5.5E2,2.67E2,1.49E2,5.4E1,1.1E1,4.94E2,3.86E2,8.5E1,8E0,1.52E2,7.7E1,2.24E2,1.9E1,4.11E2,1.11E2,6.39E2,7.1E1,4.68E2,3.88E2,3.26E2,7.1E1,3.66E2,2E1,6.8E1,2.1E1,2.5E1,9E0,4.3E2,3.07E2,1.52E2,5.6E1],"tree_param":{"num_deleted":"0","num_feature":"18","num_nodes":"231","size_leaf_vector":"1"}},{"base_weights":[1.182923E-2,-1.270913E0,2.178222E0,-2.2670321E0,6.4659685E-1,1.0579246E0,3.9195542E0,-3.6018083E0,-1.2637936E0,-1.00736976E-1,3.7237942E0,-8.028689E-1,2.8628573E0,3.0120497E0,6.5259595E0,-4.404317E0,-2.2600753E0,-2.141333E0,7.177037E-1,5.2999526E-1,-3.2239034E0,3.120587E0,6.35529E0,-1.2489363E0,1.8067622E0,1.7227798E0,4.9036417E0,1.9718338E0,5.7273884E0,6.06906E0,1.0209823E1,-7.2179165E0,-3.9292355E0,-4.811993E0,-1.4147342E0,-2.7561781E0,-8.8151015E-2,-9.914023E-2,2.9815383E0,1.3439391E0,-3.3628256E0,-3.7859647E0,-3.5608065E-1,1.8073083E0,4.2742133E0,5.5672007E0,1.5024779E0,-2.7019546E0,-7.1870977E-1,5.6544507E-1,3.0306427E0,1.0617338E0,4.0600023E0,3.7421992E0,6.4084945E0,1.2901112E0,4.0417686E0,5.1883154E0,8.959178E0,5.3592744E0,8.58057E0,9.701963E0,2.71226E0,-7.7114983E0,-5.42523E0,-5.50637E0,-2.7983158E0,-5.5531034E0,-8.888064E-1,-3.8196974E0,2.0623837E-1,-4.070815E0,-1.9056437E0,-3.862381E0,9.305249E-1,-5.575085E-1,1.9220415E0,2.5323858E0,5.0986714E0,-7.953525E-2,2.8062365E0,-2.6403332E0,-5.5912204E0,-4.9492364E0,-1.8699067E0,-7.255602E-1,9.1996723E-1,8.1798124E-1,2.621154E0,3.7097495E0,6.3806915E0,5.1377397E0,1.6187096E0,-3.5881076E0,-1.4545369E0,-2.4862213E0,-1.5465505E-1,-2.4884647E-1,2.6342838E0,2.1936276E0,4.7400284E0,6.5105927E-1,3.1214235E0,3.6784377E0,6.362632E0,2.7857718E0,6.617458E0,5.7927766E0,8.828737E0,-2.5534844E-1,2.1594017E0,2.6030173E0,5.689356E0,3.7675934E0,6.6214566E0,7.841869E0,2.1461504E0,4.019256E0,6.9294357E0,8.243353E0,2.4371278E0,8.856488E0,2.3660567E0,-1.8186799E0,-1.39341E0,-8.747072E-1,-1.4792055E0,-1.2102976E0,-5.749296E-1,-7.294581E-1,-1.3028419E-1,-1.2941636E0,-7.590652E-1,-3.2620183E-1,1.0524212E0,-8.457299E-1,2.2854035E-1,-1.8385464E-1,3.329768E-1,-1.0399165E0,-5.4609865E-1,-8.408731E-1,-2.5609174E-1,-9.058227E-1,5.833936E-1,-5.949983E-2,4.6082464E-1,-3.4673098E-1,1.6024454E-2,2.6350892E-1,9.8421454E-1,3.2603493E-1,7.813702E-1,9.2488706E-1,1.318305E0,-1.3005401E-1,5.631494E-1,6.973276E-1,9.351913E-2,-6.33685E-1,7.3708566E-3,-9.8806715E-1,-1.5524583E0,-7.905123E-1,-1.2648423E0,-6.85393E-1,-1.1841731E-1,-3.649822E-1,2.0730932E-1,9.526773E-2,4.7288048E-1,4.3172306E-1,7.6993823E-1,5.6931037E-1,1.029749E0,1.1650475E0,1.717417E0,8.307899E-1,1.296325E0,-7.5143707E-1,-2.3960966E-1,-4.3607098E-1,3.0808348E-2,-5.261584E-1,1.043874E0,-1.4089905E-1,3.6399475E-1,-1.2968987E-1,5.86445E-1,2.0431036E-1,7.860503E-1,3.195212E-1,9.370362E-1,8.640467E-1,1.3921813E0,-7.992731E-2,2.6375526E-1,4.0434703E-1,9.1384137E-1,6.9104165E-1,1.8256071E0,1.1567507E0,1.6532543E0,4.635732E-1,1.1292017E0,1.0982361E0,1.7540424E0,1.0194982E0,1.6654382E0,1.6297907E0,2.647649E0,-1.1173266E-1,8.940535E-1,1.6363773E-1,6.19936E-1,1.8056375E-1,8.401632E-1,1.0095282E0,1.7579702E0,6.211707E-1,1.5948013E0,1.2422523E0,2.8726628E0,1.6786954E0,9.644951E-1,7.0508075E-1,1.4498544E0,1.204232E0,1.7754358E0,1.4628602E0,2.0099049E0,1.5920843E0,2.1129196E0],"categories":[],"categories_nodes":[],"categories_segments":[],"categories_sizes":[],"default_left":[0,0,0,0,0,0,0,0,0,0,0,0,0,0,0,0,0,0,0,0,0,0,0,0,0,0,0,0,0,0,0,0,0,0,0,0,0,0,0,0,0,0,0,0,0,0,0,0,0,0,0,0,0,0,0,0,0,0,0,0,0,0,0,0,0,0,0,0,0,0,0,0,0,0,0,0,0,0,0,0,0,0,0,0,0,0,0,0,0,0,0,0,0,0,0,0,0,0,0,0,0,0,0,0,0,0,0,0,0,0,0,0,0,0,0,0,0,0,0,0,0,0,0,0,0,0,0,0,0,0,0,0,0,0,0,0,0,0,0,0,0,0,0,0,0,0,0,0,0,0,0,0,0,0,0,0,0,0,0,0,0,0,0,0,0,0,0,0,0,0,0,0,0,0,0,0,0,0,0,0,0,0,0,0,0,0,0,0,0,0,0,0,0,0,0,0,0,0,0,0,0,0,0,0,0,0,0,0,0,0,0,0,0,0,0,0,0,0,0,0,0,0,0,0,0,0,0,0,0,0,0,0,0],"id":5,"left_children":[1,3,5,7,9,11,13,15,17,19,21,23,25,27,29,31,33,35,37,39,41,43,45,47,49,51,53,55,57,59,61,63,65,67,69,71,73,75,77,79,81,83,85,87,89,91,-1,93,95,97,99,101,103,105,107,109,111,113,115,117,119,121,-1,123,125,127,129,131,133,135,137,139,141,143,145,147,149,151,153,155,157,159,161,163,165,167,-1,169,171,173,175,177,-1,179,181,183,185,187,189,191,193,195,197,199,201,203,205,207,209,211,213,215,217,219,221,223,-1,225,227,229,-1,231,-1,-1,-1,-1,-1,-1,-1,-1,-1,-1,-1,-1,-1,-1,-1,-1,-1,-1,-1,-1,-1,-1,-1,-1,-1,-1,-1,-1,-1,-1,-1,-1,-1,-1,-1,-1,-1,-1,-1,-1,-1,-1,-1,-1,-1,-1,-1,-1,-1,-1,-1,-1,-1,-1,-1,-1,-1,-1,-1,-1,-1,-1,-1,-1,-1,-1,-1,-1,-1,-1,-1,-1,-1,-1,-1,-1,-1,-1,-1,-1,-1,-1,-1,-1,-1,-1,-1,-1,-1,-1,-1,-1,-1,-1,-1,-1,-1,-1,-1,-1,-1,-1,-1,-1,-1,-1,-1,-1,-1,-1,-1],"loss_changes":[8.343439E4,3.602153E4,2.1778598E4,1.6614992E4,1.4828801E4,2.2827395E4,1.031918E4,5.723758E3,1.2324712E4,1.0223426E4,1.9802129E3,3.8984036E3,8.018502E3,9.151512E3,1.8366328E3,4.4241445E3,4.2968877E3,6.2006094E3,4.0241538E3,1.3686264E4,1.4042207E3,1.5482129E3,1.913252E2,2.2007144E3,7.411869E2,3.4178906E3,2.1362988E3,3.3066875E3,1.5179863E3,1.7473438E3,8.831152E1,3.8288477E2,5.071457E3,1.4371914E3,5.8483574E3,4.21883E3,4.359658E3,1.4833846E3,5.357666E2,7.435494E3,1.1879062E3,1.6156104E3,2.706665E2,3.85943E2,6.2554004E2,1.2594824E2,0E0,8.393091E2,2.0892715E3,4.1170715E2,3.4157446E2,1.4596172E3,4.0535254E2,1.9065479E3,7.490879E2,2.3744338E3,1.3624326E3,1.546918E3,1.8839551E2,1.6280332E3,1.7882324E2,1.0975293E2,0E0,2.9867188E2,1.863982E2,1.9361328E3,3.2058066E3,6.9358203E2,3.9060562E2,1.4219502E3,1.5169169E3,2.310838E3,3.2822197E3,1.2193618E3,1.5496985E3,1.0018932E3,5.2527637E2,5.9456104E2,3.3194336E1,3.0881372E3,3.0045215E3,8.7113306E2,2.0100293E2,5.983926E2,5.630066E2,2.7217032E2,0E0,1.1471907E2,1.3760217E2,5.235996E2,7.341992E1,1.4491211E2,0E0,2.3274854E2,3.8979547E2,7.372617E2,1.7840153E3,2.341294E2,1.4510928E2,2.3710236E2,3.5248047E1,1.04742E3,4.557068E2,3.7281104E2,1.8776855E1,6.594136E2,3.6550684E2,6.666172E2,1.6476758E2,9.534031E2,1.4794546E3,8.6956934E2,4.491709E2,1.0133159E3,8.7930273E2,1.2551953E2,0E0,6.03416E2,5.5996875E2,2.5336621E2,0E0,3.6796875E1,0E0,0E0,0E0,0E0,0E0,0E0,0E0,0E0,0E0,0E0,0E0,0E0,0E0,0E0,0E0,0E0,0E0,0E0,0E0,0E0,0E0,0E0,0E0,0E0,0E0,0E0,0E0,0E0,0E0,0E0,0E0,0E0,0E0,0E0,0E0,0E0,0E0,0E0,0E0,0E0,0E0,0E0,0E0,0E0,0E0,0E0,0E0,0E0,0E0,0E0,0E0,0E0,0E0,0E0,0E0,0E0,0E0,0E0,0E0,0E0,0E0,0E0,0E0,0E0,0E0,0E0,0E0,0E0,0E0,0E0,0E0,0E0,0E0,0E0,0E0,0E0,0E0,0E0,0E0,0E0,0E0,0E0,0E0,0E0,0E0,0E0,0E0,0E0,0E0,0E0,0E0,0E0,0E0,0E0,0E0,0E0,0E0,0E0,0E0,0E0,0E0,0E0,0E0,0E0,0E0,0E0,0E0,0E0,0E0,0E0,0E0],"parents":[2147483647,0,0,1,1,2,2,3,3,4,4,5,5,6,6,7,7,8,8,9,9,10,10,11,11,12,12,13,13,14,14,15,15,16,16,17,17,18,18,19,19,20,20,21,21,22,22,23,23,24,24,25,25,26,26,27,27,28,28,29,29,30,30,31,31,32,32,33,33,34,34,35,35,36,36,37,37,38,38,39,39,40,40,41,41,42,42,43,43,44,44,45,45,47,47,48,48,49,49,50,50,51,51,52,52,53,53,54,54,55,55,56,56,57,57,58,58,59,59,60,60,61,61,63,63,64,64,65,65,66,66,67,67,68,68,69,69,70,70,71,71,72,72,73,73,74,74,75,75,76,76,77,77,78,78,79,79,80,80,81,81,82,82,83,83,84,84,85,85,87,87,88,88,89,89,90,90,91,91,93,93,94,94,95,95,96,96,97,97,98,98,99,99,100,100,101,101,102,102,103,103,104,104,105,105,106,106,107,107,108,108,109,109,110,110,111,111,112,112,113,113,114,114,115,115,117,117,118,118,119,119,121,121],"right_children":[2,4,6,8,10,12,14,16,18,20,22,24,26,28,30,32,34,36,38,40,42,44,46,48,50,52,54,56,58,60,62,64,66,68,70,72,74,76,78,80,82,84,86,88,90,92,-1,94,96,98,100,102,104,106,108,110,112,114,116,118,120,122,-1,124,126,128,130,132,134,136,138,140,142,144,146,148,150,152,154,156,158,160,162,164,166,168,-1,170,172,174,176,178,-1,180,182,184,186,188,190,192,194,196,198,200,202,204,206,208,210,212,214,216,218,220,222,224,-1,226,228,230,-1,232,-1,-1,-1,-1,-1,-1,-1,-1,-1,-1,-1,-1,-1,-1,-1,-1,-1,-1,-1,-1,-1,-1,-1,-1,-1,-1,-1,-1,-1,-1,-1,-1,-1,-1,-1,-1,-1,-1,-1,-1,-1,-1,-1,-1,-1,-1,-1,-1,-1,-1,-1,-1,-1,-1,-1,-1,-1,-1,-1,-1,-1,-1,-1,-1,-1,-1,-1,-1,-1,-1,-1,-1,-1,-1,-1,-1,-1,-1,-1,-1,-1,-1,-1,-1,-1,-1,-1,-1,-1,-1,-1,-1,-1,-1,-1,-1,-1,-1,-1,-1,-1,-1,-1,-1,-1,-1,-1,-1,-1,-1,-1],"split_conditions":[6E0,4E0,7E0,5E0,5E0,2E0,2E0,3E0,3E0,1E0,5E0,3E0,3E0,8E0,8E0,4E0,2E0,3E0,2E0,1E0,6E0,1E0,1E0,1E0,1E0,2E0,1E0,2E0,9E0,3E0,3E0,3E0,3E0,5E0,4E0,2E0,1E0,2E0,3E0,5E0,1E0,4E0,8E0,1E0,2E0,6E0,1.5024779E0,2E0,1E0,4E0,1E0,2E0,3E0,4E0,2E0,1E0,1E0,1E0,1E0,1E0,4E0,1E0,2.71226E0,2E0,1E0,3E0,2E0,2E0,2E0,5E0,3E0,2E0,1E0,5E0,1E0,1E0,3E0,1E0,1E0,3E0,1E0,6E0,1E0,1E0,1E0,3E0,9.1996723E-1,2E0,2E0,1E0,1E0,1E0,1.6187096E0,3E0,2E0,4E0,2E0,2E0,1E0,4E0,4E0,1E0,1E0,2E0,1E0,2E0,1E0,4E0,3E0,3E0,1E0,1E0,3E0,2E0,3E0,1E0,2.1461504E0,2E0,1E0,1E0,2.4371278E0,1E0,2.3660567E0,-1.8186799E0,-1.39341E0,-8.747072E-1,-1.4792055E0,-1.2102976E0,-5.749296E-1,-7.294581E-1,-1.3028419E-1,-1.2941636E0,-7.590652E-1,-3.2620183E-1,1.0524212E0,-8.457299E-1,2.2854035E-1,-1.8385464E-1,3.329768E-1,-1.0399165E0,-5.4609865E-1,-8.408731E-1,-2.5609174E-1,-9.058227E-1,5.833936E-1,-5.949983E-2,4.6082464E-1,-3.4673098E-1,1.6024454E-2,2.6350892E-1,9.8421454E-1,3.2603493E-1,7.813702E-1,9.2488706E-1,1.318305E0,-1.3005401E-1,5.631494E-1,6.973276E-1,9.351913E-2,-6.33685E-1,7.3708566E-3,-9.8806715E-1,-1.5524583E0,-7.905123E-1,-1.2648423E0,-6.85393E-1,-1.1841731E-1,-3.649822E-1,2.0730932E-1,9.526773E-2,4.7288048E-1,4.3172306E-1,7.6993823E-1,5.6931037E-1,1.029749E0,1.1650475E0,1.717417E0,8.307899E-1,1.296325E0,-7.5143707E-1,-2.3960966E-1,-4.3607098E-1,3.0808348E-2,-5.261584E-1,1.043874E0,-1.4089905E-1,3.6399475E-1,-1.2968987E-1,5.86445E-1,2.0431036E-1,7.860503E-1,3.195212E-1,9.370362E-1,8.640467E-1,1.3921813E0,-7.992731E-2,2.6375526E-1,4.0434703E-1,9.1384137E-1,6.9104165E-1,1.8256071E0,1.1567507E0,1.6532543E0,4.635732E-1,1.1292017E0,1.0982361E0,1.7540424E0,1.0194982E0,1.6654382E0,1.6297907E0,2.647649E0,-1.1173266E-1,8.940535E-1,1.6363773E-1,6.19936E-1,1.8056375E-1,8.401632E-1,1.0095282E0,1.7579702E0,6.211707E-1,1.5948013E0,1.2422523E0,2.8726628E0,1.6786954E0,9.644951E-1,7.0508075E-1,1.4498544E0,1.204232E0,1.7754358E0,1.4628602E0,2.0099049E0,1.5920843E0,2.1129196E0],"split_indices":[0,1,0,0,0,1,1,2,1,16,1,2,1,0,0,0,1,2,2,17,1,2,2,1,1,2,2,2,0,1,1,3,1,2,0,1,1,3,2,1,5,0,1,3,2,1,0,3,2,2,3,3,2,1,2,1,1,2,2,2,1,3,0,2,16,3,3,3,3,2,1,3,2,2,3,2,3,3,3,2,6,1,6,4,2,0,0,4,3,3,3,3,0,4,2,3,3,3,3,2,2,2,2,3,3,3,3,1,2,3,3,3,2,3,2,8,0,3,3,2,0,2,0,0,0,0,0,0,0,0,0,0,0,0,0,0,0,0,0,0,0,0,0,0,0,0,0,0,0,0,0,0,0,0,0,0,0,0,0,0,0,0,0,0,0,0,0,0,0,0,0,0,0,0,0,0,0,0,0,0,0,0,0,0,0,0,0,0,0,0,0,0,0,0,0,0,0,0,0,0,0,0,0,0,0,0,0,0,0,0,0,0,0,0,0,0,0,0,0,0,0,0,0,0,0,0,0,0,0,0,0,0,0],"split_type":[0,0,0,0,0,0,0,0,0,0,0,0,0,0,0,0,0,0,0,0,0,0,0,0,0,0,0,0,0,0,0,0,0,0,0,0,0,0,0,0,0,0,0,0,0,0,0,0,0,0,0,0,0,0,0,0,0,0,0,0,0,0,0,0,0,0,0,0,0,0,0,0,0,0,0,0,0,0,0,0,0,0,0,0,0,0,0,0,0,0,0,0,0,0,0,0,0,0,0,0,0,0,0,0,0,0,0,0,0,0,0,0,0,0,0,0,0,0,0,0,0,0,0,0,0,0,0,0,0,0,0,0,0,0,0,0,0,0,0,0,0,0,0,0,0,0,0,0,0,0,0,0,0,0,0,0,0,0,0,0,0,0,0,0,0,0,0,0,0,0,0,0,0,0,0,0,0,0,0,0,0,0,0,0,0,0,0,0,0,0,0,0,0,0,0,0,0,0,0,0,0,0,0,0,0,0,0,0,0,0,0,0,0,0,0,0,0,0,0,0,0,0,0,0,0,0,0,0,0,0,0,0,0],"sum_hessian":[3.0022E4,1.8857E4,1.1165E4,1.241E4,6.447E3,6.795E3,4.37E3,5.324E3,7.086E3,5.188E3,1.259E3,3.346E3,3.449E3,3.243E3,1.127E3,3.33E3,1.994E3,4.911E3,2.175E3,4.317E3,8.71E2,1.026E3,2.33E2,2.858E3,4.88E2,2.214E3,1.235E3,2.346E3,8.97E2,1.005E3,1.22E2,4.79E2,2.851E3,4.95E2,1.499E3,3.779E3,1.132E3,1.599E3,5.76E2,3.571E3,7.46E2,7.28E2,1.43E2,4.81E2,5.45E2,1.47E2,8.6E1,7.63E2,2.095E3,2.43E2,2.45E2,1.727E3,4.87E2,6.99E2,5.36E2,1.766E3,5.8E2,7.71E2,1.26E2,7.86E2,2.19E2,1.1E2,1.2E1,3.73E2,1.06E2,1.189E3,1.662E3,4.16E2,7.9E1,6.03E2,8.96E2,1.483E3,2.296E3,2.4E2,8.92E2,1.304E3,2.95E2,4.77E2,9.9E1,1.81E3,1.761E3,5.65E2,1.81E2,4.52E2,2.76E2,1.34E2,9E0,2.18E2,2.63E2,4.32E2,1.13E2,1.29E2,1.8E1,4.45E2,3.18E2,5.06E2,1.589E3,1.75E2,6.8E1,1.66E2,7.9E1,1.441E3,2.86E2,4.2E2,6.7E1,5.26E2,1.73E2,4.3E2,1.06E2,6.36E2,1.13E3,3.11E2,2.69E2,3.89E2,3.82E2,8.3E1,4.3E1,4.26E2,3.6E2,2.04E2,1.5E1,8.4E1,2.6E1,1.07E2,2.66E2,7.4E1,3.2E1,9.54E2,2.35E2,1.168E3,4.94E2,2.59E2,1.57E2,7.1E1,8E0,5.51E2,5.2E1,5.07E2,3.89E2,7.68E2,7.15E2,4.68E2,1.828E3,2.17E2,2.3E1,4.76E2,4.16E2,4.52E2,8.52E2,2.49E2,4.6E1,2.97E2,1.8E2,8.2E1,1.7E1,1.512E3,2.98E2,1.34E3,4.21E2,4.65E2,1E2,1.47E2,3.4E1,2.78E2,1.74E2,1.21E2,1.55E2,8.2E1,5.2E1,1.81E2,3.7E1,1.99E2,6.4E1,2.82E2,1.5E2,9.7E1,1.6E1,8.1E1,4.8E1,4.06E2,3.9E1,2.16E2,1.02E2,4.95E2,1.1E1,1.242E3,3.47E2,1.56E2,1.9E1,3.2E1,3.6E1,1.37E2,2.9E1,7.1E1,8E0,5.68E2,8.73E2,1.69E2,1.17E2,4.09E2,1.1E1,5.7E1,1E1,4.6E2,6.6E1,1.21E2,5.2E1,3.51E2,7.9E1,9.7E1,9E0,5.98E2,3.8E1,4.82E2,6.48E2,1.55E2,1.56E2,2.31E2,3.8E1,3.42E2,4.7E1,3.69E2,1.3E1,6.6E1,1.7E1,3.78E2,4.8E1,2.61E2,9.9E1,1.47E2,5.7E1,6.3E1,2.1E1],"tree_param":{"num_deleted":"0","num_feature":"18","num_nodes":"233","size_leaf_vector":"1"}},{"base_weights":[1.1630278E-2,-1.0157502E0,1.7433208E0,-1.8235399E0,5.407396E-1,8.521819E-1,3.135301E0,-1.3696539E0,-3.9714825E0,-9.0375805E-1,1.6748384E0,-6.4286053E-1,2.2974598E0,2.3965364E0,5.23633E0,-7.3118377E-1,-4.0124135E0,-6.6386566E0,-3.7147532E0,-1.9265374E0,1.955216E0,1.1589655E0,3.8901827E0,-1.5104517E0,4.400262E-1,1.3870583E0,3.920761E0,1.554151E0,4.6143336E0,4.842528E0,8.246502E0,-2.2495233E-1,-2.1465287E0,-3.575996E0,-5.3985033E0,-7.264013E0,-3.962531E0,-5.786534E0,-3.3367484E0,-2.6277993E0,8.432763E-1,-4.1928208E-1,3.1915796E0,1.2711452E-1,2.7509303E0,3.237671E0,7.526753E0,-1.7999581E0,8.5415965E-1,-6.46196E-1,1.1280795E0,8.620917E-1,3.264794E0,3.365364E0,6.0161896E0,2.1506906E-2,2.29862E0,3.535301E0,5.8632903E0,4.534003E0,1.7681836E0,8.582041E0,1.0862861E0,2.4952453E-1,-2.007401E0,-3.2301576E0,-1.5208304E0,-5.2984657E0,-3.2634463E0,-4.6807923E0,-6.5021415E0,-1.5716494E0,-1.2544594E0,-5.151E0,-4.9333423E-1,-5.328481E0,-8.118471E0,-2.8293643E0,-4.6839514E0,-5.68523E0,-1.8494076E0,3.165263E-2,3.7630131E0,-1.091769E0,1.1560082E0,2.122066E0,5.7364006E0,-1.1513501E0,2.1199408E0,2.195559E0,4.9461956E0,2.412216E0,6.8641005E0,7.129663E0,2.070882E0,-3.1551442E0,-1.4474782E0,1.3239695E-1,4.3354597E0,-1.0049907E0,2.1632805E0,6.5051126E-1,2.4241881E0,-1.17839225E-1,1.5040027E0,2.941966E0,5.239765E0,2.231417E0,4.6411333E0,5.4658895E0,2.2074738E0,-1.4181848E0,7.0676994E-1,1.1938108E0,3.197604E0,2.9267454E0,6.6341796E0,4.821398E0,7.4189224E0,3.9558966E0,6.485876E0,8.843492E0,9.812852E-1,-1.4428072E-1,1.8084289E-1,-6.6928875E-1,-2.5693366E-1,-4.5739046E-1,-8.39772E-1,-4.4788912E-1,-1.3213106E-2,-1.2167997E0,-8.8159966E-1,-8.767396E-1,-5.153667E-1,-1.3410878E0,-8.527742E-1,-1.4179394E0,-1.0806584E0,-1.3550413E0,-6.758277E-1,-1.2988462E0,-8.9891434E-1,-1.2525449E0,-1.7503761E0,-6.773172E-1,-3.306325E-1,-1.0834743E0,-7.78866E-1,-1.3575147E0,-7.757469E-1,-1.0126716E0,-2.2748676E-1,-2.0639913E-1,5.388869E-1,6.1500525E-1,1.8416929E0,-7.1463645E-1,1.04147136E-1,6.1995093E-2,8.3167434E-1,9.0928257E-1,1.7756356E0,-4.1645798E-1,4.2457217E-1,1.753673E-1,7.429994E-1,2.837617E-1,5.9249985E-1,9.07604E-1,1.5759962E0,2.507682E-1,9.0662014E-1,1.2133361E0,1.8994335E0,1.3032435E0,1.9406573E0,-7.3066443E-1,-4.635189E-1,-4.8536783E-1,-1.85054E-1,-2.8371575E-1,2.1582793E-1,3.8445434E-1,1.1878494E0,-2.4546266E-1,7.0243484E-1,1.6762888E-1,6.5077746E-1,-8.685612E-2,3.0073875E-1,3.9980212E-1,8.942723E-1,-1.00629546E-1,3.415932E-1,1.3483746E-1,4.4595623E-1,5.489256E-1,1.5062244E0,1.0868427E0,6.158099E-1,2.509106E-1,6.358257E-1,7.3090225E-1,1.2910597E0,9.57628E-1,1.4560237E0,-3.3411628E-1,2.964627E-1,9.760308E-2,1.4494143E0,1.22678615E-1,7.415862E-1,5.6919044E-1,1.4450624E0,4.237679E-1,1.1532164E0,1.1191545E0,2.2507927E0,7.0540595E-1,1.2205625E0,1.2751951E0,1.9392556E0,6.338041E-1,9.8178923E-1,1.1385945E0,1.7478203E0,1.8443913E0,1.2201687E0],"categories":[],"categories_nodes":[],"categories_segments":[],"categories_sizes":[],"default_left":[0,0,0,0,0,0,0,0,0,0,0,0,0,0,0,0,0,0,0,0,0,0,0,0,0,0,0,0,0,0,0,0,0,0,0,0,0,0,0,0,0,0,0,0,0,0,0,0,0,0,0,0,0,0,0,0,0,0,0,0,0,0,0,0,0,0,0,0,0,0,0,0,0,0,0,0,0,0,0,0,0,0,0,0,0,0,0,0,0,0,0,0,0,0,0,0,0,0,0,0,0,0,0,0,0,0,0,0,0,0,0,0,0,0,0,0,0,0,0,0,0,0,0,0,0,0,0,0,0,0,0,0,0,0,0,0,0,0,0,0,0,0,0,0,0,0,0,0,0,0,0,0,0,0,0,0,0,0,0,0,0,0,0,0,0,0,0,0,0,0,0,0,0,0,0,0,0,0,0,0,0,0,0,0,0,0,0,0,0,0,0,0,0,0,0,0,0,0,0,0,0,0,0,0,0,0,0,0,0,0,0,0,0,0,0,0,0,0,0,0,0,0,0,0,0,0,0,0,0],"id":6,"left_children":[1,3,5,7,9,11,13,15,17,19,21,23,25,27,29,31,33,35,37,39,41,43,45,47,49,51,53,55,57,59,61,63,65,67,69,71,73,75,77,79,81,83,85,87,89,91,93,95,97,99,101,103,105,107,109,111,113,115,117,119,-1,121,-1,123,125,127,129,131,133,135,137,-1,-1,139,-1,141,143,145,147,149,151,153,155,157,-1,159,161,163,165,167,169,171,173,175,-1,177,179,181,183,185,187,189,191,193,195,197,199,201,203,205,-1,207,209,211,213,215,217,219,221,223,225,227,-1,-1,-1,-1,-1,-1,-1,-1,-1,-1,-1,-1,-1,-1,-1,-1,-1,-1,-1,-1,-1,-1,-1,-1,-1,-1,-1,-1,-1,-1,-1,-1,-1,-1,-1,-1,-1,-1,-1,-1,-1,-1,-1,-1,-1,-1,-1,-1,-1,-1,-1,-1,-1,-1,-1,-1,-1,-1,-1,-1,-1,-1,-1,-1,-1,-1,-1,-1,-1,-1,-1,-1,-1,-1,-1,-1,-1,-1,-1,-1,-1,-1,-1,-1,-1,-1,-1,-1,-1,-1,-1,-1,-1,-1,-1,-1,-1,-1,-1,-1,-1,-1,-1,-1,-1,-1,-1],"loss_changes":[5.3497684E4,2.373032E4,1.3886621E4,1.2107949E4,1.0566285E4,1.4755091E4,6.770414E3,1.7307316E4,1.4591758E3,8.2994375E3,4.1245596E3,3.1545762E3,5.1256777E3,6.036584E3,1.3066953E3,5.920608E3,1.1881035E3,2.8751367E2,1.5305332E3,4.0617578E3,2.1972742E3,4.815961E3,1.5939521E3,1.2775767E3,1.117313E3,2.191462E3,1.4310059E3,2.6767505E3,1.1786953E3,1.2419688E3,7.200879E1,5.1493096E3,1.4711475E3,8.0155273E2,3.466006E2,4.629492E1,5.3024353E1,2.8145898E2,1.132375E3,3.959123E3,1.0022755E3,1.0925221E3,1.3269141E3,4.5374497E3,1.3948633E3,1.7196455E3,4.6972168E1,7.8885205E2,5.1201117E2,5.8682874E2,5.6479004E2,1.0953154E3,2.944463E2,1.4189375E3,6.8043555E2,7.5868616E2,1.5644551E3,8.857866E2,6.303799E2,1.0339004E3,0E0,6.3374023E1,0E0,3.1537412E3,1.2462778E3,7.3618555E2,1.509835E3,1.3999463E2,9.7979395E2,1.9016455E2,9.1026855E1,0E0,0E0,3.580255E1,0E0,2.1882617E2,8.08374E0,8.4730664E2,2.5040723E2,6.8376074E2,3.0370771E3,9.707915E2,3.008617E2,9.584877E2,0E0,1.3180288E3,4.9134863E2,3.4531304E3,1.4091614E3,5.6054004E2,2.047461E2,1.1761497E3,1.5078271E2,6.7058105E1,0E0,1.4294019E2,6.7914746E2,2.588004E2,1.2940875E2,5.7003204E2,9.5835175E1,6.4059766E2,1.9651306E2,5.0243106E2,6.527512E2,2.8855957E2,2.1661743E1,4.9627954E2,8.020713E2,2.4065088E2,0E0,2.0327957E2,7.2905334E2,1.03974E3,1.093E3,9.027549E2,2.9202612E2,4.020537E2,3.107461E2,5.357451E2,3.0854395E2,8.528223E1,0E0,0E0,0E0,0E0,0E0,0E0,0E0,0E0,0E0,0E0,0E0,0E0,0E0,0E0,0E0,0E0,0E0,0E0,0E0,0E0,0E0,0E0,0E0,0E0,0E0,0E0,0E0,0E0,0E0,0E0,0E0,0E0,0E0,0E0,0E0,0E0,0E0,0E0,0E0,0E0,0E0,0E0,0E0,0E0,0E0,0E0,0E0,0E0,0E0,0E0,0E0,0E0,0E0,0E0,0E0,0E0,0E0,0E0,0E0,0E0,0E0,0E0,0E0,0E0,0E0,0E0,0E0,0E0,0E0,0E0,0E0,0E0,0E0,0E0,0E0,0E0,0E0,0E0,0E0,0E0,0E0,0E0,0E0,0E0,0E0,0E0,0E0,0E0,0E0,0E0,0E0,0E0,0E0,0E0,0E0,0E0,0E0,0E0,0E0,0E0,0E0,0E0,0E0,0E0,0E0,0E0,0E0],"parents":[2147483647,0,0,1,1,2,2,3,3,4,4,5,5,6,6,7,7,8,8,9,9,10,10,11,11,12,12,13,13,14,14,15,15,16,16,17,17,18,18,19,19,20,20,21,21,22,22,23,23,24,24,25,25,26,26,27,27,28,28,29,29,30,30,31,31,32,32,33,33,34,34,35,35,36,36,37,37,38,38,39,39,40,40,41,41,42,42,43,43,44,44,45,45,46,46,47,47,48,48,49,49,50,50,51,51,52,52,53,53,54,54,55,55,56,56,57,57,58,58,59,59,61,61,63,63,64,64,65,65,66,66,67,67,68,68,69,69,70,70,73,73,75,75,76,76,77,77,78,78,79,79,80,80,81,81,82,82,83,83,85,85,86,86,87,87,88,88,89,89,90,90,91,91,92,92,93,93,95,95,96,96,97,97,98,98,99,99,100,100,101,101,102,102,103,103,104,104,105,105,106,106,107,107,108,108,109,109,111,111,112,112,113,113,114,114,115,115,116,116,117,117,118,118,119,119,120,120,121,121],"right_children":[2,4,6,8,10,12,14,16,18,20,22,24,26,28,30,32,34,36,38,40,42,44,46,48,50,52,54,56,58,60,62,64,66,68,70,72,74,76,78,80,82,84,86,88,90,92,94,96,98,100,102,104,106,108,110,112,114,116,118,120,-1,122,-1,124,126,128,130,132,134,136,138,-1,-1,140,-1,142,144,146,148,150,152,154,156,158,-1,160,162,164,166,168,170,172,174,176,-1,178,180,182,184,186,188,190,192,194,196,198,200,202,204,206,-1,208,210,212,214,216,218,220,222,224,226,228,-1,-1,-1,-1,-1,-1,-1,-1,-1,-1,-1,-1,-1,-1,-1,-1,-1,-1,-1,-1,-1,-1,-1,-1,-1,-1,-1,-1,-1,-1,-1,-1,-1,-1,-1,-1,-1,-1,-1,-1,-1,-1,-1,-1,-1,-1,-1,-1,-1,-1,-1,-1,-1,-1,-1,-1,-1,-1,-1,-1,-1,-1,-1,-1,-1,-1,-1,-1,-1,-1,-1,-1,-1,-1,-1,-1,-1,-1,-1,-1,-1,-1,-1,-1,-1,-1,-1,-1,-1,-1,-1,-1,-1,-1,-1,-1,-1,-1,-1,-1,-1,-1,-1,-1,-1,-1,-1],"split_conditions":[6E0,4E0,7E0,1E0,4E0,2E0,2E0,1E0,1E0,6E0,2E0,2E0,3E0,8E0,8E0,1E0,1E0,4E0,4E0,3E0,1E0,5E0,5E0,3E0,1E0,2E0,4E0,1E0,1E0,2E0,1E0,1E0,5E0,4E0,1E0,2E0,5E0,1E0,1E0,3E0,4E0,8E0,7E0,5E0,5E0,3E0,6E0,1E0,4E0,4E0,3E0,1E0,3E0,1E0,5E0,1E0,1E0,2E0,1E0,3E0,1.7681836E0,1E0,1.0862861E0,5E0,5E0,1E0,3E0,3E0,2E0,4E0,5E0,-1.5716494E0,-1.2544594E0,1E0,-4.9333423E-1,3E0,1E0,3E0,5E0,2E0,1E0,5E0,5E0,3E0,1.1560082E0,3E0,2E0,2E0,1E0,1E0,6E0,1E0,1E0,1E0,2.070882E0,2E0,1E0,1E0,1E0,3E0,1E0,1E0,4E0,2E0,1E0,2E0,1E0,1E0,1E0,1E0,2.2074738E0,3E0,3E0,2E0,2E0,9E0,3E0,1E0,1E0,1E0,1E0,1E0,9.812852E-1,-1.4428072E-1,1.8084289E-1,-6.6928875E-1,-2.5693366E-1,-4.5739046E-1,-8.39772E-1,-4.4788912E-1,-1.3213106E-2,-1.2167997E0,-8.8159966E-1,-8.767396E-1,-5.153667E-1,-1.3410878E0,-8.527742E-1,-1.4179394E0,-1.0806584E0,-1.3550413E0,-6.758277E-1,-1.2988462E0,-8.9891434E-1,-1.2525449E0,-1.7503761E0,-6.773172E-1,-3.306325E-1,-1.0834743E0,-7.78866E-1,-1.3575147E0,-7.757469E-1,-1.0126716E0,-2.2748676E-1,-2.0639913E-1,5.388869E-1,6.1500525E-1,1.8416929E0,-7.1463645E-1,1.04147136E-1,6.1995093E-2,8.3167434E-1,9.0928257E-1,1.7756356E0,-4.1645798E-1,4.2457217E-1,1.753673E-1,7.429994E-1,2.837617E-1,5.9249985E-1,9.07604E-1,1.5759962E0,2.507682E-1,9.0662014E-1,1.2133361E0,1.8994335E0,1.3032435E0,1.9406573E0,-7.3066443E-1,-4.635189E-1,-4.8536783E-1,-1.85054E-1,-2.8371575E-1,2.1582793E-1,3.8445434E-1,1.1878494E0,-2.4546266E-1,7.0243484E-1,1.6762888E-1,6.5077746E-1,-8.685612E-2,3.0073875E-1,3.9980212E-1,8.942723E-1,-1.00629546E-1,3.415932E-1,1.3483746E-1,4.4595623E-1,5.489256E-1,1.5062244E0,1.0868427E0,6.158099E-1,2.509106E-1,6.358257E-1,7.3090225E-1,1.2910597E0,9.57628E-1,1.4560237E0,-3.3411628E-1,2.964627E-1,9.760308E-2,1.4494143E0,1.22678615E-1,7.415862E-1,5.6919044E-1,1.4450624E0,4.237679E-1,1.1532164E0,1.1191545E0,2.2507927E0,7.0540595E-1,1.2205625E0,1.2751951E0,1.9392556E0,6.338041E-1,9.8178923E-1,1.1385945E0,1.7478203E0,1.8443913E0,1.2201687E0],"split_indices":[0,1,0,16,0,1,1,17,1,1,2,2,1,0,0,6,6,2,0,2,2,0,1,3,1,2,1,2,1,2,9,7,0,0,4,3,0,7,6,0,2,1,1,1,1,2,1,1,3,2,2,3,2,2,1,1,1,2,2,1,0,7,0,0,0,4,1,2,1,0,0,0,0,3,0,1,3,1,0,3,2,1,2,0,0,0,2,3,3,2,1,3,3,3,0,3,2,1,1,3,3,3,2,4,2,3,6,3,3,3,0,3,3,3,3,0,2,3,3,2,3,6,0,0,0,0,0,0,0,0,0,0,0,0,0,0,0,0,0,0,0,0,0,0,0,0,0,0,0,0,0,0,0,0,0,0,0,0,0,0,0,0,0,0,0,0,0,0,0,0,0,0,0,0,0,0,0,0,0,0,0,0,0,0,0,0,0,0,0,0,0,0,0,0,0,0,0,0,0,0,0,0,0,0,0,0,0,0,0,0,0,0,0,0,0,0,0,0,0,0,0,0,0,0,0,0,0,0,0],"split_type":[0,0,0,0,0,0,0,0,0,0,0,0,0,0,0,0,0,0,0,0,0,0,0,0,0,0,0,0,0,0,0,0,0,0,0,0,0,0,0,0,0,0,0,0,0,0,0,0,0,0,0,0,0,0,0,0,0,0,0,0,0,0,0,0,0,0,0,0,0,0,0,0,0,0,0,0,0,0,0,0,0,0,0,0,0,0,0,0,0,0,0,0,0,0,0,0,0,0,0,0,0,0,0,0,0,0,0,0,0,0,0,0,0,0,0,0,0,0,0,0,0,0,0,0,0,0,0,0,0,0,0,0,0,0,0,0,0,0,0,0,0,0,0,0,0,0,0,0,0,0,0,0,0,0,0,0,0,0,0,0,0,0,0,0,0,0,0,0,0,0,0,0,0,0,0,0,0,0,0,0,0,0,0,0,0,0,0,0,0,0,0,0,0,0,0,0,0,0,0,0,0,0,0,0,0,0,0,0,0,0,0,0,0,0,0,0,0,0,0,0,0,0,0,0,0,0,0,0,0],"sum_hessian":[3.0068E4,1.8872E4,1.1196E4,1.2424E4,6.448E3,6.827E3,4.369E3,1.0258E4,2.166E3,2.836E3,3.612E3,3.356E3,3.471E3,3.234E3,1.135E3,8.263E3,1.995E3,1.88E2,1.978E3,2.089E3,7.47E2,2.931E3,6.81E2,1.863E3,1.493E3,2.225E3,1.246E3,2.345E3,8.89E2,1.006E3,1.29E2,6.087E3,2.176E3,1.52E3,4.75E2,1.51E2,3.7E1,3.03E2,1.675E3,1.667E3,4.22E2,2.56E2,4.91E2,1.779E3,1.152E3,5.79E2,1.02E2,1.66E3,2.03E2,5.79E2,9.14E2,1.74E3,4.85E2,9.87E2,2.59E2,7.67E2,1.578E3,4.79E2,4.1E2,9.38E2,6.8E1,1.13E2,1.6E1,4.808E3,1.279E3,7.95E2,1.381E3,2.31E2,1.289E3,2.91E2,1.84E2,8E1,7.1E1,1.9E1,1.8E1,2.56E2,4.7E1,1.219E3,4.56E2,3.37E2,1.33E3,3.31E2,9.1E1,2.32E2,2.4E1,3.47E2,1.44E2,1.084E3,6.95E2,9.21E2,2.31E2,4.73E2,1.06E2,9.3E1,9E0,3.41E2,1.319E3,1.69E2,3.4E1,5.14E2,6.5E1,6.69E2,2.45E2,6.89E2,1.051E3,4.19E2,6.6E1,5.24E2,4.63E2,2.36E2,2.3E1,2.47E2,5.2E2,7.09E2,8.69E2,4.02E2,7.7E1,2.48E2,1.62E2,7.26E2,2.12E2,1.04E2,9E0,1.947E3,2.861E3,4.29E2,8.5E2,4.24E2,3.71E2,9.1E2,4.71E2,1.09E2,1.22E2,4.54E2,8.35E2,3.9E1,2.52E2,1.06E2,7.8E1,8E0,1.1E1,9.4E1,1.62E2,1.7E1,3E1,7.97E2,4.22E2,2.13E2,2.43E2,1.98E2,1.39E2,2.31E2,1.099E3,2.37E2,9.4E1,8.3E1,8E0,9E1,1.42E2,1.87E2,1.6E2,1.09E2,3.5E1,8.4E2,2.44E2,3.99E2,2.96E2,4.78E2,4.43E2,2.1E2,2.1E1,3.12E2,1.61E2,8.7E1,1.9E1,8.1E1,1.2E1,2E2,1.41E2,4.39E2,8.8E2,6.4E1,1.05E2,1.5E1,1.9E1,4.89E2,2.5E1,3.1E1,3.4E1,2.98E2,3.71E2,2.08E2,3.7E1,5.69E2,1.2E2,5.06E2,5.45E2,4.07E2,1.2E1,5.7E1,9E0,2.68E2,2.56E2,3.13E2,1.5E2,1.82E2,5.4E1,2.26E2,2.1E1,5.05E2,1.5E1,5.81E2,1.28E2,8.1E2,5.9E1,3.19E2,8.3E1,6.6E1,1.1E1,1.32E2,1.16E2,1.19E2,4.3E1,4.24E2,3.02E2,1.66E2,4.6E1,8.5E1,1.9E1],"tree_param":{"num_deleted":"0","num_feature":"18","num_nodes":"229","size_leaf_vector":"1"}},{"base_weights":[7.891832E-3,-8.1616396E-1,1.3983426E0,-2.0007038E0,-5.1094644E-2,6.7694044E-1,2.5243475E0,-1.6045861E0,-3.7086809E0,-6.4519674E-1,1.3210579E0,-5.2629375E-1,1.8428447E0,1.9432913E0,4.2178736E0,-1.0512751E0,-3.583504E0,-3.2924626E0,-4.8655744E0,-1.371149E0,9.690362E-1,6.357109E-1,2.5013568E0,-1.2205706E0,3.3231738E-1,1.1031623E0,3.1571493E0,1.2563014E0,3.7273178E0,3.9700015E0,1.5087131E0,-1.3301195E0,9.307606E-1,-3.24222E0,-4.95586E0,-2.8727648E0,-4.6982803E0,-5.713611E0,-4.3112082E0,-2.709396E0,-6.710488E-1,1.4239672E0,-1.5638494E0,2.1280121E-2,2.3678346E0,2.2186773E0,5.10509E0,-1.7735711E0,-2.9263774E-1,-5.440678E-1,8.86715E-1,6.7568547E-1,2.6269672E0,2.8799222E0,6.178956E0,7.244545E-1,2.8089733E0,2.8267863E0,4.760487E0,3.636059E0,6.3933873E0,-2.7366085E0,-8.576731E-1,-1.8605298E0,1.432777E0,-2.8116605E0,-4.4312267E0,-1.4707421E0,-4.5328703E0,-4.84316E0,-2.6455276E0,-5.9448743E0,-4.0040016E0,-5.1126027E0,-1.3060648E0,-6.279668E0,-3.8541222E0,-3.6853793E0,-9.875566E-1,-3.229304E0,-3.147416E-2,1.9889487E0,-1.4391258E0,-2.6815426E0,-5.1764786E-1,-8.74703E-1,6.1980814E-1,2.1829093E0,1.251367E0,1.7811695E0,3.9440584E0,1.0388438E0,6.151235E-1,-1.9275969E0,9.038663E-1,-4.8943684E-1,3.5477633E0,-1.2925928E0,5.4641E-1,6.5588117E-1,3.037253E0,5.620388E-1,5.4774103E0,2.1379862E0,3.5917318E0,2.3566477E0,4.687868E0,5.7316203E0,2.0230381E0,-3.0535507E-1,1.3178178E0,1.8520578E0,3.9795566E0,2.3426123E0,5.3293552E0,4.390612E0,8.470526E0,3.1701882E0,5.2231593E0,5.80938E0,1.6180141E0,-7.213709E-1,-3.756802E-1,-2.809639E-1,3.77299E-2,-5.588544E-1,1.7696095E-1,7.3103204E-2,6.3348806E-1,-5.081653E-1,-8.9598155E-1,-1.3234118E0,-8.238944E-1,-1.0889336E0,-7.4744177E-1,-1.1660691E0,-5.7587874E-1,-8.75791E-1,-4.6239212E-1,-1.3424077E0,-1.0635476E0,-9.150205E-1,-6.370376E-1,-1.2397664E0,-8.993663E-1,-1.3346462E0,-8.9228237E-1,-9.7604114E-1,-6.70672E-1,-9.561013E-1,-4.0115908E-1,-6.6967684E-1,-1.6005155E-2,-7.5608295E-1,1.1099565E-1,-1.0052064E-1,4.6578434E-1,7.588828E-2,5.3821164E-1,-5.3671587E-1,-8.000067E-2,-6.815703E-1,1.621732E-1,-4.357466E-1,1.6587315E-1,-2.5288668E-1,1.4534296E-1,-5.7216037E-2,2.6255417E-1,3.497434E-1,7.898522E-1,3.0930638E-1,7.8571683E-1,7.2312635E-1,1.2623471E0,-6.286394E-1,-3.31929E-1,-2.5879115E-1,5.0399774E-1,-3.0042806E-1,4.2158753E-2,3.1341445E-1,9.873906E-1,-3.052947E-1,4.6803373E-1,-1.11620456E-1,2.8768757E-1,3.4169074E-2,3.560744E-1,5.4556376E-1,8.4403586E-1,-3.6425374E-2,2.1681364E-1,8.9437026E-1,1.5458558E0,3.54423E-1,7.5095224E-1,6.666869E-1,1.2135137E0,3.1385452E-1,6.53341E-1,8.3076006E-1,1.7905079E0,1.0039593E0,1.6188318E0,-1.6328284E-1,2.1804859E-1,1.858318E-1,6.9881284E-1,3.1144756E-1,1.9007022E0,6.340672E-1,1.1647098E0,3.4593388E-1,9.0563375E-1,8.925841E-1,1.8441296E0,8.0004495E-1,1.9042876E0,1.4633719E0,2.0798779E0,4.734036E-1,8.390669E-1,9.135241E-1,1.4155015E0,1.0592518E0,1.6715212E0],"categories":[],"categories_nodes":[],"categories_segments":[],"categories_sizes":[],"default_left":[0,0,0,0,0,0,0,0,0,0,0,0,0,0,0,0,0,0,0,0,0,0,0,0,0,0,0,0,0,0,0,0,0,0,0,0,0,0,0,0,0,0,0,0,0,0,0,0,0,0,0,0,0,0,0,0,0,0,0,0,0,0,0,0,0,0,0,0,0,0,0,0,0,0,0,0,0,0,0,0,0,0,0,0,0,0,0,0,0,0,0,0,0,0,0,0,0,0,0,0,0,0,0,0,0,0,0,0,0,0,0,0,0,0,0,0,0,0,0,0,0,0,0,0,0,0,0,0,0,0,0,0,0,0,0,0,0,0,0,0,0,0,0,0,0,0,0,0,0,0,0,0,0,0,0,0,0,0,0,0,0,0,0,0,0,0,0,0,0,0,0,0,0,0,0,0,0,0,0,0,0,0,0,0,0,0,0,0,0,0,0,0,0,0,0,0,0,0,0,0,0,0,0,0,0,0,0,0,0,0,0,0,0,0,0,0,0,0,0,0,0,0,0,0,0,0,0],"id":7,"left_children":[1,3,5,7,9,11,13,15,17,19,21,23,25,27,29,31,33,35,37,39,41,43,45,47,49,51,53,55,57,59,-1,61,63,65,67,69,71,73,75,77,79,81,83,85,87,89,91,93,95,97,99,101,103,105,107,109,111,113,115,117,119,121,123,125,127,129,131,-1,133,135,137,139,141,143,-1,145,147,149,151,153,155,157,159,161,163,165,167,169,-1,171,173,-1,-1,175,177,179,181,183,185,187,189,191,193,195,197,199,201,203,-1,205,207,209,211,213,215,217,219,221,223,225,-1,-1,-1,-1,-1,-1,-1,-1,-1,-1,-1,-1,-1,-1,-1,-1,-1,-1,-1,-1,-1,-1,-1,-1,-1,-1,-1,-1,-1,-1,-1,-1,-1,-1,-1,-1,-1,-1,-1,-1,-1,-1,-1,-1,-1,-1,-1,-1,-1,-1,-1,-1,-1,-1,-1,-1,-1,-1,-1,-1,-1,-1,-1,-1,-1,-1,-1,-1,-1,-1,-1,-1,-1,-1,-1,-1,-1,-1,-1,-1,-1,-1,-1,-1,-1,-1,-1,-1,-1,-1,-1,-1,-1,-1,-1,-1,-1,-1,-1,-1,-1,-1,-1,-1,-1,-1,-1],"loss_changes":[3.4477387E4,1.7121775E4,9.093641E3,5.0100684E3,9.359333E3,9.576865E3,4.293998E3,6.587874E3,6.556992E2,9.39024E3,2.8045347E3,2.0033478E3,3.3670225E3,3.987124E3,9.2027734E2,2.602147E3,5.998301E2,5.9363086E2,1.4790332E2,5.176466E3,2.8668162E3,2.337087E3,9.263657E2,9.529092E2,7.307388E2,1.444314E3,1.0276885E3,1.9410339E3,8.2855664E2,8.208242E2,0E0,2.7393413E3,8.1680566E2,5.2814746E2,2.4178223E2,3.4314697E2,1.7958545E2,4.4020996E1,1.7914258E2,3.1859229E3,5.939287E3,3.4127515E3,4.4178888E2,8.703737E2,4.0945288E2,8.6182764E2,2.4280762E1,4.8176904E2,5.2700867E2,4.7658002E2,4.55208E2,9.4371075E2,2.2159204E2,1.0721816E3,1.3121826E2,1.0721863E3,6.647197E2,5.7639136E2,5.391543E2,6.629346E2,8.485791E1,7.88272E2,1.8409548E3,2.4186383E2,9.31312E2,3.032539E2,1.319209E2,0E0,1.4435205E2,1.4970264E2,3.7464404E2,2.224121E0,6.0889893E1,2.9541016E1,0E0,4.6800537E0,7.533447E1,2.3189805E3,1.5025828E3,1.6726567E3,3.3300344E3,2.093878E3,4.6055347E2,5.0077087E2,4.55223E2,4.2882358E2,6.3112244E2,4.0351E2,0E0,4.2361963E2,1.3362134E2,0E0,0E0,3.3297217E2,2.3791037E2,4.8213458E2,8.933206E1,3.2892834E2,2.4266412E2,4.6219287E2,1.798767E1,6.816303E2,5.3335693E1,1.7779883E2,6.613208E1,6.464468E2,4.9401807E2,1.1015381E2,0E0,4.749581E2,9.2639746E2,6.881173E2,3.7683057E2,5.3310205E2,2.0915625E2,6.31834E2,2.2280273E0,5.851953E2,2.0523145E2,6.835156E1,0E0,0E0,0E0,0E0,0E0,0E0,0E0,0E0,0E0,0E0,0E0,0E0,0E0,0E0,0E0,0E0,0E0,0E0,0E0,0E0,0E0,0E0,0E0,0E0,0E0,0E0,0E0,0E0,0E0,0E0,0E0,0E0,0E0,0E0,0E0,0E0,0E0,0E0,0E0,0E0,0E0,0E0,0E0,0E0,0E0,0E0,0E0,0E0,0E0,0E0,0E0,0E0,0E0,0E0,0E0,0E0,0E0,0E0,0E0,0E0,0E0,0E0,0E0,0E0,0E0,0E0,0E0,0E0,0E0,0E0,0E0,0E0,0E0,0E0,0E0,0E0,0E0,0E0,0E0,0E0,0E0,0E0,0E0,0E0,0E0,0E0,0E0,0E0,0E0,0E0,0E0,0E0,0E0,0E0,0E0,0E0,0E0,0E0,0E0,0E0,0E0,0E0,0E0,0E0,0E0,0E0,0E0],"parents":[2147483647,0,0,1,1,2,2,3,3,4,4,5,5,6,6,7,7,8,8,9,9,10,10,11,11,12,12,13,13,14,14,15,15,16,16,17,17,18,18,19,19,20,20,21,21,22,22,23,23,24,24,25,25,26,26,27,27,28,28,29,29,31,31,32,32,33,33,34,34,35,35,36,36,37,37,38,38,39,39,40,40,41,41,42,42,43,43,44,44,45,45,46,46,47,47,48,48,49,49,50,50,51,51,52,52,53,53,54,54,55,55,56,56,57,57,58,58,59,59,60,60,61,61,62,62,63,63,64,64,65,65,66,66,68,68,69,69,70,70,71,71,72,72,73,73,75,75,76,76,77,77,78,78,79,79,80,80,81,81,82,82,83,83,84,84,85,85,86,86,87,87,89,89,90,90,93,93,94,94,95,95,96,96,97,97,98,98,99,99,100,100,101,101,102,102,103,103,104,104,105,105,106,106,107,107,109,109,110,110,111,111,112,112,113,113,114,114,115,115,116,116,117,117,118,118,119,119],"right_children":[2,4,6,8,10,12,14,16,18,20,22,24,26,28,30,32,34,36,38,40,42,44,46,48,50,52,54,56,58,60,-1,62,64,66,68,70,72,74,76,78,80,82,84,86,88,90,92,94,96,98,100,102,104,106,108,110,112,114,116,118,120,122,124,126,128,130,132,-1,134,136,138,140,142,144,-1,146,148,150,152,154,156,158,160,162,164,166,168,170,-1,172,174,-1,-1,176,178,180,182,184,186,188,190,192,194,196,198,200,202,204,-1,206,208,210,212,214,216,218,220,222,224,226,-1,-1,-1,-1,-1,-1,-1,-1,-1,-1,-1,-1,-1,-1,-1,-1,-1,-1,-1,-1,-1,-1,-1,-1,-1,-1,-1,-1,-1,-1,-1,-1,-1,-1,-1,-1,-1,-1,-1,-1,-1,-1,-1,-1,-1,-1,-1,-1,-1,-1,-1,-1,-1,-1,-1,-1,-1,-1,-1,-1,-1,-1,-1,-1,-1,-1,-1,-1,-1,-1,-1,-1,-1,-1,-1,-1,-1,-1,-1,-1,-1,-1,-1,-1,-1,-1,-1,-1,-1,-1,-1,-1,-1,-1,-1,-1,-1,-1,-1,-1,-1,-1,-1,-1,-1,-1,-1],"split_conditions":[6E0,3E0,7E0,1E0,5E0,2E0,2E0,1E0,1E0,5E0,4E0,2E0,3E0,8E0,2E0,4E0,1E0,1E0,5E0,4E0,1E0,2E0,2E0,2E0,1E0,2E0,2E0,2E0,1E0,8E0,1.5087131E0,5E0,4E0,1E0,1E0,4E0,5E0,1E0,1E0,3E0,1E0,1E0,3E0,1E0,2E0,5E0,1E0,3E0,4E0,3E0,2E0,3E0,1E0,4E0,3E0,1E0,1E0,2E0,9E0,3E0,1E0,2E0,2E0,2E0,2E0,1E0,4E0,-1.4707421E0,5E0,4E0,1E0,2E0,2E0,2E0,-1.3060648E0,3E0,1E0,2E0,3E0,3E0,2E0,1E0,3E0,7E0,1E0,2E0,1E0,3E0,1.251367E0,2E0,6E0,1.0388438E0,6.151235E-1,1E0,1E0,1E0,1E0,3E0,1E0,3E0,1E0,1E0,1E0,3E0,2E0,1E0,5E0,1E0,2.0230381E0,2E0,2E0,4E0,1E0,9E0,3E0,2E0,1E0,1E0,1E0,3E0,1.6180141E0,-7.213709E-1,-3.756802E-1,-2.809639E-1,3.77299E-2,-5.588544E-1,1.7696095E-1,7.3103204E-2,6.3348806E-1,-5.081653E-1,-8.9598155E-1,-1.3234118E0,-8.238944E-1,-1.0889336E0,-7.4744177E-1,-1.1660691E0,-5.7587874E-1,-8.75791E-1,-4.6239212E-1,-1.3424077E0,-1.0635476E0,-9.150205E-1,-6.370376E-1,-1.2397664E0,-8.993663E-1,-1.3346462E0,-8.9228237E-1,-9.7604114E-1,-6.70672E-1,-9.561013E-1,-4.0115908E-1,-6.6967684E-1,-1.6005155E-2,-7.5608295E-1,1.1099565E-1,-1.0052064E-1,4.6578434E-1,7.588828E-2,5.3821164E-1,-5.3671587E-1,-8.000067E-2,-6.815703E-1,1.621732E-1,-4.357466E-1,1.6587315E-1,-2.5288668E-1,1.4534296E-1,-5.7216037E-2,2.6255417E-1,3.497434E-1,7.898522E-1,3.0930638E-1,7.8571683E-1,7.2312635E-1,1.2623471E0,-6.286394E-1,-3.31929E-1,-2.5879115E-1,5.0399774E-1,-3.0042806E-1,4.2158753E-2,3.1341445E-1,9.873906E-1,-3.052947E-1,4.6803373E-1,-1.11620456E-1,2.8768757E-1,3.4169074E-2,3.560744E-1,5.4556376E-1,8.4403586E-1,-3.6425374E-2,2.1681364E-1,8.9437026E-1,1.5458558E0,3.54423E-1,7.5095224E-1,6.666869E-1,1.2135137E0,3.1385452E-1,6.53341E-1,8.3076006E-1,1.7905079E0,1.0039593E0,1.6188318E0,-1.6328284E-1,2.1804859E-1,1.858318E-1,6.9881284E-1,3.1144756E-1,1.9007022E0,6.340672E-1,1.1647098E0,3.4593388E-1,9.0563375E-1,8.925841E-1,1.8441296E0,8.0004495E-1,1.9042876E0,1.4633719E0,2.0798779E0,4.734036E-1,8.390669E-1,9.135241E-1,1.4155015E0,1.0592518E0,1.6715212E0],"split_indices":[0,1,0,16,0,1,1,17,6,1,1,2,1,0,2,2,7,7,0,0,16,2,2,3,1,2,2,2,1,0,0,0,0,6,1,0,0,4,1,2,2,17,0,3,3,1,6,4,3,2,3,3,3,1,2,1,1,2,0,1,3,3,3,3,1,10,0,0,0,2,1,1,1,2,0,2,2,3,0,3,3,2,0,1,2,4,2,2,0,3,1,0,0,1,1,2,1,3,3,2,4,2,2,2,3,3,1,3,0,3,3,2,3,0,2,2,2,3,3,1,0,0,0,0,0,0,0,0,0,0,0,0,0,0,0,0,0,0,0,0,0,0,0,0,0,0,0,0,0,0,0,0,0,0,0,0,0,0,0,0,0,0,0,0,0,0,0,0,0,0,0,0,0,0,0,0,0,0,0,0,0,0,0,0,0,0,0,0,0,0,0,0,0,0,0,0,0,0,0,0,0,0,0,0,0,0,0,0,0,0,0,0,0,0,0,0,0,0,0,0,0,0,0,0,0,0,0],"split_type":[0,0,0,0,0,0,0,0,0,0,0,0,0,0,0,0,0,0,0,0,0,0,0,0,0,0,0,0,0,0,0,0,0,0,0,0,0,0,0,0,0,0,0,0,0,0,0,0,0,0,0,0,0,0,0,0,0,0,0,0,0,0,0,0,0,0,0,0,0,0,0,0,0,0,0,0,0,0,0,0,0,0,0,0,0,0,0,0,0,0,0,0,0,0,0,0,0,0,0,0,0,0,0,0,0,0,0,0,0,0,0,0,0,0,0,0,0,0,0,0,0,0,0,0,0,0,0,0,0,0,0,0,0,0,0,0,0,0,0,0,0,0,0,0,0,0,0,0,0,0,0,0,0,0,0,0,0,0,0,0,0,0,0,0,0,0,0,0,0,0,0,0,0,0,0,0,0,0,0,0,0,0,0,0,0,0,0,0,0,0,0,0,0,0,0,0,0,0,0,0,0,0,0,0,0,0,0,0,0,0,0,0,0,0,0,0,0,0,0,0,0,0,0,0,0,0,0],"sum_hessian":[3.0088E4,1.8892E4,1.1196E4,7.413E3,1.1479E4,6.825E3,4.371E3,6.019E3,1.394E3,8.011E3,3.468E3,3.359E3,3.466E3,3.256E3,1.115E3,4.705E3,1.314E3,1.028E3,3.66E2,5.526E3,2.485E3,2.195E3,1.273E3,1.857E3,1.502E3,2.219E3,1.247E3,2.352E3,9.04E2,1.042E3,7.3E1,4.125E3,5.8E2,1.055E3,2.59E2,7.94E2,2.34E2,1.41E2,2.25E2,1.897E3,3.629E3,2.107E3,3.78E2,1.621E3,5.74E2,1.15E3,1.23E2,1.163E3,6.94E2,5.82E2,9.2E2,1.734E3,4.85E2,1.144E3,1.03E2,1.753E3,5.99E2,4.85E2,4.19E2,9.18E2,1.24E2,1.036E3,3.089E3,8.8E1,4.92E2,7.77E2,2.78E2,3.5E1,2.24E2,8E1,7.14E2,8.1E1,1.53E2,8.9E1,5.2E1,4E1,1.85E2,1.21E3,6.87E2,7.25E2,2.904E3,1.76E3,3.47E2,1.82E2,1.96E2,6.49E2,9.72E2,5.5E2,2.4E1,9.19E2,2.31E2,1.12E2,1.1E1,1.1E3,6.3E1,6.61E2,3.3E1,3.45E2,2.37E2,8.32E2,8.8E1,1.695E3,3.9E1,3.24E2,1.61E2,8.89E2,2.55E2,9.5E1,8E0,6.41E2,1.112E3,3.31E2,2.68E2,4.08E2,7.7E1,3.83E2,3.6E1,7.12E2,2.06E2,9.7E1,2.7E1,4.89E2,5.47E2,2.004E3,1.085E3,6.5E1,2.3E1,3.09E2,1.83E2,6.87E2,9E1,2.5E1,2.53E2,9.3E1,1.31E2,5E1,3E1,1E2,6.14E2,2.7E1,5.4E1,8.1E1,7.2E1,2.5E1,6.4E1,2.9E1,1.1E1,5.1E1,1.34E2,7.08E2,5.02E2,1.87E2,5E2,6.25E2,1E2,2.421E3,4.83E2,5.57E2,1.203E3,1.54E2,1.93E2,1.49E2,3.3E1,8.7E1,1.09E2,5.18E2,1.31E2,4.27E2,5.45E2,4.51E2,9.9E1,8.4E2,7.9E1,2.1E2,2.1E1,1.76E2,9.24E2,2.7E1,3.6E1,2.67E2,3.94E2,1.5E1,1.8E1,3.23E2,2.2E1,1.07E2,1.3E2,5.87E2,2.45E2,7.5E1,1.3E1,7.1E2,9.85E2,3E1,9E0,2.71E2,5.3E1,1.51E2,1E1,4.96E2,3.93E2,2.32E2,2.3E1,7.8E1,1.7E1,4.68E2,1.73E2,9.53E2,1.59E2,3.21E2,1E1,1.94E2,7.4E1,3.25E2,8.3E1,6.6E1,1.1E1,3.62E2,2.1E1,2.7E1,9E0,4.19E2,2.93E2,1.61E2,4.5E1,8.6E1,1.1E1],"tree_param":{"num_deleted":"0","num_feature":"18","num_nodes":"227","size_leaf_vector":"1"}},{"base_weights":[1.4642562E-2,-6.5551406E-1,1.1444021E0,1.0520948E-2,-2.0101469E0,5.6505436E-1,2.0534623E0,5.528714E-1,-1.4269998E0,-1.6784264E0,-3.776606E0,-4.046307E-1,1.4922011E0,1.5717992E0,3.4106119E0,1.0353264E0,-1.213722E0,-1.1086974E0,-3.141329E0,-1.2730592E0,-3.6772249E0,-3.2416296E0,-4.694894E0,-9.7901076E-1,3.0365822E-1,8.977046E-1,2.5754743E0,1.0084124E0,3.0264592E0,3.2200243E0,1.2058095E0,1.4999428E0,-1.0258334E0,-4.9430555E-1,-2.1723597E0,-7.216293E-1,-3.15819E0,-4.607579E0,-2.6400573E0,-2.04868E0,-7.1347415E-1,-3.0591729E0,-4.593915E0,-2.8478658E0,-4.560926E0,-5.2765627E0,-3.8161724E0,-1.1712202E0,6.479965E-1,-3.3915007E-1,8.132413E-1,5.618535E-1,2.1079497E0,1.8108658E0,3.5763578E0,-1.364252E-1,1.5702707E0,2.1489763E0,3.9870794E0,2.9572182E0,5.2357655E0,2.6067674E0,5.929966E-1,-2.5149792E-1,-1.9229503E0,-1.3777418E-1,-2.4240592E0,-3.0657773E0,-1.3131281E0,-5.898205E-2,-1.6265124E0,-2.5444062E0,-4.269193E0,-4.187825E0,-1.443605E0,-3.8307693E0,-2.169373E0,-1.7329787E0,-3.2838395E0,-1.3431699E0,4.546384E-1,-1.1301775E0,-2.8588636E0,-4.682703E0,-2.1116237E-1,-2.5635328E0,-4.5792584E0,-1.1246816E0,-4.132998E0,-1.3136446E0,-4.9290895E0,-4.29245E0,-2.0927893E-1,-2.1980486E0,-9.00892E-1,-4.136245E-1,1.9555953E0,-6.1385137E-1,1.4897754E0,8.554947E-2,1.4152275E0,2.4877265E-1,2.1096134E0,1.7010036E0,2.9163995E0,1.3386244E0,3.2443233E0,3.199438E0,5.624188E0,-2.4682838E-1,3.7920132E0,7.115407E-1,2.400996E0,1.7689064E0,5.251733E0,3.051351E0,5.9313536E0,2.7522166E0,5.842364E0,4.9157157E0,1.5294831E0,6.1974794E-1,9.258987E-2,1.9712178E-1,-3.017696E-1,2.023166E-2,-4.1018817E-1,-5.357011E-1,-1.8532361E-1,3.8371414E-2,-4.4651952E-1,-6.1883503E-1,-2.7028838E-1,-5.552063E-1,-1.0750941E0,-4.148477E-1,4.13641E-2,6.4862475E-2,-3.5430518E-1,-2.6591727E-1,-7.195131E-1,-7.195434E-1,-4.127809E-1,-1.1320494E0,-7.254775E-1,-7.2160053E-1,-1.0332034E0,-7.998333E-1,-3.7801298E-1,-3.545542E-1,-7.3848903E-1,-2.7934125E-1,-6.232645E-1,-8.573727E-1,-5.768954E-1,-1.955648E-1,-6.0789984E-1,-4.5533455E-3,2.7731642E-1,-5.137212E-1,-8.7990993E-1,-1.0149983E0,-7.826082E-1,-4.589527E-1,-8.447342E-1,-7.4098146E-1,-1.0291458E0,-8.997903E-1,-5.7677746E-1,