{"learner":{"attributes":{"scikit_learn":"{\"_estimator_type\": \"regressor\"}"},"feature_names":[],"feature_types":[],"gradient_booster":{"model":{"gbtree_model_param":{"num_parallel_tree":"1","num_trees":"339"},"iteration_indptr":[0,1,2,3,4,5,6,7,8,9,10,11,12,13,14,15,16,17,18,19,20,21,22,23,24,25,26,27,28,29,30,31,32,33,34,35,36,37,38,39,40,41,42,43,44,45,46,47,48,49,50,51,52,53,54,55,56,57,58,59,60,61,62,63,64,65,66,67,68,69,70,71,72,73,74,75,76,77,78,79,80,81,82,83,84,85,86,87,88,89,90,91,92,93,94,95,96,97,98,99,100,101,102,103,104,105,106,107,108,109,110,111,112,113,114,115,116,117,118,119,120,121,122,123,124,125,126,127,128,129,130,131,132,133,134,135,136,137,138,139,140,141,142,143,144,145,146,147,148,149,150,151,152,153,154,155,156,157,158,159,160,161,162,163,164,165,166,167,168,169,170,171,172,173,174,175,176,177,178,179,180,181,182,183,184,185,186,187,188,189,190,191,192,193,194,195,196,197,198,199,200,201,202,203,204,205,206,207,208,209,210,211,212,213,214,215,216,217,218,219,220,221,222,223,224,225,226,227,228,229,230,231,232,233,234,235,236,237,238,239,240,241,242,243,244,245,246,247,248,249,250,251,252,253,254,255,256,257,258,259,260,261,262,263,264,265,266,267,268,269,270,271,272,273,274,275,276,277,278,279,280,281,282,283,284,285,286,287,288,289,290,291,292,293,294,295,296,297,298,299,300,301,302,303,304,305,306,307,308,309,310,311,312,313,314,315,316,317,318,319,320,321,322,323,324,325,326,327,328,329,330,331,332,333,334,335,336,337,338,339],"tree_info":[0,0,0,0,0,0,0,0,0,0,0,0,0,0,0,0,0,0,0,0,0,0,0,0,0,0,0,0,0,0,0,0,0,0,0,0,0,0,0,0,0,0,0,0,0,0,0,0,0,0,0,0,0,0,0,0,0,0,0,0,0,0,0,0,0,0,0,0,0,0,0,0,0,0,0,0,0,0,0,0,0,0,0,0,0,0,0,0,0,0,0,0,0,0,0,0,0,0,0,0,0,0,0,0,0,0,0,0,0,0,0,0,0,0,0,0,0,0,0,0,0,0,0,0,0,0,0,0,0,0,0,0,0,0,0,0,0,0,0,0,0,0,0,0,0,0,0,0,0,0,0,0,0,0,0,0,0,0,0,0,0,0,0,0,0,0,0,0,0,0,0,0,0,0,0,0,0,0,0,0,0,0,0,0,0,0,0,0,0,0,0,0,0,0,0,0,0,0,0,0,0,0,0,0,0,0,0,0,0,0,0,0,0,0,0,0,0,0,0,0,0,0,0,0,0,0,0,0,0,0,0,0,0,0,0,0,0,0,0,0,0,0,0,0,0,0,0,0,0,0,0,0,0,0,0,0,0,0,0,0,0,0,0,0,0,0,0,0,0,0,0,0,0,0,0,0,0,0,0,0,0,0,0,0,0,0,0,0,0,0,0,0,0,0,0,0,0,0,0,0,0,0,0,0,0,0,0,0,0,0,0,0,0,0,0,0,0,0,0,0,0,0,0,0,0,0,0,0,0,0,0,0,0,0,0,0,0,0,0],"trees":[{"base_weights":[2.3718316E-2,-3.8306448E0,6.4917016E0,-6.6026964E0,1.5722235E0,3.1385183E0,1.168439E1,-1.0583115E1,-3.7008533E0,-6.097672E-1,1.1168706E1,-2.656699E0,8.79193E0,8.944692E0,1.9970436E1,-1.2366421E1,-7.520681E0,-6.3996105E0,2.2490978E0,-2.2920241E0,7.1209574E0,9.271508E0,1.8365051E1,-5.4224453E0,8.2588273E-1,5.421187E0,1.4615892E1,5.715511E0,1.7300083E1,1.862826E1,5.957554E0,-1.6025032E1,-1.0059573E1,-9.766066E0,-3.784492E0,-9.651247E0,-3.7736912E0,-9.425569E-2,8.748523E0,-5.940901E0,1.5993387E0,5.3960915E0,1.5925395E1,5.0476317E0,1.2814635E1,1.6501646E1,4.41379E0,-9.8711E0,-3.9899383E0,-3.469491E0,3.6441038E0,3.2964637E0,1.2413812E1,1.2772399E1,2.252488E1,1.8443154E0,8.33848E0,1.5069015E1,2.8606815E1,1.6341595E1,2.5914305E1,-2.181651E1,-1.54076395E1,-1.6680546E1,-8.314002E0,-1.381632E1,-8.442253E0,-8.686387E0,1.9602379E0,-1.2198751E1,-4.642103E0,-7.3292193E0,2.0449863E-1,-2.6682537E0,1.5875514E0,7.616825E0,2.9781513E0,-9.3276825E0,-2.9824781E0,-4.5703673E-1,6.861194E0,3.0378802E0,1.1127603E1,1.3698485E1,3.9310691E0,3.1781116E0,7.1420503E0,1.1262475E1,3.6846535E0,1.5229231E1,4.9128747E0,-1.0777259E1,-4.339508E0,-5.1079297E0,-1.5769348E0,-5.9540567E0,4.6688646E-1,1.7528714E0,8.462079E0,8.129156E-1,5.359791E0,1.1063601E1,3.7517526E0,9.18318E0,1.6449696E1,2.0209162E1,5.2594204E0,-4.1842318E-1,7.0254087E0,6.6830325E0,1.5871819E1,1.1622023E1,1.913733E1,2.660664E1,7.60442E0,1.2826126E1,2.0046562E1,2.3747452E1,6.076899E0,-4.399616E0,-2.9043927E0,-3.6394675E0,-2.8571842E0,-3.4318345E0,-2.5828135E0,-2.097896E0,-1.0391372E0,-3.068057E0,-1.3990997E0,-2.2596996E0,-1.1908973E0,-2.1563108E0,-1.0233989E0,1.10513985E-1,1.6534324E0,-2.5458508E0,-1.6741413E0,-1.7177327E0,-5.346468E-1,-1.7036556E0,-9.92175E-1,-3.8368595E-1,1.0262583E0,-8.3029574E-1,1.7420548E-1,1.4074415E-1,1.388531E0,1.1483392E0,2.0346377E0,-2.5868275E0,-1.2193507E0,-1.075471E0,1.8595214E-1,-6.2844086E-1,1.1091844E0,4.8115587E-1,1.9409574E0,1.5670949E-1,1.604897E0,1.8292252E0,3.4453454E0,2.411911E0,4.3178406E0,5.6577396E-1,1.0985476E0,1.2055084E0,2.0488634E0,1.8813385E0,2.7558575E0,2.682327E0,3.618264E0,-2.1686716E0,-1.4427482E0,-1.0181113E0,-2.339536E-1,-1.5184832E0,-8.128284E-1,-7.4512273E-1,1.0059535E-1,-1.4479477E0,-4.2719012E-1,-2.523957E-1,1.3058168E0,2.093714E-1,1.3690147E0,1.4503793E0,3.185702E0,-7.295126E-2,8.50471E-1,9.1128254E-1,2.1479468E0,1.8748993E0,2.7481754E0,1.6296891E0,2.8333027E0,2.9450264E0,4.437397E0,3.772897E0,5.6010604E0,-4.4773313E-1,1.5676223E-1,1.0133036E0,2.4367359E0,8.597102E-1,1.7686185E0,2.8774805E0,4.3380466E0,1.9885291E0,3.8301263E0,3.211876E0,4.535035E0,4.582648E0,6.300851E0,2.15472E0,2.9503455E0,3.7030046E0,5.037307E0,4.4423313E0,6.3667617E0],"categories":[],"categories_nodes":[],"categories_segments":[],"categories_sizes":[],"default_left":[0,0,0,0,0,0,0,0,0,0,0,0,0,0,0,0,0,0,0,0,0,0,0,0,0,0,0,0,0,0,0,0,0,0,0,0,0,0,0,0,0,0,0,0,0,0,0,0,0,0,0,0,0,0,0,0,0,0,0,0,0,0,0,0,0,0,0,0,0,0,0,0,0,0,0,0,0,0,0,0,0,0,0,0,0,0,0,0,0,0,0,0,0,0,0,0,0,0,0,0,0,0,0,0,0,0,0,0,0,0,0,0,0,0,0,0,0,0,0,0,0,0,0,0,0,0,0,0,0,0,0,0,0,0,0,0,0,0,0,0,0,0,0,0,0,0,0,0,0,0,0,0,0,0,0,0,0,0,0,0,0,0,0,0,0,0,0,0,0,0,0,0,0,0,0,0,0,0,0,0,0,0,0,0,0,0,0,0,0,0,0,0,0,0,0,0,0,0,0,0,0,0,0,0,0,0,0,0,0,0,0,0,0,0,0,0,0,0,0],"id":0,"left_children":[1,3,5,7,9,11,13,15,17,19,21,23,25,27,29,31,33,35,37,39,41,43,45,47,49,51,53,55,57,59,-1,61,63,65,67,69,71,73,75,77,79,81,83,85,87,89,-1,91,93,95,97,99,101,103,105,107,109,111,113,115,117,119,121,123,125,127,129,131,133,135,137,139,141,143,145,147,-1,149,151,153,155,157,159,161,-1,163,165,167,-1,169,-1,171,173,175,177,179,181,183,185,187,189,191,-1,193,195,197,-1,199,201,203,205,207,209,211,-1,213,215,217,-1,-1,-1,-1,-1,-1,-1,-1,-1,-1,-1,-1,-1,-1,-1,-1,-1,-1,-1,-1,-1,-1,-1,-1,-1,-1,-1,-1,-1,-1,-1,-1,-1,-1,-1,-1,-1,-1,-1,-1,-1,-1,-1,-1,-1,-1,-1,-1,-1,-1,-1,-1,-1,-1,-1,-1,-1,-1,-1,-1,-1,-1,-1,-1,-1,-1,-1,-1,-1,-1,-1,-1,-1,-1,-1,-1,-1,-1,-1,-1,-1,-1,-1,-1,-1,-1,-1,-1,-1,-1,-1,-1,-1,-1,-1,-1,-1,-1,-1,-1,-1],"loss_changes":[7.497684E5,2.8225247E5,1.9550047E5,1.4382294E5,1.3383075E5,2.2362912E5,9.9843125E4,2.8584062E4,1.15708484E5,6.77467E4,1.599475E4,3.2473742E4,6.774616E4,8.928944E4,1.4495531E4,2.7833812E4,1.6196117E4,4.2289094E4,3.425411E4,6.0753258E4,1.4052676E4,1.3988148E4,1.4771484E3,1.1934969E4,1.8085873E4,3.2496766E4,1.8170812E4,2.4262898E4,2.2852594E4,1.5737469E4,0E0,4.2442188E3,2.3403672E4,6.360383E3,2.0517555E4,2.8195828E4,3.881418E4,7.1643486E3,4.175543E3,2.2095297E4,2.241208E4,1.0508766E4,1.0872109E3,1.6609922E3,4.443797E3,1.4640586E3,0E0,2.2439453E3,3.830793E3,5.792651E3,8.204107E3,8.609711E3,4.3486094E3,1.3430328E4,1.7529688E3,1.1339525E4,1.7665164E4,1.0617719E4,1.9860781E3,9.394172E3,1.7184219E3,1.0390234E2,2.9680625E3,8.804219E2,1.13821875E4,3.3686367E3,6.554E3,3.038045E3,3.0182852E3,3.7913594E3,5.8547764E3,4.3280547E3,1.3955927E4,3.5912275E3,4.7665117E3,2.4014062E3,0E0,1.2191109E4,1.1466058E4,2.4780633E4,7.6582188E3,6.3361265E3,2.5010977E3,9.4359375E2,0E0,1.5275146E2,6.105E2,1.7627617E3,0E0,5.206094E2,0E0,2.2522656E2,1.6571814E2,2.4513418E3,2.0808376E3,1.8977227E3,2.4835347E3,2.320124E3,2.0395098E3,3.1668408E3,3.6930938E3,1.7701133E3,0E0,2.3652617E3,4.2994844E3,8.3127344E2,0E0,1.5178461E3,2.8934268E3,6.1805703E3,1.678457E3,4.8450625E3,3.5085625E3,1.5779141E3,0E0,1.3906445E3,2.0108281E3,9.6821875E2,0E0,0E0,0E0,0E0,0E0,0E0,0E0,0E0,0E0,0E0,0E0,0E0,0E0,0E0,0E0,0E0,0E0,0E0,0E0,0E0,0E0,0E0,0E0,0E0,0E0,0E0,0E0,0E0,0E0,0E0,0E0,0E0,0E0,0E0,0E0,0E0,0E0,0E0,0E0,0E0,0E0,0E0,0E0,0E0,0E0,0E0,0E0,0E0,0E0,0E0,0E0,0E0,0E0,0E0,0E0,0E0,0E0,0E0,0E0,0E0,0E0,0E0,0E0,0E0,0E0,0E0,0E0,0E0,0E0,0E0,0E0,0E0,0E0,0E0,0E0,0E0,0E0,0E0,0E0,0E0,0E0,0E0,0E0,0E0,0E0,0E0,0E0,0E0,0E0,0E0,0E0,0E0,0E0,0E0,0E0,0E0,0E0,0E0,0E0,0E0,0E0],"parents":[2147483647,0,0,1,1,2,2,3,3,4,4,5,5,6,6,7,7,8,8,9,9,10,10,11,11,12,12,13,13,14,14,15,15,16,16,17,17,18,18,19,19,20,20,21,21,22,22,23,23,24,24,25,25,26,26,27,27,28,28,29,29,31,31,32,32,33,33,34,34,35,35,36,36,37,37,38,38,39,39,40,40,41,41,42,42,43,43,44,44,45,45,47,47,48,48,49,49,50,50,51,51,52,52,53,53,54,54,55,55,56,56,57,57,58,58,59,59,60,60,61,61,62,62,63,63,64,64,65,65,66,66,67,67,68,68,69,69,70,70,71,71,72,72,73,73,74,74,75,75,77,77,78,78,79,79,80,80,81,81,82,82,83,83,85,85,86,86,87,87,89,89,91,91,92,92,93,93,94,94,95,95,96,96,97,97,98,98,99,99,100,100,101,101,103,103,104,104,105,105,107,107,108,108,109,109,110,110,111,111,112,112,113,113,115,115,116,116,117,117],"right_children":[2,4,6,8,10,12,14,16,18,20,22,24,26,28,30,32,34,36,38,40,42,44,46,48,50,52,54,56,58,60,-1,62,64,66,68,70,72,74,76,78,80,82,84,86,88,90,-1,92,94,96,98,100,102,104,106,108,110,112,114,116,118,120,122,124,126,128,130,132,134,136,138,140,142,144,146,148,-1,150,152,154,156,158,160,162,-1,164,166,168,-1,170,-1,172,174,176,178,180,182,184,186,188,190,192,-1,194,196,198,-1,200,202,204,206,208,210,212,-1,214,216,218,-1,-1,-1,-1,-1,-1,-1,-1,-1,-1,-1,-1,-1,-1,-1,-1,-1,-1,-1,-1,-1,-1,-1,-1,-1,-1,-1,-1,-1,-1,-1,-1,-1,-1,-1,-1,-1,-1,-1,-1,-1,-1,-1,-1,-1,-1,-1,-1,-1,-1,-1,-1,-1,-1,-1,-1,-1,-1,-1,-1,-1,-1,-1,-1,-1,-1,-1,-1,-1,-1,-1,-1,-1,-1,-1,-1,-1,-1,-1,-1,-1,-1,-1,-1,-1,-1,-1,-1,-1,-1,-1,-1,-1,-1,-1,-1,-1,-1,-1,-1,-1],"split_conditions":[6E0,4E0,7E0,5E0,5E0,2E0,2E0,3E0,3E0,6E0,5E0,2E0,3E0,8E0,8E0,3E0,3E0,2E0,2E0,4E0,4E0,1E0,1E0,1E0,1E0,2E0,4E0,1E0,9E0,3E0,5.957554E0,4E0,4E0,4E0,4E0,3E0,2E0,1E0,3E0,2E0,5E0,7E0,1E0,1E0,2E0,6E0,4.41379E0,3E0,2E0,3E0,3E0,1E0,3E0,1E0,1E0,2E0,2E0,1E0,1E1,1E0,1E0,4E0,2E0,3E0,2E0,5E0,2E0,4E0,4E0,3E0,1E0,2E0,3E0,2E0,2E0,1E0,2.9781513E0,5E0,5E0,2E0,1E0,2E0,8E0,7E0,3.9310691E0,2E0,2E0,1E0,3.6846535E0,1E0,4.9128747E0,3E0,4E0,1E0,1E0,2E0,4E0,2E0,4E0,2E0,2E0,1E0,3.7517526E0,2E0,2E0,5E0,5.2594204E0,1E0,3E0,1E0,3E0,2E0,1E0,1E0,7.60442E0,1E0,2E0,4E0,6.076899E0,-4.399616E0,-2.9043927E0,-3.6394675E0,-2.8571842E0,-3.4318345E0,-2.5828135E0,-2.097896E0,-1.0391372E0,-3.068057E0,-1.3990997E0,-2.2596996E0,-1.1908973E0,-2.1563108E0,-1.0233989E0,1.10513985E-1,1.6534324E0,-2.5458508E0,-1.6741413E0,-1.7177327E0,-5.346468E-1,-1.7036556E0,-9.92175E-1,-3.8368595E-1,1.0262583E0,-8.3029574E-1,1.7420548E-1,1.4074415E-1,1.388531E0,1.1483392E0,2.0346377E0,-2.5868275E0,-1.2193507E0,-1.075471E0,1.8595214E-1,-6.2844086E-1,1.1091844E0,4.8115587E-1,1.9409574E0,1.5670949E-1,1.604897E0,1.8292252E0,3.4453454E0,2.411911E0,4.3178406E0,5.6577396E-1,1.0985476E0,1.2055084E0,2.0488634E0,1.8813385E0,2.7558575E0,2.682327E0,3.618264E0,-2.1686716E0,-1.4427482E0,-1.0181113E0,-2.339536E-1,-1.5184832E0,-8.128284E-1,-7.4512273E-1,1.0059535E-1,-1.4479477E0,-4.2719012E-1,-2.523957E-1,1.3058168E0,2.093714E-1,1.3690147E0,1.4503793E0,3.185702E0,-7.295126E-2,8.50471E-1,9.1128254E-1,2.1479468E0,1.8748993E0,2.7481754E0,1.6296891E0,2.8333027E0,2.9450264E0,4.437397E0,3.772897E0,5.6010604E0,-4.4773313E-1,1.5676223E-1,1.0133036E0,2.4367359E0,8.597102E-1,1.7686185E0,2.8774805E0,4.3380466E0,1.9885291E0,3.8301263E0,3.211876E0,4.535035E0,4.582648E0,6.300851E0,2.15472E0,2.9503455E0,3.7030046E0,5.037307E0,4.4423313E0,6.3667617E0],"split_indices":[0,1,0,0,0,1,1,2,1,1,1,2,1,0,0,1,1,1,2,0,0,2,2,1,1,2,1,1,0,1,0,0,0,0,0,2,2,2,2,2,1,1,2,3,2,1,0,3,3,2,2,2,2,2,2,2,2,1,0,2,2,3,1,3,2,2,1,2,2,3,1,3,2,3,3,3,0,1,1,2,2,2,1,1,0,4,3,3,0,3,0,4,3,2,2,3,2,3,2,3,3,3,0,3,2,1,0,2,2,2,2,2,2,1,0,3,2,1,0,0,0,0,0,0,0,0,0,0,0,0,0,0,0,0,0,0,0,0,0,0,0,0,0,0,0,0,0,0,0,0,0,0,0,0,0,0,0,0,0,0,0,0,0,0,0,0,0,0,0,0,0,0,0,0,0,0,0,0,0,0,0,0,0,0,0,0,0,0,0,0,0,0,0,0,0,0,0,0,0,0,0,0,0,0,0,0,0,0,0,0,0,0,0,0,0,0,0,0,0],"split_type":[0,0,0,0,0,0,0,0,0,0,0,0,0,0,0,0,0,0,0,0,0,0,0,0,0,0,0,0,0,0,0,0,0,0,0,0,0,0,0,0,0,0,0,0,0,0,0,0,0,0,0,0,0,0,0,0,0,0,0,0,0,0,0,0,0,0,0,0,0,0,0,0,0,0,0,0,0,0,0,0,0,0,0,0,0,0,0,0,0,0,0,0,0,0,0,0,0,0,0,0,0,0,0,0,0,0,0,0,0,0,0,0,0,0,0,0,0,0,0,0,0,0,0,0,0,0,0,0,0,0,0,0,0,0,0,0,0,0,0,0,0,0,0,0,0,0,0,0,0,0,0,0,0,0,0,0,0,0,0,0,0,0,0,0,0,0,0,0,0,0,0,0,0,0,0,0,0,0,0,0,0,0,0,0,0,0,0,0,0,0,0,0,0,0,0,0,0,0,0,0,0,0,0,0,0,0,0,0,0,0,0,0,0,0,0,0,0,0,0],"sum_hessian":[3.0073E4,1.8844E4,1.1229E4,1.2454E4,6.39E3,6.824E3,4.405E3,5.25E3,7.204E3,5.207E3,1.183E3,3.37E3,3.454E3,3.312E3,1.093E3,3.316E3,1.934E3,4.956E3,2.248E3,4.277E3,9.3E2,9.38E2,2.45E2,1.878E3,1.492E3,2.189E3,1.265E3,2.39E3,9.22E2,9.69E2,1.24E2,1.28E3,2.036E3,1.207E3,7.27E2,2.213E3,2.743E3,1.653E3,5.95E2,2.207E3,2.07E3,7.79E2,1.51E2,4.29E2,5.09E2,1.71E2,7.4E1,4.56E2,1.422E3,5.91E2,9.01E2,1.68E3,5.09E2,1.028E3,2.37E2,9.66E2,1.424E3,7.72E2,1.5E2,7.4E2,2.29E2,1.2E2,1.16E3,4.23E2,1.613E3,2.95E2,9.12E2,3.92E2,3.35E2,1.466E3,7.47E2,1.448E3,1.295E3,6.53E2,1E3,5.07E2,8.8E1,1.028E3,1.179E3,1.489E3,5.81E2,5.53E2,2.26E2,1E2,5.1E1,2.28E2,2.01E2,4.05E2,1.04E2,1.51E2,2E1,3.91E2,6.5E1,9.71E2,4.51E2,3.62E2,2.29E2,6.48E2,2.53E2,7.63E2,9.17E2,4.25E2,8.4E1,5.22E2,5.06E2,1.56E2,8.1E1,6.73E2,2.93E2,1.169E3,2.55E2,4.2E2,3.52E2,1.28E2,2.2E1,3.82E2,3.58E2,1.63E2,6.6E1,1.1E2,1E1,2.62E2,8.98E2,3.48E2,7.5E1,9.12E2,7.01E2,2.33E2,6.2E1,4.02E2,5.1E2,2.37E2,1.55E2,2.76E2,5.9E1,1.226E3,2.4E2,2.39E2,5.08E2,9.19E2,5.29E2,9.06E2,3.89E2,4.55E2,1.98E2,8.63E2,1.37E2,3.07E2,2E2,4.64E2,5.64E2,7.23E2,4.56E2,1.028E3,4.61E2,2.35E2,3.46E2,3.85E2,1.68E2,1.77E2,4.9E1,8.7E1,1.3E1,2.04E2,2.4E1,1.55E2,4.6E1,2.51E2,1.54E2,1.03E2,4.8E1,3.65E2,2.6E1,5.1E1,1.4E1,2.65E2,7.06E2,2.19E2,2.32E2,2.64E2,9.8E1,1.79E2,5E1,5.73E2,7.5E1,2.23E2,3E1,5.71E2,1.92E2,8.11E2,1.06E2,2.79E2,1.46E2,4.46E2,7.6E1,4.08E2,9.8E1,1.41E2,1.5E1,2.66E2,4.07E2,2.18E2,7.5E1,5.82E2,5.87E2,2.14E2,4.1E1,3.53E2,6.7E1,2.06E2,1.46E2,8.2E1,4.6E1,2.06E2,1.76E2,2.95E2,6.3E1,1.46E2,1.7E1],"tree_param":{"num_deleted":"0","num_feature":"18","num_nodes":"219","size_leaf_vector":"1"}},{"base_weights":[-5.5185086E-3,-3.086493E0,5.18984E0,-5.3105683E0,1.2597647E0,2.4933515E0,9.346105E0,-8.4966545E0,-2.9706228E0,-5.0246936E-1,8.996173E0,-2.0810463E0,7.0240912E0,7.2013235E0,1.5896369E1,-9.900571E0,-6.0716043E0,-5.137411E0,1.8266572E0,-1.8696762E0,5.691904E0,7.516469E0,1.4761005E1,-4.323459E0,6.8923485E-1,4.3112764E0,1.1738093E1,4.6262937E0,1.3848024E1,1.4811304E1,2.4111183E1,-1.28300295E1,-8.064672E0,-7.7718587E0,-3.2177734E0,-7.7781277E0,-3.016059E0,-5.0925408E-2,7.0296063E0,-4.8146596E0,1.2732121E0,4.3153615E0,1.2753343E1,4.0720305E0,1.0360081E1,1.3956724E1,4.169018E0,-7.9264755E0,-3.183688E0,-2.7614179E0,2.9064956E0,2.6199117E0,9.92705E0,1.0285733E1,1.7871819E1,1.4412806E0,6.7515903E0,1.21484785E1,2.2844585E1,1.3071064E1,2.0647772E1,2.2943964E1,6.253356E0,-3.4387257E0,-1.2366491E1,-1.3419671E1,-6.6512084E0,-9.827631E0,-5.023818E0,-7.0804644E0,1.5699791E0,-9.843855E0,-3.7165513E0,-5.8846602E0,1.8559867E-1,-2.1457891E0,1.2928427E0,6.143219E0,2.4034534E0,-6.131139E0,6.0598814E-1,-3.4971344E-1,5.874162E0,2.5042033E0,8.872505E0,1.0931869E1,3.1504211E0,4.4003468E0,3.1149669E0,9.035436E0,3.0029244E0,2.398741E0,3.4267285E0,-7.4092584E0,-1.8735511E0,-4.7210298E0,-2.3761783E0,-3.5294363E0,5.4548078E0,1.4052786E0,6.8431354E0,6.258766E-1,4.295972E0,8.919719E0,2.9644172E0,7.379269E0,1.3218078E1,1.6092222E1,4.223869E0,-3.8829067E-1,5.6632514E0,5.409656E0,1.2823811E1,9.352473E0,1.5392272E1,2.02755E1,5.394982E0,1.0331566E1,1.6036118E1,1.8981258E1,4.8777823E0,4.124273E0,5.4726477E0,-2.943619E0,-2.2893555E0,-3.02698E0,-2.3801367E0,-1.6842172E0,-8.3279276E-1,-2.5971541E0,-1.6333004E0,-1.6667727E0,-6.352638E-1,-2.334956E0,-1.1622071E0,8.916582E-2,1.3010503E0,-2.6430173E0,-1.7932057E0,-1.0704119E0,1.349548E-1,-1.5490528E0,-9.8673576E-1,-3.1153503E-1,8.3583534E-1,-2.9982778E-1,-6.588372E-1,3.1753314E-1,2.4563462E-2,1.2605493E0,9.748869E-1,-1.7683674E0,-6.6949564E-1,-4.434878E-1,5.486168E-1,-5.032411E-1,8.3129406E-1,8.862759E-1,2.678796E0,-4.5028034E-1,8.5380554E-1,1.9740689E0,5.5678105E-1,1.9117764E0,3.5275807E0,9.1709775E-1,5.691911E-1,6.504892E-1,3.319499E-1,1.8252771E0,1.5357165E0,-1.2959545E0,-1.8866415E0,-7.891151E-1,-1.0769438E0,-3.6810106E-1,-6.849737E-1,-9.352662E-1,-2.0040637E-1,1.2409314E0,4.3293157E-1,3.366428E-1,5.7541613E-2,1.1628424E0,2.6024313E0,2.2010486E-1,-7.400336E-3,9.3645555E-1,6.399565E-1,1.7972106E0,1.4927044E0,1.538207E0,1.2158252E0,2.3527098E0,3.5702634E0,3.0099711E0,4.556915E0,-3.814382E-1,1.1775296E-1,8.0260277E-1,1.9437338E0,6.82319E-1,1.4406388E0,2.3237908E0,3.4972284E0,1.2341032E0,2.4187322E0,2.5819213E0,3.628351E0,3.6905143E0,5.4219785E0,2.123315E0,1.8134038E0,2.9835494E0,4.016566E0,3.5756183E0,5.1036344E0],"categories":[],"categories_nodes":[],"categories_segments":[],"categories_sizes":[],"default_left":[0,0,0,0,0,0,0,0,0,0,0,0,0,0,0,0,0,0,0,0,0,0,0,0,0,0,0,0,0,0,0,0,0,0,0,0,0,0,0,0,0,0,0,0,0,0,0,0,0,0,0,0,0,0,0,0,0,0,0,0,0,0,0,0,0,0,0,0,0,0,0,0,0,0,0,0,0,0,0,0,0,0,0,0,0,0,0,0,0,0,0,0,0,0,0,0,0,0,0,0,0,0,0,0,0,0,0,0,0,0,0,0,0,0,0,0,0,0,0,0,0,0,0,0,0,0,0,0,0,0,0,0,0,0,0,0,0,0,0,0,0,0,0,0,0,0,0,0,0,0,0,0,0,0,0,0,0,0,0,0,0,0,0,0,0,0,0,0,0,0,0,0,0,0,0,0,0,0,0,0,0,0,0,0,0,0,0,0,0,0,0,0,0,0,0,0,0,0,0,0,0,0,0,0,0,0,0,0,0,0,0,0,0,0,0,0,0],"id":1,"left_children":[1,3,5,7,9,11,13,15,17,19,21,23,25,27,29,31,33,35,37,39,41,43,45,47,49,51,53,55,57,59,61,63,65,67,69,71,73,75,77,79,81,83,85,87,89,91,-1,93,95,97,99,101,103,105,107,109,111,113,115,117,119,121,-1,-1,123,125,127,129,131,133,135,137,139,141,143,145,147,149,-1,151,153,155,157,159,161,163,-1,165,167,169,-1,-1,-1,171,-1,173,175,177,179,181,183,185,187,189,-1,191,193,195,-1,197,199,201,203,205,207,209,-1,211,213,215,-1,-1,-1,-1,-1,-1,-1,-1,-1,-1,-1,-1,-1,-1,-1,-1,-1,-1,-1,-1,-1,-1,-1,-1,-1,-1,-1,-1,-1,-1,-1,-1,-1,-1,-1,-1,-1,-1,-1,-1,-1,-1,-1,-1,-1,-1,-1,-1,-1,-1,-1,-1,-1,-1,-1,-1,-1,-1,-1,-1,-1,-1,-1,-1,-1,-1,-1,-1,-1,-1,-1,-1,-1,-1,-1,-1,-1,-1,-1,-1,-1,-1,-1,-1,-1,-1,-1,-1,-1,-1,-1,-1,-1,-1,-1,-1,-1],"loss_changes":[4.8106734E5,1.823731E5,1.2536422E5,9.30165E4,8.708081E4,1.4067795E5,6.172875E4,1.7929625E4,7.481997E4,4.4074797E4,9.997391E3,2.0987496E4,4.3557188E4,5.6725016E4,9.314125E3,1.7886562E4,9.388336E3,2.7750719E4,2.1882844E4,3.9463414E4,9.091834E3,9.21375E3,9.4351953E2,7.6418164E3,1.1576332E4,2.0547352E4,1.0907094E4,1.6188715E4,1.3881094E4,9.490859E3,3.831953E2,2.5383438E3,1.5495516E4,6.814586E3,1.3437476E4,1.8488781E4,2.5267047E4,4.6390977E3,2.6442402E3,1.5710426E4,1.5406473E4,6.489956E3,7.255547E2,1.2109277E2,3.2012227E3,1.1177891E3,0E0,2.954629E2,1.7515977E3,3.754899E3,5.4332646E3,5.565289E3,2.4462734E3,8.501922E3,1.155875E3,7.4098945E3,1.162375E4,6.9394453E3,1.1430859E3,5.8695234E3,1.0265859E3,5.0948828E2,0E0,0E0,2.0898438E3,9.318047E2,7.457086E3,3.4725781E3,3.1994404E3,2.1985332E3,1.8243478E3,3.7691719E3,5.6321357E3,2.477332E3,9.324449E3,4.763391E2,3.7298743E2,1.220625E2,0E0,1.3726367E4,2.686605E3,1.5368637E4,5.658203E3,4.9635176E3,1.5201465E3,6.9339746E2,0E0,1.0767578E2,2.440503E1,4.241797E1,0E0,0E0,0E0,5.540547E2,0E0,2.3821191E2,5.1504346E2,1.6507715E3,1.2594336E2,2.2461938E2,1.4462031E3,2.4817355E2,4.1674805E2,4.3476562E1,0E0,2.1370898E2,2.9270234E3,5.8158203E2,0E0,1.02281195E3,1.8971846E3,4.329586E3,1.1082188E3,3.7310586E3,2.248539E3,5.7348047E2,0E0,9.501953E1,1.0771953E3,4.5947266E2,0E0,0E0,0E0,0E0,0E0,0E0,0E0,0E0,0E0,0E0,0E0,0E0,0E0,0E0,0E0,0E0,0E0,0E0,0E0,0E0,0E0,0E0,0E0,0E0,0E0,0E0,0E0,0E0,0E0,0E0,0E0,0E0,0E0,0E0,0E0,0E0,0E0,0E0,0E0,0E0,0E0,0E0,0E0,0E0,0E0,0E0,0E0,0E0,0E0,0E0,0E0,0E0,0E0,0E0,0E0,0E0,0E0,0E0,0E0,0E0,0E0,0E0,0E0,0E0,0E0,0E0,0E0,0E0,0E0,0E0,0E0,0E0,0E0,0E0,0E0,0E0,0E0,0E0,0E0,0E0,0E0,0E0,0E0,0E0,0E0,0E0,0E0,0E0,0E0,0E0,0E0,0E0,0E0,0E0,0E0,0E0,0E0],"parents":[2147483647,0,0,1,1,2,2,3,3,4,4,5,5,6,6,7,7,8,8,9,9,10,10,11,11,12,12,13,13,14,14,15,15,16,16,17,17,18,18,19,19,20,20,21,21,22,22,23,23,24,24,25,25,26,26,27,27,28,28,29,29,30,30,31,31,32,32,33,33,34,34,35,35,36,36,37,37,38,38,39,39,40,40,41,41,42,42,43,43,44,44,45,45,47,47,48,48,49,49,50,50,51,51,52,52,53,53,54,54,55,55,56,56,57,57,58,58,59,59,60,60,61,61,64,64,65,65,66,66,67,67,68,68,69,69,70,70,71,71,72,72,73,73,74,74,75,75,76,76,77,77,79,79,80,80,81,81,82,82,83,83,84,84,85,85,87,87,88,88,89,89,93,93,95,95,96,96,97,97,98,98,99,99,100,100,101,101,102,102,103,103,105,105,106,106,107,107,109,109,110,110,111,111,112,112,113,113,114,114,115,115,117,117,118,118,119,119],"right_children":[2,4,6,8,10,12,14,16,18,20,22,24,26,28,30,32,34,36,38,40,42,44,46,48,50,52,54,56,58,60,62,64,66,68,70,72,74,76,78,80,82,84,86,88,90,92,-1,94,96,98,100,102,104,106,108,110,112,114,116,118,120,122,-1,-1,124,126,128,130,132,134,136,138,140,142,144,146,148,150,-1,152,154,156,158,160,162,164,-1,166,168,170,-1,-1,-1,172,-1,174,176,178,180,182,184,186,188,190,-1,192,194,196,-1,198,200,202,204,206,208,210,-1,212,214,216,-1,-1,-1,-1,-1,-1,-1,-1,-1,-1,-1,-1,-1,-1,-1,-1,-1,-1,-1,-1,-1,-1,-1,-1,-1,-1,-1,-1,-1,-1,-1,-1,-1,-1,-1,-1,-1,-1,-1,-1,-1,-1,-1,-1,-1,-1,-1,-1,-1,-1,-1,-1,-1,-1,-1,-1,-1,-1,-1,-1,-1,-1,-1,-1,-1,-1,-1,-1,-1,-1,-1,-1,-1,-1,-1,-1,-1,-1,-1,-1,-1,-1,-1,-1,-1,-1,-1,-1,-1,-1,-1,-1,-1,-1,-1,-1,-1],"split_conditions":[6E0,4E0,7E0,5E0,5E0,2E0,2E0,3E0,3E0,6E0,5E0,2E0,3E0,8E0,8E0,3E0,3E0,2E0,2E0,4E0,4E0,1E0,6E0,1E0,1E0,2E0,4E0,1E0,9E0,3E0,3E0,4E0,4E0,4E0,4E0,3E0,2E0,1E0,3E0,3E0,2E0,7E0,1E0,1E0,2E0,1E0,4.169018E0,1E0,1E0,4E0,3E0,1E0,3E0,1E0,1E0,2E0,2E0,1E0,1E0,1E0,1E0,1E0,6.253356E0,-3.4387257E0,2E0,2E0,2E0,2E0,4E0,3E0,4E0,1E0,4E0,1E0,3E0,1E0,1E0,1E0,2.4034534E0,5E0,3E0,5E0,5E0,1E0,1E0,7E0,3.1504211E0,1E0,1E0,1E0,3.0029244E0,2.398741E0,3.4267285E0,1E0,-1.8735511E0,1E0,1E0,3E0,1E0,1E0,4E0,1E0,1E0,1E0,2.9644172E0,1E0,2E0,5E0,4.223869E0,1E0,3E0,1E0,3E0,1E0,1E0,1E1,5.394982E0,1E0,2E0,4E0,4.8777823E0,4.124273E0,5.4726477E0,-2.943619E0,-2.2893555E0,-3.02698E0,-2.3801367E0,-1.6842172E0,-8.3279276E-1,-2.5971541E0,-1.6333004E0,-1.6667727E0,-6.352638E-1,-2.334956E0,-1.1622071E0,8.916582E-2,1.3010503E0,-2.6430173E0,-1.7932057E0,-1.0704119E0,1.349548E-1,-1.5490528E0,-9.8673576E-1,-3.1153503E-1,8.3583534E-1,-2.9982778E-1,-6.588372E-1,3.1753314E-1,2.4563462E-2,1.2605493E0,9.748869E-1,-1.7683674E0,-6.6949564E-1,-4.434878E-1,5.486168E-1,-5.032411E-1,8.3129406E-1,8.862759E-1,2.678796E0,-4.5028034E-1,8.5380554E-1,1.9740689E0,5.5678105E-1,1.9117764E0,3.5275807E0,9.1709775E-1,5.691911E-1,6.504892E-1,3.319499E-1,1.8252771E0,1.5357165E0,-1.2959545E0,-1.8866415E0,-7.891151E-1,-1.0769438E0,-3.6810106E-1,-6.849737E-1,-9.352662E-1,-2.0040637E-1,1.2409314E0,4.3293157E-1,3.366428E-1,5.7541613E-2,1.1628424E0,2.6024313E0,2.2010486E-1,-7.400336E-3,9.3645555E-1,6.399565E-1,1.7972106E0,1.4927044E0,1.538207E0,1.2158252E0,2.3527098E0,3.5702634E0,3.0099711E0,4.556915E0,-3.814382E-1,1.1775296E-1,8.0260277E-1,1.9437338E0,6.82319E-1,1.4406388E0,2.3237908E0,3.4972284E0,1.2341032E0,2.4187322E0,2.5819213E0,3.628351E0,3.6905143E0,5.4219785E0,2.123315E0,1.8134038E0,2.9835494E0,4.016566E0,3.5756183E0,5.1036344E0],"split_indices":[0,1,0,0,0,1,1,2,1,1,1,2,1,0,0,1,1,1,2,0,0,2,1,1,1,2,1,1,0,1,1,0,0,2,0,2,2,2,2,2,2,1,2,6,2,2,0,17,2,2,2,2,2,2,2,2,2,1,1,2,2,2,0,0,1,2,2,1,0,0,2,1,2,2,2,6,7,6,0,1,0,1,1,2,16,1,0,10,16,6,0,0,0,16,0,5,6,2,5,7,2,5,6,9,0,6,2,1,0,2,2,2,2,2,2,0,0,6,2,1,0,0,0,0,0,0,0,0,0,0,0,0,0,0,0,0,0,0,0,0,0,0,0,0,0,0,0,0,0,0,0,0,0,0,0,0,0,0,0,0,0,0,0,0,0,0,0,0,0,0,0,0,0,0,0,0,0,0,0,0,0,0,0,0,0,0,0,0,0,0,0,0,0,0,0,0,0,0,0,0,0,0,0,0,0,0,0,0,0,0,0,0,0,0,0,0,0],"split_type":[0,0,0,0,0,0,0,0,0,0,0,0,0,0,0,0,0,0,0,0,0,0,0,0,0,0,0,0,0,0,0,0,0,0,0,0,0,0,0,0,0,0,0,0,0,0,0,0,0,0,0,0,0,0,0,0,0,0,0,0,0,0,0,0,0,0,0,0,0,0,0,0,0,0,0,0,0,0,0,0,0,0,0,0,0,0,0,0,0,0,0,0,0,0,0,0,0,0,0,0,0,0,0,0,0,0,0,0,0,0,0,0,0,0,0,0,0,0,0,0,0,0,0,0,0,0,0,0,0,0,0,0,0,0,0,0,0,0,0,0,0,0,0,0,0,0,0,0,0,0,0,0,0,0,0,0,0,0,0,0,0,0,0,0,0,0,0,0,0,0,0,0,0,0,0,0,0,0,0,0,0,0,0,0,0,0,0,0,0,0,0,0,0,0,0,0,0,0,0,0,0,0,0,0,0,0,0,0,0,0,0,0,0,0,0,0,0],"sum_hessian":[3.0052E4,1.8865E4,1.1187E4,1.2479E4,6.386E3,6.786E3,4.401E3,5.283E3,7.196E3,5.202E3,1.184E3,3.377E3,3.409E3,3.317E3,1.084E3,3.344E3,1.939E3,4.957E3,2.239E3,4.262E3,9.4E2,9.44E2,2.4E2,1.866E3,1.511E3,2.165E3,1.244E3,2.392E3,9.25E2,9.6E2,1.24E2,1.286E3,2.058E3,1.214E3,7.25E2,2.207E3,2.75E3,1.646E3,5.93E2,2.2E3,2.062E3,7.88E2,1.52E2,4.28E2,5.16E2,2.16E2,2.4E1,4.47E2,1.419E3,5.91E2,9.2E2,1.665E3,5E2,1.008E3,2.36E2,9.58E2,1.434E3,7.8E2,1.45E2,7.42E2,2.18E2,1.11E2,1.3E1,1.14E2,1.172E3,4.28E2,1.63E3,6.93E2,5.21E2,4.01E2,3.24E2,1.462E3,7.45E2,1.45E3,1.3E3,6.43E2,1.003E3,5.08E2,8.5E1,1.77E3,4.3E2,1.525E3,5.37E2,5.65E2,2.23E2,1E2,5.2E1,3.16E2,1.12E2,4.08E2,1.08E2,1.45E2,7.1E1,3.41E2,1.06E2,4.87E2,9.32E2,5.41E2,5E1,6.67E2,2.53E2,7.61E2,9.04E2,4.2E2,8E1,5.08E2,5E2,1.61E2,7.5E1,6.69E2,2.89E2,1.176E3,2.58E2,4.21E2,3.59E2,9.6E1,4.9E1,3.88E2,3.54E2,1.59E2,5.9E1,8.2E1,2.9E1,2.61E2,9.11E2,1.71E2,2.57E2,9.14E2,7.16E2,2.16E2,4.77E2,1.78E2,3.43E2,7.8E1,3.23E2,2.66E2,5.8E1,2.5E2,1.212E3,5.36E2,2.09E2,4.44E2,1.006E3,9.06E2,3.94E2,4.24E2,2.19E2,7.88E2,2.15E2,4.16E2,9.2E1,8.67E2,9.03E2,1.86E2,2.44E2,1.029E3,4.96E2,4.57E2,8E1,1.56E2,4.09E2,1.87E2,3.6E1,8.7E1,1.3E1,2.69E2,4.7E1,9.8E1,1.4E1,3.4E2,6.8E1,2.49E2,9.2E1,2.51E2,2.36E2,6.39E2,2.93E2,3.64E2,1.77E2,3.9E1,1.1E1,5.24E2,1.43E2,2.22E2,3.1E1,4.37E2,3.24E2,6.28E2,2.76E2,3.61E2,5.9E1,3.72E2,1.36E2,3.99E2,1.01E2,1.47E2,1.4E1,2.6E2,4.09E2,2.11E2,7.8E1,5.82E2,5.94E2,2.16E2,4.2E1,2.06E2,2.15E2,2.07E2,1.52E2,8.2E1,1.4E1,2.73E2,1.15E2,2.97E2,5.7E1,1.45E2,1.4E1],"tree_param":{"num_deleted":"0","num_feature":"18","num_nodes":"217","size_leaf_vector":"1"}},{"base_weights":[-9.392747E-3,-2.4862447E0,4.18882E0,-4.270318E0,1.0078843E0,2.0129254E0,7.5402694E0,-6.8574076E0,-2.37596E0,-4.2484748E-1,7.2898483E0,-1.6834304E0,5.6988835E0,5.755656E0,1.28856325E1,-6.0168395E0,-1.00977125E1,-4.1143537E0,1.4581763E0,-1.4812549E0,4.6201735E0,6.046137E0,1.1913575E1,-3.4903114E0,5.559687E-1,3.5284584E0,9.498226E0,3.6628194E0,1.1171638E1,1.1624191E1,1.7479347E1,-4.576143E0,-9.949156E0,-8.937214E0,-1.2149507E1,-6.275727E0,-2.4354143E0,-6.9261886E-2,5.6816583E0,-3.795238E0,9.898483E-1,1.6647162E0,7.363676E0,3.2953606E0,8.323983E0,1.1238752E1,3.4619577E0,-6.356082E0,-2.5795925E0,-2.2304275E0,2.3464038E0,2.143386E0,8.077906E0,8.315106E0,1.4461172E1,1.1391467E0,5.3610196E0,9.751374E0,1.8624458E1,1.0571964E1,1.8685987E1,1.6902014E1,5.1321554E0,-5.278669E0,-8.112466E-1,-1.1368243E1,-8.371777E0,-8.1110525E0,-1.1209977E1,-1.3384292E1,-1.0321421E1,-9.422726E0,-4.694649E0,-4.6720266E0,1.7239426E-1,-7.9846543E-1,2.7641122E0,4.9390435E0,9.834929E0,-6.2854714E0,-1.6198955E0,-2.776923E0,2.610508E0,-7.571159E-1,5.68603E0,6.0636935E0,1.0396989E1,1.8123025E0,4.8776107E0,7.2667713E0,1.2267549E1,9.864205E0,2.7714005E0,-7.077959E0,-2.0378928E0,-3.0245469E0,2.4130147E0,-3.820466E0,3.8008174E-1,1.0974543E0,5.5173965E0,5.6942236E-1,3.455553E0,7.198043E0,1.2391528E1,5.9681277E0,1.0650125E1,1.2978379E1,3.4205806E0,-2.703306E-1,4.456799E0,4.260604E0,1.0290069E1,7.442466E0,1.2498298E1,1.715785E1,5.2305045E0,8.3216E0,1.2959829E1,3.3648403E0,4.429941E0,1.6046324E1,4.660469E0,-1.416038E0,-7.875821E-1,-7.174831E-1,6.103907E-2,-2.3694818E0,-1.600003E0,-2.1100461E0,-1.3397663E0,-1.2573167E0,-1.8636639E0,-2.5583956E0,-2.052665E0,-2.3297546E0,-2.8697436E0,-2.5595753E0,-1.6652411E0,-2.0470006E0,-1.2035425E0,-1.0237954E0,-3.1268357E-3,-1.091062E0,9.832592E-2,-2.4686216E-1,6.7754656E-1,-5.830402E-1,6.395151E-2,1.9804305E-1,1.0509567E0,6.8322146E-1,1.3896482E0,1.7826326E0,2.5478058E0,-1.7153417E0,-8.4921116E-1,-6.878603E-1,2.5686145E-1,-1.002705E0,2.3426132E-1,2.7176306E-1,1.3219978E0,-8.3410543E-1,7.052851E-1,2.1743989E-1,1.639752E0,9.7508144E-1,2.4373271E0,1.766367E0,2.5327904E0,3.0881137E-1,7.2620237E-1,8.0259186E-1,1.4814801E0,1.1715435E0,1.8530385E0,2.2681186E0,3.032723E0,1.6940314E0,2.4560447E0,-1.5006076E0,-1.1627023E0,-5.300787E-1,7.0258535E-2,-8.9804965E-1,-4.516682E-1,1.8131709E-1,9.1005236E-1,-9.742786E-1,-1.819817E-1,-1.5191253E-1,8.517729E-1,-1.5900156E-1,5.2400535E-1,9.356332E-1,2.103666E0,-8.375284E-2,6.602343E-1,3.0664262E-1,9.9403125E-1,1.1718338E0,1.8806274E0,2.2787995E0,2.9951584E0,7.767068E-1,1.5138574E0,1.8950384E0,2.8945854E0,2.4473307E0,3.537841E0,-2.3060448E-1,3.8664162E-1,6.483288E-1,1.5171664E0,5.421386E-1,1.1329161E0,1.8560998E0,2.8268335E0,1.2467505E0,2.6389117E0,2.091079E0,2.945209E0,2.9154954E0,4.129445E0,1.5085937E0,2.7009284E0,2.3199122E0,3.0567663E0,2.8792522E0,3.7809489E0],"categories":[],"categories_nodes":[],"categories_segments":[],"categories_sizes":[],"default_left":[0,0,0,0,0,0,0,0,0,0,0,0,0,0,0,0,0,0,0,0,0,0,0,0,0,0,0,0,0,0,0,0,0,0,0,0,0,0,0,0,0,0,0,0,0,0,0,0,0,0,0,0,0,0,0,0,0,0,0,0,0,0,0,0,0,0,0,0,0,0,0,0,0,0,0,0,0,0,0,0,0,0,0,0,0,0,0,0,0,0,0,0,0,0,0,0,0,0,0,0,0,0,0,0,0,0,0,0,0,0,0,0,0,0,0,0,0,0,0,0,0,0,0,0,0,0,0,0,0,0,0,0,0,0,0,0,0,0,0,0,0,0,0,0,0,0,0,0,0,0,0,0,0,0,0,0,0,0,0,0,0,0,0,0,0,0,0,0,0,0,0,0,0,0,0,0,0,0,0,0,0,0,0,0,0,0,0,0,0,0,0,0,0,0,0,0,0,0,0,0,0,0,0,0,0,0,0,0,0,0,0,0,0,0,0,0,0,0,0,0,0,0,0,0,0,0,0,0,0,0,0],"id":2,"left_children":[1,3,5,7,9,11,13,15,17,19,21,23,25,27,29,31,33,35,37,39,41,43,45,47,49,51,53,55,57,59,61,63,65,67,69,71,73,75,77,79,81,83,85,87,89,91,-1,93,95,97,99,101,103,105,107,109,111,113,115,117,119,121,-1,123,125,127,129,131,133,135,137,139,141,143,145,147,149,151,153,155,157,159,161,163,165,167,169,171,173,175,177,179,-1,181,183,185,187,189,191,193,195,197,199,201,203,205,207,209,-1,211,213,215,217,219,221,223,-1,225,227,-1,-1,229,-1,-1,-1,-1,-1,-1,-1,-1,-1,-1,-1,-1,-1,-1,-1,-1,-1,-1,-1,-1,-1,-1,-1,-1,-1,-1,-1,-1,-1,-1,-1,-1,-1,-1,-1,-1,-1,-1,-1,-1,-1,-1,-1,-1,-1,-1,-1,-1,-1,-1,-1,-1,-1,-1,-1,-1,-1,-1,-1,-1,-1,-1,-1,-1,-1,-1,-1,-1,-1,-1,-1,-1,-1,-1,-1,-1,-1,-1,-1,-1,-1,-1,-1,-1,-1,-1,-1,-1,-1,-1,-1,-1,-1,-1,-1,-1,-1,-1,-1,-1,-1,-1,-1,-1,-1,-1,-1,-1,-1],"loss_changes":[3.1310478E5,1.1805967E5,8.146281E4,6.1425953E4,5.7623465E4,9.232997E4,4.188014E4,1.4372125E4,4.8255652E4,2.7795365E4,6.7653984E3,1.3694714E4,2.7945805E4,3.7352453E4,6.1709844E3,2.3805281E4,2.4868281E3,1.8059844E4,1.4573445E4,2.4660164E4,7.309541E3,5.856199E3,7.597461E2,4.8719688E3,7.5483916E3,1.3599824E4,7.1196406E3,1.0198154E4,9.545977E3,6.2373594E3,7.211172E2,8.1500586E3,2.429789E3,1.2234414E3,7.4445703E2,1.0787758E4,1.6361404E4,3.4319436E3,1.8019922E3,1.2053725E4,1.2741558E4,4.2504854E3,1.7823984E3,9.93145E2,2.0496484E3,7.4185547E2,0E0,1.3914336E3,3.1684678E3,2.4587317E3,3.6414824E3,3.4223057E3,1.8236836E3,5.405711E3,7.8725E2,4.485638E3,7.6745156E3,4.8159844E3,1.239E3,3.9545703E3,2.9534375E2,9.072969E2,0E0,6.322508E3,1.5422568E3,1.1577188E3,1.9039062E3,1.1434609E3,1.23984375E2,2.5079688E2,6.987129E2,2.2580664E3,3.3918613E3,6.745258E3,6.0338438E3,3.2045085E3,1.5307317E3,1.5644834E3,1.03075195E2,4.923203E3,6.5093096E3,5.759536E3,7.3527812E3,4.1277607E3,1.9699995E3,2.2609824E3,3.742578E2,9.6273254E1,4.0731494E2,1.0934805E3,7.663086E1,4.0713086E2,0E0,1.9875195E2,1.0391165E2,1.4569971E3,3.8080542E2,1.1922925E3,1.02390155E3,1.9700099E3,9.8205225E2,2.0886904E3,2.7189072E3,1.1791426E3,1.9823242E1,1.7057578E3,1.9442109E3,2.239043E2,0E0,1.3556903E3,1.0567114E3,2.6006426E3,7.8118164E2,2.7248633E3,1.4668906E3,8.2084766E2,0E0,1.3036582E3,9.2420703E2,0E0,0E0,6.2652734E2,0E0,0E0,0E0,0E0,0E0,0E0,0E0,0E0,0E0,0E0,0E0,0E0,0E0,0E0,0E0,0E0,0E0,0E0,0E0,0E0,0E0,0E0,0E0,0E0,0E0,0E0,0E0,0E0,0E0,0E0,0E0,0E0,0E0,0E0,0E0,0E0,0E0,0E0,0E0,0E0,0E0,0E0,0E0,0E0,0E0,0E0,0E0,0E0,0E0,0E0,0E0,0E0,0E0,0E0,0E0,0E0,0E0,0E0,0E0,0E0,0E0,0E0,0E0,0E0,0E0,0E0,0E0,0E0,0E0,0E0,0E0,0E0,0E0,0E0,0E0,0E0,0E0,0E0,0E0,0E0,0E0,0E0,0E0,0E0,0E0,0E0,0E0,0E0,0E0,0E0,0E0,0E0,0E0,0E0,0E0,0E0,0E0,0E0,0E0,0E0,0E0,0E0,0E0,0E0,0E0,0E0,0E0,0E0,0E0],"parents":[2147483647,0,0,1,1,2,2,3,3,4,4,5,5,6,6,7,7,8,8,9,9,10,10,11,11,12,12,13,13,14,14,15,15,16,16,17,17,18,18,19,19,20,20,21,21,22,22,23,23,24,24,25,25,26,26,27,27,28,28,29,29,30,30,31,31,32,32,33,33,34,34,35,35,36,36,37,37,38,38,39,39,40,40,41,41,42,42,43,43,44,44,45,45,47,47,48,48,49,49,50,50,51,51,52,52,53,53,54,54,55,55,56,56,57,57,58,58,59,59,60,60,61,61,63,63,64,64,65,65,66,66,67,67,68,68,69,69,70,70,71,71,72,72,73,73,74,74,75,75,76,76,77,77,78,78,79,79,80,80,81,81,82,82,83,83,84,84,85,85,86,86,87,87,88,88,89,89,90,90,91,91,93,93,94,94,95,95,96,96,97,97,98,98,99,99,100,100,101,101,102,102,103,103,104,104,105,105,106,106,107,107,109,109,110,110,111,111,112,112,113,113,114,114,115,115,117,117,118,118,121,121],"right_children":[2,4,6,8,10,12,14,16,18,20,22,24,26,28,30,32,34,36,38,40,42,44,46,48,50,52,54,56,58,60,62,64,66,68,70,72,74,76,78,80,82,84,86,88,90,92,-1,94,96,98,100,102,104,106,108,110,112,114,116,118,120,122,-1,124,126,128,130,132,134,136,138,140,142,144,146,148,150,152,154,156,158,160,162,164,166,168,170,172,174,176,178,180,-1,182,184,186,188,190,192,194,196,198,200,202,204,206,208,210,-1,212,214,216,218,220,222,224,-1,226,228,-1,-1,230,-1,-1,-1,-1,-1,-1,-1,-1,-1,-1,-1,-1,-1,-1,-1,-1,-1,-1,-1,-1,-1,-1,-1,-1,-1,-1,-1,-1,-1,-1,-1,-1,-1,-1,-1,-1,-1,-1,-1,-1,-1,-1,-1,-1,-1,-1,-1,-1,-1,-1,-1,-1,-1,-1,-1,-1,-1,-1,-1,-1,-1,-1,-1,-1,-1,-1,-1,-1,-1,-1,-1,-1,-1,-1,-1,-1,-1,-1,-1,-1,-1,-1,-1,-1,-1,-1,-1,-1,-1,-1,-1,-1,-1,-1,-1,-1,-1,-1,-1,-1,-1,-1,-1,-1,-1,-1,-1,-1,-1],"split_conditions":[6E0,4E0,7E0,5E0,5E0,2E0,2E0,1E0,3E0,6E0,5E0,2E0,3E0,8E0,3E0,1E0,1E0,2E0,2E0,4E0,3E0,1E0,6E0,1E0,1E0,2E0,4E0,1E0,9E0,8E0,8E0,4E0,3E0,1E0,3E0,2E0,2E0,2E0,3E0,2E0,1E0,7E0,4E0,1E0,2E0,1E0,3.4619577E0,3E0,3E0,3E0,3E0,1E0,3E0,1E0,1E0,2E0,2E0,1E0,1E1,1E0,1E0,4E0,5.1321554E0,3E0,2E0,4E0,4E0,1E0,4E0,1E0,4E0,3E0,3E0,4E0,3E0,1E0,1E0,1E0,1E0,5E0,5E0,5E0,5E0,2E0,1E0,2E0,1E0,2E0,2E0,1E0,1E0,1E0,2.7714005E0,2E0,4E0,1E0,1E0,2E0,4E0,1E0,4E0,2E0,1E0,1E0,1E0,1E0,2E0,5E0,3.4205806E0,2E0,3E0,1E0,3E0,2E0,1E0,1E0,5.2305045E0,2E0,1E0,3.3648403E0,4.429941E0,1E0,4.660469E0,-1.416038E0,-7.875821E-1,-7.174831E-1,6.103907E-2,-2.3694818E0,-1.600003E0,-2.1100461E0,-1.3397663E0,-1.2573167E0,-1.8636639E0,-2.5583956E0,-2.052665E0,-2.3297546E0,-2.8697436E0,-2.5595753E0,-1.6652411E0,-2.0470006E0,-1.2035425E0,-1.0237954E0,-3.1268357E-3,-1.091062E0,9.832592E-2,-2.4686216E-1,6.7754656E-1,-5.830402E-1,6.395151E-2,1.9804305E-1,1.0509567E0,6.8322146E-1,1.3896482E0,1.7826326E0,2.5478058E0,-1.7153417E0,-8.4921116E-1,-6.878603E-1,2.5686145E-1,-1.002705E0,2.3426132E-1,2.7176306E-1,1.3219978E0,-8.3410543E-1,7.052851E-1,2.1743989E-1,1.639752E0,9.7508144E-1,2.4373271E0,1.766367E0,2.5327904E0,3.0881137E-1,7.2620237E-1,8.0259186E-1,1.4814801E0,1.1715435E0,1.8530385E0,2.2681186E0,3.032723E0,1.6940314E0,2.4560447E0,-1.5006076E0,-1.1627023E0,-5.300787E-1,7.0258535E-2,-8.9804965E-1,-4.516682E-1,1.8131709E-1,9.1005236E-1,-9.742786E-1,-1.819817E-1,-1.5191253E-1,8.517729E-1,-1.5900156E-1,5.2400535E-1,9.356332E-1,2.103666E0,-8.375284E-2,6.602343E-1,3.0664262E-1,9.9403125E-1,1.1718338E0,1.8806274E0,2.2787995E0,2.9951584E0,7.767068E-1,1.5138574E0,1.8950384E0,2.8945854E0,2.4473307E0,3.537841E0,-2.3060448E-1,3.8664162E-1,6.483288E-1,1.5171664E0,5.421386E-1,1.1329161E0,1.8560998E0,2.8268335E0,1.2467505E0,2.6389117E0,2.091079E0,2.945209E0,2.9154954E0,4.129445E0,1.5085937E0,2.7009284E0,2.3199122E0,3.0567663E0,2.8792522E0,3.7809489E0],"split_indices":[0,1,0,0,0,1,1,17,1,1,1,2,1,0,1,16,5,2,2,0,0,2,1,1,1,2,1,1,0,0,0,2,1,6,1,1,1,3,2,2,2,1,0,3,2,2,0,3,3,2,2,2,2,2,2,2,2,1,0,2,2,1,0,1,1,2,0,4,0,4,0,3,3,2,2,2,2,3,3,1,1,1,1,2,2,2,2,4,3,3,3,3,0,3,3,2,2,3,2,3,2,3,3,3,3,3,2,1,0,3,2,2,2,2,2,2,0,3,3,0,0,2,0,0,0,0,0,0,0,0,0,0,0,0,0,0,0,0,0,0,0,0,0,0,0,0,0,0,0,0,0,0,0,0,0,0,0,0,0,0,0,0,0,0,0,0,0,0,0,0,0,0,0,0,0,0,0,0,0,0,0,0,0,0,0,0,0,0,0,0,0,0,0,0,0,0,0,0,0,0,0,0,0,0,0,0,0,0,0,0,0,0,0,0,0,0,0,0,0,0,0,0,0,0,0,0,0,0,0,0,0],"split_type":[0,0,0,0,0,0,0,0,0,0,0,0,0,0,0,0,0,0,0,0,0,0,0,0,0,0,0,0,0,0,0,0,0,0,0,0,0,0,0,0,0,0,0,0,0,0,0,0,0,0,0,0,0,0,0,0,0,0,0,0,0,0,0,0,0,0,0,0,0,0,0,0,0,0,0,0,0,0,0,0,0,0,0,0,0,0,0,0,0,0,0,0,0,0,0,0,0,0,0,0,0,0,0,0,0,0,0,0,0,0,0,0,0,0,0,0,0,0,0,0,0,0,0,0,0,0,0,0,0,0,0,0,0,0,0,0,0,0,0,0,0,0,0,0,0,0,0,0,0,0,0,0,0,0,0,0,0,0,0,0,0,0,0,0,0,0,0,0,0,0,0,0,0,0,0,0,0,0,0,0,0,0,0,0,0,0,0,0,0,0,0,0,0,0,0,0,0,0,0,0,0,0,0,0,0,0,0,0,0,0,0,0,0,0,0,0,0,0,0,0,0,0,0,0,0,0,0,0,0,0,0],"sum_hessian":[3.0109E4,1.8937E4,1.1172E4,1.2536E4,6.401E3,6.775E3,4.397E3,5.298E3,7.238E3,5.213E3,1.188E3,3.383E3,3.392E3,3.298E3,1.099E3,4.209E3,1.089E3,4.98E3,2.258E3,4.311E3,9.02E2,9.38E2,2.5E2,1.872E3,1.511E3,2.16E3,1.232E3,2.38E3,9.18E2,8.65E2,2.34E2,3.082E3,1.127E3,6.99E2,3.9E2,2.176E3,2.804E3,1.659E3,5.99E2,2.226E3,2.085E3,4.35E2,4.67E2,4.26E2,5.12E2,2.26E2,2.4E1,4.5E2,1.422E3,5.91E2,9.2E2,1.657E3,5.03E2,9.97E2,2.35E2,9.58E2,1.422E3,7.73E2,1.45E2,7.55E2,1.1E2,2.22E2,1.2E1,2.597E3,4.85E2,5.9E2,5.37E2,5.16E2,1.83E2,2.29E2,1.61E2,7.26E2,1.45E3,1.509E3,1.295E3,1.32E3,3.39E2,5.1E2,8.9E1,1.037E3,1.189E3,6.27E2,1.458E3,2.72E2,1.63E2,3.29E2,1.38E2,2.21E2,2.05E2,4.06E2,1.06E2,1.55E2,7.1E1,3.85E2,6.5E1,1.306E3,1.16E2,3.67E2,2.24E2,6.61E2,2.59E2,7.54E2,9.03E2,4.2E2,8.3E1,4.99E2,4.98E2,1.59E2,7.6E1,6.73E2,2.85E2,1.164E3,2.58E2,4.22E2,3.51E2,1.25E2,2E1,3.91E2,3.64E2,8.1E1,2.9E1,2E2,2.2E1,1.043E3,1.554E3,1.37E2,3.48E2,4.89E2,1.01E2,2.14E2,3.23E2,2.28E2,2.88E2,5.2E1,1.31E2,1.03E2,1.26E2,6.4E1,9.7E1,5.61E2,1.65E2,1.31E3,1.4E2,1.293E3,2.16E2,9.02E2,3.93E2,4.51E2,8.69E2,2.02E2,1.37E2,3.02E2,2.08E2,7.4E1,1.5E1,4.65E2,5.72E2,7.25E2,4.64E2,3.96E2,2.31E2,1.122E3,3.36E2,1.51E2,1.21E2,6E1,1.03E2,2.81E2,4.8E1,9E1,4.8E1,1.97E2,2.4E1,1.59E2,4.6E1,2.53E2,1.53E2,8.9E1,1.7E1,1.07E2,4.8E1,2.61E2,1.24E2,5.1E1,1.4E1,4.21E2,8.85E2,7E1,4.6E1,2.64E2,1.03E2,1.74E2,5E1,2.98E2,3.63E2,2.27E2,3.2E1,5.56E2,1.98E2,4.12E2,4.91E2,2.76E2,1.44E2,6.8E1,1.5E1,2.3E2,2.69E2,3.99E2,9.9E1,1.46E2,1.3E1,4.8E2,1.93E2,2.11E2,7.4E1,5.79E2,5.85E2,2.15E2,4.3E1,3.57E2,6.5E1,2.01E2,1.5E2,8E1,4.5E1,3.5E2,4.1E1,2.52E2,1.12E2,1.41E2,5.9E1],"tree_param":{"num_deleted":"0","num_feature":"18","num_nodes":"231","size_leaf_vector":"1"}},{"base_weights":[4.462281E-3,-1.9783227E0,3.3717809E0,-3.44312E0,8.682277E-1,1.623674E0,6.0758624E0,-5.523468E0,-1.9230645E0,-2.7996504E-1,5.8745813E0,-1.3704494E0,4.5769196E0,4.6561656E0,1.0388332E1,-6.579181E0,-3.7135487E0,-3.3299747E0,1.1779821E0,-1.1542506E0,3.7401779E0,4.889311E0,9.599053E0,-2.78683E0,3.9692053E-1,2.8196962E0,7.667918E0,2.9855716E0,8.976804E0,9.635329E0,1.5834307E1,-8.476302E0,-5.3652964E0,-6.0314097E0,-2.4094455E0,-5.0316153E0,-1.9584285E0,-4.5876022E-2,4.561546E0,-3.0320647E0,8.245517E-1,1.3153834E0,5.939603E0,2.646188E0,6.7199235E0,9.055008E0,2.7856736E0,-5.103691E0,-2.0582035E0,-1.9312338E0,1.9092709E0,1.7193869E0,6.5118785E0,6.692351E0,1.1747767E1,9.7785217E-1,4.342712E0,7.78425E0,1.5229321E1,8.475906E0,1.348784E1,1.4944322E1,5.152046E0,-9.149094E0,-5.951874E0,-9.240668E0,-4.332865E0,-7.7319965E0,-4.2080474E0,-4.0407553E0,2.0075655E0,-6.416328E0,-2.3254712E0,-3.782572E0,9.823849E-2,-1.6925381E0,9.226072E-1,3.953095E0,7.871672E0,-3.9871347E0,8.432353E-1,-4.0860224E-1,4.3042316E0,4.382978E-1,1.0206845E1,5.0295258E0,1.083095E1,1.4459267E0,3.938481E0,5.8966713E0,9.792673E0,7.9505076E0,2.2195513E0,-5.6811576E0,-1.6928054E0,-2.9003932E0,-2.5029555E-1,-3.079227E0,1.34788165E-2,8.9316714E-1,4.522022E0,1.1659818E0,4.2763658E0,5.778111E0,1.0017782E1,4.754308E0,8.617008E0,1.1121883E1,3.5443637E0,-2.529578E-1,3.7129164E0,3.4951065E0,8.366692E0,5.9493914E0,9.984809E0,1.2927437E1,1.902456E1,6.6777864E0,1.0407924E1,1.2335509E1,3.2068949E0,1.41718E1,3.9206276E0,-2.1985517E0,-1.5788118E0,-1.3393097E0,-6.450705E-1,-1.9323118E0,-1.3000456E0,-1.1375848E0,-4.8079544E-1,-2.1413512E0,-1.2038015E0,-1.1527494E0,-4.670173E-1,-1.213894E0,-4.759467E-1,1.2328744E-1,9.274731E-1,-1.8563545E0,-1.1408998E0,-1.1613439E0,-1.2453092E-1,-9.4416636E-1,-3.99729E-1,-5.0832596E-2,1.6982819E0,-6.284339E-1,-2.1929815E-1,-1.4206953E-1,4.62056E-1,5.519649E-1,1.1177866E0,1.4221656E0,2.0770175E0,-1.647886E0,-5.676723E-1,-7.5732455E-2,1.140373E0,-3.6182985E-1,5.109633E-1,6.284144E-1,2.108728E0,-3.2882577E-1,8.1523603E-1,2.1790988E0,1.1933167E0,5.574038E-1,1.3733987E0,2.3047366E0,1.0363263E0,2.4741346E-1,5.8784705E-1,6.4821E-1,1.1957328E0,9.4503343E-1,1.4956174E0,1.8125974E0,2.4596395E0,1.3605254E0,1.9818364E0,-1.3805012E0,-1.0233272E0,-4.1346657E-1,2.1777426E-1,-6.11844E-1,2.3031284E-1,-3.065162E-1,2.013548E-1,-6.8990374E-1,5.2078086E-1,-3.414474E-1,3.8278446E-1,-1.3181135E-1,4.318113E-1,6.442879E-1,1.5067191E0,-6.911264E-2,4.3837842E-1,5.385929E-1,1.36554E0,9.362201E-1,1.5097587E0,1.8395158E0,2.4417076E0,8.084325E-1,1.6905686E0,1.4645946E0,2.2046387E0,1.9638289E0,2.6098528E0,-1.0901776E-1,9.2603093E-1,6.664849E-1,2.546764E0,5.5988294E-1,1.4313428E0,1.5028954E0,2.2686396E0,7.5317836E-1,1.5692785E0,1.8715609E0,3.389954E0,2.104502E0,3.094123E0,3.336707E0,4.573687E0,1.0383321E0,1.6188886E0,1.896797E0,2.7896936E0,2.15426E0,2.9600458E0,2.523017E0,3.4517958E0],"categories":[],"categories_nodes":[],"categories_segments":[],"categories_sizes":[],"default_left":[0,0,0,0,0,0,0,0,0,0,0,0,0,0,0,0,0,0,0,0,0,0,0,0,0,0,0,0,0,0,0,0,0,0,0,0,0,0,0,0,0,0,0,0,0,0,0,0,0,0,0,0,0,0,0,0,0,0,0,0,0,0,0,0,0,0,0,0,0,0,0,0,0,0,0,0,0,0,0,0,0,0,0,0,0,0,0,0,0,0,0,0,0,0,0,0,0,0,0,0,0,0,0,0,0,0,0,0,0,0,0,0,0,0,0,0,0,0,0,0,0,0,0,0,0,0,0,0,0,0,0,0,0,0,0,0,0,0,0,0,0,0,0,0,0,0,0,0,0,0,0,0,0,0,0,0,0,0,0,0,0,0,0,0,0,0,0,0,0,0,0,0,0,0,0,0,0,0,0,0,0,0,0,0,0,0,0,0,0,0,0,0,0,0,0,0,0,0,0,0,0,0,0,0,0,0,0,0,0,0,0,0,0,0,0,0,0,0,0,0,0,0,0,0,0,0,0,0,0,0,0,0,0,0,0],"id":3,"left_children":[1,3,5,7,9,11,13,15,17,19,21,23,25,27,29,31,33,35,37,39,41,43,45,47,49,51,53,55,57,59,61,63,65,67,69,71,73,75,77,79,81,83,85,87,89,91,-1,93,95,97,99,101,103,105,107,109,111,113,115,117,119,121,-1,123,125,127,129,131,133,135,137,139,141,143,145,147,149,151,153,155,157,159,161,163,165,167,169,171,173,175,177,179,-1,181,183,185,187,189,191,193,195,197,199,201,203,205,207,209,-1,211,213,215,217,219,221,223,225,227,229,231,-1,233,-1,-1,-1,-1,-1,-1,-1,-1,-1,-1,-1,-1,-1,-1,-1,-1,-1,-1,-1,-1,-1,-1,-1,-1,-1,-1,-1,-1,-1,-1,-1,-1,-1,-1,-1,-1,-1,-1,-1,-1,-1,-1,-1,-1,-1,-1,-1,-1,-1,-1,-1,-1,-1,-1,-1,-1,-1,-1,-1,-1,-1,-1,-1,-1,-1,-1,-1,-1,-1,-1,-1,-1,-1,-1,-1,-1,-1,-1,-1,-1,-1,-1,-1,-1,-1,-1,-1,-1,-1,-1,-1,-1,-1,-1,-1,-1,-1,-1,-1,-1,-1,-1,-1,-1,-1,-1,-1,-1,-1,-1,-1,-1,-1],"loss_changes":[2.0080084E5,7.8929695E4,5.2677516E4,3.9511125E4,3.697445E4,5.9878043E4,2.6743266E4,1.0056703E4,3.1517111E4,1.839702E4,4.3566016E3,8.419599E3,1.8494617E4,2.374939E4,4.2886406E3,7.6254375E3,5.867701E3,1.1587184E4,9.338169E3,1.5976821E4,4.9786836E3,3.8872988E3,4.8872656E2,3.1412275E3,5.2746016E3,8.824836E3,4.836883E3,6.472502E3,6.726492E3,4.1469062E3,8.016172E2,2.150086E3,8.0981055E3,2.1380117E3,8.993389E3,8.292699E3,1.0328681E4,2.6440867E3,1.1752979E3,8.168172E3,8.987072E3,3.4736904E3,2.1267637E3,6.5972266E2,1.2652598E3,4.61125E2,0E0,8.6885645E2,2.1644136E3,1.3172266E3,2.4065427E3,2.368045E3,1.2258047E3,3.6853672E3,7.248262E2,3.2326296E3,4.8071953E3,3.06175E3,1.0295469E3,2.4873594E3,5.0148828E2,1.8436328E2,0E0,2.2471172E3,6.012324E2,5.7116797E2,4.366549E3,1.7704844E3,1.0116548E3,3.1225176E3,1.2536699E3,2.708871E3,4.5388916E3,2.5698633E3,3.930776E3,5.290803E2,2.4408481E3,9.901377E2,8.493408E1,8.545469E3,2.6534001E3,6.6304185E3,3.8763516E3,3.177399E3,7.407031E1,1.7513428E3,3.037295E2,6.1879364E1,2.648977E2,7.371533E2,5.9867188E1,2.7017285E2,0E0,2.1022949E2,7.708882E1,8.081045E2,7.5338153E2,9.029592E2,7.4410516E2,1.3290344E3,9.689053E2,2.2154397E3,1.2010117E3,7.665156E2,2.2376953E1,1.2123867E3,1.4403125E3,4.032207E2,0E0,9.8788745E2,8.6588086E2,2.8713682E3,4.8575195E2,1.785416E3,1.0722969E3,4.1843652E2,7.1458984E1,7.880918E2,9.009922E2,4.3542578E2,0E0,2.751621E2,0E0,0E0,0E0,0E0,0E0,0E0,0E0,0E0,0E0,0E0,0E0,0E0,0E0,0E0,0E0,0E0,0E0,0E0,0E0,0E0,0E0,0E0,0E0,0E0,0E0,0E0,0E0,0E0,0E0,0E0,0E0,0E0,0E0,0E0,0E0,0E0,0E0,0E0,0E0,0E0,0E0,0E0,0E0,0E0,0E0,0E0,0E0,0E0,0E0,0E0,0E0,0E0,0E0,0E0,0E0,0E0,0E0,0E0,0E0,0E0,0E0,0E0,0E0,0E0,0E0,0E0,0E0,0E0,0E0,0E0,0E0,0E0,0E0,0E0,0E0,0E0,0E0,0E0,0E0,0E0,0E0,0E0,0E0,0E0,0E0,0E0,0E0,0E0,0E0,0E0,0E0,0E0,0E0,0E0,0E0,0E0,0E0,0E0,0E0,0E0,0E0,0E0,0E0,0E0,0E0,0E0,0E0,0E0,0E0,0E0,0E0,0E0,0E0],"parents":[2147483647,0,0,1,1,2,2,3,3,4,4,5,5,6,6,7,7,8,8,9,9,10,10,11,11,12,12,13,13,14,14,15,15,16,16,17,17,18,18,19,19,20,20,21,21,22,22,23,23,24,24,25,25,26,26,27,27,28,28,29,29,30,30,31,31,32,32,33,33,34,34,35,35,36,36,37,37,38,38,39,39,40,40,41,41,42,42,43,43,44,44,45,45,47,47,48,48,49,49,50,50,51,51,52,52,53,53,54,54,55,55,56,56,57,57,58,58,59,59,60,60,61,61,63,63,64,64,65,65,66,66,67,67,68,68,69,69,70,70,71,71,72,72,73,73,74,74,75,75,76,76,77,77,78,78,79,79,80,80,81,81,82,82,83,83,84,84,85,85,86,86,87,87,88,88,89,89,90,90,91,91,93,93,94,94,95,95,96,96,97,97,98,98,99,99,100,100,101,101,102,102,103,103,104,104,105,105,106,106,107,107,109,109,110,110,111,111,112,112,113,113,114,114,115,115,116,116,117,117,118,118,119,119,121,121],"right_children":[2,4,6,8,10,12,14,16,18,20,22,24,26,28,30,32,34,36,38,40,42,44,46,48,50,52,54,56,58,60,62,64,66,68,70,72,74,76,78,80,82,84,86,88,90,92,-1,94,96,98,100,102,104,106,108,110,112,114,116,118,120,122,-1,124,126,128,130,132,134,136,138,140,142,144,146,148,150,152,154,156,158,160,162,164,166,168,170,172,174,176,178,180,-1,182,184,186,188,190,192,194,196,198,200,202,204,206,208,210,-1,212,214,216,218,220,222,224,226,228,230,232,-1,234,-1,-1,-1,-1,-1,-1,-1,-1,-1,-1,-1,-1,-1,-1,-1,-1,-1,-1,-1,-1,-1,-1,-1,-1,-1,-1,-1,-1,-1,-1,-1,-1,-1,-1,-1,-1,-1,-1,-1,-1,-1,-1,-1,-1,-1,-1,-1,-1,-1,-1,-1,-1,-1,-1,-1,-1,-1,-1,-1,-1,-1,-1,-1,-1,-1,-1,-1,-1,-1,-1,-1,-1,-1,-1,-1,-1,-1,-1,-1,-1,-1,-1,-1,-1,-1,-1,-1,-1,-1,-1,-1,-1,-1,-1,-1,-1,-1,-1,-1,-1,-1,-1,-1,-1,-1,-1,-1,-1,-1,-1,-1,-1,-1],"split_conditions":[6E0,4E0,7E0,5E0,5E0,2E0,2E0,3E0,3E0,6E0,5E0,2E0,3E0,8E0,8E0,3E0,4E0,2E0,2E0,4E0,3E0,1E0,6E0,1E0,1E0,2E0,4E0,1E0,9E0,3E0,9E0,3E0,4E0,4E0,3E0,3E0,2E0,1E0,3E0,3E0,2E0,8E0,7E0,1E0,2E0,1E0,2.7856736E0,3E0,2E0,3E0,3E0,2E0,3E0,1E0,5E0,2E0,2E0,1E0,1E0,1E0,1E0,3E0,5.152046E0,2E0,4E0,3E0,2E0,3E0,3E0,2E0,1E0,1E0,1E0,2E0,4E0,1E0,1E0,1E0,1E0,3E0,4E0,5E0,3E0,2E0,1E0,1E0,1E0,2E0,2E0,1E0,1E0,1E0,2.2195513E0,1E0,2E0,3E0,1E0,3E0,1E0,1E0,1E0,1E0,1E0,1E0,1E0,2E0,1E0,1E0,3.5443637E0,3E0,4E0,2E0,3E0,1E0,2E0,1E0,1E0,1E0,2E0,1E0,3.2068949E0,1E0,3.9206276E0,-2.1985517E0,-1.5788118E0,-1.3393097E0,-6.450705E-1,-1.9323118E0,-1.3000456E0,-1.1375848E0,-4.8079544E-1,-2.1413512E0,-1.2038015E0,-1.1527494E0,-4.670173E-1,-1.213894E0,-4.759467E-1,1.2328744E-1,9.274731E-1,-1.8563545E0,-1.1408998E0,-1.1613439E0,-1.2453092E-1,-9.4416636E-1,-3.99729E-1,-5.0832596E-2,1.6982819E0,-6.284339E-1,-2.1929815E-1,-1.4206953E-1,4.62056E-1,5.519649E-1,1.1177866E0,1.4221656E0,2.0770175E0,-1.647886E0,-5.676723E-1,-7.5732455E-2,1.140373E0,-3.6182985E-1,5.109633E-1,6.284144E-1,2.108728E0,-3.2882577E-1,8.1523603E-1,2.1790988E0,1.1933167E0,5.574038E-1,1.3733987E0,2.3047366E0,1.0363263E0,2.4741346E-1,5.8784705E-1,6.4821E-1,1.1957328E0,9.4503343E-1,1.4956174E0,1.8125974E0,2.4596395E0,1.3605254E0,1.9818364E0,-1.3805012E0,-1.0233272E0,-4.1346657E-1,2.1777426E-1,-6.11844E-1,2.3031284E-1,-3.065162E-1,2.013548E-1,-6.8990374E-1,5.2078086E-1,-3.414474E-1,3.8278446E-1,-1.3181135E-1,4.318113E-1,6.442879E-1,1.5067191E0,-6.911264E-2,4.3837842E-1,5.385929E-1,1.36554E0,9.362201E-1,1.5097587E0,1.8395158E0,2.4417076E0,8.084325E-1,1.6905686E0,1.4645946E0,2.2046387E0,1.9638289E0,2.6098528E0,-1.0901776E-1,9.2603093E-1,6.664849E-1,2.546764E0,5.5988294E-1,1.4313428E0,1.5028954E0,2.2686396E0,7.5317836E-1,1.5692785E0,1.8715609E0,3.389954E0,2.104502E0,3.094123E0,3.336707E0,4.573687E0,1.0383321E0,1.6188886E0,1.896797E0,2.7896936E0,2.15426E0,2.9600458E0,2.523017E0,3.4517958E0],"split_indices":[0,1,0,0,0,1,1,2,1,1,1,2,1,0,0,1,0,1,2,0,0,2,1,1,1,2,1,1,0,1,0,3,0,2,1,2,2,3,2,2,2,1,1,3,2,2,0,3,3,2,2,3,2,2,1,2,2,1,1,2,2,1,0,2,3,3,2,1,1,1,3,1,1,3,2,2,2,3,3,0,2,1,2,2,17,2,6,4,3,3,3,3,0,2,4,4,2,3,3,3,3,2,2,3,3,3,3,2,0,3,2,3,2,2,2,2,2,3,2,3,0,2,0,0,0,0,0,0,0,0,0,0,0,0,0,0,0,0,0,0,0,0,0,0,0,0,0,0,0,0,0,0,0,0,0,0,0,0,0,0,0,0,0,0,0,0,0,0,0,0,0,0,0,0,0,0,0,0,0,0,0,0,0,0,0,0,0,0,0,0,0,0,0,0,0,0,0,0,0,0,0,0,0,0,0,0,0,0,0,0,0,0,0,0,0,0,0,0,0,0,0,0,0,0,0,0,0,0,0,0,0,0,0,0,0],"split_type":[0,0,0,0,0,0,0,0,0,0,0,0,0,0,0,0,0,0,0,0,0,0,0,0,0,0,0,0,0,0,0,0,0,0,0,0,0,0,0,0,0,0,0,0,0,0,0,0,0,0,0,0,0,0,0,0,0,0,0,0,0,0,0,0,0,0,0,0,0,0,0,0,0,0,0,0,0,0,0,0,0,0,0,0,0,0,0,0,0,0,0,0,0,0,0,0,0,0,0,0,0,0,0,0,0,0,0,0,0,0,0,0,0,0,0,0,0,0,0,0,0,0,0,0,0,0,0,0,0,0,0,0,0,0,0,0,0,0,0,0,0,0,0,0,0,0,0,0,0,0,0,0,0,0,0,0,0,0,0,0,0,0,0,0,0,0,0,0,0,0,0,0,0,0,0,0,0,0,0,0,0,0,0,0,0,0,0,0,0,0,0,0,0,0,0,0,0,0,0,0,0,0,0,0,0,0,0,0,0,0,0,0,0,0,0,0,0,0,0,0,0,0,0,0,0,0,0,0,0,0,0,0,0,0,0],"sum_hessian":[3.0073E4,1.8928E4,1.1145E4,1.2497E4,6.431E3,6.77E3,4.375E3,5.275E3,7.222E3,5.232E3,1.199E3,3.362E3,3.408E3,3.293E3,1.082E3,3.33E3,1.945E3,4.968E3,2.254E3,4.298E3,9.34E2,9.5E2,2.49E2,1.866E3,1.496E3,2.174E3,1.234E3,2.376E3,9.17E2,9.53E2,1.29E2,1.297E3,2.033E3,6.99E2,1.246E3,2.216E3,2.752E3,1.656E3,5.98E2,2.205E3,2.093E3,4.45E2,4.89E2,4.28E2,5.22E2,2.25E2,2.4E1,4.45E2,1.421E3,5.89E2,9.07E2,1.676E3,4.98E2,9.98E2,2.36E2,9.59E2,1.417E3,7.72E2,1.45E2,7.35E2,2.18E2,1.21E2,8E0,1.022E3,2.75E2,4.26E2,1.607E3,3.6E2,3.39E2,9.1E2,3.36E2,1.465E3,7.51E2,1.458E3,1.294E3,6.13E2,1.043E3,5.07E2,9.1E1,1.769E3,4.36E2,1.546E3,5.47E2,4.06E2,3.9E1,4.14E2,7.5E1,2.23E2,2.05E2,4.14E2,1.08E2,1.53E2,7.2E1,3.8E2,6.5E1,9.69E2,4.52E2,3.7E2,2.19E2,6.54E2,2.53E2,1.379E3,2.97E2,4.14E2,8.4E1,4.99E2,4.99E2,2.17E2,1.9E1,6.62E2,2.97E2,1.172E3,2.45E2,4.23E2,3.49E2,9.3E1,5.2E1,3.83E2,3.52E2,1.58E2,6E1,1.08E2,1.3E1,3.67E2,6.55E2,2.08E2,6.7E1,3.49E2,7.7E1,9.12E2,6.95E2,1.21E2,2.39E2,1.78E2,1.61E2,3.94E2,5.16E2,2.23E2,1.13E2,2.51E2,1.214E3,2.41E2,5.1E2,9.25E2,5.33E2,1.243E3,5.1E1,1.7E2,4.43E2,4.84E2,5.59E2,3.05E2,2.02E2,7.6E1,1.5E1,3.56E2,1.413E3,3.5E2,8.6E1,1.048E3,4.98E2,4.67E2,8E1,2.59E2,1.47E2,3.1E1,8E0,1.95E2,2.19E2,6.4E1,1.1E1,2E2,2.3E1,1.59E2,4.6E1,2.53E2,1.61E2,9.2E1,1.6E1,1.05E2,4.8E1,9.9E1,2.81E2,5.7E1,8E0,9.23E2,4.6E1,2.23E2,2.29E2,3.45E2,2.5E1,1.15E2,1.04E2,2.97E2,3.57E2,1.82E2,7.1E1,5.67E2,8.12E2,1.89E2,1.08E2,2.7E2,1.44E2,6.9E1,1.5E1,4.28E2,7.1E1,3.44E2,1.55E2,1.44E2,7.3E1,6.25E2,3.7E1,2.88E2,9E0,1E3,1.72E2,2.01E2,4.4E1,2.07E2,2.16E2,3.29E2,2E1,5.4E1,3.9E1,3.8E1,1.4E1,2.02E2,1.81E2,2.94E2,5.8E1,1.07E2,5.1E1,8E1,2.8E1],"tree_param":{"num_deleted":"0","num_feature":"18","num_nodes":"235","size_leaf_vector":"1"}},{"base_weights":[9.147327E-3,-1.5932744E0,2.6932526E0,-2.7486956E0,6.607716E-1,1.29362E0,4.868115E0,-4.437407E0,-1.5077276E0,-2.6239404E-1,4.695568E0,-1.0850405E0,3.6732936E0,3.718977E0,8.341564E0,-3.8202326E0,-6.7822256E0,-2.6527338E0,9.771567E-1,-1.904485E0,1.477467E0,3.8856487E0,7.7654014E0,-2.2591953E0,3.797034E-1,2.2540653E0,6.131034E0,2.3780947E0,7.217899E0,7.7535415E0,1.2833185E1,-2.783376E0,-6.63564E0,-5.9531355E0,-8.269953E0,-4.1697826E0,-1.480059E0,-1.8011803E-2,3.6755612E0,-4.042378E0,-2.3392178E-1,2.2182865E0,-2.4464648E0,2.1160705E0,5.3238287E0,7.2939672E0,2.2650907E0,-4.131576E0,-1.6680586E0,-1.4186833E0,1.5406705E0,1.3628757E0,5.2572856E0,5.331754E0,9.528239E0,5.5759853E-1,3.3751209E0,6.2649217E0,1.2081449E1,6.832845E0,1.0820781E1,1.2150335E1,3.4254754E0,-1.7884595E0,-4.4466834E0,-5.5890293E0,-7.751238E0,-5.357242E0,-8.134144E0,-1.0063605E1,-7.6824374E0,-6.371953E0,-3.0471513E0,-5.7264132E0,-7.699232E-1,-2.4685518E-1,5.5836473E0,3.1877525E0,6.387487E0,-5.204356E0,-7.222498E-1,-3.7013721E0,9.8660654E-1,3.1584463E0,-2.6502094E0,-4.4456716E0,-1.3089882E0,1.1951145E0,3.1415653E0,4.663761E0,7.821811E0,6.378926E0,1.8193415E0,-4.5895495E0,-1.4576738E0,-1.9866744E0,1.9653462E0,-1.8733888E0,3.391751E0,7.093038E-1,3.6226988E0,1.1918242E0,6.6754503E0,4.676308E0,8.133484E0,4.7834053E0,1.0193121E1,8.994264E0,2.8761435E0,-1.5512826E0,1.5031244E0,1.6331772E0,4.7847133E0,4.7857585E0,8.064632E0,1.0814081E1,3.6570528E0,5.3659496E0,8.398928E0,1.0172745E1,3.2598455E0,1.0957622E1,2.9150577E0,-1.5846276E-1,-7.902397E-1,-6.362732E-1,-1.1293159E0,-9.074803E-1,-1.422457E0,-1.848554E0,-1.3795948E0,-9.014479E-1,-1.4456899E0,-2.045508E0,-1.4895322E0,-2.094124E0,-1.4426394E0,-1.8089386E0,-1.3651901E0,-1.3213888E0,2.8416654E-2,-9.587684E-1,-4.4405675E-1,-1.2233135E0,8.184224E-1,-2.8498626E-1,5.151371E-1,-3.1265485E-1,1.1321743E-1,9.449076E-1,1.6503854E0,4.4384348E-1,9.019838E-1,1.1523945E0,1.6932223E0,-1.9610962E0,-8.760108E-1,-9.5348996E-1,2.6990604E-1,-1.0291096E0,-7.620799E-2,9.104576E-2,1.5260832E0,5.374454E-1,1.4299359E0,-3.4091142E-1,-1.2030873E0,-1.1798297E0,-7.739838E-2,-5.889828E-1,1.6899031E-1,2.0639387E-1,4.827194E-1,5.1635355E-1,9.7212213E-1,7.562536E-1,1.185628E0,1.4308273E0,2.0103166E0,1.1877697E0,2.2453675E0,-9.4323534E-1,-3.74214E-1,-3.9424193E-1,1.16806276E-1,-6.379058E-1,-2.7506074E-1,1.84965E-1,6.848911E-1,-5.000673E-1,1.0042693E-1,3.8194498E-1,1.0419339E0,5.0184205E-2,8.417558E-1,5.8868814E-1,1.5736326E0,1.060758E-2,4.1553637E-1,1.1057808E0,1.9234346E0,7.6119673E-1,1.212217E0,1.4866718E0,1.9905245E0,7.1623963E-1,1.2257975E0,1.8656179E0,2.53754E0,1.5732672E0,2.1150837E0,-3.9874396E-1,4.8889375E-1,1.5307045E-1,8.943088E-1,2.2290774E-1,1.1109451E0,7.289129E-1,1.234916E0,7.7709055E-1,1.8329313E0,1.3033779E0,1.9799324E0,1.7723439E0,2.7050169E0,9.62718E-1,1.8847369E0,1.4487762E0,2.0831056E0,1.8324842E0,2.4019086E0,1.978936E0,2.5821407E0],"categories":[],"categories_nodes":[],"categories_segments":[],"categories_sizes":[],"default_left":[0,0,0,0,0,0,0,0,0,0,0,0,0,0,0,0,0,0,0,0,0,0,0,0,0,0,0,0,0,0,0,0,0,0,0,0,0,0,0,0,0,0,0,0,0,0,0,0,0,0,0,0,0,0,0,0,0,0,0,0,0,0,0,0,0,0,0,0,0,0,0,0,0,0,0,0,0,0,0,0,0,0,0,0,0,0,0,0,0,0,0,0,0,0,0,0,0,0,0,0,0,0,0,0,0,0,0,0,0,0,0,0,0,0,0,0,0,0,0,0,0,0,0,0,0,0,0,0,0,0,0,0,0,0,0,0,0,0,0,0,0,0,0,0,0,0,0,0,0,0,0,0,0,0,0,0,0,0,0,0,0,0,0,0,0,0,0,0,0,0,0,0,0,0,0,0,0,0,0,0,0,0,0,0,0,0,0,0,0,0,0,0,0,0,0,0,0,0,0,0,0,0,0,0,0,0,0,0,0,0,0,0,0,0,0,0,0,0,0,0,0,0,0,0,0,0,0,0,0,0,0,0,0],"id":4,"left_children":[1,3,5,7,9,11,13,15,17,19,21,23,25,27,29,31,33,35,37,39,41,43,45,47,49,51,53,55,57,59,61,63,65,67,69,71,73,75,77,79,81,83,85,87,89,91,-1,93,95,97,99,101,103,105,107,109,111,113,115,117,119,121,-1,123,125,127,129,131,133,135,137,139,141,143,145,147,149,151,153,155,157,159,161,163,165,167,169,171,173,175,177,179,-1,181,183,185,187,189,191,193,195,197,199,201,203,205,207,209,-1,211,213,215,217,219,221,223,-1,225,227,229,-1,231,-1,-1,-1,-1,-1,-1,-1,-1,-1,-1,-1,-1,-1,-1,-1,-1,-1,-1,-1,-1,-1,-1,-1,-1,-1,-1,-1,-1,-1,-1,-1,-1,-1,-1,-1,-1,-1,-1,-1,-1,-1,-1,-1,-1,-1,-1,-1,-1,-1,-1,-1,-1,-1,-1,-1,-1,-1,-1,-1,-1,-1,-1,-1,-1,-1,-1,-1,-1,-1,-1,-1,-1,-1,-1,-1,-1,-1,-1,-1,-1,-1,-1,-1,-1,-1,-1,-1,-1,-1,-1,-1,-1,-1,-1,-1,-1,-1,-1,-1,-1,-1,-1,-1,-1,-1,-1,-1,-1,-1,-1,-1],"loss_changes":[1.2929871E5,4.902653E4,3.4202266E4,2.6073508E4,2.3765363E4,3.8715707E4,1.7531453E4,7.6020938E3,2.041696E4,1.4839266E4,2.9235723E3,5.884418E3,1.1911973E4,1.5502793E4,2.7872969E3,1.2169078E4,1.3038711E3,8.732301E3,6.0797373E3,9.542064E3,7.3366934E3,2.3860986E3,3.5012402E2,2.0949824E3,3.1820083E3,5.7980312E3,3.3460586E3,4.3416074E3,4.169836E3,2.6625117E3,1.7687695E2,5.0443105E3,1.2678906E3,8.765762E2,3.3366797E2,5.273617E3,8.354524E3,2.122927E3,7.866074E2,4.5177207E3,6.356066E3,9.721112E3,9.0607495E2,3.9668628E2,8.1926855E2,3.3450977E2,0E0,5.504927E2,1.6767234E3,1.3143777E3,1.6002708E3,1.5132485E3,7.907842E2,2.6569531E3,5.0961523E2,1.693245E3,3.7882812E3,2.005873E3,1.02166016E3,1.6732969E3,6.5439844E2,1.9051562E2,0E0,4.1772065E3,1.7668047E3,9.014785E2,5.9628906E2,8.3278906E2,1.1575098E2,6.542383E1,2.7333984E2,1.5637637E3,2.0384424E3,1.9087705E3,5.4380254E3,1.7510446E3,1.03036865E2,6.6413086E2,5.9378906E1,3.085666E3,2.6319902E3,1.9678193E3,3.934669E3,3.1261562E3,1.0831611E3,9.028313E2,9.3749414E2,3.9183197E1,1.7394727E2,4.3848145E2,6.90459E1,2.0365039E2,0E0,1.9555957E2,7.682538E1,9.7733594E2,1.7810248E2,8.664309E2,1.3299298E2,1.0725305E3,7.0837134E2,1.6925017E3,1.160332E2,4.743662E2,1.9043945E1,1.4858867E3,7.718457E1,2.9581445E2,0E0,5.0524957E2,1.2882458E3,1.3869788E3,1.3507695E3,1.5769678E3,9.256797E2,5.499414E2,0E0,7.393672E2,7.413242E2,2.4280078E2,0E0,2.770996E1,0E0,0E0,0E0,0E0,0E0,0E0,0E0,0E0,0E0,0E0,0E0,0E0,0E0,0E0,0E0,0E0,0E0,0E0,0E0,0E0,0E0,0E0,0E0,0E0,0E0,0E0,0E0,0E0,0E0,0E0,0E0,0E0,0E0,0E0,0E0,0E0,0E0,0E0,0E0,0E0,0E0,0E0,0E0,0E0,0E0,0E0,0E0,0E0,0E0,0E0,0E0,0E0,0E0,0E0,0E0,0E0,0E0,0E0,0E0,0E0,0E0,0E0,0E0,0E0,0E0,0E0,0E0,0E0,0E0,0E0,0E0,0E0,0E0,0E0,0E0,0E0,0E0,0E0,0E0,0E0,0E0,0E0,0E0,0E0,0E0,0E0,0E0,0E0,0E0,0E0,0E0,0E0,0E0,0E0,0E0,0E0,0E0,0E0,0E0,0E0,0E0,0E0,0E0,0E0,0E0,0E0,0E0,0E0,0E0,0E0,0E0],"parents":[2147483647,0,0,1,1,2,2,3,3,4,4,5,5,6,6,7,7,8,8,9,9,10,10,11,11,12,12,13,13,14,14,15,15,16,16,17,17,18,18,19,19,20,20,21,21,22,22,23,23,24,24,25,25,26,26,27,27,28,28,29,29,30,30,31,31,32,32,33,33,34,34,35,35,36,36,37,37,38,38,39,39,40,40,41,41,42,42,43,43,44,44,45,45,47,47,48,48,49,49,50,50,51,51,52,52,53,53,54,54,55,55,56,56,57,57,58,58,59,59,60,60,61,61,63,63,64,64,65,65,66,66,67,67,68,68,69,69,70,70,71,71,72,72,73,73,74,74,75,75,76,76,77,77,78,78,79,79,80,80,81,81,82,82,83,83,84,84,85,85,86,86,87,87,88,88,89,89,90,90,91,91,93,93,94,94,95,95,96,96,97,97,98,98,99,99,100,100,101,101,102,102,103,103,104,104,105,105,106,106,107,107,109,109,110,110,111,111,112,112,113,113,114,114,115,115,117,117,118,118,119,119,121,121],"right_children":[2,4,6,8,10,12,14,16,18,20,22,24,26,28,30,32,34,36,38,40,42,44,46,48,50,52,54,56,58,60,62,64,66,68,70,72,74,76,78,80,82,84,86,88,90,92,-1,94,96,98,100,102,104,106,108,110,112,114,116,118,120,122,-1,124,126,128,130,132,134,136,138,140,142,144,146,148,150,152,154,156,158,160,162,164,166,168,170,172,174,176,178,180,-1,182,184,186,188,190,192,194,196,198,200,202,204,206,208,210,-1,212,214,216,218,220,222,224,-1,226,228,230,-1,232,-1,-1,-1,-1,-1,-1,-1,-1,-1,-1,-1,-1,-1,-1,-1,-1,-1,-1,-1,-1,-1,-1,-1,-1,-1,-1,-1,-1,-1,-1,-1,-1,-1,-1,-1,-1,-1,-1,-1,-1,-1,-1,-1,-1,-1,-1,-1,-1,-1,-1,-1,-1,-1,-1,-1,-1,-1,-1,-1,-1,-1,-1,-1,-1,-1,-1,-1,-1,-1,-1,-1,-1,-1,-1,-1,-1,-1,-1,-1,-1,-1,-1,-1,-1,-1,-1,-1,-1,-1,-1,-1,-1,-1,-1,-1,-1,-1,-1,-1,-1,-1,-1,-1,-1,-1,-1,-1,-1,-1,-1,-1],"split_conditions":[6E0,4E0,7E0,5E0,5E0,2E0,2E0,1E0,3E0,5E0,5E0,2E0,3E0,8E0,8E0,1E0,1E0,2E0,2E0,4E0,1E0,1E0,6E0,1E0,1E0,2E0,4E0,1E0,9E0,3E0,3E0,1E0,1E0,1E0,2E0,2E0,1E0,3E0,3E0,3E0,1E0,1E0,1E0,1E0,2E0,1E0,2.2650907E0,3E0,3E0,4E0,3E0,3E0,3E0,2E0,5E0,1E0,1E0,1E0,1E1,1E0,4E0,1E0,3.4254754E0,1E0,1E0,1E0,4E0,1E0,2E0,4E0,4E0,4E0,1E0,5E0,2E0,1E0,1E0,1E0,1E0,3E0,3E0,2E0,3E0,7E0,1E0,4E0,3E0,2E0,2E0,1E0,1E0,2E0,1.8193415E0,3E0,4E0,1E0,1E0,2E0,1E0,2E0,4E0,1E0,1E0,1E0,1E0,1E0,1E0,1E0,2.8761435E0,3E0,2E0,3E0,1E0,2E0,1E0,1E0,3.6570528E0,2E0,1E0,1E0,3.2598455E0,1E0,2.9150577E0,-1.5846276E-1,-7.902397E-1,-6.362732E-1,-1.1293159E0,-9.074803E-1,-1.422457E0,-1.848554E0,-1.3795948E0,-9.014479E-1,-1.4456899E0,-2.045508E0,-1.4895322E0,-2.094124E0,-1.4426394E0,-1.8089386E0,-1.3651901E0,-1.3213888E0,2.8416654E-2,-9.587684E-1,-4.4405675E-1,-1.2233135E0,8.184224E-1,-2.8498626E-1,5.151371E-1,-3.1265485E-1,1.1321743E-1,9.449076E-1,1.6503854E0,4.4384348E-1,9.019838E-1,1.1523945E0,1.6932223E0,-1.9610962E0,-8.760108E-1,-9.5348996E-1,2.6990604E-1,-1.0291096E0,-7.620799E-2,9.104576E-2,1.5260832E0,5.374454E-1,1.4299359E0,-3.4091142E-1,-1.2030873E0,-1.1798297E0,-7.739838E-2,-5.889828E-1,1.6899031E-1,2.0639387E-1,4.827194E-1,5.1635355E-1,9.7212213E-1,7.562536E-1,1.185628E0,1.4308273E0,2.0103166E0,1.1877697E0,2.2453675E0,-9.4323534E-1,-3.74214E-1,-3.9424193E-1,1.16806276E-1,-6.379058E-1,-2.7506074E-1,1.84965E-1,6.848911E-1,-5.000673E-1,1.0042693E-1,3.8194498E-1,1.0419339E0,5.0184205E-2,8.417558E-1,5.8868814E-1,1.5736326E0,1.060758E-2,4.1553637E-1,1.1057808E0,1.9234346E0,7.6119673E-1,1.212217E0,1.4866718E0,1.9905245E0,7.1623963E-1,1.2257975E0,1.8656179E0,2.53754E0,1.5732672E0,2.1150837E0,-3.9874396E-1,4.8889375E-1,1.5307045E-1,8.943088E-1,2.2290774E-1,1.1109451E0,7.289129E-1,1.234916E0,7.7709055E-1,1.8329313E0,1.3033779E0,1.9799324E0,1.7723439E0,2.7050169E0,9.62718E-1,1.8847369E0,1.4487762E0,2.0831056E0,1.8324842E0,2.4019086E0,1.978936E0,2.5821407E0],"split_indices":[0,1,0,0,0,1,1,17,1,1,1,2,1,0,0,16,5,2,2,0,16,2,1,1,1,2,1,2,0,1,1,5,4,7,1,1,1,3,2,2,2,17,2,3,2,2,0,3,3,2,2,3,2,2,1,1,1,1,0,2,1,2,0,6,4,5,0,6,1,2,0,3,2,2,3,2,2,3,3,0,0,3,2,1,5,0,0,4,3,3,3,3,0,4,3,2,2,3,3,3,2,2,2,3,3,3,3,2,0,3,3,2,3,2,2,1,0,3,3,2,0,3,0,0,0,0,0,0,0,0,0,0,0,0,0,0,0,0,0,0,0,0,0,0,0,0,0,0,0,0,0,0,0,0,0,0,0,0,0,0,0,0,0,0,0,0,0,0,0,0,0,0,0,0,0,0,0,0,0,0,0,0,0,0,0,0,0,0,0,0,0,0,0,0,0,0,0,0,0,0,0,0,0,0,0,0,0,0,0,0,0,0,0,0,0,0,0,0,0,0,0,0,0,0,0,0,0,0,0,0,0,0,0],"split_type":[0,0,0,0,0,0,0,0,0,0,0,0,0,0,0,0,0,0,0,0,0,0,0,0,0,0,0,0,0,0,0,0,0,0,0,0,0,0,0,0,0,0,0,0,0,0,0,0,0,0,0,0,0,0,0,0,0,0,0,0,0,0,0,0,0,0,0,0,0,0,0,0,0,0,0,0,0,0,0,0,0,0,0,0,0,0,0,0,0,0,0,0,0,0,0,0,0,0,0,0,0,0,0,0,0,0,0,0,0,0,0,0,0,0,0,0,0,0,0,0,0,0,0,0,0,0,0,0,0,0,0,0,0,0,0,0,0,0,0,0,0,0,0,0,0,0,0,0,0,0,0,0,0,0,0,0,0,0,0,0,0,0,0,0,0,0,0,0,0,0,0,0,0,0,0,0,0,0,0,0,0,0,0,0,0,0,0,0,0,0,0,0,0,0,0,0,0,0,0,0,0,0,0,0,0,0,0,0,0,0,0,0,0,0,0,0,0,0,0,0,0,0,0,0,0,0,0,0,0,0,0,0,0],"sum_hessian":[3.006E4,1.8823E4,1.1237E4,1.2444E4,6.379E3,6.838E3,4.399E3,5.27E3,7.174E3,5.192E3,1.187E3,3.42E3,3.418E3,3.307E3,1.092E3,4.174E3,1.096E3,4.911E3,2.263E3,2.671E3,2.521E3,9.41E2,2.46E2,1.898E3,1.522E3,2.168E3,1.25E3,2.392E3,9.15E2,9.68E2,1.24E2,3.052E3,1.122E3,7.07E2,3.89E2,2.14E3,2.771E3,1.654E3,6.09E2,1.171E3,1.5E3,2.121E3,4E2,4.23E2,5.18E2,2.21E2,2.5E1,4.54E2,1.444E3,5.97E2,9.25E2,1.673E3,4.95E2,1.014E3,2.36E2,8.47E2,1.545E3,7.67E2,1.48E2,7.47E2,2.21E2,1.11E2,1.3E1,1.911E3,1.141E3,5.82E2,5.4E2,5.58E2,1.49E2,9.2E1,2.97E2,7.21E2,1.419E3,3.96E2,2.375E3,1.59E3,6.4E1,5.18E2,9.1E1,8.67E2,3.04E2,3.9E2,1.11E3,1.778E3,3.43E2,1.44E2,2.56E2,2.24E2,1.99E2,4.12E2,1.06E2,1.53E2,6.8E1,3.87E2,6.7E1,1.328E3,1.16E2,5.46E2,5.1E1,6.62E2,2.63E2,1.622E3,5.1E1,4.14E2,8.1E1,9.13E2,1.01E2,2.16E2,2E1,2.62E2,5.85E2,6.92E2,8.53E2,4.23E2,3.44E2,1.26E2,2.2E1,3.88E2,3.59E2,2.01E2,2E1,8E1,3.1E1,1.325E3,5.86E2,5.87E2,5.54E2,3.65E2,2.17E2,1.67E2,3.73E2,4.02E2,1.56E2,2.7E1,1.22E2,7.4E1,1.8E1,9.6E1,2.01E2,6.86E2,3.5E1,4.3E2,9.89E2,3.78E2,1.8E1,1.98E3,3.95E2,6.04E2,9.86E2,5.2E1,1.2E1,3.11E2,2.07E2,7.6E1,1.5E1,1.18E2,7.49E2,1.02E2,2.02E2,2.67E2,1.23E2,1.031E3,7.9E1,1.61E3,1.68E2,2.72E2,7.1E1,1.04E2,4E1,1.44E2,1.12E2,2.02E2,2.2E1,1.56E2,4.3E1,2.58E2,1.54E2,8.9E1,1.7E1,1.45E2,8E0,3.6E2,2.7E1,5.3E1,1.4E1,4.25E2,9.03E2,7E1,4.6E1,4.27E2,1.19E2,3E1,2.1E1,5.88E2,7.4E1,2.31E2,3.2E1,7.24E2,8.98E2,4E1,1.1E1,2.69E2,1.45E2,6.6E1,1.5E1,5.09E2,4.04E2,8.3E1,1.8E1,1.4E2,7.6E1,2.35E2,2.7E1,4.73E2,1.12E2,6.16E2,7.6E1,4.94E2,3.59E2,3.58E2,6.5E1,2.01E2,1.43E2,8E1,4.6E1,3.5E2,3.8E1,2.45E2,1.14E2,1.44E2,5.7E1,6E1,2E1],"tree_param":{"num_deleted":"0","num_feature":"18","num_nodes":"233","size_leaf_vector":"1"}},{"base_weights":[-4.0213605E-3,-1.2913909E0,2.1739118E0,-2.936335E0,-2.1731654E-1,1.034825E0,3.923488E0,-4.529337E0,-2.12278E0,-1.0786026E0,1.7919116E0,-8.700072E-1,2.9258704E0,2.9963913E0,6.7275033E0,-5.274442E0,-1.640861E0,-2.7843833E0,5.528425E-2,-2.116963E0,1.1691387E0,7.533169E-1,3.7964923E0,-1.3183992E0,1.8100777E0,1.8171211E0,4.8974094E0,1.9203968E0,5.7944636E0,6.234678E0,1.045635E1,-8.407953E0,-4.8489184E0,-2.1489415E0,5.655019E0,-4.357931E0,-1.7903986E0,-1.3749621E0,2.8067346E0,-3.8516238E0,-1.1032916E0,2.4004671E-1,3.4414742E0,-5.7569064E-2,2.9639459E0,3.1515505E0,6.253969E0,-2.7901661E0,-7.445053E-1,1.6027627E0,2.081396E0,1.1136968E0,4.185576E0,4.272958E0,7.566689E0,1.2889506E0,4.0607657E0,5.016582E0,9.807653E0,5.4348664E0,8.848122E0,9.875335E0,2.7786276E0,-1.9861776E0,-7.125497E0,-6.7439947E0,-4.1479034E0,-4.509235E0,-9.290122E-1,2.0423946E0,1.802978E0,-5.5389695E0,-2.9050393E0,-2.4956143E0,-6.985747E-3,-2.4356942E0,1.4046422E0,2.0338056E0,7.160928E0,-6.0734563E0,-2.8114288E0,-2.4237568E0,6.0457647E-1,-2.5312467E0,1.1316632E0,2.778758E0,8.668905E0,-5.853902E-1,2.0522947E0,2.5759492E0,5.188871E0,1.698905E0,4.323381E0,5.5415263E0,1.5689063E0,-3.4833543E0,-1.6024455E0,-1.349346E0,5.5900544E-1,5.643468E-1,3.216273E0,-9.509672E-2,1.8681136E0,3.714791E0,6.6295424E0,2.7890937E0,5.778341E0,7.1659956E0,2.29412E0,-1.911253E-1,2.1336122E0,2.564323E0,5.7592072E0,3.7195528E0,6.4049706E0,8.771749E0,2.967585E0,5.023895E0,1.944968E0,8.257688E0,2.6952803E0,8.927581E0,2.358453E0,-1.6629616E0,-1.0607197E0,-1.5339916E0,-7.4368393E-1,-1.2291497E0,-6.183711E-1,-1.0890657E0,-4.06318E-1,-6.1269903E-1,3.8378403E-1,2.670085E-1,5.084383E-1,-1.6044477E0,-1.0015968E0,-7.69197E-1,-2.6596716E-1,-9.6954733E-1,-4.2298397E-1,-5.6383634E-1,2.9747367E-1,-6.738625E-1,2.4119939E-1,8.903747E-2,1.2464732E0,3.0691283E-2,9.317597E-1,1.24473E0,2.1037462E0,-1.349647E0,-5.858278E-1,-1.1327991E0,-4.1431677E-1,-6.644293E-1,-3.6533162E-2,-4.6991065E-2,5.694475E-1,-6.2891996E-1,1.4986048E0,1.2889893E-1,1.2022625E0,3.2358256E-1,1.3154032E0,1.5675441E0,2.6789713E0,-3.5077783E-1,5.9511256E-3,1.9328016E-1,7.136033E-1,4.740138E-1,1.606438E0,9.315865E-1,1.3803457E0,1.8533462E-1,4.9386808E-1,7.5034195E-1,1.2359319E0,1.0052956E0,1.619326E0,-8.273629E-1,-5.4584694E-1,-6.911674E-1,-2.0702852E-1,-3.9021868E-1,2.4872527E-3,3.7088487E-2,6.788274E-1,-2.2949141E-1,3.2499665E-1,3.4048548E-1,1.0597739E0,-9.584466E-2,3.6550733E-1,1.6079372E-1,5.928927E-1,6.984825E-1,1.817142E0,1.3604219E0,8.508312E-1,4.5819774E-1,1.1161757E0,1.0144557E0,1.6404431E0,1.2256827E0,1.8759037E0,-1.7101958E-1,2.9903975E-1,3.273185E-1,9.590916E-1,2.3198447E-1,8.987117E-1,9.7976875E-1,1.5906472E0,4.3628561E-1,1.047609E0,1.0597515E0,1.6389046E0,1.5832117E0,3.108268E0,7.946531E-1,1.263123E0,1.4685864E0,2.0610898E0,1.6004058E0,2.091574E0],"categories":[],"categories_nodes":[],"categories_segments":[],"categories_sizes":[],"default_left":[0,0,0,0,0,0,0,0,0,0,0,0,0,0,0,0,0,0,0,0,0,0,0,0,0,0,0,0,0,0,0,0,0,0,0,0,0,0,0,0,0,0,0,0,0,0,0,0,0,0,0,0,0,0,0,0,0,0,0,0,0,0,0,0,0,0,0,0,0,0,0,0,0,0,0,0,0,0,0,0,0,0,0,0,0,0,0,0,0,0,0,0,0,0,0,0,0,0,0,0,0,0,0,0,0,0,0,0,0,0,0,0,0,0,0,0,0,0,0,0,0,0,0,0,0,0,0,0,0,0,0,0,0,0,0,0,0,0,0,0,0,0,0,0,0,0,0,0,0,0,0,0,0,0,0,0,0,0,0,0,0,0,0,0,0,0,0,0,0,0,0,0,0,0,0,0,0,0,0,0,0,0,0,0,0,0,0,0,0,0,0,0,0,0,0,0,0,0,0,0,0,0,0,0,0,0,0,0,0,0,0,0,0,0,0,0,0,0,0,0,0,0,0,0,0,0,0],"id":5,"left_children":[1,3,5,7,9,11,13,15,17,19,21,23,25,27,29,31,33,35,37,39,41,43,45,47,49,51,53,55,57,59,61,63,65,67,69,71,73,75,77,79,81,83,85,87,89,91,93,95,97,99,-1,101,103,105,107,109,111,113,115,117,119,121,-1,-1,123,125,127,129,131,133,-1,135,137,139,141,143,145,147,149,151,153,155,157,159,161,163,165,167,169,171,173,175,177,179,-1,181,183,185,187,189,191,193,195,197,199,201,203,205,-1,207,209,211,213,215,217,219,-1,221,-1,223,-1,225,-1,-1,-1,-1,-1,-1,-1,-1,-1,-1,-1,-1,-1,-1,-1,-1,-1,-1,-1,-1,-1,-1,-1,-1,-1,-1,-1,-1,-1,-1,-1,-1,-1,-1,-1,-1,-1,-1,-1,-1,-1,-1,-1,-1,-1,-1,-1,-1,-1,-1,-1,-1,-1,-1,-1,-1,-1,-1,-1,-1,-1,-1,-1,-1,-1,-1,-1,-1,-1,-1,-1,-1,-1,-1,-1,-1,-1,-1,-1,-1,-1,-1,-1,-1,-1,-1,-1,-1,-1,-1,-1,-1,-1,-1,-1,-1,-1,-1,-1,-1,-1,-1,-1,-1,-1],"loss_changes":[8.418144E4,3.3338734E4,2.2224957E4,9.650727E3,1.975928E4,2.4342098E4,1.1412852E4,5.412785E3,7.113E3,1.8655525E4,7.1298896E3,4.048607E3,7.403633E3,9.945291E3,1.941543E3,2.628664E3,1.9323234E3,5.9138125E3,4.533334E3,9.608793E3,5.332088E3,4.0477896E3,1.8330742E3,2.4347036E3,8.592389E2,3.6139536E3,2.001209E3,3.224917E3,2.8165996E3,1.9731953E3,1.2734375E2,4.3762305E2,2.316793E3,1.3923154E3,4.1029614E2,2.4977324E3,2.9203398E3,2.23832E3,1.3114363E3,4.6421816E3,7.7863486E3,4.4357144E3,2.5152441E3,1.8420328E3,5.0977148E2,1.5723457E3,2.5001465E2,6.604795E2,1.6382952E3,7.90694E2,0E0,1.5285791E3,5.472119E2,2.1975625E3,2.9192676E2,2.309459E3,1.367874E3,1.3645801E3,6.7260645E2,1.3040586E3,5.282715E2,1.1506738E2,0E0,0E0,2.7024463E2,1.4365391E3,2.7048516E3,3.990315E2,2.0183147E3,3.1553192E0,0E0,9.1864844E2,1.01735986E3,1.3991709E3,2.8556956E3,1.9794243E3,9.815664E2,1.6989829E3,1.0786304E2,1.5207656E3,2.851539E3,4.1276943E3,2.9010098E3,2.9455288E3,3.218803E3,2.8766216E3,1.8089746E2,9.7271124E2,5.5273303E2,4.742129E2,4.1571045E1,2.5223938E2,4.920459E2,1.6334912E2,0E0,2.4847461E2,3.1170007E2,1.218448E3,7.0440393E2,5.4374475E2,5.85787E2,4.927816E2,1.2355322E3,3.6173535E2,2.0017578E1,6.554907E2,7.4607227E2,4.1312598E2,0E0,7.779908E2,1.5116284E3,8.001813E2,4.226162E2,9.518169E2,6.8396875E2,5.251719E2,0E0,9.110918E2,0E0,2.8226855E2,0E0,2.4036621E1,0E0,0E0,0E0,0E0,0E0,0E0,0E0,0E0,0E0,0E0,0E0,0E0,0E0,0E0,0E0,0E0,0E0,0E0,0E0,0E0,0E0,0E0,0E0,0E0,0E0,0E0,0E0,0E0,0E0,0E0,0E0,0E0,0E0,0E0,0E0,0E0,0E0,0E0,0E0,0E0,0E0,0E0,0E0,0E0,0E0,0E0,0E0,0E0,0E0,0E0,0E0,0E0,0E0,0E0,0E0,0E0,0E0,0E0,0E0,0E0,0E0,0E0,0E0,0E0,0E0,0E0,0E0,0E0,0E0,0E0,0E0,0E0,0E0,0E0,0E0,0E0,0E0,0E0,0E0,0E0,0E0,0E0,0E0,0E0,0E0,0E0,0E0,0E0,0E0,0E0,0E0,0E0,0E0,0E0,0E0,0E0,0E0,0E0,0E0,0E0,0E0,0E0,0E0,0E0,0E0],"parents":[2147483647,0,0,1,1,2,2,3,3,4,4,5,5,6,6,7,7,8,8,9,9,10,10,11,11,12,12,13,13,14,14,15,15,16,16,17,17,18,18,19,19,20,20,21,21,22,22,23,23,24,24,25,25,26,26,27,27,28,28,29,29,30,30,31,31,32,32,33,33,34,34,35,35,36,36,37,37,38,38,39,39,40,40,41,41,42,42,43,43,44,44,45,45,46,46,47,47,48,48,49,49,51,51,52,52,53,53,54,54,55,55,56,56,57,57,58,58,59,59,60,60,61,61,64,64,65,65,66,66,67,67,68,68,69,69,71,71,72,72,73,73,74,74,75,75,76,76,77,77,78,78,79,79,80,80,81,81,82,82,83,83,84,84,85,85,86,86,87,87,88,88,89,89,90,90,91,91,92,92,93,93,95,95,96,96,97,97,98,98,99,99,100,100,101,101,102,102,103,103,104,104,105,105,106,106,107,107,109,109,110,110,111,111,112,112,113,113,114,114,115,115,117,117,119,119,121,121],"right_children":[2,4,6,8,10,12,14,16,18,20,22,24,26,28,30,32,34,36,38,40,42,44,46,48,50,52,54,56,58,60,62,64,66,68,70,72,74,76,78,80,82,84,86,88,90,92,94,96,98,100,-1,102,104,106,108,110,112,114,116,118,120,122,-1,-1,124,126,128,130,132,134,-1,136,138,140,142,144,146,148,150,152,154,156,158,160,162,164,166,168,170,172,174,176,178,180,-1,182,184,186,188,190,192,194,196,198,200,202,204,206,-1,208,210,212,214,216,218,220,-1,222,-1,224,-1,226,-1,-1,-1,-1,-1,-1,-1,-1,-1,-1,-1,-1,-1,-1,-1,-1,-1,-1,-1,-1,-1,-1,-1,-1,-1,-1,-1,-1,-1,-1,-1,-1,-1,-1,-1,-1,-1,-1,-1,-1,-1,-1,-1,-1,-1,-1,-1,-1,-1,-1,-1,-1,-1,-1,-1,-1,-1,-1,-1,-1,-1,-1,-1,-1,-1,-1,-1,-1,-1,-1,-1,-1,-1,-1,-1,-1,-1,-1,-1,-1,-1,-1,-1,-1,-1,-1,-1,-1,-1,-1,-1,-1,-1,-1,-1,-1,-1,-1,-1,-1,-1,-1,-1,-1,-1],"split_conditions":[6E0,3E0,7E0,5E0,5E0,2E0,2E0,4E0,3E0,5E0,4E0,3E0,3E0,8E0,8E0,4E0,6E0,2E0,2E0,4E0,4E0,2E0,5E0,1E0,5E0,2E0,4E0,2E0,9E0,3E0,3E0,2E0,2E0,4E0,4E0,2E0,2E0,4E0,4E0,2E0,2E0,1E0,2E0,2E0,3E0,1E0,1E0,2E0,2E0,1E0,2.081396E0,1E0,3E0,1E0,5E0,1E0,1E0,1E0,1E1,2E0,4E0,1E0,2.7786276E0,-1.9861776E0,3E0,3E0,2E0,5E0,2E0,2E0,1.802978E0,1E0,2E0,1E0,1E0,2E0,5E0,1E0,1E0,3E0,3E0,2E0,3E0,8E0,7E0,6E0,3E0,1E0,1E0,2E0,1E0,1E0,2E0,6E0,1.5689063E0,2E0,1E0,2E0,2E0,1E0,1E0,2E0,1E0,2E0,1E0,2E0,2E0,1E0,2.29412E0,2E0,2E0,1E0,1E0,1E0,1E0,2E0,2.967585E0,1E0,1.944968E0,1E0,2.6952803E0,1E0,2.358453E0,-1.6629616E0,-1.0607197E0,-1.5339916E0,-7.4368393E-1,-1.2291497E0,-6.183711E-1,-1.0890657E0,-4.06318E-1,-6.1269903E-1,3.8378403E-1,2.670085E-1,5.084383E-1,-1.6044477E0,-1.0015968E0,-7.69197E-1,-2.6596716E-1,-9.6954733E-1,-4.2298397E-1,-5.6383634E-1,2.9747367E-1,-6.738625E-1,2.4119939E-1,8.903747E-2,1.2464732E0,3.0691283E-2,9.317597E-1,1.24473E0,2.1037462E0,-1.349647E0,-5.858278E-1,-1.1327991E0,-4.1431677E-1,-6.644293E-1,-3.6533162E-2,-4.6991065E-2,5.694475E-1,-6.2891996E-1,1.4986048E0,1.2889893E-1,1.2022625E0,3.2358256E-1,1.3154032E0,1.5675441E0,2.6789713E0,-3.5077783E-1,5.9511256E-3,1.9328016E-1,7.136033E-1,4.740138E-1,1.606438E0,9.315865E-1,1.3803457E0,1.8533462E-1,4.9386808E-1,7.5034195E-1,1.2359319E0,1.0052956E0,1.619326E0,-8.273629E-1,-5.4584694E-1,-6.911674E-1,-2.0702852E-1,-3.9021868E-1,2.4872527E-3,3.7088487E-2,6.788274E-1,-2.2949141E-1,3.2499665E-1,3.4048548E-1,1.0597739E0,-9.584466E-2,3.6550733E-1,1.6079372E-1,5.928927E-1,6.984825E-1,1.817142E0,1.3604219E0,8.508312E-1,4.5819774E-1,1.1161757E0,1.0144557E0,1.6404431E0,1.2256827E0,1.8759037E0,-1.7101958E-1,2.9903975E-1,3.273185E-1,9.590916E-1,2.3198447E-1,8.987117E-1,9.7976875E-1,1.5906472E0,4.3628561E-1,1.047609E0,1.0597515E0,1.6389046E0,1.5832117E0,3.108268E0,7.946531E-1,1.263123E0,1.4685864E0,2.0610898E0,1.6004058E0,2.091574E0],"split_indices":[0,1,0,0,0,1,1,2,2,1,1,2,1,0,0,0,2,1,1,0,0,2,1,1,2,2,1,2,0,1,1,3,1,0,0,3,3,2,2,2,2,2,2,3,2,2,2,3,2,3,0,3,2,2,1,1,1,2,0,2,1,2,0,0,2,3,2,2,1,1,0,1,2,2,2,3,2,3,3,3,0,3,2,1,1,1,2,2,2,3,3,3,2,1,0,2,2,3,3,1,1,4,2,3,6,3,2,3,0,3,3,3,3,1,3,2,0,3,0,3,0,3,0,0,0,0,0,0,0,0,0,0,0,0,0,0,0,0,0,0,0,0,0,0,0,0,0,0,0,0,0,0,0,0,0,0,0,0,0,0,0,0,0,0,0,0,0,0,0,0,0,0,0,0,0,0,0,0,0,0,0,0,0,0,0,0,0,0,0,0,0,0,0,0,0,0,0,0,0,0,0,0,0,0,0,0,0,0,0,0,0,0,0,0,0,0,0,0,0,0,0,0,0,0,0,0,0],"split_type":[0,0,0,0,0,0,0,0,0,0,0,0,0,0,0,0,0,0,0,0,0,0,0,0,0,0,0,0,0,0,0,0,0,0,0,0,0,0,0,0,0,0,0,0,0,0,0,0,0,0,0,0,0,0,0,0,0,0,0,0,0,0,0,0,0,0,0,0,0,0,0,0,0,0,0,0,0,0,0,0,0,0,0,0,0,0,0,0,0,0,0,0,0,0,0,0,0,0,0,0,0,0,0,0,0,0,0,0,0,0,0,0,0,0,0,0,0,0,0,0,0,0,0,0,0,0,0,0,0,0,0,0,0,0,0,0,0,0,0,0,0,0,0,0,0,0,0,0,0,0,0,0,0,0,0,0,0,0,0,0,0,0,0,0,0,0,0,0,0,0,0,0,0,0,0,0,0,0,0,0,0,0,0,0,0,0,0,0,0,0,0,0,0,0,0,0,0,0,0,0,0,0,0,0,0,0,0,0,0,0,0,0,0,0,0,0,0,0,0,0,0,0,0,0,0,0,0],"sum_hessian":[3.0022E4,1.8869E4,1.1153E4,7.453E3,1.1416E4,6.756E3,4.397E3,2.518E3,4.935E3,7.991E3,3.425E3,3.366E3,3.39E3,3.306E3,1.091E3,2.001E3,5.17E2,3.785E3,1.15E3,5.466E3,2.525E3,2.257E3,1.168E3,2.884E3,4.82E2,2.171E3,1.219E3,2.389E3,9.17E2,9.66E2,1.25E2,2.37E2,1.764E3,4.84E2,3.3E1,1.464E3,2.321E3,7.57E2,3.93E2,2.015E3,3.451E3,1.793E3,7.32E2,1.652E3,6.05E2,9.27E2,2.41E2,8.08E2,2.076E3,4.72E2,1E1,1.675E3,4.96E2,9.9E2,2.29E2,1.846E3,5.43E2,7.7E2,1.47E2,7.42E2,2.24E2,1.11E2,1.4E1,1E2,1.37E2,4.74E2,1.29E3,1.64E2,3.2E2,1.7E1,1.6E1,8.06E2,6.58E2,1.663E3,6.58E2,5.48E2,2.09E2,3.35E2,5.8E1,6.41E2,1.374E3,1.946E3,1.505E3,4.36E2,1.357E3,6.51E2,8.1E1,1.322E3,3.3E2,5.17E2,8.8E1,4.15E2,5.12E2,1.73E2,6.8E1,5.09E2,2.99E2,1.418E3,6.58E2,2.88E2,1.84E2,6.44E2,1.031E3,4.18E2,7.8E1,5E2,4.9E2,2.11E2,1.8E1,6.71E2,1.175E3,2.9E2,2.53E2,4E2,3.7E2,1.25E2,2.2E1,6.81E2,6.1E1,2.02E2,2.2E1,8E1,3.1E1,7.6E1,6.1E1,3.5E2,1.24E2,4.19E2,8.71E2,1.15E2,4.9E1,1.82E2,1.38E2,9E0,8E0,1.18E2,6.88E2,4E2,2.58E2,2.08E2,1.455E3,2.28E2,4.3E2,4.32E2,1.16E2,1.76E2,3.3E1,1.98E2,1.37E2,4.9E1,9E0,5.12E2,1.29E2,2.66E2,1.108E3,1.367E3,5.79E2,1.1E3,4.05E2,4.1E2,2.6E1,1.239E3,1.18E2,5.05E2,1.46E2,7.3E1,8E0,4.49E2,8.73E2,1.97E2,1.33E2,5.03E2,1.4E1,7.3E1,1.5E1,2.15E2,2E2,4.07E2,1.05E2,1.51E2,2.2E1,2.52E2,2.57E2,6.6E1,2.33E2,9.69E2,4.49E2,5.84E2,7.4E1,1.11E2,1.77E2,1.1E2,7.4E1,5.37E2,1.07E2,5.37E2,4.94E2,4.07E2,1.1E1,6.8E1,1E1,4.32E2,6.8E1,3.95E2,9.5E1,1.53E2,5.8E1,4.81E2,1.9E2,1.003E3,1.72E2,1.72E2,1.18E2,1.91E2,6.2E1,2.07E2,1.93E2,2.43E2,1.27E2,1.15E2,1E1,3.99E2,2.82E2,1.51E2,5.1E1,5.8E1,2.2E1],"tree_param":{"num_deleted":"0","num_feature":"18","num_nodes":"227","size_leaf_vector":"1"}},{"base_weights":[2.676024E-3,-1.0422864E0,1.763752E0,-1.8519965E0,5.3034174E-1,8.492697E-1,3.1685276E0,-3.0158112E0,-1.0025085E0,-8.221265E-1,1.712757E0,-6.974744E-1,2.369994E0,2.4306386E0,5.406278E0,-3.3961408E0,-6.341971E-1,-2.703137E0,-2.3688693E-1,-1.664766E0,1.5460287E0,1.0480013E0,3.397599E0,-1.048686E0,1.3695647E0,1.4520676E0,3.9570746E0,1.5545486E0,4.682308E0,4.9993596E0,8.359433E0,-5.3827333E0,-2.8879619E0,-1.3832607E0,1.9569503E0,-3.1257918E0,1.2038059E0,-9.8766637E-1,1.0095819E0,-3.3242865E0,-2.3192094E-1,1.2071539E0,1.7310996E0,1.330009E-1,2.5108929E0,3.0153074E0,1.4164141E0,-2.2560444E0,-5.750484E-1,8.71432E-1,3.8313763E0,8.9094687E-1,3.3528497E0,3.4408388E0,6.121684E0,1.7852071E-1,2.31107E0,4.033378E0,8.003389E0,4.3639812E0,7.078896E0,7.884819E0,2.2674701E0,-6.6755886E0,-4.9050007E0,-3.9428504E0,-1.9102571E0,-4.063667E0,-2.7135527E-1,1.3230887E-1,3.9436452E0,-5.139402E0,-2.6107476E0,-1.0956993E0,2.786511E0,-2.0727158E0,-2.6022151E-2,-3.15217E-2,2.2700324E0,-7.114682E0,-2.5764935E0,-2.7343955E0,9.882477E-1,-2.142467E-1,2.977119E0,-2.5739682E0,1.099136E0,1.3556314E0,3.472848E0,2.3705997E0,5.678301E0,-2.538921E0,-2.077992E-2,-1.0525765E0,4.5597798E-1,5.61218E-1,1.1040515E0,3.0753217E0,1.7674873E0,4.9152434E-1,2.7213264E0,2.9949932E0,5.16732E0,2.2830658E0,4.612487E0,5.2523046E0,7.826973E0,-1.1549697E0,7.746593E-1,1.140104E0,3.2607982E0,3.5856109E0,7.4695745E0,6.3656445E0,1.0911565E1,3.2673035E0,5.5472217E0,6.237832E0,1.7574797E0,7.1262627E0,1.90735E0,-1.4667974E0,-8.438719E-1,-1.2971115E0,-8.5345757E-1,-1.0728545E0,-6.539323E-1,-6.530408E-1,-1.2084863E-1,-9.700044E-1,-1.4532468E-1,-4.5783436E-1,4.1202328E-1,-1.975941E-1,5.7974225E-1,5.072207E-1,1.7165478E0,-1.1421572E0,-3.4649372E-1,-7.807094E-1,-3.4207642E-1,-3.6639968E-1,8.977551E-1,3.8126534E-1,1.6432197E0,-4.793216E-1,2.7701128E-1,-2.5479E-1,1.4187716E-1,-7.213567E-2,1.1792905E0,3.5034582E-1,8.5145825E-1,-1.560576E0,-5.8990103E-1,-9.59196E-1,-2.9253533E-1,-7.3082834E-1,6.3955563E-1,-7.02874E-2,7.69385E-1,-3.5893533E-1,4.8655853E-1,4.5697916E-1,1.4349407E0,-5.8048815E-1,7.6938266E-1,1.1222351E-1,1.0896401E0,2.197961E-1,6.791019E-1,6.0006535E-1,1.0164146E0,2.775544E-1,8.9780146E-1,1.0337687E0,1.9387286E0,-8.1748724E-1,-4.4788018E-1,-1.5261297E-1,4.2306197E-1,-2.5630632E-1,3.2580537E-1,-1.150098E-1,2.6121876E-1,-1.7215274E-1,3.1995362E-1,3.5156378E-1,9.3972725E-1,-8.096864E-2,2.2035755E-1,4.1563943E-1,1.0550153E0,4.6983755E-1,8.186282E-1,9.242424E-1,1.3652362E0,2.3490793E-1,6.434171E-1,7.344993E-1,1.2964456E0,8.283203E-1,1.4451398E0,1.586767E0,1.0236577E0,-2.7328485E-1,6.036086E-1,1.1787729E-1,1.2484068E0,1.3044514E-1,6.925029E-1,5.963867E-1,1.4797281E0,4.647291E-1,9.6925217E-1,1.2221665E0,2.178346E0,9.092521E-1,1.7627738E0,1.8296506E0,2.841964E0,5.7990646E-1,1.2718905E0,9.8779875E-1,1.5762937E0,1.0567485E0,1.5997102E0,1.2695975E0,1.7191541E0],"categories":[],"categories_nodes":[],"categories_segments":[],"categories_sizes":[],"default_left":[0,0,0,0,0,0,0,0,0,0,0,0,0,0,0,0,0,0,0,0,0,0,0,0,0,0,0,0,0,0,0,0,0,0,0,0,0,0,0,0,0,0,0,0,0,0,0,0,0,0,0,0,0,0,0,0,0,0,0,0,0,0,0,0,0,0,0,0,0,0,0,0,0,0,0,0,0,0,0,0,0,0,0,0,0,0,0,0,0,0,0,0,0,0,0,0,0,0,0,0,0,0,0,0,0,0,0,0,0,0,0,0,0,0,0,0,0,0,0,0,0,0,0,0,0,0,0,0,0,0,0,0,0,0,0,0,0,0,0,0,0,0,0,0,0,0,0,0,0,0,0,0,0,0,0,0,0,0,0,0,0,0,0,0,0,0,0,0,0,0,0,0,0,0,0,0,0,0,0,0,0,0,0,0,0,0,0,0,0,0,0,0,0,0,0,0,0,0,0,0,0,0,0,0,0,0,0,0,0,0,0,0,0,0,0,0,0,0,0,0,0,0,0,0,0,0,0,0,0],"id":6,"left_children":[1,3,5,7,9,11,13,15,17,19,21,23,25,27,29,31,33,35,37,39,41,43,45,47,49,51,53,55,57,59,61,63,65,67,69,71,73,75,77,79,81,83,-1,85,87,89,-1,91,93,95,97,99,101,103,105,107,109,111,113,115,117,119,-1,121,123,125,127,129,131,133,135,137,139,141,143,145,147,149,151,153,155,157,159,161,163,165,167,169,171,173,175,177,179,181,183,185,-1,187,-1,189,191,193,195,197,199,201,203,205,207,209,211,213,215,217,219,221,223,225,-1,227,-1,-1,-1,-1,-1,-1,-1,-1,-1,-1,-1,-1,-1,-1,-1,-1,-1,-1,-1,-1,-1,-1,-1,-1,-1,-1,-1,-1,-1,-1,-1,-1,-1,-1,-1,-1,-1,-1,-1,-1,-1,-1,-1,-1,-1,-1,-1,-1,-1,-1,-1,-1,-1,-1,-1,-1,-1,-1,-1,-1,-1,-1,-1,-1,-1,-1,-1,-1,-1,-1,-1,-1,-1,-1,-1,-1,-1,-1,-1,-1,-1,-1,-1,-1,-1,-1,-1,-1,-1,-1,-1,-1,-1,-1,-1,-1,-1,-1,-1,-1,-1,-1,-1,-1,-1,-1,-1,-1,-1],"loss_changes":[5.5336566E4,2.4032072E4,1.4382734E4,1.2313539E4,1.0260142E4,1.5958781E4,7.276957E3,4.7587227E3,9.377938E3,5.975109E3,3.8302295E3,2.4435933E3,4.978047E3,6.545914E3,1.2728633E3,4.559711E3,1.4098843E3,3.696043E3,4.650167E3,5.24949E3,1.9169581E3,3.2871357E3,1.3803525E3,1.643344E3,5.963262E2,2.310399E3,1.3790996E3,2.4906875E3,1.9720078E3,1.2428359E3,1.0481152E2,5.367207E2,3.7167422E3,1.6768391E3,5.903541E2,2.0794453E3,8.000902E2,3.2356265E3,2.4513726E3,2.881293E3,3.6240833E3,1.8925416E3,0E0,3.9571597E3,1.04548E3,1.4990854E3,0E0,5.121133E2,1.01815515E3,5.9552356E2,2.9083997E2,1.2239774E3,3.052881E2,1.3649629E3,3.1470117E2,6.76598E2,1.7133633E3,1.1733369E3,6.4973047E2,9.434219E2,2.9061133E2,9.0100586E1,0E0,4.194502E2,6.238457E2,1.6100391E3,3.4119873E3,4.6711914E2,1.9380757E3,2.770942E2,4.8690063E2,8.9844336E2,1.8945146E3,3.966137E2,5.987432E2,1.8234536E3,1.5550209E3,2.0621653E3,8.454663E2,5.3233496E2,2.1339824E3,2.276308E3,3.1300378E3,1.8064293E3,9.325408E2,9.683801E2,2.6131294E3,2.1276599E2,3.5581836E2,1.4883467E3,2.5657764E2,2.9890332E2,1.5189902E2,9.495066E2,5.926675E2,5.865228E2,0E0,1.5107544E2,0E0,7.7884863E2,4.722688E2,2.83938E2,3.4812744E1,5.444053E2,8.512168E2,3.228672E2,4.7001953E0,2.6108206E2,5.7349255E2,7.843218E2,8.2755176E2,1.1200566E3,3.3601953E2,4.06E2,1.689126E2,3.818413E2,4.257705E2,2.1492969E2,0E0,3.7820312E1,0E0,0E0,0E0,0E0,0E0,0E0,0E0,0E0,0E0,0E0,0E0,0E0,0E0,0E0,0E0,0E0,0E0,0E0,0E0,0E0,0E0,0E0,0E0,0E0,0E0,0E0,0E0,0E0,0E0,0E0,0E0,0E0,0E0,0E0,0E0,0E0,0E0,0E0,0E0,0E0,0E0,0E0,0E0,0E0,0E0,0E0,0E0,0E0,0E0,0E0,0E0,0E0,0E0,0E0,0E0,0E0,0E0,0E0,0E0,0E0,0E0,0E0,0E0,0E0,0E0,0E0,0E0,0E0,0E0,0E0,0E0,0E0,0E0,0E0,0E0,0E0,0E0,0E0,0E0,0E0,0E0,0E0,0E0,0E0,0E0,0E0,0E0,0E0,0E0,0E0,0E0,0E0,0E0,0E0,0E0,0E0,0E0,0E0,0E0,0E0,0E0,0E0,0E0,0E0,0E0,0E0,0E0,0E0,0E0],"parents":[2147483647,0,0,1,1,2,2,3,3,4,4,5,5,6,6,7,7,8,8,9,9,10,10,11,11,12,12,13,13,14,14,15,15,16,16,17,17,18,18,19,19,20,20,21,21,22,22,23,23,24,24,25,25,26,26,27,27,28,28,29,29,30,30,31,31,32,32,33,33,34,34,35,35,36,36,37,37,38,38,39,39,40,40,41,41,43,43,44,44,45,45,47,47,48,48,49,49,50,50,51,51,52,52,53,53,54,54,55,55,56,56,57,57,58,58,59,59,60,60,61,61,63,63,64,64,65,65,66,66,67,67,68,68,69,69,70,70,71,71,72,72,73,73,74,74,75,75,76,76,77,77,78,78,79,79,80,80,81,81,82,82,83,83,84,84,85,85,86,86,87,87,88,88,89,89,90,90,91,91,92,92,93,93,94,94,95,95,97,97,99,99,100,100,101,101,102,102,103,103,104,104,105,105,106,106,107,107,108,108,109,109,110,110,111,111,112,112,113,113,114,114,115,115,116,116,117,117,119,119],"right_children":[2,4,6,8,10,12,14,16,18,20,22,24,26,28,30,32,34,36,38,40,42,44,46,48,50,52,54,56,58,60,62,64,66,68,70,72,74,76,78,80,82,84,-1,86,88,90,-1,92,94,96,98,100,102,104,106,108,110,112,114,116,118,120,-1,122,124,126,128,130,132,134,136,138,140,142,144,146,148,150,152,154,156,158,160,162,164,166,168,170,172,174,176,178,180,182,184,186,-1,188,-1,190,192,194,196,198,200,202,204,206,208,210,212,214,216,218,220,222,224,226,-1,228,-1,-1,-1,-1,-1,-1,-1,-1,-1,-1,-1,-1,-1,-1,-1,-1,-1,-1,-1,-1,-1,-1,-1,-1,-1,-1,-1,-1,-1,-1,-1,-1,-1,-1,-1,-1,-1,-1,-1,-1,-1,-1,-1,-1,-1,-1,-1,-1,-1,-1,-1,-1,-1,-1,-1,-1,-1,-1,-1,-1,-1,-1,-1,-1,-1,-1,-1,-1,-1,-1,-1,-1,-1,-1,-1,-1,-1,-1,-1,-1,-1,-1,-1,-1,-1,-1,-1,-1,-1,-1,-1,-1,-1,-1,-1,-1,-1,-1,-1,-1,-1,-1,-1,-1,-1,-1,-1,-1,-1],"split_conditions":[6E0,4E0,7E0,5E0,4E0,2E0,2E0,4E0,2E0,6E0,5E0,3E0,3E0,8E0,8E0,4E0,5E0,4E0,2E0,2E0,3E0,5E0,2E0,1E0,4E0,2E0,4E0,1E0,9E0,3E0,3E0,3E0,3E0,2E0,4E0,1E0,1E0,3E0,1E0,3E0,3E0,3E0,1.7310996E0,1E0,1E0,6E0,1.4164141E0,3E0,2E0,2E0,5E0,2E0,3E0,1E0,1E0,1E0,1E0,2E0,1E0,1E0,1E0,1E0,2.2674701E0,3E0,2E0,2E0,2E0,2E0,4E0,3E0,2E0,3E0,2E0,2E0,5E0,3E0,1E0,4E0,3E0,3E0,1E0,4E0,5E0,7E0,2E0,3E0,2E0,2E0,2E0,5E0,7E0,1E0,2E0,3E0,1E0,1E0,1.1040515E0,1E0,1.7674873E0,1E0,3E0,1E0,1E0,1E0,1E0,1E0,1E0,3E0,3E0,2E0,3E0,1E0,1E0,1E0,1E0,2E0,2E0,1E0,1.7574797E0,1E0,1.90735E0,-1.4667974E0,-8.438719E-1,-1.2971115E0,-8.5345757E-1,-1.0728545E0,-6.539323E-1,-6.530408E-1,-1.2084863E-1,-9.700044E-1,-1.4532468E-1,-4.5783436E-1,4.1202328E-1,-1.975941E-1,5.7974225E-1,5.072207E-1,1.7165478E0,-1.1421572E0,-3.4649372E-1,-7.807094E-1,-3.4207642E-1,-3.6639968E-1,8.977551E-1,3.8126534E-1,1.6432197E0,-4.793216E-1,2.7701128E-1,-2.5479E-1,1.4187716E-1,-7.213567E-2,1.1792905E0,3.5034582E-1,8.5145825E-1,-1.560576E0,-5.8990103E-1,-9.59196E-1,-2.9253533E-1,-7.3082834E-1,6.3955563E-1,-7.02874E-2,7.69385E-1,-3.5893533E-1,4.8655853E-1,4.5697916E-1,1.4349407E0,-5.8048815E-1,7.6938266E-1,1.1222351E-1,1.0896401E0,2.197961E-1,6.791019E-1,6.0006535E-1,1.0164146E0,2.775544E-1,8.9780146E-1,1.0337687E0,1.9387286E0,-8.1748724E-1,-4.4788018E-1,-1.5261297E-1,4.2306197E-1,-2.5630632E-1,3.2580537E-1,-1.150098E-1,2.6121876E-1,-1.7215274E-1,3.1995362E-1,3.5156378E-1,9.3972725E-1,-8.096864E-2,2.2035755E-1,4.1563943E-1,1.0550153E0,4.6983755E-1,8.186282E-1,9.242424E-1,1.3652362E0,2.3490793E-1,6.434171E-1,7.344993E-1,1.2964456E0,8.283203E-1,1.4451398E0,1.586767E0,1.0236577E0,-2.7328485E-1,6.036086E-1,1.1787729E-1,1.2484068E0,1.3044514E-1,6.925029E-1,5.963867E-1,1.4797281E0,4.647291E-1,9.6925217E-1,1.2221665E0,2.178346E0,9.092521E-1,1.7627738E0,1.8296506E0,2.841964E0,5.7990646E-1,1.2718905E0,9.8779875E-1,1.5762937E0,1.0567485E0,1.5997102E0,1.2695975E0,1.7191541E0],"split_indices":[0,1,0,0,0,1,1,2,1,1,1,2,1,0,0,0,2,2,2,2,2,0,2,1,2,2,1,2,0,1,1,1,1,1,0,1,1,1,3,0,0,0,0,2,2,1,0,3,2,3,2,3,2,2,2,1,1,2,1,2,2,2,0,3,2,2,2,3,0,1,1,3,2,3,2,3,3,2,2,3,2,2,1,1,2,3,3,3,2,0,1,2,2,3,3,1,0,1,0,2,3,3,3,3,3,3,12,4,3,3,2,1,1,2,2,3,2,3,0,3,0,0,0,0,0,0,0,0,0,0,0,0,0,0,0,0,0,0,0,0,0,0,0,0,0,0,0,0,0,0,0,0,0,0,0,0,0,0,0,0,0,0,0,0,0,0,0,0,0,0,0,0,0,0,0,0,0,0,0,0,0,0,0,0,0,0,0,0,0,0,0,0,0,0,0,0,0,0,0,0,0,0,0,0,0,0,0,0,0,0,0,0,0,0,0,0,0,0,0,0,0,0,0,0,0,0,0,0,0],"split_type":[0,0,0,0,0,0,0,0,0,0,0,0,0,0,0,0,0,0,0,0,0,0,0,0,0,0,0,0,0,0,0,0,0,0,0,0,0,0,0,0,0,0,0,0,0,0,0,0,0,0,0,0,0,0,0,0,0,0,0,0,0,0,0,0,0,0,0,0,0,0,0,0,0,0,0,0,0,0,0,0,0,0,0,0,0,0,0,0,0,0,0,0,0,0,0,0,0,0,0,0,0,0,0,0,0,0,0,0,0,0,0,0,0,0,0,0,0,0,0,0,0,0,0,0,0,0,0,0,0,0,0,0,0,0,0,0,0,0,0,0,0,0,0,0,0,0,0,0,0,0,0,0,0,0,0,0,0,0,0,0,0,0,0,0,0,0,0,0,0,0,0,0,0,0,0,0,0,0,0,0,0,0,0,0,0,0,0,0,0,0,0,0,0,0,0,0,0,0,0,0,0,0,0,0,0,0,0,0,0,0,0,0,0,0,0,0,0,0,0,0,0,0,0,0,0,0,0,0,0],"sum_hessian":[3.0068E4,1.8871E4,1.1197E4,1.2457E4,6.414E3,6.783E3,4.414E3,5.255E3,7.202E3,2.992E3,3.422E3,3.363E3,3.42E3,3.321E3,1.093E3,4.531E3,7.24E2,2.235E3,4.967E3,2.207E3,7.85E2,2.455E3,9.67E2,2.875E3,4.88E2,2.168E3,1.252E3,2.392E3,9.29E2,9.63E2,1.3E2,9.21E2,3.61E3,5.62E2,1.62E2,2.017E3,2.18E2,3.1E3,1.867E3,1.022E3,1.185E3,7.51E2,3.4E1,1.511E3,9.44E2,8.8E2,8.7E1,8.09E2,2.066E3,4.07E2,8.1E1,1.675E3,4.93E2,1.013E3,2.39E2,8.49E2,1.543E3,7.79E2,1.5E2,7.4E2,2.23E2,1.16E2,1.4E1,2.45E2,6.76E2,1.735E3,1.875E3,1.64E2,3.98E2,8.5E1,7.7E1,4.09E2,1.608E3,8.9E1,1.29E2,1.456E3,1.644E3,1.023E3,8.44E2,1.67E2,8.55E2,3.88E2,7.97E2,4.17E2,3.34E2,3.97E2,1.114E3,4.3E2,5.14E2,7.1E2,1.7E2,7.18E2,9.1E1,1.412E3,6.54E2,3.83E2,2.4E1,7.2E1,9E0,1.376E3,2.99E2,4.14E2,7.9E1,5.11E2,5.02E2,1.61E2,7.8E1,2.62E2,5.87E2,6.92E2,8.51E2,6.91E2,8.8E1,9.8E1,5.2E1,3.86E2,3.54E2,1.56E2,6.7E1,8.5E1,3.1E1,1.84E2,6.1E1,1.7E2,5.06E2,5.08E2,1.227E3,9E2,9.75E2,1.3E2,3.4E1,2.13E2,1.85E2,6.1E1,2.4E1,6.1E1,1.6E1,3.42E2,6.7E1,6.31E2,9.77E2,7.9E1,1E1,1.13E2,1.6E1,1.32E3,1.36E2,6.09E2,1.035E3,9.7E2,5.3E1,6.82E2,1.62E2,1.39E2,2.8E1,2.75E2,5.8E2,3.34E2,5.4E1,5.46E2,2.51E2,2.61E2,1.56E2,2.91E2,4.3E1,3.76E2,2.1E1,9.96E2,1.18E2,3.87E2,4.3E1,4.12E2,1.02E2,4.94E2,2.16E2,1.56E2,1.4E1,1E2,6.18E2,6.8E1,2.3E1,1.294E3,1.18E2,2.98E2,3.56E2,1.63E2,2.2E2,4.2E1,3E1,5.64E2,8.12E2,2.44E2,5.5E1,2.73E2,1.41E2,6.5E1,1.4E1,2.43E2,2.68E2,3.48E2,1.54E2,1.09E2,5.2E1,7E1,8E0,2.49E2,1.3E1,5.7E2,1.7E1,5.77E2,1.15E2,8.08E2,4.3E1,3.61E2,3.3E2,6.7E1,2.1E1,6E1,3.8E1,3.8E1,1.4E1,3.52E2,3.4E1,2.93E2,6.1E1,1.09E2,4.7E1,6.3E1,2.2E1],"tree_param":{"num_deleted":"0","num_feature":"18","num_nodes":"229","size_leaf_vector":"1"}},{"base_weights":[1.1970008E-2,-8.2175344E-1,1.4183328E0,-3.8632324E-1,-3.1613994E0,6.7916095E-1,2.5586584E0,2.2439522E-1,-2.9421895E0,-2.4985952E0,-3.9782732E0,-5.5482626E-1,1.9154924E0,1.9770234E0,4.320928E0,8.0578566E-1,-1.4527469E0,-2.4767022E0,-4.4321814E0,-2.1089377E0,-3.9539804E0,-5.2606697E0,-3.5201406E0,-8.3774126E-1,1.1242027E0,1.1744491E0,3.1958861E0,1.2751447E0,3.7822094E0,4.0114775E0,6.682746E0,1.304032E0,-1.1275265E0,-7.120993E-1,-2.4295704E0,-1.7222781E0,-3.39929E0,-5.72159E0,-3.9903471E0,-1.5967939E0,-3.4194643E0,-3.5853276E0,-5.5472307E0,-5.404105E0,-1.5888126E-1,-4.838897E0,-2.7765436E0,-5.799167E-1,-2.2582278E0,3.7886068E-1,2.3657308E0,7.2163254E-1,2.704809E0,2.913204E0,6.172488E0,8.0798656E-1,2.8601015E0,3.2685626E0,6.507481E0,3.5101974E0,5.719963E0,6.9798336E0,8.3227587E-1,5.287103E-1,2.5471306E0,-5.055794E-1,-1.9731848E0,-1.788307E0,-1.276167E-1,-3.195282E0,-1.7262931E0,-2.0896533E0,1.3637944E-1,-3.0503387E0,-5.371328E0,-1.405677E0,-5.305708E0,-4.6729293E0,-2.640428E0,-1.6876384E0,8.032635E-1,-4.7431746E0,-3.1038165E0,-4.3275833E0,-3.0203521E0,-1.188594E0,-4.6277156E0,-5.1067986E0,-1.412701E0,-5.036423E0,-1.6470786E0,-2.3847399E0,-4.4356627E0,-2.9459643E-1,-2.009975E0,-3.2024148E0,-1.8350388E0,1.8923809E-1,1.3122008E0,1.3655821E0,3.8677983E0,-1.968183E-1,1.2926081E0,2.58664E0,1.3503002E0,2.4406996E0,4.728175E0,6.3819084E0,7.4201447E-1,-1.9746634E-1,1.372126E0,2.67089E0,2.0436678E0,2.3009405E0,4.493904E0,5.6296062E0,2.20745E0,3.2213464E0,1.2930783E0,5.262692E0,1.9235041E0,7.284255E0,7.6607215E-1,1.7960885E-1,-2.2408016E-1,6.7541593E-1,2.6716036E-1,-4.4629086E-2,-4.9444053E-1,-5.5269307E-1,-2.3930465E-1,-2.703598E-1,-6.315126E-1,2.2368157E-2,-3.234272E-1,-7.8374004E-1,-3.8905224E-1,-4.7956598E-1,-1.5536018E-2,-3.3968532E-1,-6.886828E-1,1.1994132E-1,-4.6932226E-1,-7.0301175E-1,-3.8791937E-1,-1.1831753E0,-8.31869E-1,-1.2415905E0,-9.340326E-1,-1.048695E0,-7.90439E-1,-6.6662496E-1,-2.1728784E-1,-2.6983318E-1,-5.8034456E-1,-1.2077138E0,-8.5485244E-1,-8.6834186E-1,-4.8806775E-1,-1.1446216E0,-8.0683744E-1,-6.867404E-1,-2.5116265E-1,-1.0848881E0,-5.779139E-1,-1.2858866E0,-9.360055E-1,-1.22806E0,-8.9968586E-1,-4.9077484E-1,-1.1388962E-1,-5.8247656E-1,-2.8483146E-1,-9.69552E-1,-6.276659E-1,7.4370014E-3,-2.4301898E-1,-5.743408E-1,-3.0661178E-1,-6.605946E-1,-2.6993203E-1,-5.424517E-1,-2.5432888E-1,-2.0439768E-1,1.8444395E-1,1.637466E-1,7.181382E-1,8.131056E-1,5.1186556E-1,-1.0595776E-1,2.8814384E-1,1.0663877E-1,4.1692877E-1,4.4563296E-1,8.2922685E-1,3.2548076E-1,6.7233694E-1,8.5182065E-1,1.7464634E0,1.1800395E0,1.5153174E0,-1.3959497E-1,2.074894E-1,3.783282E-2,4.439066E-1,3.102929E-1,7.6092535E-1,1.4832804E-1,6.879631E-1,7.178615E-1,1.1741512E0,9.9595803E-1,2.1967885E0,4.8431936E-1,8.474719E-1,9.0364254E-1,1.3295848E0,1.4934256E0,6.928486E-1],"categories":[],"categories_nodes":[],"categories_segments":[],"categories_sizes":[],"default_left":[0,0,0,0,0,0,0,0,0,0,0,0,0,0,0,0,0,0,0,0,0,0,0,0,0,0,0,0,0,0,0,0,0,0,0,0,0,0,0,0,0,0,0,0,0,0,0,0,0,0,0,0,0,0,0,0,0,0,0,0,0,0,0,0,0,0,0,0,0,0,0,0,0,0,0,0,0,0,0,0,0,0,0,0,0,0,0,0,0,0,0,0,0,0,0,0,0,0,0,0,0,0,0,0,0,0,0,0,0,0,0,0,0,0,0,0,0,0,0,0,0,0,0,0,0,0,0,0,0,0,0,0,0,0,0,0,0,0,0,0,0,0,0,0,0,0,0,0,0,0,0,0,0,0,0,0,0,0,0,0,0,0,0,0,0,0,0,0,0,0,0,0,0,0,0,0,0,0,0,0,0,0,0,0,0,0,0,0,0,0,0,0,0,0,0,0,0,0,0,0,0,0,0,0,0,0,0,0,0,0,0,0,0,0,0,0,0,0,0],"id":7,"left_children":[1,3,5,7,9,11,13,15,17,19,21,23,25,27,29,31,33,35,37,39,41,43,45,47,49,51,53,55,57,59,61,63,65,67,69,71,73,75,77,79,81,83,85,87,-1,89,91,93,95,97,99,101,103,105,107,109,111,113,115,117,119,121,-1,123,125,127,129,131,133,135,137,139,141,143,145,-1,147,149,151,153,-1,155,157,159,161,-1,163,165,-1,167,169,171,173,175,177,179,181,183,-1,185,187,189,191,193,-1,195,197,199,-1,201,203,205,-1,207,209,211,-1,213,-1,215,-1,217,-1,-1,-1,-1,-1,-1,-1,-1,-1,-1,-1,-1,-1,-1,-1,-1,-1,-1,-1,-1,-1,-1,-1,-1,-1,-1,-1,-1,-1,-1,-1,-1,-1,-1,-1,-1,-1,-1,-1,-1,-1,-1,-1,-1,-1,-1,-1,-1,-1,-1,-1,-1,-1,-1,-1,-1,-1,-1,-1,-1,-1,-1,-1,-1,-1,-1,-1,-1,-1,-1,-1,-1,-1,-1,-1,-1,-1,-1,-1,-1,-1,-1,-1,-1,-1,-1,-1,-1,-1,-1,-1,-1,-1,-1,-1,-1,-1],"loss_changes":[3.528105E4,1.9244031E4,9.437861E3,2.486291E4,1.5948516E3,1.0369157E4,4.505547E3,1.2537701E4,2.1196758E3,9.211406E2,7.605156E2,1.6169683E3,3.2175156E3,4.1928193E3,7.712988E2,9.19873E3,2.392995E3,1.6249258E3,3.930537E2,8.637158E2,1.8274902E2,2.1735742E2,9.475742E2,1.0651704E3,4.5345697E2,1.4893245E3,1.0287598E3,1.765085E3,1.2763701E3,8.089453E2,6.188672E1,7.315833E3,1.0282957E3,1.1848544E3,7.629346E2,8.8181177E2,7.0823145E2,7.007178E1,4.916836E2,4.8764087E2,1.3694873E2,1.0560669E2,8.227539E-2,1.3954297E2,0E0,2.1362793E2,3.9830273E2,1.00559674E3,1.7273096E2,3.6543738E2,2.7113977E2,8.7182886E2,2.2283472E2,9.643877E2,2.99292E1,1.0467838E3,7.4374854E2,9.1685156E2,5.3833984E2,6.405596E2,3.5127344E2,7.5265625E1,0E0,2.9810483E3,3.052E3,6.306982E2,5.194685E2,3.866521E2,4.4604837E2,6.427749E2,8.684861E2,5.484541E2,2.558179E2,4.9429785E2,8.8774414E1,0E0,5.237549E1,1.3401465E2,2.0845715E2,3.6397266E2,0E0,1.1643799E1,2.3091064E2,1.7787354E1,1.283888E2,0E0,2.2503967E1,1.1663037E2,0E0,1.5806152E2,1.8389088E1,2.6964917E2,5.6309326E1,6.415178E2,1.6386743E2,3.2861694E1,1.5180664E2,2.7560898E2,0E0,1.3341689E2,1.3178101E1,3.614062E2,6.326321E2,2.4329907E2,0E0,6.876157E2,3.5472412E2,4.005371E0,0E0,4.2474875E2,1.2272224E3,6.866824E2,0E0,8.059116E2,4.0705176E2,3.4121436E2,0E0,5.563423E2,0E0,1.6816455E2,0E0,8.258838E1,0E0,0E0,0E0,0E0,0E0,0E0,0E0,0E0,0E0,0E0,0E0,0E0,0E0,0E0,0E0,0E0,0E0,0E0,0E0,0E0,0E0,0E0,0E0,0E0,0E0,0E0,0E0,0E0,0E0,0E0,0E0,0E0,0E0,0E0,0E0,0E0,0E0,0E0,0E0,0E0,0E0,0E0,0E0,0E0,0E0,0E0,0E0,0E0,0E0,0E0,0E0,0E0,0E0,0E0,0E0,0E0,0E0,0E0,0E0,0E0,0E0,0E0,0E0,0E0,0E0,0E0,0E0,0E0,0E0,0E0,0E0,0E0,0E0,0E0,0E0,0E0,0E0,0E0,0E0,0E0,0E0,0E0,0E0,0E0,0E0,0E0,0E0,0E0,0E0,0E0,0E0,0E0,0E0,0E0,0E0,0E0,0E0],"parents":[2147483647,0,0,1,1,2,2,3,3,4,4,5,5,6,6,7,7,8,8,9,9,10,10,11,11,12,12,13,13,14,14,15,15,16,16,17,17,18,18,19,19,20,20,21,21,22,22,23,23,24,24,25,25,26,26,27,27,28,28,29,29,30,30,31,31,32,32,33,33,34,34,35,35,36,36,37,37,38,38,39,39,40,40,41,41,42,42,43,43,45,45,46,46,47,47,48,48,49,49,50,50,51,51,52,52,53,53,54,54,55,55,56,56,57,57,58,58,59,59,60,60,61,61,63,63,64,64,65,65,66,66,67,67,68,68,69,69,70,70,71,71,72,72,73,73,74,74,76,76,77,77,78,78,79,79,81,81,82,82,83,83,84,84,86,86,87,87,89,89,90,90,91,91,92,92,93,93,94,94,95,95,96,96,97,97,99,99,100,100,101,101,102,102,103,103,105,105,106,106,107,107,109,109,110,110,111,111,113,113,114,114,115,115,117,117,119,119,121,121],"right_children":[2,4,6,8,10,12,14,16,18,20,22,24,26,28,30,32,34,36,38,40,42,44,46,48,50,52,54,56,58,60,62,64,66,68,70,72,74,76,78,80,82,84,86,88,-1,90,92,94,96,98,100,102,104,106,108,110,112,114,116,118,120,122,-1,124,126,128,130,132,134,136,138,140,142,144,146,-1,148,150,152,154,-1,156,158,160,162,-1,164,166,-1,168,170,172,174,176,178,180,182,184,-1,186,188,190,192,194,-1,196,198,200,-1,202,204,206,-1,208,210,212,-1,214,-1,216,-1,218,-1,-1,-1,-1,-1,-1,-1,-1,-1,-1,-1,-1,-1,-1,-1,-1,-1,-1,-1,-1,-1,-1,-1,-1,-1,-1,-1,-1,-1,-1,-1,-1,-1,-1,-1,-1,-1,-1,-1,-1,-1,-1,-1,-1,-1,-1,-1,-1,-1,-1,-1,-1,-1,-1,-1,-1,-1,-1,-1,-1,-1,-1,-1,-1,-1,-1,-1,-1,-1,-1,-1,-1,-1,-1,-1,-1,-1,-1,-1,-1,-1,-1,-1,-1,-1,-1,-1,-1,-1,-1,-1,-1,-1,-1,-1,-1,-1],"split_conditions":[6E0,1E0,7E0,1E0,1E0,2E0,2E0,1E0,1E0,1E0,4E0,3E0,3E0,8E0,8E0,1E0,1E0,1E0,4E0,1E0,1E0,7E0,2E0,1E0,1E0,2E0,2E0,2E0,9E0,3E0,1E0,4E0,1E0,3E0,5E0,5E0,1E0,3E0,3E0,7E0,2E0,3E0,5E0,1E0,-1.5888126E-1,4E0,1E0,1E0,1E0,5E0,1E0,1E0,2E0,4E0,1E0,1E0,4E0,1E0,1E1,2E0,4E0,1E0,8.3227587E-1,1E0,1E0,1E0,5E0,1E0,1E0,4E0,3E0,1E0,1E0,5E0,5E0,-1.405677E0,3E0,2E0,5E0,1E0,8.032635E-1,1E0,4E0,1E0,5E0,-1.188594E0,2E0,1E0,-1.412701E0,5E0,1E0,5E0,5E0,1E0,1E0,3E0,1E0,1E0,1.3122008E0,2E0,1E0,2E0,1E0,3E0,1.3503002E0,1E0,5E0,1E0,7.4201447E-1,2E0,1E0,1E0,2.0436678E0,1E0,1E0,2E0,2.20745E0,1E0,1.2930783E0,1E0,1.9235041E0,1E0,7.6607215E-1,1.7960885E-1,-2.2408016E-1,6.7541593E-1,2.6716036E-1,-4.4629086E-2,-4.9444053E-1,-5.5269307E-1,-2.3930465E-1,-2.703598E-1,-6.315126E-1,2.2368157E-2,-3.234272E-1,-7.8374004E-1,-3.8905224E-1,-4.7956598E-1,-1.5536018E-2,-3.3968532E-1,-6.886828E-1,1.1994132E-1,-4.6932226E-1,-7.0301175E-1,-3.8791937E-1,-1.1831753E0,-8.31869E-1,-1.2415905E0,-9.340326E-1,-1.048695E0,-7.90439E-1,-6.6662496E-1,-2.1728784E-1,-2.6983318E-1,-5.8034456E-1,-1.2077138E0,-8.5485244E-1,-8.6834186E-1,-4.8806775E-1,-1.1446216E0,-8.0683744E-1,-6.867404E-1,-2.5116265E-1,-1.0848881E0,-5.779139E-1,-1.2858866E0,-9.360055E-1,-1.22806E0,-8.9968586E-1,-4.9077484E-1,-1.1388962E-1,-5.8247656E-1,-2.8483146E-1,-9.69552E-1,-6.276659E-1,7.4370014E-3,-2.4301898E-1,-5.743408E-1,-3.0661178E-1,-6.605946E-1,-2.6993203E-1,-5.424517E-1,-2.5432888E-1,-2.0439768E-1,1.8444395E-1,1.637466E-1,7.181382E-1,8.131056E-1,5.1186556E-1,-1.0595776E-1,2.8814384E-1,1.0663877E-1,4.1692877E-1,4.4563296E-1,8.2922685E-1,3.2548076E-1,6.7233694E-1,8.5182065E-1,1.7464634E0,1.1800395E0,1.5153174E0,-1.3959497E-1,2.074894E-1,3.783282E-2,4.439066E-1,3.102929E-1,7.6092535E-1,1.4832804E-1,6.879631E-1,7.178615E-1,1.1741512E0,9.9595803E-1,2.1967885E0,4.8431936E-1,8.474719E-1,9.0364254E-1,1.3295848E0,1.4934256E0,6.928486E-1],"split_indices":[0,17,0,16,4,1,1,6,6,7,0,2,1,0,0,7,4,4,0,6,6,1,1,17,3,2,2,2,0,1,10,1,4,1,0,1,7,1,1,1,1,1,0,7,0,2,6,16,2,2,1,3,3,1,12,1,2,3,0,2,1,9,0,8,4,9,0,7,7,1,1,7,7,0,0,0,0,1,0,8,0,1,0,1,0,0,1,2,0,0,1,0,0,7,1,3,1,1,0,3,6,4,2,2,0,3,1,3,0,3,3,1,0,2,2,2,0,3,0,2,0,15,0,0,0,0,0,0,0,0,0,0,0,0,0,0,0,0,0,0,0,0,0,0,0,0,0,0,0,0,0,0,0,0,0,0,0,0,0,0,0,0,0,0,0,0,0,0,0,0,0,0,0,0,0,0,0,0,0,0,0,0,0,0,0,0,0,0,0,0,0,0,0,0,0,0,0,0,0,0,0,0,0,0,0,0,0,0,0,0,0,0,0,0,0,0,0,0,0],"split_type":[0,0,0,0,0,0,0,0,0,0,0,0,0,0,0,0,0,0,0,0,0,0,0,0,0,0,0,0,0,0,0,0,0,0,0,0,0,0,0,0,0,0,0,0,0,0,0,0,0,0,0,0,0,0,0,0,0,0,0,0,0,0,0,0,0,0,0,0,0,0,0,0,0,0,0,0,0,0,0,0,0,0,0,0,0,0,0,0,0,0,0,0,0,0,0,0,0,0,0,0,0,0,0,0,0,0,0,0,0,0,0,0,0,0,0,0,0,0,0,0,0,0,0,0,0,0,0,0,0,0,0,0,0,0,0,0,0,0,0,0,0,0,0,0,0,0,0,0,0,0,0,0,0,0,0,0,0,0,0,0,0,0,0,0,0,0,0,0,0,0,0,0,0,0,0,0,0,0,0,0,0,0,0,0,0,0,0,0,0,0,0,0,0,0,0,0,0,0,0,0,0,0,0,0,0,0,0,0,0,0,0,0,0,0,0,0,0,0,0],"sum_hessian":[3.0088E4,1.889E4,1.1198E4,1.5927E4,2.963E3,6.795E3,4.403E3,1.2856E4,3.071E3,1.638E3,1.325E3,3.401E3,3.394E3,3.312E3,1.091E3,9.547E3,3.309E3,2.342E3,7.29E2,1.294E3,3.44E2,3.46E2,9.79E2,2.911E3,4.9E2,2.151E3,1.243E3,2.386E3,9.26E2,9.67E2,1.24E2,7.591E3,1.956E3,1.883E3,1.426E3,1.29E3,1.052E3,1.83E2,5.46E2,9.32E2,3.62E2,2.82E2,6.2E1,3.35E2,1.1E1,3.51E2,6.28E2,2.465E3,4.46E2,3.07E2,1.83E2,1.661E3,4.9E2,1.137E3,1.06E2,1.844E3,5.42E2,7.81E2,1.45E2,7.5E2,2.17E2,1.09E2,1.5E1,4.676E3,2.915E3,1.128E3,8.28E2,6.62E2,1.221E3,6.81E2,7.45E2,1.077E3,2.13E2,8.96E2,1.56E2,3.8E1,1.45E2,3.61E2,1.85E2,9.18E2,1.4E1,6.7E1,2.95E2,1.19E2,1.63E2,3.7E1,2.5E1,2.9E2,4.5E1,3.3E2,2.1E1,5.1E2,1.18E2,2.056E3,4.09E2,1.36E2,3.1E2,2.99E2,8E0,1.11E2,7.2E1,6.37E2,1.024E3,4.78E2,1.2E1,9.04E2,2.33E2,9.6E1,1E1,6.63E2,1.181E3,5.3E2,1.2E1,4.38E2,3.43E2,1.24E2,2.1E1,6.87E2,6.3E1,1.97E2,2E1,9.8E1,1.1E1,3.803E3,8.73E2,1.676E3,1.239E3,9.91E2,1.37E2,3.94E2,4.34E2,5.13E2,1.49E2,1.054E3,1.67E2,4.14E2,2.67E2,5.21E2,2.24E2,8.56E2,2.21E2,1.8E2,3.3E1,6.05E2,2.91E2,9.8E1,5.8E1,4.9E1,9.6E1,1.79E2,1.82E2,1.24E2,6.1E1,7.34E2,1.84E2,1.2E1,5.5E1,9.4E1,2.01E2,1.3E1,1.06E2,1.28E2,3.5E1,1.5E1,1E1,5.5E1,2.35E2,9E1,2.4E2,1.1E1,1E1,3.16E2,1.94E2,8.3E1,3.5E1,1.519E3,5.37E2,1.35E2,2.74E2,1.25E2,1.1E1,1.14E2,1.96E2,1.13E2,1.86E2,9.1E1,2E1,5.8E1,1.4E1,5.29E2,1.08E2,5.36E2,4.88E2,4E2,7.8E1,5E2,4.04E2,2.14E2,1.9E1,7.8E1,1.8E1,4.71E2,1.92E2,5.05E2,6.76E2,2.77E2,2.53E2,1.91E2,2.47E2,2.19E2,1.24E2,1.14E2,1E1,4.04E2,2.83E2,1.38E2,5.9E1,9E1,8E0],"tree_param":{"num_deleted":"0","num_feature":"18","num_nodes":"219","size_leaf_vector":"1"}},{"base_weights":[9.914285E-3,-6.723302E-1,1.154999E0,2.4695566E-3,-2.0232186E0,5.5911833E-1,2.074443E0,3.8212562E-1,-1.9529644E0,-1.6993917E0,-3.7472794E0,-4.2604297E-1,1.5455606E0,1.5916196E0,3.5355468E0,9.175944E-1,-1.7482948E0,-1.5814157E0,-3.3538625E0,-1.2698561E0,-3.8315945E0,-4.893114E0,-3.3277621E0,-9.7600126E-1,2.6068968E-1,9.495404E-1,2.5873494E0,1.0060327E0,3.093463E0,3.4347334E0,3.0237436E0,1.5384296E0,-6.317832E-1,-1.2883198E0,-3.0792568E0,-1.1232321E0,-2.8701096E0,-2.634552E0,-4.3493295E0,-9.2994356E-1,-2.6063879E0,-4.787783E0,-3.4755874E0,-5.654926E0,-3.3052301E0,-4.798247E0,-2.646047E0,-1.3972585E0,-1.6443709E-1,-5.584718E-1,7.8587455E-1,1.2680631E-2,1.4534836E0,1.8065164E0,3.4901862E0,-5.05126E-2,1.5838529E0,2.1581416E0,4.2738624E0,2.7922215E0,4.3171735E0,2.0779119E0,-2.2747485E-1,1.12964414E-1,-1.53681E0,-9.169094E-1,-3.120889E0,-2.7924502E0,-4.510917E0,-3.4364328E-1,-1.8641076E0,-2.2942624E0,-3.7872555E0,-2.1784658E0,-8.392701E-1,-4.088741E0,-1.2028725E0,-6.167034E-1,-2.5371614E0,-3.3984456E0,-1.9883146E0,-5.0483637E0,-2.1324275E0,-4.5180974E0,-2.8977897E0,-5.1790624E0,-1.2762152E0,-3.6951094E0,2.0762539E-2,-1.1615304E0,-4.312068E0,-2.403961E0,-3.7863002E0,-1.5673752E0,1.4030813E0,-9.1558367E-1,4.298976E-1,-7.9013616E-1,1.9235655E0,5.694365E-1,3.0066588E0,-1.8891351E-1,6.659121E-1,1.2464565E0,3.7325146E0,1.3227392E0,3.3187435E0,3.1538687E0,1.1014744E0,-3.679747E-1,1.4270812E0,7.838312E-1,2.4351661E0,1.736544E0,5.5670247E0,3.7415228E0,7.8771005E0,2.3121693E0,4.1071754E0,3.7956183E0,5.7025704E0,6.3727784E-1,2.2554131E-1,8.763421E-2,-2.114121E-1,7.69399E-2,-3.5666108E-1,-2.51614E-1,-6.456158E-1,-2.0785114E-2,-3.4533355E-1,-5.252032E-1,-9.567799E-1,-7.616028E-1,-4.7502947E-1,-1.0353335E0,-7.364033E-1,-9.026955E-2,8.5630363E-1,-2.943752E-1,-7.577092E-1,-4.006305E-1,-7.877562E-1,-9.251494E-1,-6.861801E-1,-3.7493274E-1,-7.7512544E-1,-9.984507E-1,-7.298821E-1,6.1152712E-3,-2.7596632E-1,-6.5816134E-1,-3.6758474E-1,-8.229769E-1,-4.4455156E-1,-5.409992E-1,-7.948695E-2,-1.2466211E0,-9.0558356E-1,-5.407297E-1,-2.86072E-1,-1.1556267E0,-8.005967E-1,-6.781623E-1,-4.0269375E-1,-9.604456E-1,-1.2815292E0,-9.109915E-1,-4.9631676E-1,-1.0644826E0,-7.455478E-1,-3.8968235E-1,-6.115572E-1,-8.5802865E-1,-6.0270584E-1,-5.165215E-1,-2.3859751E-1,3.6571094E-1,-8.665116E-2,-2.394671E-1,6.1922824E-1,-1.5451652E-1,2.2211604E-1,-2.3508127E-1,1.1210866E-1,1.9144295E-1,6.3815236E-1,8.1289336E-2,8.0542463E-1,6.65348E-1,3.4965673E-1,-8.176474E-2,2.521326E-1,1.4431556E-1,4.108179E-1,6.636157E-1,1.2184733E0,1.9672361E-1,6.640531E-1,4.862908E-1,9.776838E-1,4.9818164E-1,8.9334625E-1,-1.1012722E-1,5.487316E-1,2.0063363E-1,6.764778E-1,7.825423E-2,6.866242E-1,3.1701192E-1,6.533119E-1,2.430264E-1,8.64733E-1,1.1677788E0,5.914309E-1,6.770516E-1,1.6347188E0,1.3064761E0,2.0725417E0,3.921537E-1,7.575832E-1,